[
  {
    "app.user_data.Battle_AutoTuningPnParam_NN": {
      "RootSeedNum": 1070096883,
      "_NodeNum_InputLayer": 29,
      "_NodeNum_HideLayer": [
        58,
        29
      ],
      "_NodeNum_OutputLayer": 7,
      "_AveList": [
        0.8644659488022565,
        0.39248780487804835,
        0.08292682926829269,
        0.15686218035019828,
        0.9312276014862572,
        0.2999024390243901,
        0.03414634146341464,
        0.17795503397574516,
        0.7896178196437773,
        0.5087317073170736,
        0.1073170731707317,
        0.19425536115604358,
        0.2682926829268293,
        0.8245755232082899,
        0.2219999999999998,
        0.04878048780487805,
        0.17983184771380228,
        0.5894271034854984,
        0.6438965156794425,
        0.22926829268292684,
        -1.0,
        0.15978865200002776,
        0.1430154471544716,
        0.07804878048780488,
        -0.24878048780487805,
        0.06951307777347125,
        0.16101382113821142,
        0.01951219512195122,
        -0.25853658536585367
      ],
      "_SdList": [
        0.2546954581830642,
        0.18746617541425903,
        0.2757715907337094,
        0.3969903225989212,
        0.21737602721615099,
        0.1727623215581126,
        0.1816049801852321,
        0.35172346652354836,
        0.27474921382824113,
        0.2273803115219451,
        0.3095159430090801,
        0.3246522243958331,
        0.44307078352646223,
        0.24227503364577174,
        0.13393992100574187,
        0.21540880161775203,
        0.41796149227796503,
        0.354345782649667,
        0.2921123613115693,
        0.44296335940474046,
        0.0,
        0.3005614350134476,
        0.28944571345089587,
        0.30243902439024445,
        0.4434465630190635,
        0.23717555430628162,
        0.2972311186347367,
        0.1383165549147106,
        0.43783035458179254
      ],
      "_WeightList": [
        {
          "app.user_data.Battle_AutoTuningPnParam_NN.Layer": {
            "_Node": [
              {
                "app.user_data.Battle_AutoTuningPnParam_NN.Node": {
                  "_Weight": [
                    0.04225288777019968,
                    -0.5887630720893005,
                    -0.8151111800679139,
                    -0.510151754081918,
                    -0.5986790769394117,
                    -0.7665833241145323,
                    0.3149762297225091,
                    1.0997993693993113,
                    -0.2746102703754173,
                    0.12928236899545872,
                    -0.5100956688477609,
                    0.66624863771391,
                    -0.5813551752643634,
                    -0.6093094410725689,
                    -0.800275232634282,
                    -0.6409885147759973,
                    -0.2329179831922901,
                    0.1278421686823479,
                    0.2255515983836573,
                    -0.11687879900545015,
                    -0.9660549516619226,
                    0.09050806157864308,
                    -0.69637379263871,
                    0.45219002024857036,
                    0.6027630893919832,
                    0.8298462681819376,
                    0.42955967899231456,
                    0.21206500259401087,
                    -0.14372311093043677
                  ],
                  "_Bias": 0.7382736130447168
                }
              },
              {
                "app.user_data.Battle_AutoTuningPnParam_NN.Node": {
                  "_Weight": [
                    -0.8418622562167193,
                    1.0353327036859559,
                    -0.9735295124915831,
                    -0.22150617422875882,
                    -0.9092731918293302,
                    0.5867150713474725,
                    0.8505585860003652,
                    0.12930553152361104,
                    -0.5052182148232499,
                    0.43101868065763593,
                    -0.4410889312474195,
                    1.312894784456188,
                    0.8411641551867886,
                    0.4263182374346836,
                    0.3078045260331148,
                    0.20997807586829542,
                    -0.7279638227540759,
                    0.5850282053078408,
                    0.12998467789759216,
                    0.1224769369446665,
                    -0.4787844462108916,
                    0.18991160647203387,
                    -0.33778956472295574,
                    0.6558719181556502,
                    -0.17163427237243353,
                    -0.8212493246385503,
                    0.5753938304192783,
                    -0.8030574707069151,
                    0.2821552738459767
                  ],
                  "_Bias": 0.4926627949600218
                }
              },
              {
                "app.user_data.Battle_AutoTuningPnParam_NN.Node": {
                  "_Weight": [
                    -0.011095958949088519,
                    0.005725610198929861,
                    -0.0640661355322964,
                    -0.8275171951104195,
                    -0.12519308363068682,
                    0.49283422554048495,
                    -0.30726994523740964,
                    1.0335995094592265,
                    -0.3955786733211088,
                    0.3421103850696017,
                    -0.10038104210150456,
                    -0.019723806325706424,
                    0.12957638733879334,
                    0.1624194723957568,
                    -0.917311329917815,
                    0.15296058662417858,
                    -0.3727492664685134,
                    -1.1000818718720298,
                    -0.7786018341882672,
                    0.3635938366329855,
                    -0.12066354585904004,
                    0.12730656732786247,
                    0.4822049940579327,
                    0.12704325687973478,
                    0.8955784518805123,
                    -0.6517640031774938,
                    -0.45312506317083123,
                    0.4070208815660044,
                    0.3012693940512924
                  ],
                  "_Bias": 0.7839838932929493
                }
              },
              {
                "app.user_data.Battle_AutoTuningPnParam_NN.Node": {
                  "_Weight": [
                    0.190571353707514,
                    -0.8579664190257292,
                    -0.39822024323643085,
                    0.6730174764079659,
                    0.2363299903608154,
                    0.2820103946540871,
                    -0.01776722078093659,
                    -0.8757928659719904,
                    0.7921718934413191,
                    0.7115096793558973,
                    0.3456347680002146,
                    -0.3450586644973841,
                    -0.4352871424134575,
                    -0.5108071667714852,
                    0.5870761438718441,
                    -0.24713300377310046,
                    0.41004729629954734,
                    -0.7572463042789626,
                    -0.8925886942832214,
                    0.789495063097507,
                    0.7214746259648099,
                    0.35669569939487045,
                    0.8486163580817175,
                    -0.6675209404685019,
                    0.08354906184666896,
                    0.8756169216032368,
                    0.1344086468645273,
                    0.8853358914287237,
                    -0.7194043718543257
                  ],
                  "_Bias": -0.4711948699347347
                }
              },
              {
                "app.user_data.Battle_AutoTuningPnParam_NN.Node": {
                  "_Weight": [
                    0.028591699223564585,
                    0.4013835992333237,
                    -0.2193621683420644,
                    -0.2184420117112552,
                    -0.2947220756855296,
                    0.39724056815181585,
                    -0.5679400343937946,
                    0.3250448507552814,
                    0.09243854655448333,
                    -0.8116718713402103,
                    -0.9998563338734172,
                    0.5541222708462954,
                    -0.5541418461734423,
                    -0.5015324687682239,
                    -0.35846612717501436,
                    0.40374588229713054,
                    -0.28186829484971176,
                    0.4358236776860373,
                    -0.6842729875798901,
                    -0.5372487183541099,
                    -1.1523549478063158,
                    -0.6305592986531273,
                    -0.19604571746394295,
                    -0.4110099511014872,
                    0.5774507293205776,
                    -0.3197111575431355,
                    -0.3722706467538259,
                    -0.2186067882874435,
                    -0.16072935053048248
                  ],
                  "_Bias": -0.05123059842456526
                }
              },
              {
                "app.user_data.Battle_AutoTuningPnParam_NN.Node": {
                  "_Weight": [
                    0.15849904995566302,
                    -0.2004773287146208,
                    0.18683982084302544,
                    -0.5519544068913692,
                    -0.10694546922922796,
                    -0.7233519290019345,
                    -0.8625901090655812,
                    0.07771979428798481,
                    0.9754539896829649,
                    0.41392569450833805,
                    -0.39811013099355524,
                    0.10872415978520983,
                    0.6012016876154266,
                    0.21557915197099292,
                    0.6762567057208002,
                    -0.46980117140843447,
                    0.3590813208709625,
                    0.10477815638040501,
                    0.9088598231127006,
                    0.7012919267468344,
                    -0.16529886911442124,
                    0.763373381216466,
                    -0.13831741617675816,
                    0.5926252486688591,
                    -0.87666078521273,
                    0.019844819434529554,
                    -0.6312720497275668,
                    0.8008025805273845,
                    -0.7511005006724165
                  ],
                  "_Bias": -0.3050635741296651
                }
              },
              {
                "app.user_data.Battle_AutoTuningPnParam_NN.Node": {
                  "_Weight": [
                    0.603318495180898,
                    0.401312671791666,
                    -0.2792575853584989,
                    -0.9400510747335425,
                    0.21785530033691383,
                    0.5894797603066632,
                    -0.42878814145066274,
                    -0.1622155927436429,
                    -0.7663361004384031,
                    0.8154277255173498,
                    0.06508873832426007,
                    -0.817596186772887,
                    -1.0131011134364005,
                    0.6353317372944055,
                    -0.16909413039506552,
                    0.35068482913021953,
                    -0.4065412568895653,
                    0.20582300492216002,
                    0.44288463038388043,
                    1.0029595110831118,
                    1.0296956762815839,
                    0.8502564087457205,
                    0.21289101418114095,
                    0.512928981693294,
                    0.34925862271102387,
                    0.20213640594483068,
                    0.6703638459313337,
                    -0.13744448126627684,
                    -0.9342948792729707
                  ],
                  "_Bias": -0.05985336854634977
                }
              },
              {
                "app.user_data.Battle_AutoTuningPnParam_NN.Node": {
                  "_Weight": [
                    0.6472692421113707,
                    0.5479828257084234,
                    -0.3333861688708214,
                    0.8439216656338936,
                    -0.41351188815271045,
                    0.6124447912252524,
                    -0.5276449953663327,
                    -0.9272866081662314,
                    0.6128266009018775,
                    0.39937464777921183,
                    -1.130439264660246,
                    0.17620638514510453,
                    -0.42334420479778406,
                    -0.01716770720933951,
                    0.686546120858135,
                    -1.2322077170522787,
                    0.2569140189418917,
                    -0.5810728168722431,
                    0.21459516256648806,
                    -0.6828416732250314,
                    -0.5955155554784379,
                    -0.2076794177495996,
                    0.06360705374071615,
                    -0.9199175049056173,
                    0.6526872048406439,
                    -0.31046387680856546,
                    -0.6941668451297913,
                    0.5109615913775937,
                    0.5398487087425287
                  ],
                  "_Bias": 0.8728866044057442
                }
              },
              {
                "app.user_data.Battle_AutoTuningPnParam_NN.Node": {
                  "_Weight": [
                    -0.08066768183191622,
                    -0.18128730161373832,
                    0.451035248422984,
                    0.5945382528248566,
                    -1.0181762820365634,
                    -0.1982031649699404,
                    0.6340710418854825,
                    -0.4380318901540755,
                    1.1833703774990636,
                    -0.6757873627509897,
                    0.9468726781191829,
                    -0.49649903361606657,
                    -0.6230277791870658,
                    0.9415206241397855,
                    -0.3439041135537906,
                    0.9130691563190207,
                    0.05915082633822067,
                    -0.15696462772960945,
                    -0.13054657768829392,
                    0.512259607860062,
                    0.8303810482065331,
                    0.3263139072641342,
                    0.2725439205577591,
                    -0.5165771915329177,
                    0.24840014046471212,
                    -0.6699059501518031,
                    -0.23398527508879238,
                    0.2905801774615259,
                    0.05060923305378095
                  ],
                  "_Bias": -0.5229693914915562
                }
              },
              {
                "app.user_data.Battle_AutoTuningPnParam_NN.Node": {
                  "_Weight": [
                    -0.25360694676730733,
                    0.6466742829953135,
                    0.3702360049117433,
                    0.462838880054506,
                    -0.8409066162887763,
                    -0.7850280567063527,
                    -0.1158693288746412,
                    0.5752210231759053,
                    0.6987742800798906,
                    0.8345046364898038,
                    -0.58528082606425,
                    -0.7457166686861602,
                    0.7225494914066798,
                    -0.5726972867950952,
                    -0.5568367862512581,
                    0.5475186033365171,
                    0.6951171541404838,
                    0.0005276519745339781,
                    0.2056797355062393,
                    1.0138889590283,
                    0.04198524035010246,
                    -0.6946516941947356,
                    0.01158261870501715,
                    0.1621755329653464,
                    0.8148448205733942,
                    -0.27301232642439527,
                    0.6231912008863487,
                    -0.8935538125745994,
                    -0.547152376553303
                  ],
                  "_Bias": -0.9847015732010872
                }
              },
              {
                "app.user_data.Battle_AutoTuningPnParam_NN.Node": {
                  "_Weight": [
                    0.7467195651249748,
                    0.17055524254424326,
                    0.6673089439666523,
                    0.24298809070088975,
                    -0.0023334060963035577,
                    0.754633315536182,
                    0.2587058498529434,
                    0.5961737898379338,
                    -1.4660172673778995,
                    0.6913101677054848,
                    -0.7744194859538992,
                    0.6830910658661457,
                    0.4802902121360753,
                    -0.9982409658843971,
                    -0.9650256129208465,
                    0.5699558228176194,
                    0.821858243499892,
                    0.163145869196009,
                    0.5944760989468789,
                    0.5036900268729805,
                    -0.16255881842829387,
                    0.5144098549789361,
                    -0.4657876647615954,
                    -0.32274241336040105,
                    0.2700906704977425,
                    0.04997279366761427,
                    0.98045342486471,
                    -0.7430169331705376,
                    -0.929054545482557
                  ],
                  "_Bias": -1.0052161505851143
                }
              },
              {
                "app.user_data.Battle_AutoTuningPnParam_NN.Node": {
                  "_Weight": [
                    0.3312525642160051,
                    -1.1083663384784557,
                    0.35242280586726293,
                    0.4165666561525751,
                    -0.40464717158845026,
                    -0.9588180799453753,
                    0.7011528541156021,
                    0.9416097213622944,
                    0.6856717248236518,
                    -0.7177441944863229,
                    -0.30399368219358514,
                    0.5860667804113953,
                    0.2902477336596865,
                    0.2025338795379907,
                    0.1457690824071272,
                    -0.11614356559850225,
                    -0.37217104123017936,
                    -0.48236001588710753,
                    0.7768575901815359,
                    0.676970433446061,
                    0.23642715166531475,
                    0.4507842041307834,
                    -0.27009669172854733,
                    0.7273202811554269,
                    0.9677217216123014,
                    -0.6725017465168535,
                    0.4304402571779826,
                    -0.31677433761276425,
                    0.8432251373122372
                  ],
                  "_Bias": -0.09483122529670288
                }
              },
              {
                "app.user_data.Battle_AutoTuningPnParam_NN.Node": {
                  "_Weight": [
                    0.863197575199915,
                    -0.8043070966904629,
                    -0.4314834853712934,
                    -0.10957201287186193,
                    -0.012110775586974045,
                    0.5122972403540805,
                    -0.5802908800155981,
                    -0.5763655547007533,
                    -0.32128887147814844,
                    -0.6490573808997387,
                    -0.35465206774774666,
                    0.6116133777734675,
                    0.9422537931599674,
                    0.958544177883994,
                    -0.17456615105879092,
                    0.3724170275076332,
                    -0.6034094193980694,
                    0.3399806600425143,
                    0.46025248781330613,
                    -0.27825746846277927,
                    0.7385100083211777,
                    -0.9881481621616882,
                    0.31136533531685995,
                    -0.06699855784612825,
                    1.0473478815255401,
                    0.4920064474574542,
                    0.32596104661337866,
                    -0.1553199238139626,
                    -0.13303570164821257
                  ],
                  "_Bias": 0.6381077704699365
                }
              },
              {
                "app.user_data.Battle_AutoTuningPnParam_NN.Node": {
                  "_Weight": [
                    -0.3995102692161407,
                    0.6046477411270317,
                    -1.2776612942821768,
                    0.6360525410248719,
                    -0.23091777494229435,
                    -0.03270257942955595,
                    -0.9255162570733629,
                    0.5163445494371416,
                    0.9850444352616247,
                    -0.4795643405908094,
                    -0.6071058932382194,
                    0.6939661343660034,
                    -0.8173333405830169,
                    1.0620729269835087,
                    0.6165161869858918,
                    -0.8183999607315228,
                    -0.5969067841680309,
                    0.20049311986878382,
                    -0.37691742523418015,
                    0.19851529412745775,
                    -0.3160914949701521,
                    -0.23112441096224634,
                    1.0608523641717633,
                    0.5229808894046893,
                    -0.6016058901776996,
                    0.5062858931347199,
                    0.611482590077427,
                    -0.4797521559150766,
                    -0.12942197404286263
                  ],
                  "_Bias": -0.45286159626195244
                }
              },
              {
                "app.user_data.Battle_AutoTuningPnParam_NN.Node": {
                  "_Weight": [
                    0.4964559903704257,
                    0.8646881026366928,
                    0.7592111638450856,
                    -0.7141724636020179,
                    0.7919869972998637,
                    -0.8146637847877309,
                    -0.4186664968033937,
                    -0.8590266621398813,
                    0.017540770688188392,
                    -0.050773951975958756,
                    -0.022233309002203046,
                    0.9919447529880862,
                    -0.16014336089491835,
                    0.21025193678526732,
                    0.47422586899233105,
                    -0.12347680641387375,
                    0.6705583955953983,
                    0.3551713798295164,
                    -0.9307166799040475,
                    0.060195045444359115,
                    0.460143509899471,
                    -0.39334765915561426,
                    0.1837791216651276,
                    0.6377539457716493,
                    -0.26895213311603233,
                    0.8070260638134558,
                    -0.8416252589298968,
                    0.5472186865021094,
                    -0.10995294344953857
                  ],
                  "_Bias": -0.1341588761389474
                }
              },
              {
                "app.user_data.Battle_AutoTuningPnParam_NN.Node": {
                  "_Weight": [
                    0.9263789537397392,
                    -0.09830156558249178,
                    0.051052855949346825,
                    0.1288928596361672,
                    -1.209873896289744,
                    -0.8325704741813627,
                    -0.1781357725064709,
                    -0.05106681559544334,
                    -1.164027168462885,
                    0.6485035204803486,
                    -0.15669449004224145,
                    -0.127950218755028,
                    -0.07662579928732689,
                    -0.6794066932559355,
                    1.0644034290496545,
                    0.9851540676213041,
                    0.3671369939713317,
                    0.31799376616874336,
                    0.5360993149260931,
                    -0.8791398031149821,
                    -0.45889554154389994,
                    0.11961955729119345,
                    -0.4376182953251214,
                    0.13853577726637187,
                    -0.05602495479879458,
                    0.25011081908462734,
                    0.6547381008517558,
                    -0.5232929703759159,
                    -1.007042072481456
                  ],
                  "_Bias": 0.5529100928016005
                }
              },
              {
                "app.user_data.Battle_AutoTuningPnParam_NN.Node": {
                  "_Weight": [
                    -0.7809673419618122,
                    0.04351719771571785,
                    -0.8857188122142433,
                    -0.6830994235709713,
                    -0.5316694211297649,
                    0.2964992781306038,
                    -0.43476706144717875,
                    -0.7451954934099392,
                    -0.4072418861499771,
                    0.13897772910540318,
                    -0.9599549473646289,
                    -0.6097760549745914,
                    0.9310971796173646,
                    -0.9348018045216177,
                    -0.7275904485563498,
                    -0.5745426978489129,
                    -0.9001545146078591,
                    -0.81185272812364,
                    0.6005169248636819,
                    0.6610772924235225,
                    0.49146893644772494,
                    -0.4832669958435115,
                    -0.32840476046410033,
                    0.05053413242072676,
                    -0.6057649605276142,
                    -0.04888681258227904,
                    -1.0064327899203362,
                    -0.07216165686108626,
                    -0.11760688835965497
                  ],
                  "_Bias": 0.48766128112495055
                }
              },
              {
                "app.user_data.Battle_AutoTuningPnParam_NN.Node": {
                  "_Weight": [
                    -0.6980500084387733,
                    0.6016910395605559,
                    -0.2535706879065941,
                    0.27201503856082104,
                    0.9236815140028203,
                    0.7412757704537903,
                    0.10940794657566216,
                    0.6765118484493804,
                    -0.3546018983604046,
                    0.12457127366105508,
                    -0.09881575836392044,
                    0.43783449795110896,
                    -0.7382521156327236,
                    0.15686597664848886,
                    0.4414051309099591,
                    -0.053984499381097575,
                    -0.9302341565036617,
                    -0.47455698665207796,
                    -0.6049979336259931,
                    -0.05137530364588204,
                    -0.2734739336443958,
                    0.6248005180162663,
                    -0.4586512094683032,
                    0.687604059895662,
                    -0.7423434283710105,
                    -0.96842918666747,
                    0.8979045319931032,
                    0.937370390086915,
                    -0.4753131265623479
                  ],
                  "_Bias": -0.3475640820546164
                }
              },
              {
                "app.user_data.Battle_AutoTuningPnParam_NN.Node": {
                  "_Weight": [
                    -0.7621699502972092,
                    1.3093482635860814,
                    0.5055509063737977,
                    0.7002942532961715,
                    0.43992218895221535,
                    0.35895432749551104,
                    -0.24879811564521664,
                    0.5018454404078976,
                    -0.2908471122014529,
                    0.33661300430433727,
                    -0.02410384345075152,
                    0.0168319270756104,
                    -0.0960220684484899,
                    0.6615396678763003,
                    0.1582719578654753,
                    -0.8024062595449931,
                    -1.0836372383798047,
                    0.38010851215720143,
                    0.46988700393606897,
                    0.799336510324777,
                    0.1374980541713119,
                    -0.6886728787772819,
                    -0.5658574591978206,
                    0.26643365822867676,
                    0.30755558567152025,
                    0.9605531518217095,
                    0.33469822506675556,
                    -0.8161070303191205,
                    -0.6523179363133611
                  ],
                  "_Bias": 0.10733542895656663
                }
              },
              {
                "app.user_data.Battle_AutoTuningPnParam_NN.Node": {
                  "_Weight": [
                    0.7601031707445465,
                    -0.6071615392961237,
                    0.8936960677466995,
                    0.9306071910292462,
                    0.13906273389392265,
                    0.037570919670296986,
                    -0.6163280406099527,
                    0.63612386355107,
                    -0.17830634730569256,
                    -0.7563031432746626,
                    0.06399042870973531,
                    -0.7119874383201586,
                    0.0627865688169832,
                    0.4258611602592445,
                    1.2753039554800616,
                    -1.1309908911814044,
                    0.3522921308823158,
                    -1.1015961596731891,
                    0.8307404103485466,
                    0.16477322088745638,
                    -0.8254061207256027,
                    -0.9222031097907218,
                    -1.173307965822762,
                    0.016357892475491475,
                    0.3774738683816918,
                    -0.8053339210153554,
                    -0.28438314245369944,
                    0.22129688695039815,
                    -0.33868954793481815
                  ],
                  "_Bias": -0.5731844733388416
                }
              },
              {
                "app.user_data.Battle_AutoTuningPnParam_NN.Node": {
                  "_Weight": [
                    -1.014204898952496,
                    -0.9142532647445352,
                    0.6508609767249453,
                    0.340670619212633,
                    0.3534399776011957,
                    0.36627736291758956,
                    0.7660489693910176,
                    -0.7270114418361444,
                    -0.7552924096368187,
                    -1.2664892122120381,
                    -0.28105653464042035,
                    -0.34893077503584674,
                    -0.37061540755988154,
                    1.1423750216095017,
                    -0.4942578816713529,
                    0.36885294383662376,
                    0.028042042141488775,
                    0.39361125813152054,
                    0.6784034564599477,
                    0.2794689278528269,
                    -1.1392052824320764,
                    0.36567452456365757,
                    -0.5539662701407437,
                    0.38635557543848303,
                    -0.3099362638806936,
                    0.44154114338820555,
                    -0.6121791930992563,
                    -0.44782167518859683,
                    0.4093821472047878
                  ],
                  "_Bias": 0.7337933467878477
                }
              },
              {
                "app.user_data.Battle_AutoTuningPnParam_NN.Node": {
                  "_Weight": [
                    0.05378989170065245,
                    0.0024423258152221562,
                    0.559370329183156,
                    0.5722592195195741,
                    0.7521083599229375,
                    0.35942317971619514,
                    0.24782729267646075,
                    0.30040360100758295,
                    1.3341914972142788,
                    0.7828571076253217,
                    -0.20956838252809698,
                    -0.580482525254096,
                    -0.4910733771993337,
                    1.0522960399097878,
                    0.33071424360107116,
                    0.4380954876940872,
                    -0.15970149322744775,
                    -0.305169217935811,
                    0.4024762632525689,
                    -0.2919096925427334,
                    0.8412068176304468,
                    0.15498996851759955,
                    -0.7570088184779811,
                    0.492241566658589,
                    0.8599802754658272,
                    0.6627415824191484,
                    -0.5461907993136252,
                    -0.0017301249189274348,
                    0.011104774480091409
                  ],
                  "_Bias": -0.4915281128825161
                }
              },
              {
                "app.user_data.Battle_AutoTuningPnParam_NN.Node": {
                  "_Weight": [
                    0.04420000785708687,
                    -0.6468925903027745,
                    0.7652468949637502,
                    0.8912687583282799,
                    -0.5678756442415346,
                    -0.7145460206069966,
                    -0.42402518962427854,
                    -0.36987208871658717,
                    0.5093928982020706,
                    -0.7245006078130942,
                    0.7642489165822495,
                    0.6882142703595732,
                    0.37730633167177885,
                    -0.7797870946532095,
                    0.043092929769289696,
                    0.703938266537055,
                    0.6656772119589771,
                    -0.7495132004541051,
                    -0.9410865336445287,
                    0.7629594857820794,
                    -0.37402536168030337,
                    -0.6080387383165454,
                    0.6381739667026114,
                    -0.6067085539675706,
                    0.5503811419885416,
                    -0.9228040221487015,
                    -0.5958162815240375,
                    -0.7896106580599723,
                    0.5145731924121614
                  ],
                  "_Bias": -0.5625288900240593
                }
              },
              {
                "app.user_data.Battle_AutoTuningPnParam_NN.Node": {
                  "_Weight": [
                    -0.3941732731583546,
                    -0.7036944353504101,
                    1.0317658681557151,
                    0.9461633538777556,
                    -1.1811101909514679,
                    0.7804826530489631,
                    -0.4058267810823362,
                    0.40340603979534384,
                    0.26180573375038807,
                    0.1477869032381212,
                    0.8121145941549042,
                    -0.29602911966857126,
                    -0.9488269062534187,
                    -1.4466972931318451,
                    0.8120401376537867,
                    0.515969304261355,
                    -0.655701935698873,
                    -0.6150004444614885,
                    0.5317625195648353,
                    0.42222629242490717,
                    -0.11245050047922331,
                    -0.45316485948908153,
                    0.3808640177536677,
                    -0.5340979965954681,
                    -0.5081076871060153,
                    -0.6598381155306925,
                    0.5442816721400201,
                    0.9475031956111072,
                    0.7974512087266007
                  ],
                  "_Bias": -0.08540675789650934
                }
              },
              {
                "app.user_data.Battle_AutoTuningPnParam_NN.Node": {
                  "_Weight": [
                    0.42770194794679,
                    0.07832816166239712,
                    -0.029979830217162672,
                    -0.08808939039483417,
                    0.15847325808736937,
                    0.6955229878186996,
                    -0.4508111104622971,
                    0.48775017735432535,
                    0.3363551572374903,
                    -0.17312187579890978,
                    -0.7445195656024767,
                    -0.9068896645675826,
                    -0.6211535574609953,
                    -0.9753222295358001,
                    -0.019971089439167568,
                    -1.1005766689283447,
                    -0.4112220113118533,
                    1.2381820567424042,
                    0.3718536629975149,
                    -1.1976917669319287,
                    0.04152739152876005,
                    0.14196363514028806,
                    0.7635413348472507,
                    0.8070088523650047,
                    0.11821405982785323,
                    -0.7512926497628314,
                    -0.6305076124546933,
                    0.7507366338910526,
                    -0.5546382034204209
                  ],
                  "_Bias": -0.06436250510257961
                }
              },
              {
                "app.user_data.Battle_AutoTuningPnParam_NN.Node": {
                  "_Weight": [
                    -1.0933493648403965,
                    0.572463451829033,
                    0.6769762407402399,
                    0.6537273578670939,
                    -0.7084657913778548,
                    0.192614622909306,
                    -0.24959854094727024,
                    -0.861669335834277,
                    0.46697568029548253,
                    -0.14539803743550736,
                    0.6261905791176876,
                    0.11437426893942491,
                    0.7777307618288444,
                    -1.2158995456478807,
                    0.7017201030754211,
                    0.6111299560480664,
                    -0.8078276395213703,
                    0.1286664834927285,
                    -0.6101157402598548,
                    -0.36720102213366423,
                    -0.41532325331389014,
                    -0.6206777602458212,
                    -0.41502340289603357,
                    0.07276580151436408,
                    -0.15479096285456742,
                    0.17913965636985693,
                    0.5213096380867263,
                    0.23122440640715514,
                    0.30280364860503334
                  ],
                  "_Bias": 0.7683602765322392
                }
              },
              {
                "app.user_data.Battle_AutoTuningPnParam_NN.Node": {
                  "_Weight": [
                    -0.841081764605142,
                    0.383813721771135,
                    -0.018181731507081213,
                    -0.7542607077234218,
                    -0.4857260853714152,
                    -0.5049877012960561,
                    -0.20571896471880022,
                    -0.39195545883402577,
                    -0.9586682844523997,
                    0.6427435979893467,
                    -0.4112475601010379,
                    0.30997305584104784,
                    -0.3914806639833478,
                    -0.46238620013597526,
                    -0.9561530097357069,
                    -0.8494353086018548,
                    0.6442504369794433,
                    -0.14882682953147439,
                    -0.48543589911214285,
                    -0.7937593077154699,
                    -0.3430682346438534,
                    0.5594325619994278,
                    -0.013455097522375531,
                    0.8544665987785893,
                    0.044519822654421594,
                    -0.6184051352734582,
                    0.8766624476420203,
                    0.061189653801877325,
                    -0.3697837725684321
                  ],
                  "_Bias": -0.8212747555012301
                }
              },
              {
                "app.user_data.Battle_AutoTuningPnParam_NN.Node": {
                  "_Weight": [
                    0.47371598814752425,
                    0.29830148493434466,
                    -0.43266114726833843,
                    -0.6627733226458348,
                    -0.19484167807193656,
                    0.19043759529096066,
                    -0.6345155819152564,
                    0.8827459291100023,
                    1.2291681619278727,
                    -0.27105210209740527,
                    0.15774933028207466,
                    0.4862109805806727,
                    0.7286692233001357,
                    0.9263662485721295,
                    -0.3544571213027616,
                    -0.13414953074693572,
                    0.7495821669176113,
                    -0.8386409819033646,
                    -0.23528067324469168,
                    -0.21239651807417514,
                    0.7193936464606754,
                    0.6325203718643636,
                    0.2237408649254021,
                    0.16800711071963026,
                    -0.7797618689417293,
                    -0.40750145535718535,
                    0.32843999250222206,
                    0.8881308885369108,
                    0.04898528087528765
                  ],
                  "_Bias": 1.08033653174089
                }
              },
              {
                "app.user_data.Battle_AutoTuningPnParam_NN.Node": {
                  "_Weight": [
                    0.328912023002114,
                    -0.8879953430593719,
                    -0.8848937253946983,
                    0.7054161101220268,
                    -0.45560246180656205,
                    -0.054371035127966205,
                    -0.8936583578715561,
                    0.7607275432579155,
                    0.4564837681442211,
                    0.6168721354260035,
                    0.5790324461599351,
                    -0.35258368515244676,
                    0.6579621337584528,
                    1.1188066723173993,
                    0.10516233308638624,
                    -0.38997637964811693,
                    -0.4689334935245276,
                    -0.7648441027705082,
                    0.3447008796499744,
                    0.7208038902690719,
                    0.5554104858105433,
                    -0.8939726540905062,
                    -0.6703775688428892,
                    -0.04756444587916312,
                    0.1379642755065602,
                    0.9893822657440273,
                    -0.4925842279964558,
                    0.7859922860905261,
                    0.9325995544637563
                  ],
                  "_Bias": -0.06645553848048612
                }
              },
              {
                "app.user_data.Battle_AutoTuningPnParam_NN.Node": {
                  "_Weight": [
                    -0.5907199900342502,
                    -0.4487616014395116,
                    -0.5546258944792365,
                    0.10031002072283751,
                    0.46246480544166596,
                    0.29211993588287627,
                    0.6332451796068742,
                    0.2065638887911454,
                    -0.39720430894889514,
                    0.540795862743752,
                    -0.019673324268243926,
                    0.754266546811721,
                    0.8548283490109594,
                    -0.825666361525639,
                    0.0976776261145446,
                    0.8088695899927114,
                    0.30805152971019145,
                    0.6597400887639272,
                    -0.41686082689400844,
                    -0.7501035330338179,
                    -0.72724130452897,
                    0.9490168143651921,
                    0.9095916944802472,
                    -0.3523613032727252,
                    0.6453014565373101,
                    0.9938509454336368,
                    0.6802186878578615,
                    -0.5680129964597467,
                    0.9890416270658818
                  ],
                  "_Bias": 0.5890053306362364
                }
              },
              {
                "app.user_data.Battle_AutoTuningPnParam_NN.Node": {
                  "_Weight": [
                    -0.3388752131582215,
                    0.45477421985286115,
                    -0.1580258859790849,
                    -0.7844800877142297,
                    0.00015201009074028223,
                    -0.5393367562642917,
                    0.3363429080750833,
                    -0.2780299546563031,
                    -0.4445989538661416,
                    -1.218449249882737,
                    -0.5405861492593079,
                    -0.9729782045939029,
                    0.6342701483193753,
                    0.07150967728783668,
                    -0.23803659802251415,
                    -0.915908385304231,
                    0.4887642559720068,
                    -0.6328745105157453,
                    0.9535113637671323,
                    0.2526098806681152,
                    -0.4397505411308499,
                    0.34780579120103183,
                    -0.3140207680049365,
                    -0.1547982116319636,
                    -0.6864070489795031,
                    -0.7899493457402446,
                    -0.1931671566250324,
                    -0.5226662236562442,
                    -0.3629870284008251
                  ],
                  "_Bias": -0.6526104108068832
                }
              },
              {
                "app.user_data.Battle_AutoTuningPnParam_NN.Node": {
                  "_Weight": [
                    -0.7656687827728461,
                    0.46406142218588003,
                    0.2830753023612197,
                    0.07544740071057782,
                    -0.7682331305015327,
                    -0.8015332993165681,
                    -0.06910560132349637,
                    0.804179672487239,
                    0.3892299544780756,
                    -0.14495798185815242,
                    0.8580346745453706,
                    -0.803972706600058,
                    0.1332416295692702,
                    0.9620897955070515,
                    -0.21586199375288315,
                    0.02233185172508951,
                    0.8445398211331887,
                    -1.0860251326256811,
                    0.29500390270002697,
                    -0.7583517629150689,
                    -0.02576918599766759,
                    0.9385800571360554,
                    -0.5533732807013046,
                    0.4224463115222248,
                    0.7925481312181505,
                    0.4768280474037935,
                    0.6663171177081915,
                    -0.7523804950295013,
                    0.41776780577866085
                  ],
                  "_Bias": -1.1503401538113875
                }
              },
              {
                "app.user_data.Battle_AutoTuningPnParam_NN.Node": {
                  "_Weight": [
                    -0.3710443835249285,
                    -1.6442704209536514,
                    -0.045792718073455606,
                    -0.2194850328273266,
                    0.5609819479552287,
                    -0.5350885073891466,
                    0.6467574291906751,
                    -0.5074220413757436,
                    0.610516429323561,
                    0.5685475646798709,
                    0.2738307322105894,
                    -0.3253182502263264,
                    -0.4877835253096903,
                    0.48007839079222964,
                    -1.0279478078704762,
                    -0.11860085896659034,
                    0.0933574219901787,
                    -0.5262981342416935,
                    0.8234962605767558,
                    0.0712820736470313,
                    -0.22466884572787568,
                    -0.2576782162025019,
                    0.0032178118975552685,
                    -0.0031891336017856246,
                    -0.14044036120842937,
                    -0.6353286427364553,
                    -0.8351148286609691,
                    0.2749578930181263,
                    -0.41192257695528567
                  ],
                  "_Bias": -0.20800079572217214
                }
              },
              {
                "app.user_data.Battle_AutoTuningPnParam_NN.Node": {
                  "_Weight": [
                    -0.4861997321956428,
                    0.07329518786326114,
                    0.7463104498078484,
                    -0.507596398511905,
                    -0.6388029993736486,
                    -1.320308586019838,
                    -0.8528033945433087,
                    0.48420095285255305,
                    -0.5202365671773743,
                    0.4076641737954602,
                    0.4328821310421423,
                    -0.6473706463309221,
                    0.5030673509151117,
                    0.8596273067176595,
                    0.8518838867944434,
                    -0.9581539370669779,
                    -0.7478904264423587,
                    -0.8035909066024095,
                    -0.5634904451895753,
                    -0.2518997194661936,
                    -0.7946242123096703,
                    -0.3501736263981004,
                    -0.20678640056576025,
                    -0.8716189347086508,
                    -0.8749367571440193,
                    -0.34242289588660824,
                    -0.2106354840781205,
                    -0.8571062013531848,
                    0.8487120480979176
                  ],
                  "_Bias": 0.23156984138297695
                }
              },
              {
                "app.user_data.Battle_AutoTuningPnParam_NN.Node": {
                  "_Weight": [
                    0.4125421163336031,
                    0.9205681803966664,
                    -0.8538155340877812,
                    -0.6830202623245153,
                    0.5395594276426512,
                    -0.2691429192561558,
                    -0.7902889594759227,
                    -0.5867966247798372,
                    -0.4244492384872208,
                    -0.43124856259454836,
                    -0.8673443649448348,
                    0.49003422352685555,
                    -0.4189321572903321,
                    0.40654353412674565,
                    -0.49072883914517423,
                    0.38053145023881313,
                    0.7583024485335095,
                    0.6083875713503113,
                    -0.618659978011982,
                    -0.48563059166646455,
                    0.8201638542205266,
                    -0.8860820595229055,
                    0.5295160711962417,
                    -0.8170189500103988,
                    -0.13271953686343282,
                    -0.21110327847634197,
                    -0.29988205692680725,
                    0.5623052066787475,
                    -0.13859003612719276
                  ],
                  "_Bias": 0.7778607822865077
                }
              },
              {
                "app.user_data.Battle_AutoTuningPnParam_NN.Node": {
                  "_Weight": [
                    0.31555892697600735,
                    0.6777020835689892,
                    -0.36728771188713455,
                    0.04038658955123489,
                    0.4119295425934311,
                    -0.1962558863411541,
                    -0.542399389519579,
                    -0.24817086074139857,
                    -1.4698634808595337,
                    1.2223286496030075,
                    -0.5929204960619493,
                    0.6335696841291951,
                    -0.4067015957575555,
                    -0.4141053280503975,
                    -0.47549258609782563,
                    0.6947912657803409,
                    0.40215805779442404,
                    0.6425289048465962,
                    0.03508081809588309,
                    0.5969833509127807,
                    0.05546469857918535,
                    0.5529037973109054,
                    -0.7684920388699736,
                    0.5045384777840286,
                    0.22741869792372066,
                    0.5626800136955917,
                    -0.5938470796264592,
                    -0.7296089920534325,
                    0.7233605065501724
                  ],
                  "_Bias": -0.3180687358789343
                }
              },
              {
                "app.user_data.Battle_AutoTuningPnParam_NN.Node": {
                  "_Weight": [
                    0.8306577372517631,
                    0.12653737915531105,
                    -0.673138671228416,
                    0.30128598595733236,
                    0.5367802687312797,
                    -0.7102441346300249,
                    0.4185500899118309,
                    -1.0045566584088528,
                    0.7335187111851279,
                    -0.12089854180050989,
                    -0.6195734057138966,
                    -0.9400198829816498,
                    0.6752137132617241,
                    -0.5896906670376864,
                    -1.3451120475140894,
                    0.10278866182498213,
                    0.23781030856762406,
                    0.8596820534055652,
                    -0.28133434259165885,
                    0.7917853257563149,
                    -0.86902494119905,
                    -0.8845111174562789,
                    -0.3551795046368795,
                    -0.2474154446335975,
                    0.9454088043045831,
                    0.6802462132338942,
                    0.6491161908110384,
                    0.7617715383801638,
                    -0.29369559348318164
                  ],
                  "_Bias": -0.4053036310108631
                }
              },
              {
                "app.user_data.Battle_AutoTuningPnParam_NN.Node": {
                  "_Weight": [
                    0.3355579861813984,
                    -1.5473987183371947,
                    -0.04998807386647105,
                    0.7171749508637771,
                    0.8449444952099895,
                    -0.012356960571136824,
                    -0.6507649357271923,
                    -0.6275713442456371,
                    0.11435479249454594,
                    -0.5380258121015489,
                    -0.7648436853345715,
                    -0.3825145765720178,
                    0.9303202261879571,
                    -0.6635208930730419,
                    -0.4299340895488761,
                    -1.0548115896165011,
                    -0.5716315935880161,
                    0.9256297383020039,
                    -0.09728391834393264,
                    0.5243870498910203,
                    0.04619408030009361,
                    0.5317054883507041,
                    0.7645058779381683,
                    -0.718438371729988,
                    -0.4587965134617986,
                    -0.5594755589733936,
                    0.4234334698732341,
                    0.6346478696644235,
                    -1.0572295590762673
                  ],
                  "_Bias": -0.3682162736444029
                }
              },
              {
                "app.user_data.Battle_AutoTuningPnParam_NN.Node": {
                  "_Weight": [
                    1.2877720206955008,
                    -0.6711690483689723,
                    0.5568354711830521,
                    -0.053711971005361354,
                    -0.8013993731589292,
                    0.3221183739016112,
                    -0.5707499024883375,
                    -0.6521959452309315,
                    0.37305418464080087,
                    0.6998940988646066,
                    0.6425293434343246,
                    1.244833492876913,
                    0.4151628165057257,
                    -1.009479831589555,
                    -0.35871289274637147,
                    0.2162860255250076,
                    0.4723299227513598,
                    -0.21397132560262405,
                    1.1210699706924176,
                    -0.22939223036206474,
                    0.06578459056574974,
                    0.11924267586491726,
                    0.15791041022213947,
                    1.0024000379188662,
                    0.02890103485955769,
                    -0.9115926871903225,
                    -0.7044600465839018,
                    -0.16191694786065977,
                    -0.33358634782676105
                  ],
                  "_Bias": 0.8861267468750873
                }
              },
              {
                "app.user_data.Battle_AutoTuningPnParam_NN.Node": {
                  "_Weight": [
                    -0.17359887880963162,
                    -0.6699987731411468,
                    -0.04034983113950901,
                    0.8379630640993114,
                    0.21460345096105618,
                    -0.6226773874381032,
                    -0.42290315778226173,
                    1.0785674548502682,
                    0.5183911119464315,
                    0.9244150537141403,
                    -0.7748889072953992,
                    -0.9650968549224932,
                    -0.6137093597889075,
                    -0.024075117138956225,
                    -0.05674041499802128,
                    0.017380651565184927,
                    0.16950692134284376,
                    -0.57533858424428,
                    -0.28979880902151756,
                    0.2746306194779056,
                    0.11456640225710857,
                    -0.3826621005811351,
                    0.17386372606819797,
                    0.012046417908737235,
                    -0.40905844848612466,
                    0.6918134041854196,
                    -0.850098865415865,
                    0.09614231640148982,
                    -0.38317330113182635
                  ],
                  "_Bias": 0.37255582308521035
                }
              },
              {
                "app.user_data.Battle_AutoTuningPnParam_NN.Node": {
                  "_Weight": [
                    0.8327351753880113,
                    0.2152789431206609,
                    -0.7770937036164063,
                    -0.9611180381760335,
                    -0.5234862040032108,
                    0.15977511260982594,
                    -0.8207911660748577,
                    0.7610145595577043,
                    -0.9587150091277516,
                    -0.5058386599493951,
                    0.17095052524889526,
                    1.1473217936132358,
                    1.1951441307702915,
                    0.2214091616619595,
                    1.3499171070424822,
                    1.0066542564504812,
                    -0.39568761920322715,
                    -0.9747310059370194,
                    0.6848149426450582,
                    -0.19579353986528258,
                    0.5098855337603262,
                    -0.4439476873925781,
                    0.369935929890395,
                    -0.9398544606440368,
                    0.22223771423210417,
                    0.732396866565125,
                    -0.05521831591017356,
                    0.12465694772319226,
                    -0.15242534283854184
                  ],
                  "_Bias": -0.8149086002270001
                }
              },
              {
                "app.user_data.Battle_AutoTuningPnParam_NN.Node": {
                  "_Weight": [
                    -1.2286090421473543,
                    -0.28416841334364773,
                    -1.1047382976771405,
                    -0.8310169108106271,
                    -0.7870959542573635,
                    -0.2316665352866832,
                    -0.6615927052905116,
                    -0.13224862246427685,
                    0.6965090958541869,
                    -0.20814619961636513,
                    -0.816234179714444,
                    -0.8546221154930242,
                    -0.4281232455704821,
                    0.4100814106744979,
                    0.6659986960944135,
                    -0.5438415880408497,
                    1.1317507821133839,
                    0.42734672619691466,
                    -0.2378915503403414,
                    0.8416371069829667,
                    0.09821953925648245,
                    0.9390429562132075,
                    -0.8130457798966131,
                    -1.0280977494885584,
                    0.07366183294440883,
                    0.4951708260643039,
                    -0.351225536759057,
                    0.694067266335489,
                    0.22745423588706873
                  ],
                  "_Bias": -0.35727345010609923
                }
              },
              {
                "app.user_data.Battle_AutoTuningPnParam_NN.Node": {
                  "_Weight": [
                    0.7362010191509119,
                    -0.5209716690043228,
                    -0.1776817914836278,
                    -1.175906271735633,
                    -0.06889220164323148,
                    -0.12957981896232182,
                    -0.8030715770365973,
                    -1.1926706521460009,
                    -0.0742622073704126,
                    0.23588697523603958,
                    -1.1049268813189501,
                    0.8325604129084265,
                    0.5276317439235702,
                    -0.2691079445576498,
                    1.1888981483777064,
                    -0.602350394186073,
                    -0.5770197870996189,
                    -0.7366561344064445,
                    -0.04639511067992406,
                    0.18881437936668452,
                    0.5912418969449643,
                    0.1975146904221579,
                    -0.7106726507819904,
                    -0.3394115436733739,
                    -0.49541658847375564,
                    0.6178544894998544,
                    0.16652723958595278,
                    -0.5819957871735717,
                    -0.6696525277352855
                  ],
                  "_Bias": -0.62573976288634
                }
              },
              {
                "app.user_data.Battle_AutoTuningPnParam_NN.Node": {
                  "_Weight": [
                    -0.6785398040195504,
                    0.6588492109159808,
                    -0.8685587383085528,
                    0.2825072726828423,
                    0.3993983823915723,
                    -0.22500071679776204,
                    0.7658194447207455,
                    -0.30179389700482673,
                    -0.18211392942730975,
                    -0.011494189056016716,
                    0.607829370820759,
                    0.671952555812407,
                    -0.6091571038148057,
                    0.467441375922723,
                    0.19687321952397294,
                    0.7944056237720716,
                    -1.2423138592591108,
                    -0.46276969448619526,
                    1.0548123071019067,
                    0.20468920814482924,
                    -0.3116479453165829,
                    -0.22268357369772446,
                    -0.3839730479067318,
                    -1.1490140710677337,
                    -0.13254639097251128,
                    0.8065601676449718,
                    0.1878974094366744,
                    -0.25093536218594426,
                    0.9313578172546519
                  ],
                  "_Bias": -0.3512171613983071
                }
              },
              {
                "app.user_data.Battle_AutoTuningPnParam_NN.Node": {
                  "_Weight": [
                    -0.2080752082638316,
                    -0.47280194117035806,
                    -0.07376855919437837,
                    0.7994692498740097,
                    0.8650215937923099,
                    -0.7280938440834436,
                    -0.9493315302541019,
                    0.6001450118753638,
                    0.2565632645204969,
                    0.5916119400288078,
                    0.43668972204799883,
                    1.0876602316219903,
                    0.284756832681857,
                    0.972477942335916,
                    0.08252695796546454,
                    -0.6551042895808922,
                    0.5687063479956378,
                    -0.20627976450132068,
                    -0.0027870472263107297,
                    -1.0103809582125691,
                    -0.7958270889316507,
                    0.1791649960435483,
                    -1.0711063683237607,
                    -0.2640120528051677,
                    0.0003667000318855881,
                    0.9151195848382321,
                    0.07494974701885071,
                    0.5189242981364589,
                    0.13792885939298027
                  ],
                  "_Bias": -0.814936533283367
                }
              },
              {
                "app.user_data.Battle_AutoTuningPnParam_NN.Node": {
                  "_Weight": [
                    -0.0926954165930948,
                    0.5761233283344395,
                    0.9648476188584775,
                    -0.3147475562672491,
                    0.035093154444200414,
                    1.1849799907259013,
                    0.43787984865366586,
                    0.9909814567192979,
                    -0.9803150517283397,
                    -0.34562894771581354,
                    0.37043011252165775,
                    -0.6350416097386231,
                    1.4385503744264025,
                    -0.07437048094434946,
                    0.6067064415378985,
                    0.5081974222911083,
                    -0.2755273295109227,
                    1.0870451014742883,
                    -0.18460019222857796,
                    0.6365708111031905,
                    0.18584857679239905,
                    -0.19344901277503604,
                    -0.18985330651668308,
                    0.20480927848215658,
                    0.48703736734251357,
                    -0.5733972464712124,
                    0.023164700610144643,
                    -0.31795083127275153,
                    0.2050156240276613
                  ],
                  "_Bias": 0.7727584679770488
                }
              },
              {
                "app.user_data.Battle_AutoTuningPnParam_NN.Node": {
                  "_Weight": [
                    -1.0145170524120835,
                    0.6046523663132385,
                    -0.19173786966391085,
                    -0.8789184239443218,
                    0.13036956580119824,
                    -0.5966620565269802,
                    -0.12033164395187466,
                    0.7060805032210073,
                    -0.9235237369621058,
                    0.44442704710520986,
                    0.4245276666160258,
                    -0.141616572247766,
                    -1.0171479435685138,
                    -0.3060879327121174,
                    -0.0817148031271856,
                    0.15692482116148657,
                    0.5840751730000776,
                    0.7056103026880574,
                    0.26164928935052967,
                    0.5635249425763589,
                    -0.5172139079349921,
                    0.8308068749332198,
                    0.48854896607807285,
                    -0.3414839790005179,
                    -0.10704547946986416,
                    0.31743711593293006,
                    -0.6366849250586317,
                    -0.12106267936378785,
                    0.16426474462959037
                  ],
                  "_Bias": 0.12901153336678742
                }
              },
              {
                "app.user_data.Battle_AutoTuningPnParam_NN.Node": {
                  "_Weight": [
                    -1.1379159260090723,
                    0.6059304145387403,
                    -0.026911623827244355,
                    -0.8476717616535676,
                    0.9800643577486109,
                    0.7592887445859936,
                    -0.17931268539714726,
                    -0.28299922994128,
                    -0.1493831731252272,
                    -0.9685227126267604,
                    0.660052325850876,
                    -0.055886881541458454,
                    -0.203071987340643,
                    -0.854945354088622,
                    0.9927040299930893,
                    1.001894899499333,
                    -0.7143375241682818,
                    -0.5891152270236519,
                    -0.08745725920250197,
                    -0.24196048841772005,
                    -0.6695084498375594,
                    0.46245503426067663,
                    0.3386306684083451,
                    0.6189373475123471,
                    0.8268393103627946,
                    -0.8237583327198255,
                    0.9814388943937683,
                    0.20848719153045736,
                    -0.0982659860606104
                  ],
                  "_Bias": -0.3125242669023556
                }
              },
              {
                "app.user_data.Battle_AutoTuningPnParam_NN.Node": {
                  "_Weight": [
                    0.3888020106507218,
                    -0.12911562825215092,
                    -0.7017376256631631,
                    -0.14431586354713402,
                    0.19072014074190227,
                    -0.37401860206539334,
                    0.24868434175632245,
                    -0.8788619655735984,
                    -0.3792911477102973,
                    -0.9559924237105721,
                    -0.36562865623415897,
                    -0.4920182887737731,
                    0.40132024269045674,
                    0.6845552650593701,
                    -0.42724835549549856,
                    -0.8508768373475452,
                    -0.9859764303056654,
                    -0.3725066815280404,
                    -0.022184135891273528,
                    -0.9251655182063607,
                    0.5787497634003343,
                    0.279955167061051,
                    -0.5797290450336111,
                    0.5172406315246152,
                    0.5406876650787608,
                    0.2615447472980481,
                    0.4640138602627473,
                    -0.6820320635833595,
                    0.6020035769228442
                  ],
                  "_Bias": -0.43949928120061643
                }
              },
              {
                "app.user_data.Battle_AutoTuningPnParam_NN.Node": {
                  "_Weight": [
                    -0.2818708121813948,
                    0.1844937151298349,
                    -0.5695965145978057,
                    0.25861134318801454,
                    -0.16832586798747667,
                    -0.6643908331189153,
                    -0.09996908009688342,
                    -1.2193046235737535,
                    0.46909071044946166,
                    0.7727489129332467,
                    -0.2523326341582125,
                    0.6812712033317709,
                    0.08932650575462119,
                    -0.5102620682605012,
                    -0.30528019753322944,
                    -0.1440681164628533,
                    0.25987527258787396,
                    0.26254734266459645,
                    -0.297366146022703,
                    -0.9203146635377342,
                    -0.5017965581737805,
                    -0.2974111439489604,
                    -0.8731115958422281,
                    0.41524944324374125,
                    -0.8146459099125386,
                    -0.810921811666977,
                    0.5577363590938096,
                    0.9543804013490583,
                    0.8956660388740034
                  ],
                  "_Bias": 0.41056435848627154
                }
              },
              {
                "app.user_data.Battle_AutoTuningPnParam_NN.Node": {
                  "_Weight": [
                    -0.0006648751074239886,
                    0.15937596234172458,
                    0.21982184389575563,
                    0.7753228290131597,
                    0.6321304816238835,
                    -1.2630026303640185,
                    0.050183484203261866,
                    -0.5103945900625471,
                    0.8794708458818811,
                    0.8348824612884744,
                    -0.579789118543245,
                    -0.09136327143098705,
                    -0.41558672639228555,
                    -0.9406335271040671,
                    -0.31861930343455763,
                    -0.5520368116363911,
                    0.8312503727721087,
                    0.8558268726945714,
                    1.0554581001405003,
                    0.016439367868471465,
                    0.6582505750056107,
                    0.8034642652064918,
                    0.30175899954782603,
                    -0.9601755231015743,
                    0.3410216780032119,
                    -0.19214902026698774,
                    0.9109122286327412,
                    0.6748968410750904,
                    -0.8043975088548211
                  ],
                  "_Bias": -1.0216236659843154
                }
              },
              {
                "app.user_data.Battle_AutoTuningPnParam_NN.Node": {
                  "_Weight": [
                    -0.1514457140874702,
                    0.41841366472734615,
                    0.09770571820236673,
                    -0.1761833491878674,
                    0.49865234507230316,
                    0.5142676988815906,
                    -0.7493932022267081,
                    0.13011212605109188,
                    0.2694497902694768,
                    0.5850910869875577,
                    0.5550385695153698,
                    -0.5708325054651703,
                    -0.15954348189162526,
                    -0.7535476246409645,
                    0.6307221142712497,
                    0.5344916288673026,
                    0.46475899771031975,
                    -0.06243513970669891,
                    -0.6251442932895103,
                    -0.390813280069087,
                    -0.7936209663868642,
                    0.13311095819492308,
                    -0.5830553682328091,
                    -0.265066802522516,
                    0.04418982708436437,
                    0.20021958216015068,
                    -0.7902734776133032,
                    -0.7842987487000743,
                    0.674530492395843
                  ],
                  "_Bias": -0.3572514420255295
                }
              },
              {
                "app.user_data.Battle_AutoTuningPnParam_NN.Node": {
                  "_Weight": [
                    0.2961748520579204,
                    -0.35068969347325146,
                    -0.5155040636413041,
                    0.0920882381927118,
                    -0.03322638678184585,
                    0.2855425984238628,
                    0.4981220735266075,
                    -0.9566615054509898,
                    0.33977064086970343,
                    -0.2884866869164642,
                    -0.16664844910249457,
                    0.17079663434329495,
                    0.5213876168161363,
                    -0.4237646573496394,
                    -0.2446286296253282,
                    -0.8035072464150683,
                    0.4217924256144474,
                    1.01397973946677,
                    1.0786524299823688,
                    0.4795747514209477,
                    0.07069252666923066,
                    -0.05539184281601659,
                    -0.10851280149787523,
                    0.8063966985659705,
                    0.6196203863762204,
                    -0.39556458061594685,
                    0.19378626054800996,
                    0.7845266133685032,
                    0.3742221865200525
                  ],
                  "_Bias": 0.4179088473050032
                }
              },
              {
                "app.user_data.Battle_AutoTuningPnParam_NN.Node": {
                  "_Weight": [
                    -0.40379104446801095,
                    0.45510410598453405,
                    -0.5236812551988783,
                    -0.016176128443858004,
                    0.5483952878448504,
                    -0.18718491209352214,
                    0.9559680031982062,
                    -0.49610234935735825,
                    -0.10014840380224867,
                    0.6475931182970774,
                    0.8480637141190925,
                    -0.3595765792279949,
                    0.7572229120834953,
                    0.1577074462761697,
                    -0.1164483410922996,
                    0.3236849521893688,
                    0.041961095351569166,
                    -0.2601290645052519,
                    -1.1967980995767245,
                    0.37907451760116,
                    -0.7682139344629654,
                    1.0424310412781264,
                    1.0663347778130956,
                    -0.4687538380058252,
                    0.6392849558884216,
                    -0.8315796726353962,
                    0.993706306081155,
                    0.8752392567330514,
                    0.09406449721581565
                  ],
                  "_Bias": 0.6035424738307296
                }
              },
              {
                "app.user_data.Battle_AutoTuningPnParam_NN.Node": {
                  "_Weight": [
                    0.6254477199897102,
                    -0.9785434139988772,
                    -0.5763994766735473,
                    -0.5365260500985412,
                    0.1884625709028243,
                    0.5370161933790154,
                    -0.29565760245945805,
                    0.07754967548740348,
                    0.681041219481008,
                    1.3526325050238341,
                    -0.4914368033390621,
                    -0.05530906238744502,
                    -0.08111182751454331,
                    -0.8466911392008941,
                    -0.5063456375275801,
                    -0.7102831692638429,
                    -0.006669045916139293,
                    -0.7941965190531185,
                    -0.2608474798092894,
                    -0.6195124978164139,
                    -0.1567505738455774,
                    0.5926705206408266,
                    0.5711659527604939,
                    -0.855496987189536,
                    -0.29860277560188986,
                    -0.33484356878962623,
                    0.5555180242155222,
                    0.5931565751676174,
                    -0.6664494777524561
                  ],
                  "_Bias": -0.5905230198297658
                }
              },
              {
                "app.user_data.Battle_AutoTuningPnParam_NN.Node": {
                  "_Weight": [
                    -0.8596261541932889,
                    0.3846113378079519,
                    0.911196362072689,
                    -1.3064571904320554,
                    -0.7591209138765409,
                    -0.30894782215652083,
                    0.3398001476652732,
                    0.6094632430922139,
                    -1.0190456927186264,
                    0.23825285109994138,
                    1.06284786472555,
                    -0.3367249968690234,
                    -0.628490520764939,
                    -1.154555459245763,
                    -0.26562788334120463,
                    -0.1693307942703871,
                    0.4150459996670766,
                    -0.6324505984020614,
                    0.4074069701842606,
                    -0.6469943041346258,
                    -0.8550115115210448,
                    -0.22587078509835723,
                    0.5172123777274634,
                    1.014633975275361,
                    -0.8251258252765884,
                    0.0959170848567082,
                    0.8222538482974839,
                    -0.3780448229786925,
                    0.12404812209016586
                  ],
                  "_Bias": 0.11830605070256087
                }
              },
              {
                "app.user_data.Battle_AutoTuningPnParam_NN.Node": {
                  "_Weight": [
                    -0.4785967801523453,
                    0.4526492793228325,
                    0.8268223882522143,
                    -0.05852396033330708,
                    0.6326181151677963,
                    -0.8802158869836194,
                    -0.28464447992292485,
                    -0.9003619589632388,
                    -1.285997291642252,
                    -0.6375880339542606,
                    0.9811645708441338,
                    -0.7920665728256098,
                    -0.4014909700028709,
                    -1.0776129352217587,
                    -0.8929521284612908,
                    0.6064884576210392,
                    -0.6179525471701356,
                    0.20204936578839064,
                    -0.07730894872188185,
                    1.1384533340677354,
                    -0.5331692824975819,
                    -0.8377127036698911,
                    0.22090153165275178,
                    -0.47500985156943804,
                    0.025464007085742403,
                    0.05673722705286071,
                    -0.25433382946559213,
                    -0.5804267696734233,
                    0.48360893355199536
                  ],
                  "_Bias": -0.7642454983296579
                }
              },
              {
                "app.user_data.Battle_AutoTuningPnParam_NN.Node": {
                  "_Weight": [
                    0.3623123222277486,
                    0.92755141496398,
                    -0.275571718372718,
                    0.16652694607786592,
                    -0.06800235986442486,
                    -0.8566584368511659,
                    -0.9788260403476896,
                    0.9268827992995594,
                    -0.3919144173161152,
                    -0.36978079923739615,
                    0.9762493982149851,
                    -0.02240876331366825,
                    0.30443630840027935,
                    0.7308131078952695,
                    -0.9021425511498462,
                    -0.5517497025204716,
                    -0.16716133982948023,
                    1.0173523523250065,
                    0.24080742008349576,
                    -0.8337256498121286,
                    0.3715009432449959,
                    0.6088012658037615,
                    0.45858681219089403,
                    0.2659041799033763,
                    -0.004232557529459639,
                    0.9179239488561266,
                    0.0326329261008319,
                    -0.2521458657033734,
                    -0.9102365690600627
                  ],
                  "_Bias": -0.412541631299632
                }
              }
            ]
          }
        },
        {
          "app.user_data.Battle_AutoTuningPnParam_NN.Layer": {
            "_Node": [
              {
                "app.user_data.Battle_AutoTuningPnParam_NN.Node": {
                  "_Weight": [
                    -0.8404008082958565,
                    0.011939617302517152,
                    0.6611458952170693,
                    0.8176349681734807,
                    -0.018679516953941946,
                    -0.15877991224770432,
                    0.7356771582955614,
                    -0.4073520176118728,
                    1.0117193506138504,
                    0.5786559164614984,
                    0.7683393001746612,
                    -0.39198946962716763,
                    0.08329878517764328,
                    -0.4523605404848587,
                    0.034758520385970784,
                    -0.34838358495832583,
                    -0.6855464460418317,
                    -0.43452284470593416,
                    -0.4346366781746069,
                    -0.08304832366145594,
                    -0.7364466211120635,
                    0.3123899591090476,
                    -0.8434703343890202,
                    0.22358354300087976,
                    0.9242673636103859,
                    0.5464224938641086,
                    0.6502116386990839,
                    -0.3736442906115123,
                    -0.6027030340929789,
                    -0.12208524066877541,
                    0.681184894686301,
                    0.14023224272524865,
                    0.7777725824837463,
                    -0.15218864702568663,
                    0.134432617166391,
                    -0.7417054696512383,
                    -0.706977441708627,
                    -0.2050767636602863,
                    0.09077272067368576,
                    0.4846735563528805,
                    -0.8444956092010206,
                    0.19703052176426955,
                    -0.7965977716055025,
                    0.18077821205673714,
                    -0.6976590655852453,
                    0.7324658950630631,
                    1.1221271475386427,
                    0.06679253382091094,
                    -0.062168849196979514,
                    -0.3825762965994565,
                    -0.06679387751701063,
                    -0.006521641315989608,
                    0.702400281042855,
                    -0.6313935011397132,
                    -0.5360264418272604,
                    1.0164280563045045,
                    -0.9141620925365749,
                    -0.33733870617647466
                  ],
                  "_Bias": 0.19936063143227778
                }
              },
              {
                "app.user_data.Battle_AutoTuningPnParam_NN.Node": {
                  "_Weight": [
                    0.7288944743626914,
                    -1.0279918522400513,
                    0.3318101393111962,
                    -0.16027764966663643,
                    0.11690735762120387,
                    -0.261540858011416,
                    0.4116527750206978,
                    -0.4976285524020319,
                    0.673649375737081,
                    0.32612245036035636,
                    -0.812170909978245,
                    -0.4444142128522818,
                    -0.29027947115679675,
                    0.2447325845475219,
                    0.7518190851422456,
                    -0.3818454737474999,
                    0.2731615824393644,
                    0.011847749989055507,
                    0.7347782640812818,
                    -0.1278491603316125,
                    0.8272548939459099,
                    -0.5897987200329583,
                    -1.0380012425374021,
                    -0.1411323567157181,
                    8.277855630978674e-05,
                    -0.6909172073960888,
                    -0.589241832248392,
                    -0.2803772975749386,
                    -0.7724836229232723,
                    0.16572054521450777,
                    0.15911772727743,
                    0.1635391632493411,
                    0.11626385349513868,
                    -0.8682760022493374,
                    0.8200493488659014,
                    -0.4440015953813813,
                    1.1309282906511315,
                    1.0710133522332101,
                    0.1068960217902332,
                    0.2393428211970287,
                    -1.0184536161519053,
                    -0.9472765912836698,
                    0.05438925049724343,
                    0.0039150881282620864,
                    0.4090163102683493,
                    -0.057328164905876784,
                    -0.8803171506047927,
                    0.3998185382746924,
                    0.9935776479749565,
                    0.47862107420350375,
                    -0.6263011296568407,
                    0.6248304325993413,
                    0.2550625664570728,
                    0.6024166826719425,
                    -0.20945874947175014,
                    -1.0579798070638509,
                    -0.4546541613989077,
                    1.3315616869123237
                  ],
                  "_Bias": 0.44729444172000105
                }
              },
              {
                "app.user_data.Battle_AutoTuningPnParam_NN.Node": {
                  "_Weight": [
                    -0.3372799363714396,
                    -0.08865533140701358,
                    0.7368563471248242,
                    0.2768056097428512,
                    0.8843010630821015,
                    -0.33912856466480573,
                    -1.0518673813475647,
                    -0.049109635279641455,
                    -0.6138077829897448,
                    0.36440703198911895,
                    -0.15709881465447034,
                    -0.10424419384044699,
                    0.21722609935605516,
                    0.4433412013842548,
                    0.5543817938274668,
                    -0.9507707014739156,
                    0.18891355572185742,
                    0.05787943940087568,
                    0.7590628369600783,
                    -0.025904661306686446,
                    0.17727307038863238,
                    0.8649960585666346,
                    -0.2763332194795058,
                    -1.2286897281193698,
                    -0.7233861370944674,
                    -0.6572610909073233,
                    0.004177196738586416,
                    -0.8366648637039066,
                    -0.3868823540181005,
                    0.46271064907145915,
                    -0.9012434676379529,
                    0.5242191000684756,
                    0.07926861202692155,
                    -0.31610422446182396,
                    0.9381607241473466,
                    0.2923836322402507,
                    0.4561526723338766,
                    -0.9467664126841031,
                    -0.9595178594113526,
                    -0.5043977546845295,
                    -0.4207085694199306,
                    0.32067986243332847,
                    0.2589614560791099,
                    1.1457207804610148,
                    0.3026556547014081,
                    -0.20865475266676672,
                    -0.45444485134898105,
                    -0.6792319663252128,
                    0.9279760941120423,
                    -0.18847062329216882,
                    0.06617933527915751,
                    0.079885252807637,
                    -0.5272140052828653,
                    0.25347123008002037,
                    -1.360155989831568,
                    0.930397375432893,
                    -0.34527641200460263,
                    -0.2424009717664375
                  ],
                  "_Bias": -0.9486740354419162
                }
              },
              {
                "app.user_data.Battle_AutoTuningPnParam_NN.Node": {
                  "_Weight": [
                    0.9320905474915249,
                    0.3035084155932057,
                    0.43703108728788836,
                    0.889148863391457,
                    0.16675239159875183,
                    1.1565260622503082,
                    0.7367190847062448,
                    0.9321556133324893,
                    -1.1911744314151318,
                    -0.11275245549697546,
                    -0.729796343336705,
                    -0.3351588860380216,
                    -0.3683666714572179,
                    0.00909985286796647,
                    0.8980839635792351,
                    -0.12071317169366155,
                    -0.4302931370535352,
                    -0.5764023313421512,
                    -0.9911881134606713,
                    -0.2769248354473882,
                    -0.27327402079907054,
                    -0.1899442635676249,
                    -0.6403967453541145,
                    1.0320542113729412,
                    0.7650975481180868,
                    0.7199325487492846,
                    -0.00690027815463523,
                    1.2211203211226418,
                    -0.11580142927527655,
                    0.6812657927524083,
                    -1.1220841652985583,
                    0.9251452841495568,
                    0.7083796597261763,
                    0.03332048605150326,
                    0.27212320774927945,
                    0.34534552493029436,
                    0.27985429657067645,
                    -0.3312366972857356,
                    -0.4763183120985278,
                    -0.6322705413192011,
                    -0.3975604140609309,
                    0.7426009287548887,
                    0.24412620855634876,
                    -0.17154602768016095,
                    0.08586258110707573,
                    1.0450492581415325,
                    -0.2851121127660597,
                    -0.5407081313975779,
                    -0.16378134456502616,
                    0.31363149747712304,
                    -0.6382621579419597,
                    0.37504138096450895,
                    -0.479035220877564,
                    0.4558042801626745,
                    1.2289048201644956,
                    -0.6111051908883113,
                    -0.48848394620778424,
                    0.2226506136498972
                  ],
                  "_Bias": -0.6275480672776296
                }
              },
              {
                "app.user_data.Battle_AutoTuningPnParam_NN.Node": {
                  "_Weight": [
                    -0.326106336534767,
                    0.14337847632576817,
                    -0.7717283473973362,
                    -0.48031942773710185,
                    0.7330539024116656,
                    -0.3120216770660308,
                    0.9046006834122289,
                    -0.29026245278572793,
                    -0.9484754349536328,
                    -0.8633940221997142,
                    -0.037887052922322584,
                    0.5136759793531278,
                    -0.7964502071741438,
                    -0.21128852677088072,
                    0.5937595187927827,
                    0.14947992798690965,
                    0.051335933999314395,
                    0.7481898259269109,
                    -0.7797335345942158,
                    0.8853089597877407,
                    0.4400240571257736,
                    -0.30261577448580285,
                    0.36968241572033633,
                    1.1908096133464066,
                    0.785563223513965,
                    -0.8668259837125705,
                    -0.29652035885018524,
                    -0.576682339366467,
                    -0.7056298764607496,
                    -0.8529559385786203,
                    1.1311540308043309,
                    0.08696776538102911,
                    -0.3826486034897607,
                    0.36178577131896505,
                    0.7807808718438344,
                    -0.9100990072665781,
                    1.2543980882981407,
                    0.5958317966648691,
                    -0.8642286798020025,
                    0.008194665547751745,
                    -0.8616457744673323,
                    0.995071743029885,
                    -0.2903831832089089,
                    0.6524542799130496,
                    -0.5530989253078025,
                    -0.5857942867586282,
                    0.5526677790601258,
                    -0.8930617842103901,
                    0.8360875819342385,
                    -0.9184703089102677,
                    0.2587986860668407,
                    -0.2695283375210374,
                    1.2824476235286417,
                    0.676980104718235,
                    -0.6218702561707009,
                    0.3861833557889512,
                    0.5774589077129817,
                    0.5953726261298109
                  ],
                  "_Bias": -0.7495436018192145
                }
              },
              {
                "app.user_data.Battle_AutoTuningPnParam_NN.Node": {
                  "_Weight": [
                    0.04196970747730929,
                    -0.8666223872182441,
                    0.12869705353348584,
                    -0.6789310726046336,
                    -0.3851155443719183,
                    0.7300586395849679,
                    0.7881185583983354,
                    -0.19078437364771145,
                    0.7043007856995621,
                    -0.2622085407148514,
                    -0.948604797698271,
                    0.9365561361070487,
                    0.7282012692332295,
                    0.13823916159230698,
                    0.07322336311989655,
                    0.5378465575079057,
                    -0.6997223631818179,
                    -0.5445565676828433,
                    0.10143009040830249,
                    0.423705234817825,
                    0.5172823899374567,
                    1.028934589970537,
                    0.2529618398748878,
                    -1.0243493438547315,
                    -0.2549952275566809,
                    0.3921017772298021,
                    -0.76776575556964,
                    0.0673156912372753,
                    -0.2391418701391191,
                    -0.9014703537354903,
                    0.7608281580966725,
                    -0.7880205492877426,
                    0.5754356847520604,
                    -0.027759991934257447,
                    0.13488259615021397,
                    0.0842701080150029,
                    0.05909218645530174,
                    0.5739850639759164,
                    -0.5803560051730255,
                    0.6043468823210687,
                    -0.5374474925345775,
                    -0.0707420714396146,
                    -0.5956308544527679,
                    0.9644775017826829,
                    -0.6645283920228201,
                    -1.2013800088002795,
                    0.523318025873152,
                    -0.11122375334758974,
                    -0.7582470483467186,
                    -0.1270440741644336,
                    0.7420048539526098,
                    0.752913675707571,
                    0.6600970256912317,
                    -0.9227484868399557,
                    0.10989472203756266,
                    0.9563376068965168,
                    -1.0501386581460663,
                    -0.5235531027838473
                  ],
                  "_Bias": -0.14615349015518223
                }
              },
              {
                "app.user_data.Battle_AutoTuningPnParam_NN.Node": {
                  "_Weight": [
                    -0.6559260525089315,
                    1.0649061267843076,
                    -0.10758096077719627,
                    -0.520287802969699,
                    0.7572803718410646,
                    -0.33051802376167655,
                    -0.19562327822060485,
                    0.4515026071394333,
                    -0.8578712264552362,
                    0.090468457873849,
                    -0.7328559431068565,
                    -0.6152710884060171,
                    0.1681289337146885,
                    -0.5975269077233125,
                    0.983659189995918,
                    -0.193766310718783,
                    0.7378977305836859,
                    -0.1579112197333721,
                    0.3495279378315905,
                    -0.4320790565643117,
                    0.8126897065768165,
                    0.6868565272567324,
                    -0.47669405463425213,
                    0.5498805089148935,
                    -1.1130804632482663,
                    -0.11100568865043368,
                    0.6402147234364075,
