[
  {
    "app.user_data.Battle_AutoTuningPnParam_NN": {
      "RootSeedNum": 1070096883,
      "_NodeNum_InputLayer": 29,
      "_NodeNum_HideLayer": [
        58,
        29
      ],
      "_NodeNum_OutputLayer": 7,
      "_AveList": [
        0.8579871921209204,
        0.33301886792452795,
        0.09433962264150944,
        0.17889125559564412,
        0.9003002700622673,
        0.35188679245282994,
        0.04716981132075472,
        0.1346460454505435,
        0.8299772602204858,
        0.3730188679245281,
        0.05188679245283019,
        0.3280131914140743,
        0.2028301886792453,
        0.8076739080658718,
        0.4109433962264148,
        0.09433962264150944,
        0.22106396545399945,
        0.5097882997671921,
        0.6762546046720576,
        0.20754716981132076,
        -1.0,
        0.18540699879671008,
        0.20644845013477084,
        0.0330188679245283,
        -0.3160377358490566,
        0.06141560826536439,
        0.2612806603773585,
        0.009433962264150943,
        -0.3160377358490566
      ],
      "_SdList": [
        0.26584829040569763,
        0.1638606737405849,
        0.2923006299024468,
        0.332188232920247,
        0.23272534699685674,
        0.20781483597658718,
        0.23319258668506218,
        0.27957857290411725,
        0.24007399031659746,
        0.16689545824744323,
        0.22179845180205204,
        0.5533118793144168,
        0.40210707932040524,
        0.2750415014091151,
        0.2718196138184111,
        0.3080156173078215,
        0.4426270349030737,
        0.37549001910008245,
        0.28458700083909116,
        0.4701862563915897,
        0.0,
        0.31964849428550374,
        0.332850355460605,
        0.17868582004599834,
        0.4649278281286871,
        0.2159319679318698,
        0.3933473107768382,
        0.09666934684867548,
        0.4649278281286871
      ],
      "_WeightList": [
        {
          "app.user_data.Battle_AutoTuningPnParam_NN.Layer": {
            "_Node": [
              {
                "app.user_data.Battle_AutoTuningPnParam_NN.Node": {
                  "_Weight": [
                    0.0126739425691158,
                    -0.4597086722136365,
                    -0.8263523155184879,
                    -0.5768390690352195,
                    -0.591742380206075,
                    -0.7073049238075996,
                    0.31591801481090015,
                    1.1067635998747052,
                    -0.2942647173953137,
                    0.11520819319762315,
                    -0.5260079038720147,
                    0.6629543771623746,
                    -0.5924624996606115,
                    -0.6120191998640898,
                    -0.8462199167786052,
                    -0.5957548821412699,
                    -0.27608235170959133,
                    0.11663688582011145,
                    0.20233713308060716,
                    -0.11483521037534634,
                    -0.9636424411488435,
                    0.08962752995955386,
                    -0.7140072124667572,
                    0.3511248868637228,
                    0.5948735616360207,
                    0.8164388684403265,
                    0.4331981777770998,
                    0.22410418761170267,
                    -0.1520689156170351
                  ],
                  "_Bias": 0.7358611025316377
                }
              },
              {
                "app.user_data.Battle_AutoTuningPnParam_NN.Node": {
                  "_Weight": [
                    -0.7950102116562145,
                    1.0013867955817792,
                    -1.1107726428128424,
                    -0.05121397666573454,
                    -0.8947704980645528,
                    0.5174729472080749,
                    0.8435994210479113,
                    0.14878357083242688,
                    -0.5630248793071306,
                    0.4452156282251552,
                    -0.4478522537627673,
                    1.307076408894682,
                    0.8734902453227171,
                    0.3348849981134993,
                    0.20849222383729993,
                    0.2724224545355413,
                    -0.6302140010050377,
                    0.5173348115069474,
                    0.14275531587244203,
                    0.11929428040676873,
                    -0.5323878114352487,
                    0.1595436785693711,
                    -0.3827009776781594,
                    0.625767306004859,
                    -0.1382293311743499,
                    -0.7846171930846956,
                    0.5177065222412567,
                    -0.8153901412028497,
                    0.31956755775879503
                  ],
                  "_Bias": 0.5462661601843782
                }
              },
              {
                "app.user_data.Battle_AutoTuningPnParam_NN.Node": {
                  "_Weight": [
                    0.0115741787108251,
                    0.018951092644938376,
                    -0.08010153705501627,
                    -0.7791074922735542,
                    -0.1008536369206899,
                    0.5713352737248675,
                    -0.3534746204742881,
                    1.0256369441821676,
                    -0.37823579866287677,
                    0.4146078022664088,
                    -0.06813638558524826,
                    -0.1210019725708321,
                    0.0759417923305178,
                    0.12213788380127395,
                    -0.8941052008966521,
                    0.20163943145824534,
                    -0.37338480999971346,
                    -1.1191139227257791,
                    -0.7327947921978056,
                    0.3208759196183516,
                    -0.16872403409937517,
                    0.1641295699637663,
                    0.5155132801198439,
                    0.18988236011607448,
                    0.8528146329723996,
                    -0.6033314221899714,
                    -0.4280918287970488,
                    0.40950829070869676,
                    0.26593276688236606
                  ],
                  "_Bias": 0.8320443815332877
                }
              },
              {
                "app.user_data.Battle_AutoTuningPnParam_NN.Node": {
                  "_Weight": [
                    0.15382718258532863,
                    -0.8776371683150207,
                    -0.40414879523181607,
                    0.7309478856197593,
                    0.22038285972235255,
                    0.3023660871127061,
                    0.00032698123074928606,
                    -0.8510998581385751,
                    0.7965219929265854,
                    0.693412595023411,
                    0.27095925952112704,
                    -0.3160777623450759,
                    -0.4738181767022967,
                    -0.5021724772740601,
                    0.690649893964707,
                    -0.21920817215056315,
                    0.43005988440791143,
                    -0.7862366436671532,
                    -0.8732447336310054,
                    0.8441507766086038,
                    0.6676407156335359,
                    0.32109440223139346,
                    0.8060078198386382,
                    -0.6741440738908716,
                    0.08789781128217972,
                    0.8583528558403206,
                    0.11866015442623855,
                    0.878584066820758,
                    -0.7143245558991197
                  ],
                  "_Bias": -0.41736095960346326
                }
              },
              {
                "app.user_data.Battle_AutoTuningPnParam_NN.Node": {
                  "_Weight": [
                    0.0015207636458453677,
                    0.4073219828819423,
                    -0.22026443801026852,
                    -0.2341065284416328,
                    -0.21833647507965148,
                    0.41708673050435113,
                    -0.5928828655095046,
                    0.31154811398816623,
                    0.17146300291875377,
                    -0.9526727303862176,
                    -0.9737552146080511,
                    0.596554930228099,
                    -0.5695849140962915,
                    -0.5886244417345157,
                    -0.39653027982143346,
                    0.3951543658711759,
                    -0.29505310561113157,
                    0.28977855677336484,
                    -0.6790510204285047,
                    -0.5034491026478228,
                    -1.0949630960528618,
                    -0.5779514005855418,
                    -0.12084269608794573,
                    -0.3899339385521543,
                    0.4720479894945983,
                    -0.38337143891252734,
                    -0.24461626636885558,
                    -0.1897959150759255,
                    -0.2708037362875461
                  ],
                  "_Bias": -0.10862245017804201
                }
              },
              {
                "app.user_data.Battle_AutoTuningPnParam_NN.Node": {
                  "_Weight": [
                    0.29026780232116606,
                    -0.13059993798808434,
                    -0.06684956981025521,
                    -0.5287360132926536,
                    0.06006873319206878,
                    -0.9271538322678698,
                    -0.7907648284218314,
                    -0.06747409857350996,
                    0.814466849388293,
                    0.3895816318805951,
                    -0.4006694302579842,
                    0.23983386325064845,
                    0.6605573997012488,
                    0.09488850475009365,
                    0.5715629252140175,
                    -0.5350690502454588,
                    0.5757979603374244,
                    -0.02661605102571484,
                    0.814131809347541,
                    0.584646478297784,
                    -0.19212848187023665,
                    0.828132084522823,
                    -0.04410974921196826,
                    0.5759694312727046,
                    -0.9700897698472658,
                    -0.001024857147150149,
                    -0.5152684290932971,
                    0.7971411480639385,
                    -0.8445653205761465
                  ],
                  "_Bias": -0.2782339613738506
                }
              },
              {
                "app.user_data.Battle_AutoTuningPnParam_NN.Node": {
                  "_Weight": [
                    0.5560802082003011,
                    0.4575595274428036,
                    -0.20139623620873542,
                    -0.8999057868927353,
                    0.13836744066777365,
                    0.5343422324649295,
                    -0.29305508680659076,
                    -0.1492900042377006,
                    -0.5071692419863109,
                    0.7956843020922463,
                    0.09954522468701764,
                    -0.7792261418152695,
                    -1.0646793445481921,
                    0.6630404668201073,
                    -0.19463811080003646,
                    0.48880327917527316,
                    -0.4434466503490755,
                    0.15157417440057108,
                    0.5169992452227926,
                    1.1185658467647077,
                    1.1019910945835893,
                    0.846064834915329,
                    0.2323633124177722,
                    0.5683772522609337,
                    0.37154458574488697,
                    0.09989427578603519,
                    0.6534028381169921,
                    -0.1436956075180138,
                    -0.9116088815909217
                  ],
                  "_Bias": -0.13214878684835554
                }
              },
              {
                "app.user_data.Battle_AutoTuningPnParam_NN.Node": {
                  "_Weight": [
                    0.5985204936614781,
                    0.5597548879958021,
                    -0.34207742203142877,
                    0.9310604232816627,
                    -0.4934770021311518,
                    0.5548701290169712,
                    -0.5535131339431341,
                    -0.9737390733082708,
                    0.45925720076763915,
                    0.42650323537193524,
                    -1.0195227236952853,
                    0.38282787059280554,
                    -0.26691962096990085,
                    -0.022847170939679824,
                    0.6775653740817523,
                    -1.1713304368982054,
                    0.4011182598086633,
                    -0.6738439064043104,
                    0.19420805416853987,
                    -0.7352929990645886,
                    -0.6398265004226006,
                    -0.12162386290428981,
                    0.12847650107917144,
                    -0.9127952937378309,
                    0.5591280791433375,
                    -0.2665700591042563,
                    -0.6456772961424321,
                    0.7706500440328737,
                    0.4614019750931538
                  ],
                  "_Bias": 0.9171975493499068
                }
              },
              {
                "app.user_data.Battle_AutoTuningPnParam_NN.Node": {
                  "_Weight": [
                    0.10465216518523553,
                    -0.0903326935198077,
                    0.5969560761341758,
                    0.2762413261662819,
                    -0.9771146058879878,
                    -0.1153276660708321,
                    0.5796337601961611,
                    -0.4975112372698552,
                    1.1536583359216732,
                    -0.43244901121753415,
                    0.9559297085136774,
                    -0.5968356299499463,
                    -0.7189063497834874,
                    1.0263878752980817,
                    -0.23916658717815062,
                    0.8553661406364731,
                    -0.09195926347018066,
                    -0.08587750890531531,
                    -0.09020683357100043,
                    0.4473197947180668,
                    0.8614885343738699,
                    0.3923262348912134,
                    0.2825542658060944,
                    -0.4779404611630435,
                    0.2599672137183929,
                    -0.7622981496396568,
                    -0.2699186865978671,
                    0.20027479817812177,
                    0.06283461185556971
                  ],
                  "_Bias": -0.5540768776588929
                }
              },
              {
                "app.user_data.Battle_AutoTuningPnParam_NN.Node": {
                  "_Weight": [
                    -0.33161005473327415,
                    0.6524721578602636,
                    0.476417094222908,
                    0.429910291712973,
                    -0.884571083932058,
                    -0.6328587717211679,
                    -0.06410845693147514,
                    0.5930409627573103,
                    0.6956582070963636,
                    0.9076993658204952,
                    -0.5823900099542196,
                    -0.839366366784776,
                    0.6789655190029499,
                    -0.559446671369247,
                    -0.5295915476447969,
                    0.5300976310107196,
                    0.6467905707421883,
                    0.07048115564443759,
                    0.23175867769275574,
                    1.0410669094452363,
                    -0.020671610307339983,
                    -0.6848815642788475,
                    0.012622684478049609,
                    0.16428414541351016,
                    0.7990284031475448,
                    -0.2712776741519807,
                    0.6381613860406455,
                    -0.9052462116388917,
                    -0.5587477401357185
                  ],
                  "_Bias": -0.9220447225436406
                }
              },
              {
                "app.user_data.Battle_AutoTuningPnParam_NN.Node": {
                  "_Weight": [
                    0.4703427195030703,
                    0.11984310400340754,
                    0.8590530417208418,
                    0.26868698757549936,
                    0.01676397690326104,
                    0.8870318568744291,
                    0.3103173768057307,
                    0.7991983061977633,
                    -1.345997288766874,
                    0.7199902599498385,
                    -0.7027030675404143,
                    0.7027382989569333,
                    0.3638768549176078,
                    -0.9274239633806466,
                    -0.8278210773700821,
                    0.5032966106049103,
                    0.6030957960478649,
                    0.18546138727874276,
                    0.7674834023719043,
                    0.5663641514090332,
                    -0.29288617195569683,
                    0.6987469877635818,
                    -0.347199480550544,
                    -0.20183704210430556,
                    0.11930272313639816,
                    0.14655008971337688,
                    1.1285185165908562,
                    -0.7251763581837598,
                    -1.076315937866909
                  ],
                  "_Bias": -0.8748887970577072
                }
              },
              {
                "app.user_data.Battle_AutoTuningPnParam_NN.Node": {
                  "_Weight": [
                    0.2764739966799137,
                    -0.9639656840089084,
                    0.15486702558882678,
                    0.3759596509515055,
                    -0.463801320862486,
                    -1.1611894461076742,
                    0.6954666045237812,
                    0.9649376635810422,
                    0.785814089278448,
                    -0.6281072975782703,
                    -0.33322196731916204,
                    0.7146739539832976,
                    0.33297441477211676,
                    0.26447432484548383,
                    0.10679105707829334,
                    -0.08787774346404176,
                    -0.27467200978948414,
                    -0.5834306300221048,
                    0.6920311964443436,
                    0.6231503464740719,
                    0.2894265712899815,
                    0.481365642110828,
                    -0.25534974181699127,
                    0.6048464882303596,
                    0.924067948280125,
                    -0.6863963614047686,
                    0.4965341211160501,
                    -0.36670253081042664,
                    0.7743942768541255
                  ],
                  "_Bias": -0.14783064492137118
                }
              },
              {
                "app.user_data.Battle_AutoTuningPnParam_NN.Node": {
                  "_Weight": [
                    0.9528946265255946,
                    -0.7039694809148556,
                    -0.47886575610109,
                    -0.20356891123542928,
                    -0.01056949776245018,
                    0.45117096227160813,
                    -0.6038982198582992,
                    -0.6324059507147342,
                    -0.4217235286958205,
                    -0.5190172763444633,
                    -0.32372538925601757,
                    0.5728942129136902,
                    0.9533880705619756,
                    1.1072234828104153,
                    -0.235990811895608,
                    0.3703773179422546,
                    -0.5721670268129089,
                    0.29883603749728704,
                    0.4649713467737517,
                    -0.3625499944297381,
                    0.6816635732537337,
                    -0.9640273341692372,
                    0.27671129150608836,
                    -0.030292971867449305,
                    1.0345871471409713,
                    0.537606227382176,
                    0.3072081164256272,
                    -0.1245468388582924,
                    -0.14763159348845814
                  ],
                  "_Bias": 0.6949542055373805
                }
              },
              {
                "app.user_data.Battle_AutoTuningPnParam_NN.Node": {
                  "_Weight": [
                    -0.3175876887681925,
                    0.7706430560978687,
                    -1.3496658870284504,
                    0.3217676583611931,
                    -0.13083671640092182,
                    -0.037239509563746484,
                    -0.9616945330523086,
                    0.44234563576961405,
                    0.9245770064601881,
                    -0.49691610910171413,
                    -0.5100742228276208,
                    0.7203240101857749,
                    -0.7980512891109396,
                    1.033546316776961,
                    0.647342798594639,
                    -0.8053515201261527,
                    -0.6884289270640331,
                    0.23035422186072382,
                    -0.45736829231620674,
                    0.13853023359676503,
                    -0.24553986508757403,
                    -0.25322385292537697,
                    1.016502927309345,
                    0.5080508390481062,
                    -0.6045934480535471,
                    0.546139102816725,
                    0.587110584533613,
                    -0.5015140844749577,
                    -0.10776301610352178
                  ],
                  "_Bias": -0.5234132261445332
                }
              },
              {
                "app.user_data.Battle_AutoTuningPnParam_NN.Node": {
                  "_Weight": [
                    0.389900954693307,
                    0.9250307474430967,
                    0.8396462415632482,
                    -0.6872718451999316,
                    0.7571631702904797,
                    -0.7934326878668556,
                    -0.4052089889472468,
                    -0.8919469278916008,
                    -0.13596057195357034,
                    -0.07548307109504321,
                    0.0032770913797473314,
                    0.9656015535023836,
                    -0.12768945913436977,
                    0.19658016808758022,
                    0.40833227052331605,
                    -0.18235984844896724,
                    0.6414139747797215,
                    0.3372834324477492,
                    -0.9609904269811399,
                    0.030991960759818922,
                    0.45906446810723356,
                    -0.3927444586828427,
                    0.18124562833707591,
                    0.5934367321438282,
                    -0.24971499259525262,
                    0.821360944137821,
                    -0.8552543490109745,
                    0.555995972132824,
                    -0.09057443989175457
                  ],
                  "_Bias": -0.13307983434670417
                }
              },
              {
                "app.user_data.Battle_AutoTuningPnParam_NN.Node": {
                  "_Weight": [
                    1.0023155386198235,
                    -0.08566332361290079,
                    -0.030858325721556758,
                    0.13423139094276712,
                    -1.139740553032391,
                    -0.9240548345746287,
                    -0.24281764966278604,
                    -0.10874781463481517,
                    -1.1490996211226734,
                    0.6463454755309681,
                    -0.053233168481947174,
                    -0.13320968351696733,
                    -0.04902530769315654,
                    -0.737249364320909,
                    1.0039484585762057,
                    0.9836217435332557,
                    0.34746175441346216,
                    0.2395628976722694,
                    0.5606699725257177,
                    -0.7820158964186068,
                    -0.5065559116473506,
                    0.16764366042297377,
                    -0.45981835322737713,
                    0.07647410799033016,
                    -0.08412810119615691,
                    0.21370094938771547,
                    0.5908412978928002,
                    -0.5724593233238296,
                    -0.9632557122978951
                  ],
                  "_Bias": 0.6005704629050651
                }
              },
              {
                "app.user_data.Battle_AutoTuningPnParam_NN.Node": {
                  "_Weight": [
                    -0.6990119962286517,
                    -0.026993944542545622,
                    -0.9420578234809469,
                    -0.7692631778123382,
                    -0.4193514907910859,
                    0.3312482426884076,
                    -0.4948377467139382,
                    -0.8200219231288102,
                    -0.4323303241499913,
                    0.12203150361779437,
                    -0.93463187086164,
                    -0.7176598785939461,
                    0.9299555138532992,
                    -0.9314508680075866,
                    -0.7060228334166158,
                    -0.587044513860152,
                    -0.890773556389903,
                    -0.8429735328201784,
                    0.5796141321006902,
                    0.643347261197487,
                    0.5099322721781974,
                    -0.4330909391181957,
                    -0.3078772778783127,
                    0.10834721011835917,
                    -0.6433030129363566,
                    0.03326480607847669,
                    -0.9888812233403607,
                    0.045440382895278644,
                    -0.14626428890378185
                  ],
                  "_Bias": 0.46919794539448384
                }
              },
              {
                "app.user_data.Battle_AutoTuningPnParam_NN.Node": {
                  "_Weight": [
                    -0.6998918196707593,
                    0.5352632140565924,
                    -0.18239169274244488,
                    0.24133864586301929,
                    0.8733518873689158,
                    0.7698057364731595,
                    0.10425593140743393,
                    0.7362125126226975,
                    -0.2552544326408757,
                    0.08555108659763608,
                    -0.140026129944272,
                    0.47015232520573763,
                    -0.6951647922904844,
                    0.197688026344682,
                    0.5411080625570942,
                    -0.12108853018810078,
                    -0.9613070428825741,
                    -0.3898133891095139,
                    -0.45795846571135507,
                    -0.02625587117357884,
                    -0.1769014614531436,
                    0.6923938781418855,
                    -0.3995685797645887,
                    0.7113680631926715,
                    -0.7647097141966822,
                    -0.9177076793675437,
                    0.9524323191024976,
                    0.9507573549856525,
                    -0.5004353374269982
                  ],
                  "_Bias": -0.44413655424586773
                }
              },
              {
                "app.user_data.Battle_AutoTuningPnParam_NN.Node": {
                  "_Weight": [
                    -0.773607772013966,
                    1.1651311240182995,
                    0.5380802139587088,
                    0.6980395588923536,
                    0.42096914306258376,
                    0.4420074892106831,
                    -0.21037402007448058,
                    0.3678284578429065,
                    -0.44250825082674416,
                    0.41128747013415806,
                    0.1466806788417393,
                    -0.054985136427383945,
                    -0.18610335481344856,
                    0.679202852967923,
                    0.1297811402297371,
                    -0.7802711086930828,
                    -1.120102413591651,
                    0.46804236723313064,
                    0.44101587311007723,
                    0.7609772549306026,
                    0.07438865200129045,
                    -0.7087840308329528,
                    -0.6364241777383094,
                    0.33434572727462875,
                    0.30261854339531435,
                    0.9932469428893375,
                    0.29985745854391216,
                    -0.9387833050383843,
                    -0.6151796265028049
                  ],
                  "_Bias": 0.1704448311265894
                }
              },
              {
                "app.user_data.Battle_AutoTuningPnParam_NN.Node": {
                  "_Weight": [
                    0.7852835367827496,
                    -0.5713099298004763,
                    0.895737419842755,
                    0.8811286257762917,
                    0.16816903160028396,
                    -0.10454375909009218,
                    -0.646569842263839,
                    0.6353910094260733,
                    -0.11162957646952461,
                    -0.7929645479288804,
                    0.21745241951281952,
                    -0.807899499799415,
                    0.14571383621142622,
                    0.35823804628057837,
                    1.194487851768172,
                    -1.0895543994721382,
                    0.4570279038551832,
                    -1.1643834116325982,
                    0.7369450476886664,
                    0.16511828422730457,
                    -0.8574321059295725,
                    -0.9024646944369431,
                    -1.2144105120978406,
                    -0.018745848899364967,
                    0.38983554075781796,
                    -0.8008897299312582,
                    -0.3315896970802647,
                    0.284040323280062,
                    -0.3271479803983629
                  ],
                  "_Bias": -0.5411584881348718
                }
              },
              {
                "app.user_data.Battle_AutoTuningPnParam_NN.Node": {
                  "_Weight": [
                    -1.0060569032192355,
                    -0.7427148656427875,
                    0.7218815147228628,
                    0.35329284513143383,
                    0.37970084571698065,
                    0.43874825306259235,
                    0.7643483340526775,
                    -0.6550618138462991,
                    -0.7114827123658886,
                    -1.346166553949031,
                    -0.25786224595494206,
                    -0.3192763268305055,
                    -0.4250589212439039,
                    1.1510618227671914,
                    -0.4900914705830171,
                    0.3746734335303411,
                    0.07836294653085964,
                    0.4680022817532056,
                    0.6358844072846859,
                    0.17898559265495423,
                    -1.1281853803547959,
                    0.3126890827229242,
                    -0.5570059491049371,
                    0.23785483158187787,
                    -0.2672879412064065,
                    0.4180784205978758,
                    -0.603907711569693,
                    -0.4843766418305241,
                    0.4423564492152328
                  ],
                  "_Bias": 0.7227734447105749
                }
              },
              {
                "app.user_data.Battle_AutoTuningPnParam_NN.Node": {
                  "_Weight": [
                    0.1634204274532389,
                    0.07493382492220366,
                    0.39435046630346965,
                    0.4800234223314897,
                    0.8196522629673945,
                    0.2229923549296653,
                    0.1837160623924612,
                    0.2009830128807864,
                    1.3655488151551178,
                    0.7102994249975435,
                    -0.24102908853691063,
                    -0.6276524568974399,
                    -0.46438302526718117,
                    1.0530247153673515,
                    0.20630573281222236,
                    0.44154852481466084,
                    -0.20253857052380006,
                    -0.31393918815278543,
                    0.3698450068162414,
                    -0.29099735647960656,
                    0.8544993361208887,
                    0.1380188752931382,
                    -0.7598899790476111,
                    0.5466337592766031,
                    0.86880518999407,
                    0.7049808135303895,
                    -0.5453015609012639,
                    0.01212528206064148,
                    0.021303316897784832
                  ],
                  "_Bias": -0.5048206313729549
                }
              },
              {
                "app.user_data.Battle_AutoTuningPnParam_NN.Node": {
                  "_Weight": [
                    0.06638224177424051,
                    -0.716095707125172,
                    0.7080175503533483,
                    0.863983555664991,
                    -0.5572537968693315,
                    -0.8104098769590177,
                    -0.4459640018954137,
                    -0.3900944366146546,
                    0.6208753047519227,
                    -0.7192731919171803,
                    0.7501868623425842,
                    0.6899910319982494,
                    0.3911083703674702,
                    -0.7174050249077736,
                    0.029848736958492054,
                    0.6620996422843185,
                    0.6716825053327453,
                    -0.7886540436424809,
                    -0.9040660928743458,
                    0.7032664652861537,
                    -0.4054854320734753,
                    -0.5821576591692901,
                    0.6658906759043377,
                    -0.6157531565834211,
                    0.5178371738925361,
                    -0.9252740349937335,
                    -0.565352355899366,
                    -0.7943936948036676,
                    0.48340380806291167
                  ],
                  "_Bias": -0.5310688196308807
                }
              },
              {
                "app.user_data.Battle_AutoTuningPnParam_NN.Node": {
                  "_Weight": [
                    -0.5158292753115739,
                    -0.6378211710394106,
                    1.0836006220915795,
                    1.038677419553438,
                    -1.068414865454729,
                    0.7563750391204546,
                    -0.355488429856703,
                    0.3799662238491388,
                    0.44749461793516787,
                    0.05240046007798178,
                    0.7121632792797716,
                    -0.283796833121896,
                    -0.9834450786217984,
                    -1.3059237672599835,
                    0.7325500576733507,
                    0.5512521122466992,
                    -0.6438458345143911,
                    -0.6973027948935548,
                    0.5919598648779877,
                    0.4613276105132729,
                    -0.18364919287699222,
                    -0.3924992238621649,
                    0.4318397982553799,
                    -0.5543318362696732,
                    -0.5826824198565932,
                    -0.6981451338086203,
                    0.6622733305296,
                    0.9888138435837056,
                    0.6935916654034109
                  ],
                  "_Bias": -0.014208065498741101
                }
              },
              {
                "app.user_data.Battle_AutoTuningPnParam_NN.Node": {
                  "_Weight": [
                    0.20988826699923202,
                    -0.008484000857982635,
                    0.04105160776629387,
                    0.27047435683932713,
                    0.2444657351789788,
                    0.7591823571770447,
                    -0.37575562833175624,
                    0.5187010282052912,
                    0.6668795137013711,
                    -0.21406783825138356,
                    -0.8552820285868772,
                    -0.9098438120639863,
                    -0.6864469367023496,
                    -1.0084792804730227,
                    0.02106232557990423,
                    -1.0814563938528128,
                    -0.3716872013945195,
                    1.1365849697338115,
                    0.27407432455632813,
                    -0.9774428918838287,
                    0.0049894093980272685,
                    0.08149153734171272,
                    0.7370309804562555,
                    0.6889624420455077,
                    0.20703675529401733,
                    -0.8612017654835105,
                    -0.6870672740696302,
                    0.8109248025439685,
                    -0.4621747562421479
                  ],
                  "_Bias": -0.02782452297184688
                }
              },
              {
                "app.user_data.Battle_AutoTuningPnParam_NN.Node": {
                  "_Weight": [
                    -1.0752638352721198,
                    0.5502184071668029,
                    0.645603537761747,
                    0.5982908248327592,
                    -0.6812033381271893,
                    0.21358537267999347,
                    -0.2777395288638978,
                    -0.8401638854902831,
                    0.5499202222913832,
                    -0.20439083522590762,
                    0.5345415914154796,
                    -0.032616227419486825,
                    0.7254608639026767,
                    -1.2073155349518931,
                    0.7405484105048697,
                    0.5825086376605916,
                    -0.9458081847327412,
                    0.0793544705435982,
                    -0.6207412196257457,
                    -0.21782240467019345,
                    -0.48765774981604865,
                    -0.6369094923703376,
                    -0.48461125467271904,
                    0.16716493466107935,
                    -0.13572746342930714,
                    0.09757210707372599,
                    0.4567316029237771,
                    0.21192283986217383,
                    0.3364688325776895
                  ],
                  "_Bias": 0.8406947730343944
                }
              },
              {
                "app.user_data.Battle_AutoTuningPnParam_NN.Node": {
                  "_Weight": [
                    -0.9508706039911636,
                    0.257718141796775,
                    0.1176237956543367,
                    -0.6857143203874513,
                    -0.5212704890781347,
                    -0.4773991610112587,
                    -0.11192034531088167,
                    -0.33782497544041484,
                    -1.1235877256665578,
                    0.5141564247712473,
                    -0.3084163953126244,
                    0.3629043510601616,
                    -0.3332508359913935,
                    -0.5302287491446903,
                    -0.956792706470112,
                    -0.8127809005274392,
                    0.5544502870448889,
                    -0.18352736279938225,
                    -0.47077178969498656,
                    -0.7319772714096228,
                    -0.40552361846976337,
                    0.5711462329587662,
                    0.00956373812721064,
                    0.833340390233057,
                    0.016649167309141906,
                    -0.6335637679325894,
                    0.8735224850771326,
                    0.19244999756743844,
                    -0.3972646650720188
                  ],
                  "_Bias": -0.7588193716753203
                }
              },
              {
                "app.user_data.Battle_AutoTuningPnParam_NN.Node": {
                  "_Weight": [
                    0.5870532148577732,
                    0.3175447428707579,
                    -0.5192039618318174,
                    -0.684326998355901,
                    -0.019739642138349715,
                    0.10379528229209187,
                    -0.5874038542560042,
                    0.8376590932415611,
                    1.0660263537380654,
                    -0.27501831446811476,
                    0.23494117778013515,
                    0.6273067850237409,
                    0.8042518047169389,
                    0.8630728958071751,
                    -0.38240619947680615,
                    -0.24637965860785127,
                    0.7702602694556235,
                    -0.8684587033129783,
                    -0.20571161935647708,
                    -0.2966826168834308,
                    0.6161219472701569,
                    0.6562100733318048,
                    0.1863322830816911,
                    0.14240178707003376,
                    -0.809989809058554,
                    -0.3418314210769083,
                    0.34746374575974037,
                    0.8774572706484479,
                    0.01800990681727747
                  ],
                  "_Bias": 1.1836082309314098
                }
              },
              {
                "app.user_data.Battle_AutoTuningPnParam_NN.Node": {
                  "_Weight": [
                    0.4363712197197561,
                    -0.803191119831041,
                    -1.1157331418414729,
                    0.6782438754355165,
                    -0.44001706060625745,
                    -0.2327110721080912,
                    -0.9280114881201625,
                    0.8788760503425147,
                    0.33080098734715185,
                    0.5584528660727994,
                    0.6751227146735621,
                    -0.26597800035812175,
                    0.5789053312523191,
                    1.0660859796136897,
                    -0.05890141443758505,
                    -0.40548252862564166,
                    -0.32743273852085697,
                    -0.7757687927561672,
                    0.3363637084774293,
                    0.6160312860051904,
                    0.43975910880611635,
                    -0.8612880207965025,
                    -0.6683588653662248,
                    -0.14973549143524945,
                    0.13787001990455763,
                    0.9766271917398442,
                    -0.5289779003323959,
                    0.9064333260180243,
                    0.9323647772240311
                  ],
                  "_Bias": 0.04919583852394023
                }
              },
              {
                "app.user_data.Battle_AutoTuningPnParam_NN.Node": {
                  "_Weight": [
                    -0.6997937090245978,
                    -0.48414693247805113,
                    -0.4741920708419333,
                    0.07367389828806316,
                    0.41310253692049526,
                    0.47888058427804236,
                    0.7020804413196273,
                    0.2371647557783115,
                    -0.3557033098005899,
                    0.5537358477638653,
                    -0.11665645427695363,
                    0.7748068265688225,
                    0.7803910478931876,
                    -0.7234260600576065,
                    0.06770464404695152,
                    0.733630578462381,
                    0.2029405861458517,
                    0.6786952187918213,
                    -0.1619304529948572,
                    -0.7804537100860215,
                    -0.814666228749647,
                    0.9730930744363357,
                    0.9836249360008543,
                    -0.3038313281148194,
                    0.5151101257315712,
                    0.948738126669917,
                    0.8173452696238519,
                    -0.5365413862877242,
                    0.8601485076241441
                  ],
                  "_Bias": 0.6764302548569134
                }
              },
              {
                "app.user_data.Battle_AutoTuningPnParam_NN.Node": {
                  "_Weight": [
                    -0.3191446340214997,
                    0.41629915638277615,
                    -0.026102050070921572,
                    -0.787759638164883,
                    0.01108923966867392,
                    -0.5234597083447051,
                    0.36546285849476157,
                    -0.1642015884597812,
                    -0.38174334684414696,
                    -1.3075822607851657,
                    -0.5587913990972878,
                    -0.7996513282356106,
                    0.700826924761744,
                    0.022577316090817468,
                    -0.3068677856543434,
                    -0.8750646253256356,
                    0.5659659030848687,
                    -0.701386302629206,
                    0.8989983942257046,
                    0.2789270011387955,
                    -0.32531487637346757,
                    0.40509502500074174,
                    -0.2824436488501429,
                    -0.15922535205817484,
                    -0.7296377938562619,
                    -0.8109264989749817,
                    -0.1539397114502594,
                    -0.38499776972887717,
                    -0.40792242654959143
                  ],
                  "_Bias": -0.7670460755642647
                }
              },
              {
                "app.user_data.Battle_AutoTuningPnParam_NN.Node": {
                  "_Weight": [
                    -0.7617640684796881,
                    0.3497176039790994,
                    0.2840349166868047,
                    0.012952936927577015,
                    -0.767828488367437,
                    -0.7792143331507032,
                    -0.12411114148387105,
                    0.7916390836130436,
                    0.37816424164404655,
                    -0.15380066183359398,
                    0.8616796308122768,
                    -0.8001872946152411,
                    0.13342891855918898,
                    0.943745788242595,
                    -0.17637948079973112,
                    0.014449068071621784,
                    0.8256056585410108,
                    -1.0854516137697297,
                    0.24868394242055464,
                    -0.7476686158869588,
                    0.023156519122328495,
                    0.9141347536543987,
                    -0.6064610335949826,
                    0.3966993846031254,
                    0.8308024626916528,
                    0.473567140672415,
                    0.6021641481560834,
                    -0.7953727340880983,
                    0.4757557822667114
                  ],
                  "_Bias": -1.1992658589313656
                }
              },
              {
                "app.user_data.Battle_AutoTuningPnParam_NN.Node": {
                  "_Weight": [
                    -0.3749924270668506,
                    -1.617072895210408,
                    0.03516674597941689,
                    -0.22032550493804398,
                    0.4661767427122906,
                    -0.5333189476204078,
                    0.6337691305571118,
                    -0.4943187176885791,
                    0.6995728276708837,
                    0.6256778842399137,
                    0.3753824468529348,
                    -0.3055605133431319,
                    -0.5308554126847203,
                    0.5763665573846875,
                    -0.8478507371775029,
                    -0.003920632470584052,
                    0.0863487156335289,
                    -0.6190837670125259,
                    0.8289179244917942,
                    0.012007017450196661,
                    -0.27004715874374885,
                    -0.08469275350752359,
                    0.09643164987915459,
                    0.04319540329692936,
                    -0.3144006165848633,
                    -0.6178153848104834,
                    -0.7676121563902675,
                    0.19815068052641444,
                    -0.5403113807174332
                  ],
                  "_Bias": -0.16262248270629825
                }
              },
              {
                "app.user_data.Battle_AutoTuningPnParam_NN.Node": {
                  "_Weight": [
                    -0.46629683126549115,
                    0.0761226592353112,
                    0.7201526647361359,
                    -0.6142385357636143,
                    -0.6336911856561317,
                    -1.3142319823297717,
                    -0.8322284256408392,
                    0.39949737534569996,
                    -0.48059311384083075,
                    0.5595244073789207,
                    0.546331836719203,
                    -0.6731327344671107,
                    0.5165763731846845,
                    0.8871896923078414,
                    0.8403089637987338,
                    -0.8307390428328102,
                    -0.6633029347645574,
                    -0.8732564377018814,
                    -0.6642580171366913,
                    -0.19637483582261211,
                    -0.7431618474287482,
                    -0.3186105494751776,
                    -0.2010244094747958,
                    -0.8998928167624275,
                    -0.8642778827654283,
                    -0.37564233729777985,
                    -0.24768945642314585,
                    -0.8275042965722209,
                    0.8577398191226326
                  ],
                  "_Bias": 0.18010747650205142
                }
              },
              {
                "app.user_data.Battle_AutoTuningPnParam_NN.Node": {
                  "_Weight": [
                    0.3931102968863213,
                    0.9875006217001907,
                    -0.9202080084200303,
                    -0.6322657923666036,
                    0.5906386379126439,
                    -0.34395562405710234,
                    -0.7791081601846238,
                    -0.5815381580411805,
                    -0.45284361646574584,
                    -0.46262263458308517,
                    -0.6871305388658581,
                    0.4885831109564915,
                    -0.32358285877324133,
                    0.3460470809212915,
                    -0.5713718906448678,
                    0.42559908563755955,
                    0.7755489650455373,
                    0.5920280716398517,
                    -0.6639080706329599,
                    -0.5221435120669258,
                    0.8547577397698023,
                    -0.9151837767075631,
                    0.5394060640987037,
                    -0.8385977626619481,
                    -0.11289859143085922,
                    -0.1888201088532928,
                    -0.24539270645928385,
                    0.6449220356775897,
                    -0.1504479302916744
                  ],
                  "_Bias": 0.743266896737232
                }
              },
              {
                "app.user_data.Battle_AutoTuningPnParam_NN.Node": {
                  "_Weight": [
                    0.2915385391495201,
                    0.6517267319791058,
                    -0.43033850613403973,
                    -0.18974101482815825,
                    0.34383192455261496,
                    -0.1792634554009778,
                    -0.6137132788839672,
                    -0.40043214964358836,
                    -1.4596130547255377,
                    1.3088279609782874,
                    -0.5752061653235789,
                    0.5068008445095471,
                    -0.1966047841419419,
                    -0.44223364331067094,
                    -0.4166285417381909,
                    0.6558697546794323,
                    0.22939121132483217,
                    0.6392175459821978,
                    0.05009547195363869,
                    0.6658368396124659,
                    -0.05666128820743487,
                    0.5716153901437873,
                    -0.7602774658541394,
                    0.5079745001845669,
                    0.17557565142920814,
                    0.6238004728475502,
                    -0.5735502769395481,
                    -0.749325203231977,
                    0.676808223978312
                  ],
                  "_Bias": -0.20594274909231627
                }
              },
              {
                "app.user_data.Battle_AutoTuningPnParam_NN.Node": {
                  "_Weight": [
                    0.8109663666998658,
                    0.13509370094892523,
                    -0.538851233943797,
                    0.34618293269560124,
                    0.5022430687000987,
                    -0.6153107131727549,
                    0.5644046376321776,
                    -0.9874286695051185,
                    0.8407175800423934,
                    -0.13399765836106967,
                    -0.6544718036741426,
                    -0.9383761613745821,
                    0.6756546483614622,
                    -0.5568986287735765,
                    -1.2998141203522802,
                    0.25979982181024647,
                    0.2008206065059684,
                    0.9023628584444894,
                    -0.18124105300665191,
                    0.8034304031131114,
                    -0.8893710630939796,
                    -0.8525132575092823,
                    -0.31435172829147334,
                    -0.21501206788351745,
                    0.9248890348918893,
                    0.7181501240025433,
                    0.6952249511003831,
                    0.6917469448389195,
                    -0.31253716260243636
                  ],
                  "_Bias": -0.38495750911595095
                }
              },
              {
                "app.user_data.Battle_AutoTuningPnParam_NN.Node": {
                  "_Weight": [
                    0.5338945899661939,
                    -1.5946328294420191,
                    0.046832038995993974,
                    0.8046108092416292,
                    0.9371522747711688,
                    -0.07403851647366513,
                    -0.6474358207520746,
                    -0.49803429585904446,
                    0.0239243957813445,
                    -0.434203760285685,
                    -0.781750573489761,
                    -0.22739594363251817,
                    0.9492435209131398,
                    -0.6666534843749226,
                    -0.4403504374674935,
                    -1.0328670683880983,
                    -0.35715801534395514,
                    0.848453536494457,
                    -0.036445500127957296,
                    0.4941047887462967,
                    0.22685865402090916,
                    0.5387532959246406,
                    0.7821570025699305,
                    -0.7730179245690982,
                    -0.45227318655212595,
                    -0.5381059365470282,
                    0.44217290928990705,
                    0.6394583382296395,
                    -1.0513415150493877
                  ],
                  "_Bias": -0.5488808473652184
                }
              },
              {
                "app.user_data.Battle_AutoTuningPnParam_NN.Node": {
                  "_Weight": [
                    1.3302903714272414,
                    -0.6733523764018076,
                    0.42029596457833923,
                    -0.05162347568051404,
                    -0.7906764933431264,
                    0.3439408151533285,
                    -0.6220364779723161,
                    -0.6535984410694947,
                    0.33774563584590583,
                    0.8461999860656804,
                    0.6460232517232584,
                    1.1926652281315961,
                    0.38588543620294935,
                    -1.0708082253425057,
                    -0.28975994647003483,
                    0.21191325590870136,
                    0.55457647743261,
                    -0.22464951706316247,
                    1.0922671303957112,
                    -0.18753931785053424,
                    0.11531756571083972,
                    0.14367191931901516,
                    0.10383512884288254,
                    1.0295382200129064,
                    -0.011964503322604549,
                    -0.8416794485715808,
                    -0.7603134982057429,
                    -0.17191232391933198,
                    -0.313229274517638
                  ],
                  "_Bias": 0.8365937717299893
                }
              },
              {
                "app.user_data.Battle_AutoTuningPnParam_NN.Node": {
                  "_Weight": [
                    -0.18973431088961296,
                    -0.6026844509058401,
                    -0.03138019495840538,
                    0.8790682390457368,
                    0.23138968877576768,
                    -0.6375509558179175,
                    -0.42324289515838126,
                    1.0884620843542483,
                    0.557425109423513,
                    0.9498607797680447,
                    -0.8228556502117121,
                    -0.9832343560786888,
                    -0.6266518588217469,
                    0.05660482756600188,
                    -0.12227311984219208,
                    0.025421438643037364,
                    0.21076981260280772,
                    -0.48761559714080177,
                    -0.18048810365405699,
                    0.30867834295442415,
                    0.09409927770128892,
                    -0.36416628624035025,
                    0.1996295591146703,
                    0.07113614220401088,
                    -0.4010651574329263,
                    0.680925553190417,
                    -0.8451226624403438,
                    0.042281761090292656,
                    -0.3761721011778016
                  ],
                  "_Bias": 0.3930229476410287
                }
              },
              {
                "app.user_data.Battle_AutoTuningPnParam_NN.Node": {
                  "_Weight": [
                    0.8184415626138496,
                    0.22735313408525246,
                    -0.6823307450654765,
                    -0.9379515465520059,
                    -0.5302272887488453,
                    0.04485748067248901,
                    -0.8736463788767856,
                    0.7522694169113386,
                    -1.1566871403114485,
                    -0.6116738324956649,
                    0.3301075318399143,
                    1.1373150650234216,
                    1.160864577642817,
                    0.19491333204227015,
                    1.368659511455595,
                    0.7959523367514558,
                    -0.36153863950007636,
                    -1.0596570276763675,
                    0.6142906364979112,
                    -0.39558822177518066,
                    0.38544316735916057,
                    -0.36440417911759015,
                    0.39277437130394965,
                    -0.9343006423953093,
                    0.12708558884228935,
                    0.7998915324630731,
                    0.030118450962292372,
                    0.2604884383287379,
                    -0.2559703477910388
                  ],
                  "_Bias": -0.6904662338258293
                }
              },
              {
                "app.user_data.Battle_AutoTuningPnParam_NN.Node": {
                  "_Weight": [
                    -1.0816566843692126,
                    -0.2344909622918543,
                    -1.208257482921068,
                    -0.7060300830509857,
                    -0.639623613691776,
                    -0.47519502841068734,
                    -0.7168005129048696,
                    -0.06360137537363268,
                    0.6787200059302365,
                    -0.5495130976618884,
                    -0.553941864963849,
                    -0.8095930344792046,
                    -0.6098604937519277,
                    0.42795871404879565,
                    0.42292182848561893,
                    -0.5081002840550374,
                    1.2509610545456542,
                    0.2118831683657332,
                    -0.30999910894154264,
                    0.6634726672984258,
                    0.11921000548988131,
                    1.1340800512188625,
                    -0.5947937166125091,
                    -0.9894768843696479,
                    -0.14433620200727978,
                    0.5338187477955846,
                    -0.1020160409804213,
                    0.970441530533536,
                    -0.026752516923911427
                  ],
                  "_Bias": -0.37826391633949624
                }
              },
              {
                "app.user_data.Battle_AutoTuningPnParam_NN.Node": {
                  "_Weight": [
                    0.8011559883785568,
                    -0.6294444760635575,
                    -0.23454869640419534,
                    -1.1755367960389433,
                    -0.2563229280689944,
                    -0.21628863037134083,
                    -0.7591737342576956,
                    -1.1897932016436708,
                    -0.23685470939541411,
                    0.31074513580121677,
                    -1.0323046016186939,
                    0.7858958960375698,
                    0.622282680988417,
                    -0.21210665643060653,
                    1.2508750657387746,
                    -0.6427571517656374,
                    -0.48255673941135263,
                    -0.6015183184133517,
                    -0.08160290840228002,
                    -0.05072771455017352,
                    0.6379849189979965,
                    0.17483461920792653,
                    -0.7331811638569464,
                    -0.24757089903441934,
                    -0.4490202374586507,
                    0.7083275256723052,
                    0.11847927308834658,
                    -0.5334932922358707,
                    -0.6205812122324006
                  ],
                  "_Bias": -0.6724827849393722
                }
              },
              {
                "app.user_data.Battle_AutoTuningPnParam_NN.Node": {
                  "_Weight": [
                    -0.760626382210354,
                    0.6267145487312825,
                    -0.7957023163774424,
                    0.2113032337738279,
                    0.2735816938899894,
                    -0.24238196371413118,
                    0.8126563753238482,
                    -0.4771928218947834,
                    -0.2941267820115006,
                    0.14908087773377432,
                    0.7699760518434476,
                    0.6392822320008545,
                    -0.552108611017558,
                    0.4865871296669705,
                    0.22282536268855369,
                    0.9220203363206595,
                    -1.2422645884989587,
                    -0.45454589885152813,
                    0.9435065961051935,
                    0.08100334244242714,
                    -0.18111507245174074,
                    -0.13926868188741157,
                    -0.4166561441949466,
                    -1.0264556313334328,
                    -0.1704020766067031,
                    0.7978539491908808,
                    0.18305376135572338,
                    -0.3093737926414331,
                    0.8932997184093517
                  ],
                  "_Bias": -0.4817500342631482
                }
              },
              {
                "app.user_data.Battle_AutoTuningPnParam_NN.Node": {
                  "_Weight": [
                    -0.3672055268998574,
                    -0.4594890788820386,
                    -0.0197206001506723,
                    0.8770097459091143,
                    0.7263546415253416,
                    -0.5391448331423074,
                    -0.9593094423302392,
                    0.6402300066516126,
                    0.28639285802816067,
                    0.6998751795897232,
                    0.3791679715449354,
                    1.0247834139622003,
                    0.22633415609022892,
                    1.0496266188578383,
                    0.16627526504075535,
                    -0.6390886036098428,
                    0.5036443932985099,
                    -0.19030582593485107,
                    0.09614324043034288,
                    -1.0543269192515117,
                    -0.8008099511478065,
                    0.20471374614213284,
                    -1.021399248561819,
                    -0.1787750674296941,
                    -0.035579170563463394,
                    0.9662294232515517,
                    0.14348268881307943,
                    0.35403752044877196,
                    0.10349040834899641
                  ],
                  "_Bias": -0.8099536710672112
                }
              },
              {
                "app.user_data.Battle_AutoTuningPnParam_NN.Node": {
                  "_Weight": [
                    -0.000920779132822807,
                    0.36200549740206683,
                    0.966504180585804,
                    -0.16685782568222668,
                    0.13110080646458364,
                    1.1937534093797504,
                    0.4300665548710193,
                    0.966922453652645,
                    -0.9868141977292871,
                    -0.354966824425212,
                    0.1797858700955772,
                    -0.40941753972871475,
                    1.4561697739800483,
                    -0.1044879620510442,
                    0.5932742095274791,
                    0.4364506979419871,
                    -0.2599774451670144,
                    1.297553912249663,
                    0.0010600175239281987,
                    0.744768414264388,
                    0.2088767532324435,
                    -0.2368968980897857,
                    -0.18887619634218208,
                    0.16594380904807235,
                    0.5688573315884449,
                    -0.5103441666059665,
                    0.00656234238373108,
                    -0.2724734826825004,
                    0.2765852882041041
                  ],
                  "_Bias": 0.7497302915370123
                }
              },
              {
                "app.user_data.Battle_AutoTuningPnParam_NN.Node": {
                  "_Weight": [
                    -1.1852067986553254,
                    0.46776379936266854,
                    -0.16667590380319128,
                    -0.7571427778371623,
                    0.07105164554488959,
                    -0.593802404100947,
                    -0.14904322708614642,
                    0.6717177556044376,
                    -0.8516006489960162,
                    0.437544359257996,
                    0.35854577319948144,
                    -0.11405394857608023,
                    -1.1314641092909454,
                    -0.24086184367303248,
                    0.03804389581312582,
                    0.12875485743139825,
                    0.5531230682390993,
                    0.7543454243774166,
                    0.29435976387900986,
                    0.620655786480028,
                    -0.5699435854115209,
                    0.7775570305729667,
                    0.42735533456017244,
                    -0.31885425651258825,
                    -0.03639853701207896,
                    0.25037655529083747,
                    -0.7129215305889169,
                    -0.27250347469237063,
                    0.241880783119929
                  ],
                  "_Bias": 0.18174121084330996
                }
              },
              {
                "app.user_data.Battle_AutoTuningPnParam_NN.Node": {
                  "_Weight": [
                    -1.1530955408817694,
                    0.5493082991304196,
                    0.045282906066051995,
                    -0.8696316224320845,
                    0.9231326807638756,
                    0.8127015050140025,
                    -0.14424697262710331,
                    -0.2905465275992735,
                    -0.09941523428075756,
                    -0.9521515077259681,
                    0.6173931364091254,
                    -0.11197512464125027,
                    -0.20027489416668287,
                    -0.8501304904087726,
                    1.0952065808093217,
                    0.9840679248651801,
                    -0.7930658576314038,
                    -0.5597594257867098,
                    -0.06855766411668558,
                    -0.23919405138667435,
                    -0.6323164513079009,
                    0.415177431382513,
                    0.3084343617144068,
                    0.6529708524985282,
                    0.8528631455239164,
                    -0.7892282383499796,
                    0.9747468624540281,
                    0.19472485630861044,
                    -0.07071831974997218
                  ],
                  "_Bias": -0.34971626543202583
                }
              },
              {
                "app.user_data.Battle_AutoTuningPnParam_NN.Node": {
                  "_Weight": [
                    0.3066461985155375,
                    -0.06664509976121759,
                    -0.5634907827284263,
                    -0.12347604097373649,
                    0.2100667904927336,
                    -0.24013486618742286,
                    0.2455864538205147,
                    -0.9286952056354832,
                    -0.29648285263183516,
                    -1.0235161506494206,
                    -0.37741678621260505,
                    -0.5774572704300441,
                    0.25990000929925217,
                    0.6470945632103053,
                    -0.4291496770026473,
                    -0.8737179206635873,
                    -0.9926348891980008,
                    -0.34449482302718026,
                    0.18551966908359457,
                    -0.8062043094735376,
                    0.5592255876778992,
                    0.339293161842536,
                    -0.49666754709551986,
                    0.5833328121128109,
                    0.4921869223313502,
                    0.22022515032246426,
                    0.49083395235554533,
                    -0.703174340182837,
                    0.5656000747409843
                  ],
                  "_Bias": -0.4199751054781859
                }
              },
              {
                "app.user_data.Battle_AutoTuningPnParam_NN.Node": {
                  "_Weight": [
                    -0.2396456791761522,
                    0.23321373873791734,
                    -0.5493953780472067,
                    0.20503987342283586,
                    -0.11286348035835399,
                    -0.5317311430960031,
                    -0.1559254115991402,
                    -1.2196562048373112,
                    0.4151133432883309,
                    0.8344594777834146,
                    -0.2788313624400039,
                    0.5921560876320011,
                    0.09115932433023466,
                    -0.5243763121705366,
                    -0.3089981964113254,
                    -0.17828006746541256,
                    0.16486223083427756,
                    0.3685409924488413,
                    -0.31172905285049757,
                    -0.9806061058749348,
                    -0.5025667847773942,
                    -0.4088773868067665,
                    -0.9745585569216448,
                    0.4415011846228673,
                    -0.7152284996717436,
                    -0.790730859644376,
                    0.46853850799637947,
                    0.8259869800562913,
                    1.0001043143312849
                  ],
                  "_Bias": 0.4113345850898835
                }
              },
              {
                "app.user_data.Battle_AutoTuningPnParam_NN.Node": {
                  "_Weight": [
                    -0.026163685185496704,
                    0.10195330194711534,
                    0.21428845829515375,
                    0.784930480890372,
                    0.6423171419888681,
                    -1.2207298451032371,
                    -0.011511127260236375,
                    -0.49652579931904123,
                    0.8930178429329961,
                    0.9112334461067347,
                    -0.6314269432461777,
                    -0.054915776635601966,
                    -0.4675684947054882,
                    -0.8426086982534604,
                    -0.28197841746909286,
                    -0.5377135612777219,
                    0.8115182352688901,
                    0.8513898867157789,
                    1.0396080279678082,
                    0.06484473747261559,
                    0.6558304660977605,
                    0.8229249728262925,
                    0.314144671051872,
                    -0.8844215141985622,
                    0.3723028617742571,
                    -0.1412591552294869,
                    0.842586267482711,
                    0.6875882753654968,
                    -0.7717893137765333
                  ],
                  "_Bias": -1.0192035570764661
                }
              },
              {
                "app.user_data.Battle_AutoTuningPnParam_NN.Node": {
                  "_Weight": [
                    -0.0994565311634345,
                    0.5129734888496079,
                    0.09609196276163366,
                    -0.2744408857594285,
                    0.48715465685933057,
                    0.431809831003937,
                    -0.7395676518990512,
                    0.09291472462368033,
                    0.21783296220093434,
                    0.6597015027920157,
                    0.5797337066946565,
                    -0.5834212875020133,
                    -0.12867568806228208,
                    -0.7197922141039176,
                    0.5914581776064864,
                    0.5484087616506859,
                    0.4347409939791788,
                    -0.12453557804120947,
                    -0.6459970341336119,
                    -0.4467055923374619,
                    -0.7487625669073394,
                    0.17754664827158187,
                    -0.5667205427662779,
                    -0.26290856725799905,
                    0.010372754132948855,
                    0.22604697877835322,
                    -0.7808962445722321,
                    -0.778631512214231,
                    0.6389850859694989
                  ],
                  "_Bias": -0.40210984150505713
                }
              },
              {
                "app.user_data.Battle_AutoTuningPnParam_NN.Node": {
                  "_Weight": [
                    0.34307270334582335,
                    -0.31556449550326554,
                    -0.48385513669033836,
                    0.0736137675076403,
                    0.05482515678823313,
                    0.3344966950715482,
                    0.4724001466379474,
                    -0.9263668333408497,
                    0.2311475906936907,
                    -0.32630471637082453,
                    -0.06212511996135045,
                    0.280221920825597,
                    0.5465580322092798,
                    -0.3882279722899339,
                    -0.2811148923785403,
                    -0.830487990027646,
                    0.41693266512428434,
                    1.040038416947448,
                    1.0145065878056894,
                    0.41972314169515246,
                    0.12667964178179378,
                    -0.058001471052959976,
                    -0.13627774265358156,
                    0.7511931454149032,
                    0.6594418368959882,
                    -0.43258488708919296,
                    0.15468384932144486,
                    0.8074421146458985,
                    0.4128871155176251
                  ],
                  "_Bias": 0.36192173219243795
                }
              },
              {
                "app.user_data.Battle_AutoTuningPnParam_NN.Node": {
                  "_Weight": [
                    -0.45642370137040933,
                    0.40155645816961905,
                    -0.3506366519103224,
                    -0.008637003537262176,
                    0.5821197832003621,
                    -0.06966195978578366,
                    0.9742555041955828,
                    -0.49446592015464935,
                    -0.07913408945873165,
                    0.5753737207666695,
                    0.8406537329672918,
                    -0.3178112425610283,
                    0.8606976452944329,
                    0.07288490931853214,
                    0.026049087101799828,
                    0.24077826428192178,
                    0.029128487624628146,
                    -0.16884360269782003,
                    -1.1941398807921275,
                    0.43699141621125415,
                    -0.6637533049176985,
                    1.0179324374759753,
                    1.07938091869739,
                    -0.5087372955262964,
                    0.6893958418402626,
                    -0.8614307612690485,
                    1.0014507194239428,
                    0.8864977021275275,
                    0.14432168597604053
                  ],
                  "_Bias": 0.49908184428546193
                }
              },
              {
                "app.user_data.Battle_AutoTuningPnParam_NN.Node": {
                  "_Weight": [
                    0.6358814301908678,
                    -0.8354789419554366,
                    -0.668397890640226,
                    -0.5442811835392626,
                    0.23739619384965388,
                    0.40416122864836196,
                    -0.28458216591258745,
                    0.022265345126210253,
                    0.7143705427152607,
                    1.3920973458926147,
                    -0.5058129408249675,
                    -0.16207351502514677,
                    -0.12616532843108036,
                    -0.812415144568052,
                    -0.5167286114978807,
                    -0.8174978102872907,
                    -0.042994486935843575,
                    -0.8754299819763129,
                    -0.32982869272530263,
                    -0.6075464576543991,
                    -0.3342251957253458,
                    0.5347629823503484,
                    0.4970399722459934,
                    -0.9803286725106242,
                    -0.23123364815219008,
                    -0.37888149267802745,
                    0.4878581391485945,
                    0.574902680888927,
                    -0.596773813916219
                  ],
                  "_Bias": -0.41304839794999787
                }
              },
              {
                "app.user_data.Battle_AutoTuningPnParam_NN.Node": {
                  "_Weight": [
                    -0.9680872165398046,
                    0.2719053126522599,
                    0.9217201643543148,
                    -1.234405238239218,
                    -0.8705979062365892,
                    -0.2167241374874251,
                    0.34026632123865086,
                    0.5857789630512289,
                    -0.8289698171048563,
                    0.2644943621137234,
                    1.10390035869805,
                    -0.5370689161545381,
                    -0.8469794517217518,
                    -1.1331707307616277,
                    -0.08720058242833854,
                    -0.005110331576963467,
                    0.28106604894752035,
                    -0.5119062219162338,
                    0.3079359520924981,
                    -0.4506859359336325,
                    -0.8800249158590712,
                    -0.22583903966089183,
                    0.47276484196018337,
                    1.011080389127016,
                    -0.8403685251891027,
                    0.0945399886654883,
                    0.7613405187534201,
                    -0.3934052410529401,
                    0.17210796428191547
                  ],
                  "_Bias": 0.1433194550405864
                }
              },
              {
                "app.user_data.Battle_AutoTuningPnParam_NN.Node": {
                  "_Weight": [
                    -0.660902308113647,
                    0.43536267898807596,
                    0.9848268359179299,
                    0.011022786731243373,
                    0.6066040396457456,
                    -0.7854491255670745,
                    -0.26705123954811116,
                    -0.9315413357728666,
                    -1.273609827629978,
                    -0.6879580977543137,
                    0.9548570355405238,
                    -0.7987584704687889,
                    -0.5031534003270242,
                    -0.9792009126242214,
                    -0.8286412692805761,
                    0.6149334131863913,
                    -0.6253735984155182,
                    0.1749563446086027,
                    0.020712587223014608,
                    1.1499612320375963,
                    -0.5367878028625097,
                    -0.8024875284440312,
                    0.23268153857149565,
                    -0.5035181335785588,
                    0.0062391087716771295,
                    0.015436522802847342,
                    -0.25400007079624,
                    -0.5860561825817975,
                    0.4640396996344424
                  ],
                  "_Bias": -0.7606269779647281
                }
              },
              {
                "app.user_data.Battle_AutoTuningPnParam_NN.Node": {
                  "_Weight": [
                    -0.0021725341476777596,
                    1.048283489337945,
                    -0.16110237406640363,
                    0.4099678338255716,
                    -0.11337482268172373,
                    -0.8306251014226135,
                    -0.8981414879345954,
                    0.9123690931661298,
                    -0.3397280521581557,
                    -0.3987198616992904,
                    0.9322689499485165,
                    -0.11609042306286693,
                    0.19340419083718374,
                    0.8095858703062793,
                    -0.93980271541394,
                    -0.6532006208474896,
                    -0.19395038521010394,
                    1.0010703570502948,
                    0.263847205876753,
                    -0.856876745815128,
                    0.25827239040792993,
                    0.6648741034360711,
                    0.47118012121943065,
                    0.07605066553961357,
                    -0.09520307520426197,
                    0.8381376699750985,
                    0.11680907604898515,
                    -0.39766163856604864,
                    -0.9994176265350659
                  ],
                  "_Bias": -0.29931307846256605
                }
              }
            ]
          }
        },
        {
          "app.user_data.Battle_AutoTuningPnParam_NN.Layer": {
            "_Node": [
              {
                "app.user_data.Battle_AutoTuningPnParam_NN.Node": {
                  "_Weight": [
                    -0.8521103916475625,
                    -0.0006610767190375181,
                    0.6762049400885505,
                    0.8337399759539377,
                    -0.024350064026153723,
                    -0.15475436920168398,
                    0.7393627559857949,
                    -0.40985955791700446,
                    1.0748083000963242,
                    0.5952589401434732,
                    0.7324355674710609,
                    -0.3399031502992251,
                    0.037224178336407086,
                    -0.4415054128452006,
                    0.01700891921660368,
                    -0.38596191909616506,
                    -0.7036641624654612,
                    -0.42885672434099115,
                    -0.47126972175630866,
                    -0.07664625335399977,
                    -0.7143765174133357,
                    0.36210664672854503,
                    -0.8212349016461351,
                    0.2765931375778039,
                    0.9017617863636119,
                    0.5849849953417295,
                    0.5941937118101506,
                    -0.3969209296420468,
                    -0.6267039675065943,
                    -0.1418897657846763,
                    0.6626233396769999,
                    0.1371961594720864,
                    0.8330266149771507,
                    -0.14804854018206162,
                    0.09851492586163556,
                    -0.7602496944087863,
                    -0.7200197791121709,
                    -0.17293904379156788,
                    0.11471386497299312,
                    0.49020822741373044,
                    -0.8939290974767121,
                    0.1879422531094582,
                    -0.8114407446848223,
                    0.18914480837742634,
                    -0.7038499610278001,
                    0.7134677511795559,
                    1.112932350648009,
                    0.08201578477369596,
                    -0.09893849979714649,
                    -0.39203895557185514,
                    -0.08076282062962777,
                    -0.015263849894022498,
                    0.6945091724505876,
                    -0.6351703961462062,
                    -0.5451432235161495,
                    0.9940625675262236,
                    -0.9016043499479748,
                    -0.3849343483286713
                  ],
                  "_Bias": 0.19656471915435192
                }
              },
              {
                "app.user_data.Battle_AutoTuningPnParam_NN.Node": {
                  "_Weight": [
                    0.6531337720398929,
                    -0.9250432415571438,
                    0.3018597806759253,
                    -0.3086908291236887,
                    0.1176876532788068,
                    -0.3776975358078549,
                    0.41610343118947707,
                    -0.5291432748724741,
                    0.6812009258829241,
                    0.41946353214695403,
                    -0.7404863452226693,
                    -0.43815024518507995,
                    -0.2705583695461704,
                    0.1603130922001525,
                    0.7722066210657239,
                    -0.3814013114718171,
                    0.23813655542494952,
                    0.0002598955221870458,
                    0.9057117740680778,
                    -0.19312154912665525,
                    0.8703667457796307,
                    -0.5758740739656684,
                    -1.0480695358498904,
                    -0.16766300405873688,
                    0.016347638606632884,
                    -0.628320691133282,
                    -0.5985137476630097,
                    -0.3867057688973885,
                    -0.9042044522247283,
                    0.13098534871369252,
                    0.13729305380936543,
                    0.2300998588800368,
                    0.10769280097796308,
                    -0.8763485928810806,
                    0.7766623898945908,
                    -0.41809465392916345,
                    1.0987575676798294,
                    0.9303382106733676,
                    0.07485551002207495,
                    0.15001332031342662,
                    -0.9944456857827277,
                    -1.0545434836375434,
                    0.023008714074289283,
                    0.0430831643568729,
                    0.2803856877264619,
                    0.161880834450325,
                    -0.8410939882807694,
                    0.49100421685854956,
                    0.9839576290209554,
                    0.4550558039548667,
                    -0.6578898387842209,
                    0.619506385371726,
                    0.27897608284345216,
                    0.6113009274178614,
                    -0.34562337852628056,
                    -0.9477114275386502,
                    -0.3963811559859292,
                    1.2989245867898151
                  ],
                  "_Bias": 0.4508703806985482
                }
              },
              {
                "app.user_data.Battle_AutoTuningPnParam_NN.Node": {
                  "_Weight": [
                    -0.3986470169154286,
                    -0.05641704676130384,
                    0.6847714032515534,
                    0.24076089263375194,
                    0.8716400765698823,
                    -0.36719262694978894,
                    -1.0069998211723004,
                    -0.11030662723239507,
                    -0.6280826444690635,
                    0.3900023545858562,
                    -0.14824634050534188,
                    -0.16253497168292683,
                    0.1859289979102285,
                    0.4348373270123852,
                    0.502378257586822,
                    -0.9224123567673967,
                    0.1717354081102223,
                    0.07917704176335022,
                    0.8073963794960238,
                    -0.12771454350719202,
                    0.18021858866409113,
                    0.8408159666770777,
                    -0.3479908996877835,
                    -1.1904492229094428,
                    -0.7184334378608869,
                    -0.6793559380075486,
                    -0.01039467317089153,
                    -0.9112859207011792,
                    -0.44944181677248396,
                    0.47387264212478386,
                    -0.95075092422272,
                    0.5217598926410882,
                    0.062717684708878,
                    -0.40133748646056344,
                    0.8793529051881573,
                    0.2742604555562813,
                    0.40542974693370737,
                    -1.015063720829294,
                    -0.9806009633635122,
                    -0.5195760839052382,
                    -0.4290557900278229,
                    0.2990622062727291,
                    0.25970512394431466,
                    1.1670086761489773,
                    0.202606591545526,
                    -0.1563938755636284,
                    -0.4128224220898452,
                    -0.6476257937993238,
                    0.8818746694490438,
                    -0.25088529644095714,
                    0.055043826134247534,
                    0.056555295486706327,
                    -0.5522693493426429,
                    0.22957257374123005,
                    -1.3861747704470775,
                    0.9662926332732669,
                    -0.34928843039947716,
                    -0.27935169557263034
                  ],
                  "_Bias": -0.9752645412897024
                }
              },
              {
                "app.user_data.Battle_AutoTuningPnParam_NN.Node": {
                  "_Weight": [
                    0.9331868409432175,
                    0.29924033461082333,
                    0.4203338432853339,
                    0.9232552476739078,
                    0.16067291511993792,
                    1.1538463009244306,
                    0.7123564852526594,
                    0.9805852539033348,
                    -1.1984988121795634,
                    -0.11937232740636415,
                    -0.7348600628821306,
                    -0.3569310607923467,
                    -0.359226466106217,
                    0.03426123232332459,
                    0.8794813178298888,
                    -0.11386089976657235,
                    -0.3861959314155692,
                    -0.5828043083424121,
                    -0.9885877615464332,
                    -0.27307200582261293,
                    -0.3132884515170394,
                    -0.22121096205406782,
                    -0.6447030730374644,
                    0.9658385558599305,
                    0.723578156403487,
                    0.7172075912125233,
                    0.012425767061518293,
                    1.2584230521147295,
                    -0.08329585467127494,
                    0.6833647552125923,
                    -1.0560060372767017,
                    0.9590349018169266,
                    0.6787125970392973,
                    0.053731834663332034,
                    0.342820745183742,
                    0.3575691890943353,
                    0.2982470184947366,
                    -0.3146372447888363,
                    -0.5371238187930363,
                    -0.6401793964205048,
                    -0.40302004318791956,
                    0.7474941552293743,
                    0.23935304235736915,
                    -0.10560477302773379,
                    0.1384121744028158,
                    0.9764645466392293,
                    -0.30458569018201187,
                    -0.56817815703605,
                    -0.10144103326078566,
                    0.3367255578126475,
                    -0.5914194329031834,
                    0.3595648369276623,
                    -0.5166452534713003,
                    0.48072189672676274,
                    1.2419904093296497,
                    -0.6377844468416575,
                    -0.48949597446006626,
                    0.27436934417935643
                  ],
                  "_Bias": -0.6344583765023021
                }
              },
              {
                "app.user_data.Battle_AutoTuningPnParam_NN.Node": {
                  "_Weight": [
                    -0.37509792758562543,
                    0.11306314395926403,
                    -0.7937196990552396,
                    -0.41610106838014804,
                    0.726664922672308,
                    -0.3708441853244378,
                    0.7422562502023689,
                    -0.26054864378509174,
                    -0.8127400322277681,
                    -0.9002948509679712,
                    -0.05851569060528956,
                    0.62378439594173,
                    -0.8362994077778291,
                    -0.15029327886153954,
                    0.5521115825014496,
                    -0.0024403437111436676,
                    -0.05670796979725689,
                    0.7539681919444705,
                    -0.921495446770486,
                    0.8546973628589954,
                    0.38789601590914846,
                    -0.3752495210679114,
                    0.4731908518661471,
                    1.199883349333455,
                    0.7090802802471496,
                    -0.7814381441931045,
                    -0.4093054678018797,
                    -0.5462299316625223,
                    -0.7169291634858254,
                    -0.8722336493749415,
                    1.102424430177194,
                    0.13059001193886477,
                    -0.3495844974791663,
                    0.32520175226339165,
                    0.8245582183854869,
                    -1.0370592727794006,
                    1.1784331664170293,
                    0.6830643189004755,
                    -0.9535246825401952,
                    -0.09202371228593983,
                    -0.8795229923048494,
                    0.9714473294125597,
                    -0.3512437114769931,
                    0.6425384046915109,
                    -0.45802990231331103,
                    -0.6290048826632134,
                    0.5007304226720579,
                    -0.8596334702709874,
                    0.8076793580942058,
                    -0.9832080747564135,
                    0.29350809574523995,
                    -0.348843392203852,
                    1.2448799340416392,
                    0.65961737498921,
                    -0.7230699592006798,
                    0.29989181370402446,
                    0.5045224670692836,
                    0.5783921679933777
                  ],
                  "_Bias": -0.7957295507366815
                }
              },
              {
                "app.user_data.Battle_AutoTuningPnParam_NN.Node": {
                  "_Weight": [
                    -0.0032687310897111,
                    -0.8423406883543816,
                    0.142187663274143,
                    -0.7293100999487979,
                    -0.3879736454718744,
                    0.7486332044621467,
                    0.7856280861816348,
                    -0.2189714461053211,
                    0.7324257215730551,
                    -0.19108845859191817,
                    -0.9638294529691862,
                    0.9266409425990433,
                    0.7268374310086094,
                    0.11318805441436515,
                    0.14967407723752033,
                    0.5411394557794211,
                    -0.7144252314777477,
                    -0.5633857211245084,
                    0.11962613786713092,
                    0.3482518953693313,
                    0.5042832890551934,
                    1.1212642107903388,
                    0.28023485285307287,
                    -1.0731527289736589,
                    -0.2931738087690533,
                    0.3793991671192863,
                    -0.7075717539102215,
                    0.07250443522480589,
                    -0.23080121776114515,
                    -0.90875528897816,
                    0.7031010088055106,
                    -0.7851190485680521,
                    0.5996103184538583,
                    0.01145125610315345,
                    0.124161077402916,
                    0.11214640354606618,
                    0.10858508959173852,
                    0.46801969097558227,
                    -0.5340348713477283,
                    0.6622473719247645,
                    -0.5400327083815912,
                    -0.06296910634061433,
                    -0.5920240063291948,
                    0.9752847794362243,
                    -0.7005225373105853,
                    -1.2178158300928956,
                    0.4927558358390763,
                    -0.1582068850595213,
                    -0.758644847750211,
                    -0.04383997181176948,
                    0.6721855690015776,
                    0.7600911574461907,
                    0.6033305901277948,
                    -0.8316425187786445,
                    0.14656429453892975,
                    0.946359268956318,
                    -1.0121286430699137,
                    -0.535284461611207
                  ],
                  "_Bias": -0.1405423899553059
                }
              },
              {
                "app.user_data.Battle_AutoTuningPnParam_NN.Node": {
                  "_Weight": [
                    -0.621405807476336,
                    0.9743210153262728,
                    -0.159223878829179,
                    -0.5860529057603274,
                    0.7593655186374555,
                    -0.3871675134267082,
                    -0.24620003534801718,
                    0.4653605832811386,
                    -0.9050232488731517,
                    -0.01563655390332641,
                    -0.6587849906641724,
                    -0.6536580918549626,
                    0.2226032912114082,
                    -0.6231457411261847,
                    1.0435914377506237,
                    -0.22647943007292715,
                    0.6922314831959386,
                    -0.15846962317343097,
                    0.3277261871621257,
                    -0.46932365963973166,
                    0.781673279804023,
                    0.5592994325705367,
                    -0.5062486461981119,
                    0.4107109553832126,
                    -1.1158670627731284,
                    -0.19918871844642366,
