[
  {
    "app.user_data.Battle_AutoTuningPnParam_NN": {
      "RootSeedNum": 0,
      "_NodeNum_InputLayer": 29,
      "_NodeNum_HideLayer": [
        58,
        29
      ],
      "_NodeNum_OutputLayer": 7,
      "_AveList": [
        0.8578442897460092,
        0.3822818791946309,
        0.053691275167785234,
        0.22578324802794647,
        0.9144063560513629,
        0.41308724832214766,
        0.06040268456375839,
        0.12974594136116394,
        0.8050435089491198,
        0.3119463087248323,
        0.06040268456375839,
        0.2179417312350515,
        0.18120805369127516,
        0.7678895775457946,
        0.6159060402684563,
        0.087248322147651,
        0.18445385133867376,
        0.5330614961197381,
        0.5784963247043782,
        0.21476510067114093,
        -1.0,
        0.06732771015453425,
        0.06225503355704699,
        0.06040268456375839,
        -0.12751677852348994,
        0.0,
        0.06572706935123043,
        0.0,
        -0.08053691275167785
      ],
      "_SdList": [
        0.22417250121571886,
        0.17873951203236874,
        0.22540745803686782,
        0.37641774442992193,
        0.19480113333529267,
        0.18322575406172747,
        0.23823140066172993,
        0.21818372978197362,
        0.2741911922346501,
        0.1446526868115858,
        0.23823140066172996,
        0.41706473698599594,
        0.38519046583306704,
        0.30092801817016274,
        0.15988676119825626,
        0.2821986045856189,
        0.3713414454818974,
        0.306481054352701,
        0.2884040744157257,
        0.4106592896853254,
        0.0,
        0.20106653966873186,
        0.19635034808609317,
        0.23823140066172968,
        0.333550970195683,
        0.0,
        0.22302512391349852,
        0.0,
        0.2721226165464869
      ],
      "_WeightList": [
        {
          "app.user_data.Battle_AutoTuningPnParam_NN.Layer": {
            "_Node": [
              {
                "app.user_data.Battle_AutoTuningPnParam_NN.Node": {
                  "_Weight": [
                    0.07093766672836917,
                    -0.41297321458992636,
                    -0.8383879678139233,
                    -0.5421176950451635,
                    -0.5570031751372206,
                    -0.6641827624919504,
                    0.26264193751516535,
                    1.1372375009043876,
                    -0.26501299433141706,
                    0.11825638067157115,
                    -0.5333065811651951,
                    0.6802579289016905,
                    -0.6113617431065435,
                    -0.6189781834879121,
                    -0.8025918050100831,
                    -0.7018084472529639,
                    -0.19341539092627377,
                    0.1562714212061199,
                    0.18068481458690103,
                    -0.16656557185067145,
                    -0.9332673184481667,
                    0.07731534604942514,
                    -0.7059634251344894,
                    0.3531550827161624,
                    0.6260023447151544,
                    0.8637140817008913,
                    0.42132102724088005,
                    0.22758678160607815,
                    -0.12094013253790692
                  ],
                  "_Bias": 0.705485979830961
                }
              },
              {
                "app.user_data.Battle_AutoTuningPnParam_NN.Node": {
                  "_Weight": [
                    -0.8254575322362496,
                    1.0014575795039073,
                    -1.003149880425907,
                    -0.233128986821913,
                    -0.9135756588465471,
                    0.5508220481642098,
                    0.8391685583348276,
                    0.11765451461359366,
                    -0.5157004301327122,
                    0.5746466858166503,
                    -0.37364052003725884,
                    1.2511045747664309,
                    0.8610579549381997,
                    0.40059838129344216,
                    0.32967935197186526,
                    0.1708530375323948,
                    -0.7251369931399301,
                    0.5350045666775537,
                    0.1914057799271325,
                    0.13320595935777263,
                    -0.45767989543705934,
                    0.17647105490910792,
                    -0.3611068666275384,
                    0.6343871687464437,
                    -0.17074340977787966,
                    -0.8149862149730325,
                    0.5625440286902169,
                    -0.808681185124442,
                    0.2870534791552656
                  ],
                  "_Bias": 0.4715582441861895
                }
              },
              {
                "app.user_data.Battle_AutoTuningPnParam_NN.Node": {
                  "_Weight": [
                    0.007524464366853103,
                    -0.03375382290337809,
                    -0.056354998286408164,
                    -0.8750438127503232,
                    -0.08720644274224958,
                    0.4964556422364389,
                    -0.329730777846068,
                    0.9668456727336248,
                    -0.40768258995323303,
                    0.35331152374706193,
                    -0.06948049545962597,
                    -0.10035599189449107,
                    0.17209716423978638,
                    0.1813406098217846,
                    -0.9338164440807379,
                    0.1596421930463257,
                    -0.4419240937240005,
                    -1.1175115625401204,
                    -0.7563414606388456,
                    0.3434548798673535,
                    -0.15025447189631203,
                    0.09438067477277545,
                    0.44595327257223744,
                    0.13804269537894448,
                    0.8978420184024332,
                    -0.6667790736537427,
                    -0.47385673991122773,
                    0.3343333937227726,
                    0.31096015231239693
                  ],
                  "_Bias": 0.8135748193302211
                }
              },
              {
                "app.user_data.Battle_AutoTuningPnParam_NN.Node": {
                  "_Weight": [
                    0.23675589926811622,
                    -0.9068261008535149,
                    -0.4115778447697691,
                    0.6509826327008247,
                    0.25293468445541584,
                    0.2560464295540297,
                    -0.031691271702730686,
                    -0.8919229303223352,
                    0.7794470721865916,
                    0.6539528730406446,
                    0.30181819189186354,
                    -0.3267796124340939,
                    -0.4733639779510203,
                    -0.47813227255898993,
                    0.6183467326707869,
                    -0.24801514264071237,
                    0.3796549646843384,
                    -0.7554217072444344,
                    -0.8727799695980395,
                    0.8527426568358712,
                    0.692394513716481,
                    0.3567829828177609,
                    0.8364882845697327,
                    -0.6837547722077936,
                    0.090471023101278,
                    0.8539097004104406,
                    0.10776612546517333,
                    0.8810019136872143,
                    -0.7117513440800236
                  ],
                  "_Bias": -0.442114757686414
                }
              },
              {
                "app.user_data.Battle_AutoTuningPnParam_NN.Node": {
                  "_Weight": [
                    0.13511456050324827,
                    0.4923499335520799,
                    -0.27938053612701386,
                    -0.2287667038894576,
                    -0.24387009540828922,
                    0.5202738216844625,
                    -0.6008883005929977,
                    0.3746562667390952,
                    0.1447495180861036,
                    -0.9193538803013507,
                    -0.9852464412663124,
                    0.5479800085234612,
                    -0.6591109482292158,
                    -0.49084926728744693,
                    -0.31817465568460773,
                    0.3249844768785122,
                    -0.1947404853960462,
                    0.4863746158243291,
                    -0.7013129375673359,
                    -0.6478714524340555,
                    -1.0318006056877382,
                    -0.5413756704502881,
                    -0.07756198894620901,
                    -0.3863724325252501,
                    0.529566417616843,
                    -0.29852873645722866,
                    -0.3166242112368606,
                    -0.18316941801458597,
                    -0.21328530816530167
                  ],
                  "_Bias": -0.1717849405431614
                }
              },
              {
                "app.user_data.Battle_AutoTuningPnParam_NN.Node": {
                  "_Weight": [
                    0.15045812970701622,
                    -0.2656150589363065,
                    0.1924170880092377,
                    -0.6197614492294519,
                    -0.050251280762578905,
                    -0.7646282793008979,
                    -0.8675677851206326,
                    -0.003986261376995615,
                    0.926157997827042,
                    0.458042093538135,
                    -0.498822799263196,
                    0.07955150952131687,
                    0.41432531706952314,
                    0.30453158023548843,
                    0.6835325320358009,
                    -0.5485865371151171,
                    0.3706324883938681,
                    0.043744112056174664,
                    0.9014782167798888,
                    0.7009663056597578,
                    -0.1930797451277349,
                    0.8109363421015993,
                    -0.13591352439230095,
                    0.5852940010312015,
                    -0.9255728175650817,
                    0.054580506635829806,
                    -0.5946013655485852,
                    0.797048345208168,
                    -0.8000483682939624
                  ],
                  "_Bias": -0.2772826981163505
                }
              },
              {
                "app.user_data.Battle_AutoTuningPnParam_NN.Node": {
                  "_Weight": [
                    0.6391136045664508,
                    0.4493036055893477,
                    -0.27835914791322425,
                    -0.9096955622459356,
                    0.09705899240830246,
                    0.5326381063902274,
                    -0.28343458558722645,
                    -0.19287148577732435,
                    -0.66272485116146,
                    0.8078979856382608,
                    0.11427517077205852,
                    -0.7010171763449218,
                    -1.0927204074802597,
                    0.7225805847006715,
                    -0.16199342542456377,
                    0.47869194840481033,
                    -0.4045857115275266,
                    0.231033808696341,
                    0.49980035448214616,
                    1.010932132558444,
                    1.0710375497013553,
                    0.7942017721216419,
                    0.18828444042980563,
                    0.558376747338132,
                    0.4383983491894444,
                    0.09431182569824159,
                    0.6048498477224334,
                    -0.14942718762904406,
                    -0.8447551181463608
                  ],
                  "_Bias": -0.1011952419661183
                }
              },
              {
                "app.user_data.Battle_AutoTuningPnParam_NN.Node": {
                  "_Weight": [
                    0.6035717692802485,
                    0.5626906990547257,
                    -0.27152987185400007,
                    0.8061756425971369,
                    -0.46180905351219564,
                    0.6260997783229932,
                    -0.5633133487958671,
                    -0.935223949893274,
                    0.5451085559494193,
                    0.4879533660826029,
                    -0.991037880384268,
                    0.2543006292880924,
                    -0.4650452502014048,
                    0.017852244907194295,
                    0.7002596140503868,
                    -1.264132820731878,
                    0.2988771475480119,
                    -0.6715077561951215,
                    0.2250290880558373,
                    -0.6468484960630336,
                    -0.6156832175976366,
                    -0.1217236415428348,
                    0.11698490268508928,
                    -0.9617456536900268,
                    0.5669344135826515,
                    -0.33346871193498373,
                    -0.6669206575672604,
                    0.6701838339213282,
                    0.4692083095324653
                  ],
                  "_Bias": 0.8930542665249428
                }
              },
              {
                "app.user_data.Battle_AutoTuningPnParam_NN.Node": {
                  "_Weight": [
                    -0.06154916885986972,
                    -0.24489590605306047,
                    0.5153394953327001,
                    0.49897043540123326,
                    -0.98766951329113,
                    -0.22752535544768784,
                    0.6386610462999256,
                    -0.5104215096949104,
                    1.161498632533076,
                    -0.5865301704642071,
                    0.8321984370687403,
                    -0.48674771508734876,
                    -0.6219086409485983,
                    1.007499854950216,
                    -0.32648546129280276,
                    0.964501886046236,
                    -0.11167222531756699,
                    -0.15182008957362583,
                    -0.06517822523836962,
                    0.514060519289546,
                    0.861717804920374,
                    0.3354870931156562,
                    0.24047962999606595,
                    -0.48055202721106616,
                    0.2395086128401019,
                    -0.7310211542062461,
                    -0.24032506540109178,
                    0.19507313426584005,
                    0.042376010977280915
                  ],
                  "_Bias": -0.554306148205397
                }
              },
              {
                "app.user_data.Battle_AutoTuningPnParam_NN.Node": {
                  "_Weight": [
                    -0.27222223060764095,
                    0.6578599716475679,
                    0.42025434666028566,
                    0.42995793004519944,
                    -0.8631817161078361,
                    -0.7081720500095188,
                    -0.08615133227247118,
                    0.564682922273422,
                    0.629870353263416,
                    0.8044980148425845,
                    -0.5552810809456498,
                    -0.8142873586112558,
                    0.7725470684100585,
                    -0.6179463619073051,
                    -0.6179694106761451,
                    0.5943860631181827,
                    0.6568651240796244,
                    0.035078043035524996,
                    0.19481582581875384,
                    1.0355381877176644,
                    0.004728415491949666,
                    -0.6787358165778051,
                    0.03449816203598763,
                    0.158943747497561,
                    0.7970068571310199,
                    -0.26466568000614643,
                    0.6397544664361234,
                    -0.9027745870407671,
                    -0.5607692861522433
                  ],
                  "_Bias": -0.9474447483429289
                }
              },
              {
                "app.user_data.Battle_AutoTuningPnParam_NN.Node": {
                  "_Weight": [
                    0.8023169081024364,
                    0.29006084749304734,
                    0.7059466568100018,
                    0.3078553294712609,
                    0.01005438226444814,
                    0.8191994829784391,
                    0.29005180971806915,
                    0.5733001578713107,
                    -1.4083476982134013,
                    0.5890988053458349,
                    -0.7196550036748762,
                    0.6687530341047598,
                    0.5674802055252225,
                    -0.9857967059536639,
                    -0.957955842740319,
                    0.5932711288386142,
                    0.7999485072955886,
                    0.21807903507043797,
                    0.625554462401769,
                    0.3576702714431782,
                    -0.2217268314442716,
                    0.5786019004610551,
                    -0.36606401931238675,
                    -0.2282108670190382,
                    0.22673589608849162,
                    0.13863388844765723,
                    1.0688117375639805,
                    -0.7190886412281543,
                    -0.9688827649148201
                  ],
                  "_Bias": -0.9460481375691371
                }
              },
              {
                "app.user_data.Battle_AutoTuningPnParam_NN.Node": {
                  "_Weight": [
                    0.2071503068025889,
                    -1.0707130787173773,
                    0.2811088647617005,
                    0.42336616524115017,
                    -0.5849512581899342,
                    -1.0084297794548487,
                    0.692263655503325,
                    0.9661838994091437,
                    0.7571100630259244,
                    -0.5588997111493353,
                    -0.38660546670333606,
                    0.7045192392978786,
                    0.1997538454671157,
                    0.345147527045968,
                    0.23042880507819688,
                    -0.13613442475732002,
                    -0.2962180211445879,
                    -0.5386236654412367,
                    0.7250323886778048,
                    0.6323573626042057,
                    0.23675095437772126,
                    0.4963953990695106,
                    -0.26074708831830357,
                    0.6758782356108487,
                    0.9490784667061435,
                    -0.6596039007417858,
                    0.44801878941868273,
                    -0.24133558454923332,
                    0.7994047952801441
                  ],
                  "_Bias": -0.09515502800911087
                }
              },
              {
                "app.user_data.Battle_AutoTuningPnParam_NN.Node": {
                  "_Weight": [
                    0.8179131282909583,
                    -0.8696987350475807,
                    -0.40372344522516845,
                    -0.13172036424547778,
                    -0.04598502950474085,
                    0.4507632415225032,
                    -0.5708533985340681,
                    -0.6509945893602263,
                    -0.3465140242311872,
                    -0.5000221363660134,
                    -0.3471241954256785,
                    0.6665578792915205,
                    1.0047333876785765,
                    1.0930216556644234,
                    -0.14578864432646663,
                    0.4050394192756156,
                    -0.6298294076809168,
                    0.25588740338970434,
                    0.486292947072233,
                    -0.29105596089458274,
                    0.7801115490936898,
                    -0.9211739740289425,
                    0.3281490250055946,
                    -0.03888556431080207,
                    0.9518129934608063,
                    0.5209316115360707,
                    0.3902954150677631,
                    -0.15450111031532288,
                    -0.23040574716863663
                  ],
                  "_Bias": 0.5965062296974244
                }
              },
              {
                "app.user_data.Battle_AutoTuningPnParam_NN.Node": {
                  "_Weight": [
                    -0.4415450809125263,
                    0.7192280149652093,
                    -1.2587323989479158,
                    0.5128782220364124,
                    -0.20847533462938334,
                    -0.028105503197205676,
                    -0.9124462633238373,
                    0.4340404742898012,
                    0.9147882208143532,
                    -0.46865629681885645,
                    -0.49659613866848124,
                    0.7947712478496204,
                    -0.7846352316055579,
                    1.0611949370721518,
                    0.694024582301131,
                    -0.7859844501178381,
                    -0.6605419780769481,
                    0.1635253826771966,
                    -0.4084090319387127,
                    0.10643975187005868,
                    -0.16807966769605587,
                    -0.17778770596881976,
                    1.0918654024582852,
                    0.49741348931924284,
                    -0.6927584592818044,
                    0.5513924872502685,
                    0.6674035435120029,
                    -0.5374758502002805,
                    -0.195928027331773
                  ],
                  "_Bias": -0.6008734235360518
                }
              },
              {
                "app.user_data.Battle_AutoTuningPnParam_NN.Node": {
                  "_Weight": [
                    0.4307609973366656,
                    1.0136608367849267,
                    0.7722140282912938,
                    -0.661372240930762,
                    0.7661829378030018,
                    -0.7645036714430944,
                    -0.4002216596478664,
                    -0.8388658024997567,
                    -0.04587541595646122,
                    -0.033784131789033306,
                    -0.0387712408963049,
                    0.9544590215034832,
                    -0.10301536699683413,
                    0.1614242789282293,
                    0.4411377567389754,
                    -0.16658456936127378,
                    0.6954621486621866,
                    0.32367985438615193,
                    -0.9733457765131698,
                    0.031172219909973244,
                    0.48915785575392023,
                    -0.3706774132573764,
                    0.20578349948379793,
                    0.6085124148546114,
                    -0.2818612812451639,
                    0.84481340367347,
                    -0.8202551764851129,
                    0.5588055234402418,
                    -0.12272072854167011
                  ],
                  "_Bias": -0.16317322199339332
                }
              },
              {
                "app.user_data.Battle_AutoTuningPnParam_NN.Node": {
                  "_Weight": [
                    0.9415592731570503,
                    -0.10195308049712833,
                    0.08802615528155328,
                    0.1629801016452658,
                    -1.1805734653227085,
                    -0.9933212287126184,
                    -0.21539545692413206,
                    -0.07281064907659324,
                    -1.1337123629201338,
                    0.6846301371678163,
                    -0.0663856195774039,
                    -0.026469426752580027,
                    -0.06552059862329186,
                    -0.7463763964334527,
                    1.044187075506735,
                    0.983513563490418,
                    0.36799706428354434,
                    0.25275630017658124,
                    0.6022922578968057,
                    -0.7487828215171803,
                    -0.4474494696319916,
                    0.09634161183751166,
                    -0.5061298562790874,
                    0.042005758801206466,
                    -0.08728605180128785,
                    0.19548441958613694,
                    0.6059287126370383,
                    -0.6482823072001338,
                    -0.9664136629030253
                  ],
                  "_Bias": 0.5414640208897048
                }
              },
              {
                "app.user_data.Battle_AutoTuningPnParam_NN.Node": {
                  "_Weight": [
                    -0.7781764064790374,
                    0.011917487692169047,
                    -0.8803761637256751,
                    -0.7184600959724917,
                    -0.5095864647774441,
                    0.2903202425647905,
                    -0.4576026670919927,
                    -0.7881549484267147,
                    -0.4019829453482207,
                    0.11367199749410897,
                    -0.9108631237086824,
                    -0.642310314912111,
                    0.9457430506569013,
                    -0.9235931368742417,
                    -0.7069554999901796,
                    -0.5906001007618057,
                    -0.9401770498045884,
                    -0.8506248409007326,
                    0.6330631472371198,
                    0.6746235500091496,
                    0.5475116547953642,
                    -0.42866756096501657,
                    -0.3114727419664649,
                    0.0652067410197891,
                    -0.6677973680567705,
                    -0.030530677642673254,
                    -0.9686897212218515,
                    -0.0822732881642878,
                    -0.1707586440242029
                  ],
                  "_Bias": 0.4316185627773111
                }
              },
              {
                "app.user_data.Battle_AutoTuningPnParam_NN.Node": {
                  "_Weight": [
                    -0.664781146627042,
                    0.6179162401434299,
                    -0.2918381906071596,
                    0.25091373146595586,
                    0.8945424455700854,
                    0.7886736590605951,
                    0.07464840606672733,
                    0.7141541766778096,
                    -0.30245204237039186,
                    0.1174348361316795,
                    -0.15420005760401548,
                    0.3889525686598678,
                    -0.710366501422531,
                    0.17900364182895334,
                    0.4637216545889595,
                    -0.08192657939365089,
                    -0.9380704225601478,
                    -0.4168548005306131,
                    -0.5606065410854497,
                    -0.08393974327131895,
                    -0.2442755242807431,
                    0.6813527836594934,
                    -0.3827460239097101,
                    0.6989238379624128,
                    -0.7704732784739234,
                    -0.9168377839960158,
                    0.9558417291569907,
                    0.9441824613604695,
                    -0.5061989017042394
                  ],
                  "_Bias": -0.3767624914182709
                }
              },
              {
                "app.user_data.Battle_AutoTuningPnParam_NN.Node": {
                  "_Weight": [
                    -0.8512280650006062,
                    1.1914542353871238,
                    0.5568116396143855,
                    0.655807727446807,
                    0.42785209263432067,
                    0.3963915639162945,
                    -0.18583729961134784,
                    0.3348942710414993,
                    -0.4401895081862693,
                    0.4341801312458393,
                    0.11753144425127582,
                    -0.04982028670465612,
                    0.07592026610708491,
                    0.6817775732805489,
                    0.09289372549859715,
                    -0.7369615769587269,
                    -1.20300436607843,
                    0.3541877038715902,
                    0.42784295347135415,
                    0.7988029681960974,
                    0.1000893842390713,
                    -0.7049200787288948,
                    -0.6177708255381145,
                    0.32728467406058,
                    0.24585912572834523,
                    0.9659539638087153,
                    0.3560243436966226,
                    -0.9368705879896879,
                    -0.6719390441697715
                  ],
                  "_Bias": 0.14474409888880604
                }
              },
              {
                "app.user_data.Battle_AutoTuningPnParam_NN.Node": {
                  "_Weight": [
                    0.7858540970386659,
                    -0.6653133113811823,
                    0.9069238891817893,
                    0.8821959441927462,
                    0.13619692768279665,
                    -0.14315627095207023,
                    -0.6254815510786242,
                    0.6321342256283674,
                    -0.11124487752710158,
                    -0.8379980462341418,
                    0.1434349712981934,
                    -0.6308527918722725,
                    0.05552932817405812,
                    0.37504513343431206,
                    1.17498966733308,
                    -1.1464158981151555,
                    0.4286575278158743,
                    -1.1450896586415364,
                    0.8293322540862558,
                    0.1709233846475119,
                    -0.8082432737678452,
                    -0.8869715763877953,
                    -1.185323046849102,
                    -0.0188149323215502,
                    0.3344815950122855,
                    -0.8075644748751074,
                    -0.2818049243137693,
                    0.23073956440202892,
                    -0.38250192614389533
                  ],
                  "_Bias": -0.5903473202965991
                }
              },
              {
                "app.user_data.Battle_AutoTuningPnParam_NN.Node": {
                  "_Weight": [
                    -1.0363948103266158,
                    -0.8264741266058032,
                    0.6837991525822068,
                    0.3499794839047234,
                    0.3692219065395252,
                    0.5107183167885542,
                    0.7748012358134297,
                    -0.6326954912085375,
                    -0.7049159412956293,
                    -1.3050743212060762,
                    -0.31018103083377513,
                    -0.3931575302833499,
                    -0.45298007400424006,
                    1.1741210815465506,
                    -0.4403849137671947,
                    0.3708453051649871,
                    0.049359288741014015,
                    0.46828297406130803,
                    0.6700834603107896,
                    0.2174486182035186,
                    -1.0939894203414493,
                    0.42228001959500283,
                    -0.48762948727190225,
                    0.34443173481014056,
                    -0.3216840303611222,
                    0.5060025374405086,
                    -0.5710639852951549,
                    -0.3076003429014236,
                    0.3879603600605171
                  ],
                  "_Bias": 0.6885774846972249
                }
              },
              {
                "app.user_data.Battle_AutoTuningPnParam_NN.Node": {
                  "_Weight": [
                    0.028326871858584752,
                    -0.03549789541084752,
                    0.5328912562886148,
                    0.557742404500237,
                    0.7407647487292791,
                    0.2893759271703604,
                    0.22447082165421475,
                    0.2574675628375643,
                    1.3392877463260342,
                    0.7516894726235761,
                    -0.18279357805419838,
                    -0.5938620396039489,
                    -0.5112707040364068,
                    1.0496910619417317,
                    0.3250296434851415,
                    0.45893476861153176,
                    -0.18194025745148892,
                    -0.3350597366789604,
                    0.42291133916447743,
                    -0.2971211421796097,
                    0.7898405747057559,
                    0.1182528757255182,
                    -0.7798907584574258,
                    0.5339464878988508,
                    0.8732984063838268,
                    0.6295799864456058,
                    -0.5694328760493916,
                    0.005712104495614767,
                    0.025796533287549467
                  ],
                  "_Bias": -0.44016186995782464
                }
              },
              {
                "app.user_data.Battle_AutoTuningPnParam_NN.Node": {
                  "_Weight": [
                    0.049702741046600184,
                    -0.7828204649387327,
                    0.7499901620716463,
                    0.8591961836460977,
                    -0.580481885229263,
                    -0.7860072232768577,
                    -0.43260551451077023,
                    -0.39879949809041143,
                    0.6052144222700319,
                    -0.673484188749484,
                    0.7415562917491367,
                    0.6962806886890924,
                    0.27295137289797217,
                    -0.6832819133668403,
                    0.03946575147516446,
                    0.6966770574755942,
                    0.6485988619176293,
                    -0.7412228001025809,
                    -0.8778035470719369,
                    0.7671152088858996,
                    -0.4384237357152586,
                    -0.5942294450720226,
                    0.6354421597650532,
                    -0.6217405651754797,
                    0.5456744938801471,
                    -0.9265246617142111,
                    -0.5978444493394157,
                    -0.797608157619834,
                    0.5112411280505241
                  ],
                  "_Bias": -0.4981305159891041
                }
              },
              {
                "app.user_data.Battle_AutoTuningPnParam_NN.Node": {
                  "_Weight": [
                    -0.2529474731179251,
                    -0.6599537184554808,
                    1.069240700839095,
                    1.0025500121091937,
                    -1.0603666905642166,
                    0.7884039983382571,
                    -0.41158745673264435,
                    0.47557966457635603,
                    0.3947222053849714,
                    0.062010131186503004,
                    0.7430598013935681,
                    -0.28303530396648857,
                    -1.0378945597205516,
                    -1.4315546022929526,
                    0.843290837292575,
                    0.5211697513717224,
                    -0.5532642979110826,
                    -0.5447857818342312,
                    0.596413180009291,
                    0.41721915773145984,
                    -0.15312192824137075,
                    -0.4168996184077675,
                    0.4449581272583184,
                    -0.5373237972549271,
                    -0.4936216969224958,
                    -0.6191710410639644,
                    0.5737902311858156,
                    0.9940265042241663,
                    0.7826523883375074
                  ],
                  "_Bias": -0.04473533013436287
                }
              },
              {
                "app.user_data.Battle_AutoTuningPnParam_NN.Node": {
                  "_Weight": [
                    0.5295027692321165,
                    0.07821590973945483,
                    -0.03870621385495069,
                    0.048036184801939726,
                    0.24208001027369544,
                    0.7079323125701729,
                    -0.4371077519985408,
                    0.49701054263925976,
                    0.46891962967880313,
                    -0.2560517840156496,
                    -0.8019101900003385,
                    -0.80134546549528,
                    -0.7807458047157408,
                    -0.9899692615529637,
                    -0.04805149068508904,
                    -1.1170073312008755,
                    -0.3000951579475778,
                    1.3379321842860772,
                    0.3047827180594827,
                    -1.0472366511697737,
                    -0.02616436978557476,
                    0.06381311384832335,
                    0.7219900362972885,
                    0.6791467767120212,
                    0.2922705768526172,
                    -0.8060283225495368,
                    -0.7671747496811093,
                    0.808825078420341,
                    -0.37694093468354833
                  ],
                  "_Bias": 0.0033292562117553572
                }
              },
              {
                "app.user_data.Battle_AutoTuningPnParam_NN.Node": {
                  "_Weight": [
                    -1.0511366794631642,
                    0.5438402046442435,
                    0.6614061991688217,
                    0.6339403968820959,
                    -0.6924101748742673,
                    0.1323311524414895,
                    -0.2605331836811096,
                    -0.8689695575719912,
                    0.47137071611331804,
                    -0.2906452851536089,
                    0.5307547265166382,
                    0.08271549911933428,
                    0.7114655973245534,
                    -1.2561381229532818,
                    0.6922889924877286,
                    0.6061863386822522,
                    -0.8473765689549744,
                    0.09768104759839424,
                    -0.6273288356453266,
                    -0.25272847856397884,
                    -0.4519547912913436,
                    -0.6720126776455417,
                    -0.4936286304076845,
                    0.1015837653090556,
                    -0.10968257167180899,
                    0.06615161173976958,
                    0.434901599057422,
                    0.12134277611039579,
                    0.3625137243351889
                  ],
                  "_Bias": 0.8049918145096928
                }
              },
              {
                "app.user_data.Battle_AutoTuningPnParam_NN.Node": {
                  "_Weight": [
                    -0.8279677173616534,
                    0.37276112503771625,
                    0.012395011528870247,
                    -0.7373852415805614,
                    -0.425586375691354,
                    -0.454228189390856,
                    -0.2134135668195752,
                    -0.33832860659159963,
                    -1.065857086919067,
                    0.552874838002643,
                    -0.3614272265725478,
                    0.271366782002253,
                    -0.3808132773432483,
                    -0.511425015735876,
                    -1.0012098031754812,
                    -0.8773825046011346,
                    0.5653672689905798,
                    -0.12984488544136133,
                    -0.49218082391167256,
                    -0.7079131786352301,
                    -0.385808431738863,
                    0.580288653381673,
                    0.01992924797169609,
                    0.8410197838946463,
                    0.020530653680507105,
                    -0.5972641613334417,
                    0.8888360252020893,
                    0.2045253780670464,
                    -0.39338317870065137
                  ],
                  "_Bias": -0.7785345584062265
                }
              },
              {
                "app.user_data.Battle_AutoTuningPnParam_NN.Node": {
                  "_Weight": [
                    0.543405438807258,
                    0.2792133602442661,
                    -0.48464109288951307,
                    -0.7071984302409672,
                    -0.08978693458041466,
                    0.21185951936411607,
                    -0.6363696409705297,
                    0.8522214129096117,
                    1.1369991080351636,
                    -0.19871997972770572,
                    0.19732787021419332,
                    0.6079364135964221,
                    0.731091379552412,
                    0.8932042365018078,
                    -0.30242989884146115,
                    -0.2621198129132298,
                    0.7393138944222792,
                    -0.8385110327934757,
                    -0.2099380716927365,
                    -0.21677202623423458,
                    0.7109563466292191,
                    0.6828484072393937,
                    0.23416222621791957,
                    0.16354464373937383,
                    -0.860127889708113,
                    -0.3117131844628602,
                    0.3938482288365694,
                    0.8867123208474368,
                    -0.03212817383227423
                  ],
                  "_Bias": 1.0887738315723525
                }
              },
              {
                "app.user_data.Battle_AutoTuningPnParam_NN.Node": {
                  "_Weight": [
                    0.2616417059992883,
                    -0.8829381702266181,
                    -0.8531238365753218,
                    0.6638267896932575,
                    -0.510755625191924,
                    -0.11992421087782473,
                    -0.9084904617799929,
                    0.86762579591549,
                    0.381222227634901,
                    0.6759489834688744,
                    0.701397412908579,
                    -0.29759163178631054,
                    0.5409565801809721,
                    1.1677990679749433,
                    0.11314576579613679,
                    -0.5009091327011421,
                    -0.48206599315199383,
                    -0.8107785676357246,
                    0.38228711835251333,
                    0.6784088440387199,
                    0.510448120482058,
                    -0.8353912299371877,
                    -0.6485941624602369,
                    -0.07236269716158089,
                    0.06711229852259196,
                    0.983568170806393,
                    -0.4536047070840783,
                    0.9133228026330471,
                    0.8616070558420684
                  ],
                  "_Bias": -0.021493173152001686
                }
              },
              {
                "app.user_data.Battle_AutoTuningPnParam_NN.Node": {
                  "_Weight": [
                    -0.42645661882583685,
                    -0.2899339844699716,
                    -0.5779412130054873,
                    0.050980755159873485,
                    0.5755743951951362,
                    0.49786623812746006,
                    0.6688579296904058,
                    0.20144971043671203,
                    -0.42428651228604186,
                    0.5333293490638696,
                    -0.07715833575985281,
                    0.603060927580636,
                    0.8370729769752999,
                    -0.8747361435867785,
                    0.08020045610821161,
                    0.7771099214982271,
                    0.2812270622853818,
                    0.7020249830250462,
                    -0.4257043382565907,
                    -0.7995263523852048,
                    -0.7822431283753349,
                    0.9338560640493514,
                    0.9363860430319545,
                    -0.2782289868463849,
                    0.6573194858944225,
                    0.9737710375338793,
                    0.693918041986024,
                    -0.4875430786050856,
                    1.0023578677869949
                  ],
                  "_Bias": 0.6440071544826014
                }
              },
              {
                "app.user_data.Battle_AutoTuningPnParam_NN.Node": {
                  "_Weight": [
                    -0.24765023395627814,
                    0.4053414248141822,
                    -0.15817419249270942,
                    -0.768568683520853,
                    0.05198092873164842,
                    -0.4877709524546274,
                    0.3609778539379763,
                    -0.2020360962585257,
                    -0.33251437896367714,
                    -1.302663677833949,
                    -0.6047187394845284,
                    -0.913964827247346,
                    0.565847923512345,
                    0.11107189520716126,
                    -0.3320378924763632,
                    -0.8972061317991568,
                    0.5742058661713492,
                    -0.6279109898693942,
                    0.9049916619787168,
                    0.27539698805932783,
                    -0.3993810685870362,
                    0.4385001529995257,
                    -0.21486482285416794,
                    -0.1643964213283391,
                    -0.7478024058446749,
                    -0.7422343024518341,
                    -0.13446805407675855,
                    -0.37969164573587477,
                    -0.4260870385379967
                  ],
                  "_Bias": -0.6929798833506955
                }
              },
              {
                "app.user_data.Battle_AutoTuningPnParam_NN.Node": {
                  "_Weight": [
                    -0.7719896407088698,
                    0.3609605677709741,
                    0.29138878248477973,
                    0.08174928638591351,
                    -0.7572987979306275,
                    -0.817317220161469,
                    -0.11933715595560553,
                    0.7931971340999966,
                    0.410945098821424,
                    -0.17127011705222145,
                    0.8409576007009523,
                    -0.7709556897399185,
                    0.13647531966024004,
                    0.9525098803620307,
                    -0.21779239524602156,
                    0.008233027673355342,
                    0.8343304870507793,
                    -1.08383501315545,
                    0.3006677853270363,
                    -0.7496982377820439,
                    0.02143984056532687,
                    0.9233135030850017,
                    -0.5926298680580939,
                    0.3988399342412601,
                    0.8044699003387163,
                    0.4553476225119084,
                    0.62512661489345,
                    -0.7960258219391108,
                    0.44942321991377765
                  ],
                  "_Bias": -1.197549180374373
                }
              },
              {
                "app.user_data.Battle_AutoTuningPnParam_NN.Node": {
                  "_Weight": [
                    -0.42037680966422025,
                    -1.7190263278903575,
                    0.011089367079068603,
                    -0.15636467757599415,
                    0.441153494588587,
                    -0.6274113243609913,
                    0.6435215903809182,
                    -0.5564456517483618,
                    0.6341338458693652,
                    0.5446516158260962,
                    0.2932144110913827,
                    -0.14832774950199823,
                    -0.5200140775971758,
                    0.5746682609653401,
                    -0.8964718739618949,
                    -0.01248505502254677,
                    0.02174767504622115,
                    -0.5962611718360143,
                    0.8377771828460295,
                    0.04474750779784132,
                    -0.23081233304878362,
                    -0.18812354252653007,
                    0.00685185520989361,
                    -0.021996328128396712,
                    -0.24651273367534624,
                    -0.6958078111056238,
                    -0.831233685245068,
                    0.11597931175492704,
                    -0.47242349780791715
                  ],
                  "_Bias": -0.2018573084012642
                }
              },
              {
                "app.user_data.Battle_AutoTuningPnParam_NN.Node": {
                  "_Weight": [
                    -0.47750545486852225,
                    0.035744533278557346,
                    0.743928311782216,
                    -0.5026020114206731,
                    -0.617588703521816,
                    -1.4212377296838816,
                    -0.8372401544718497,
                    0.4642671524414999,
                    -0.5133379166615643,
                    0.5133952266219336,
                    0.4978634935533422,
                    -0.43193461897352475,
                    0.46369042759018964,
                    0.8744938463331768,
                    0.825832491296816,
                    -0.9364460877146566,
                    -0.7180431346320456,
                    -0.8705388839991881,
                    -0.5791071928003535,
                    -0.2421324971426138,
                    -0.7296486079566424,
                    -0.3230985866931665,
                    -0.203930179827957,
                    -0.8733752531114906,
                    -0.8892476349281181,
                    -0.3882427476346493,
                    -0.22000739342118697,
                    -0.826186278834939,
                    0.8327700669599428
                  ],
                  "_Bias": 0.16659423702994866
                }
              },
              {
                "app.user_data.Battle_AutoTuningPnParam_NN.Node": {
                  "_Weight": [
                    0.3616081039916124,
                    1.0346401214786654,
                    -0.8627271147498801,
                    -0.6506248962155137,
                    0.5298159352177116,
                    -0.22616119004979296,
                    -0.7898783227564796,
                    -0.4970325534911922,
                    -0.4736008872811156,
                    -0.4011898283695226,
                    -0.72065333927621,
                    0.48122069086952646,
                    -0.3382692847388698,
                    0.3687361218090261,
                    -0.47566594481326174,
                    0.36898065838113536,
                    0.7994436741188317,
                    0.6074536753360226,
                    -0.6634564686869083,
                    -0.5585003462162198,
                    0.8220022711342282,
                    -0.8519088681924687,
                    0.5834717390699345,
                    -0.8091812918896883,
                    -0.13459931075885417,
                    -0.13526561786420643,
                    -0.2479648481528914,
                    0.7067532204091549,
                    -0.17214864961966955
                  ],
                  "_Bias": 0.7760223653728061
                }
              },
              {
                "app.user_data.Battle_AutoTuningPnParam_NN.Node": {
                  "_Weight": [
                    0.29480712997018826,
                    0.7343066320312863,
                    -0.3781154424292103,
                    -0.0596089725767362,
                    0.35951032588051746,
                    -0.26507589869237225,
                    -0.6019367424413831,
                    -0.3612680254133114,
                    -1.4843254820571758,
                    1.269150069578025,
                    -0.4894738210551227,
                    0.6430756116930344,
                    -0.22157368473601666,
                    -0.42582090035102826,
                    -0.4540139678943819,
                    0.6855786977355806,
                    0.3270743467358715,
                    0.6052705620359132,
                    0.050464992116003346,
                    0.6362819093125885,
                    0.012958628841867232,
                    0.5313441931661601,
                    -0.7832738753082084,
                    0.5050751918954116,
                    0.19360039350381567,
                    0.5499704137910157,
                    -0.5842082266582536,
                    -0.7433890372049063,
                    0.6948329660529168
                  ],
                  "_Bias": -0.2755626661416178
                }
              },
              {
                "app.user_data.Battle_AutoTuningPnParam_NN.Node": {
                  "_Weight": [
                    0.8012213124916022,
                    0.19963259202226116,
                    -0.6094729536486174,
                    0.33070547944886175,
                    0.488011291758162,
                    -0.658806753435798,
                    0.5331684833668594,
                    -0.9826362756528462,
                    0.8028297370791929,
                    -0.14069934826792246,
                    -0.6562785443174598,
                    -0.9264825209157083,
                    0.7018189629436801,
                    -0.5808161660257238,
                    -1.3098567795563933,
                    0.24767769747640114,
                    0.21527065118021338,
                    0.8770530689514372,
                    -0.24357697626152927,
                    0.7510456492987606,
                    -0.9533543794399433,
                    -0.8757727515063782,
                    -0.32061835868640576,
                    -0.2223899922277979,
                    0.9297592908271964,
                    0.7248508671764284,
                    0.6921274242590895,
                    0.6934275610838085,
                    -0.30766690666712926
                  ],
                  "_Bias": -0.3209741927699826
                }
              },
              {
                "app.user_data.Battle_AutoTuningPnParam_NN.Node": {
                  "_Weight": [
                    0.5236966959129402,
                    -1.7116690594133295,
                    -0.09588966173596884,
                    0.6559906469091126,
                    0.9549270194073328,
                    0.022180282322933956,
                    -0.6567019208294579,
                    -0.5261261533391212,
                    0.10396811383280528,
                    -0.41994070255419624,
                    -0.8460605569611243,
                    -0.4554188749127018,
                    0.7211978220552361,
                    -0.5474579308812895,
                    -0.4283039975725185,
                    -1.1033819222070278,
                    -0.514164430326716,
                    0.938353684855024,
                    -0.05055457944064134,
                    0.6565842530381134,
                    0.06980753750037766,
                    0.5144949881970609,
                    0.7317555387532075,
                    -0.7826753102899564,
                    -0.4166044157692247,
                    -0.5584394794423133,
                    0.3859278125330927,
                    0.6251271835062653,
                    -1.0156727442664863
                  ],
                  "_Bias": -0.3918297308446879
                }
              },
              {
                "app.user_data.Battle_AutoTuningPnParam_NN.Node": {
                  "_Weight": [
                    1.2132861346786732,
                    -0.7291006277824351,
                    0.5907497709070478,
                    -0.04059008705334791,
                    -0.8187942788357112,
                    0.20344654663761394,
                    -0.5456958838513926,
                    -0.6533701334714529,
                    0.3137637812470379,
                    0.7921887649293564,
                    0.651265036095126,
                    1.2334403671504035,
                    0.38876647376671875,
                    -1.0259760422918764,
                    -0.3514377090890312,
                    0.25716846223666084,
                    0.4539300115945867,
                    -0.27890930007244075,
                    1.1887537290425527,
                    -0.1728918914786671,
                    0.10824188985701641,
                    0.08585257660005197,
                    0.06480282337426174,
                    0.9583472170181702,
                    -0.018492759325522252,
                    -0.9538245510775596,
                    -0.7529222239851859,
                    -0.3069798140786588,
                    -0.31975753052055605
                  ],
                  "_Bias": 0.8436694475838158
                }
              },
              {
                "app.user_data.Battle_AutoTuningPnParam_NN.Node": {
                  "_Weight": [
                    -0.2398011092986983,
                    -0.532500016798036,
                    -0.023001392957869668,
                    0.9173926543885836,
                    0.17621387043658085,
                    -0.6026798168870932,
                    -0.3981722057749345,
                    1.1077644991180764,
                    0.543585828564991,
                    0.9652209283396449,
                    -0.8011267866117018,
                    -0.957688101469446,
                    -0.5680218582266489,
                    0.007788075799608262,
                    -0.05614972493151182,
                    0.050379450038004044,
                    0.21548017543150935,
                    -0.5797764469114951,
                    -0.25355523858192747,
                    0.23652436646288183,
                    0.13400421502975293,
                    -0.39078718369625554,
                    0.18768919258823555,
                    0.07615669698367176,
                    -0.4195694517079293,
                    0.6969359412323684,
                    -0.8135201968679495,
                    0.042296681087464094,
                    -0.3946763954528046
                  ],
                  "_Bias": 0.35311801031256673
                }
              },
              {
                "app.user_data.Battle_AutoTuningPnParam_NN.Node": {
                  "_Weight": [
                    0.7999747028444818,
                    0.1510572699601848,
                    -0.7383714213508318,
                    -1.0119117013765166,
                    -0.5058973125146761,
                    0.16676260322068015,
                    -0.8653802044606798,
                    0.6852329533932172,
                    -1.0500842555211518,
                    -0.48864187358944494,
                    0.21667117818747106,
                    1.0682503239647272,
                    1.190870084061465,
                    0.27042566614603897,
                    1.380352501653885,
                    0.8987052956961935,
                    -0.48220859997226695,
                    -1.0158418515841618,
                    0.5973448255250661,
                    -0.26517219768403066,
                    0.5172424677972003,
                    -0.3904327669847724,
                    0.37750632860209293,
                    -0.9310498761360404,
                    0.15729731344565978,
                    0.7707529149483889,
                    -0.00808439073180721,
                    0.22967233275994658,
                    -0.2257586231876697
                  ],
                  "_Bias": -0.8222655342638742
                }
              },
              {
                "app.user_data.Battle_AutoTuningPnParam_NN.Node": {
                  "_Weight": [
                    -1.083469388714355,
                    -0.21513245690276553,
                    -0.991056811963055,
                    -0.8708200919990785,
                    -0.6876644274116286,
                    -0.20308963524641901,
                    -0.6664010883256348,
                    -0.006098417707241473,
                    0.7570407304282104,
                    -0.35499191028702115,
                    -0.7444020987787004,
                    -0.8465095350951588,
                    -0.658137700471147,
                    0.5057563784912377,
                    0.6466753551392406,
                    -0.6649082355574382,
                    1.209789594406317,
                    0.35526755105951674,
                    -0.34676376448131657,
                    0.606843704218011,
                    0.07720829695565967,
                    1.1213326326833986,
                    -0.6044382062169081,
                    -0.9797964936173961,
                    -0.0367411798938671,
                    0.553855086909607,
                    -0.211206048377385,
                    0.9669392965734005,
                    0.08084250518950187
                  ],
                  "_Bias": -0.33626220780527605
                }
              },
              {
                "app.user_data.Battle_AutoTuningPnParam_NN.Node": {
                  "_Weight": [
                    0.6362327092253995,
                    -0.6383470255005803,
                    -0.13031604445393674,
                    -1.1853432305432616,
                    -0.18717239197215,
                    -0.19697063568883783,
                    -0.8024963004160851,
                    -1.1904536925613711,
                    -0.14737006571486758,
                    0.34320129404016436,
                    -1.0571214503992834,
                    0.7643787841933035,
                    0.5246856309400113,
                    -0.21220830217593803,
                    1.2254204246810811,
                    -0.6280056836047241,
                    -0.62147114948464,
                    -0.7695917676010635,
                    -0.014083943578722505,
                    0.17175044272673404,
                    0.5944288776186347,
                    0.14878716848342916,
                    -0.8081685320012795,
                    -0.2968732441406785,
                    -0.49048855324146806,
                    0.5693665677681565,
                    0.12841529510889185,
                    -0.6445569309871644,
                    -0.6620495280152061
                  ],
                  "_Bias": -0.6289267435600104
                }
              },
              {
                "app.user_data.Battle_AutoTuningPnParam_NN.Node": {
                  "_Weight": [
                    -0.8827142581103392,
                    0.6407410408332087,
                    -0.7627471221960818,
                    0.34739479699983494,
                    0.1843833468840218,
                    -0.3074735287448192,
                    0.8455313085781241,
                    -0.3769484656882435,
                    -0.25083532743882764,
                    0.07539366597255204,
                    0.7171345040578101,
                    0.7139875153028934,
                    -0.46890101575074394,
                    0.459587809873314,
                    0.1438282107333005,
                    0.9334930413112853,
                    -1.2507980138439894,
                    -0.5652496974873497,
                    0.9394772207107165,
                    0.05700582468922845,
                    -0.256753942134448,
                    -0.21562745900904537,
                    -0.46960848349527173,
                    -1.0362765855988947,
                    -0.18856257875671292,
                    0.7442171589937061,
                    0.1902591712453631,
                    -0.3168497474398464,
                    0.8751392162593475
                  ],
                  "_Bias": -0.406111164580442
                }
              },
              {
                "app.user_data.Battle_AutoTuningPnParam_NN.Node": {
                  "_Weight": [
                    -0.24135821778673802,
                    -0.3718329873167517,
                    -0.061017360414331805,
                    0.8860888612332373,
                    0.8375467554243469,
                    -0.6382982331003163,
                    -0.9512368305056208,
                    0.5257826286158949,
                    0.23784713679560737,
                    0.6647999695748034,
                    0.4348348840403425,
                    1.0004317962902864,
                    0.31720223206491577,
                    0.9353870971190628,
                    0.13203533828066893,
                    -0.6479154573928472,
                    0.5447941875041917,
                    -0.17312555083597833,
                    0.008145366073212566,
                    -1.066757225094118,
                    -0.7995348481542707,
                    0.11713174741936182,
                    -1.099653313260375,
                    -0.22240401608786234,
                    0.06152864671296441,
                    0.9237986986991018,
                    0.06652318420917752,
                    0.3511024732142687,
                    0.20059822562542337
                  ],
                  "_Bias": -0.811228774060747
                }
              },
              {
                "app.user_data.Battle_AutoTuningPnParam_NN.Node": {
                  "_Weight": [
                    0.023467189553358643,
                    0.4997469153453238,
                    0.9128482903689151,
                    -0.2862098588599585,
                    0.125725350576545,
                    1.2707240435438674,
                    0.4436359837135388,
                    0.9763273089398734,
                    -0.9338047859239298,
                    -0.3747371394631603,
                    0.1956005598013214,
                    -0.7025535506131853,
                    1.4758396601461343,
                    -0.07128212651340639,
                    0.5540790844327901,
                    0.47745976739556434,
                    -0.2551707914533843,
                    1.222506477268053,
                    -0.12962046449707232,
                    0.6324767619865721,
                    0.23828148182891712,
                    -0.215062131008878,
                    -0.161367437901583,
                    0.1843537473306498,
                    0.5530542178363914,
                    -0.5096373332198709,
                    0.026441169678422274,
                    -0.2578833850566298,
                    0.26078217445204505
                  ],
                  "_Bias": 0.7203255629405345
                }
              },
              {
                "app.user_data.Battle_AutoTuningPnParam_NN.Node": {
                  "_Weight": [
                    -1.0726357161962603,
                    0.595420864133592,
                    -0.2464821072476251,
                    -0.739798965789179,
                    0.07031757329209185,
                    -0.6936710107384791,
                    -0.15882543748099903,
                    0.6809521429770661,
                    -0.8608787206034635,
                    0.38179829885318567,
                    0.36127665619371563,
                    -0.11756274280914353,
                    -1.072435647600189,
                    -0.3434905096157092,
                    -0.05485091797735144,
                    0.16187733931069795,
                    0.5886554046767312,
                    0.7444063101113775,
                    0.25804873500833814,
                    0.5872326344424653,
                    -0.5837869566968357,
                    0.7165542264162584,
                    0.3882467801913944,
                    -0.32600582118112764,
                    0.010888904795905962,
                    0.21682920353487134,
                    -0.7469610508709048,
                    -0.2740388985257596,
                    0.2891682249279136
                  ],
                  "_Bias": 0.1955845821286292
                }
              },
              {
                "app.user_data.Battle_AutoTuningPnParam_NN.Node": {
                  "_Weight": [
                    -1.1213467759718005,
                    0.5553864541594841,
                    -0.03508045310782074,
                    -0.8630097163169974,
                    1.002285563980841,
                    0.7500198543544253,
                    -0.16727290588796456,
                    -0.3564701378632344,
                    -0.14351199552073612,
                    -0.9802363390980902,
                    0.6169298546254998,
                    -0.11714378950910326,
                    -0.11625805398234577,
                    -0.8690398228339509,
                    0.9754719656980948,
                    1.0056384398376474,
                    -0.8035303445558504,
                    -0.5647715089099261,
                    -0.09798079038242083,
                    -0.2689201832105018,
                    -0.679162577508503,
                    0.42679860125479535,
                    0.31827458458380203,
                    0.6418856031986538,
                    0.8441924518654711,
                    -0.7887915356550366,
                    0.9882358655732051,
                    0.1930064521729946,
                    -0.07938901340842094
                  ],
                  "_Bias": -0.30287013923142014
                }
              },
              {
                "app.user_data.Battle_AutoTuningPnParam_NN.Node": {
                  "_Weight": [
                    0.38675240702709135,
                    -0.002055851700636418,
                    -0.6102455448008555,
                    -0.07322098185643248,
                    0.18150464257411278,
                    -0.3671063856963917,
                    0.26278930917131654,
                    -0.9106177212441952,
                    -0.37164698434438537,
                    -1.0551105200690751,
                    -0.3375821370227032,
                    -0.45390187254485964,
                    0.4058218710658007,
                    0.5633381792521538,
                    -0.482709589694407,
                    -0.8595693590265637,
                    -1.0062951599902896,
                    -0.35716156436781166,
                    0.07965882209696959,
                    -0.8926838380411255,
                    0.5053815942393856,
                    0.28118645001636916,
                    -0.5658440822427169,
                    0.5575418135976045,
                    0.5442318327902851,
                    0.19216622598469257,
                    0.45038748163573056,
                    -0.7089500606525689,
                    0.6176449851999196
                  ],
                  "_Bias": -0.3661311120396721
                }
              },
              {
                "app.user_data.Battle_AutoTuningPnParam_NN.Node": {
                  "_Weight": [
                    -0.25973930789179106,
                    0.24390608526573238,
                    -0.5608993364195054,
                    0.20476413926295445,
                    -0.12668709022867353,
                    -0.5873339194502815,
                    -0.10847514295483604,
                    -1.2404583129196964,
                    0.42492137400329183,
                    0.814173621683437,
                    -0.24836700210763735,
                    0.5864283543011058,
                    0.14703419241852372,
                    -0.5412869033115137,
                    -0.31572545679567465,
                    -0.1475328911868158,
                    0.21386968052553354,
                    0.3198044055324774,
                    -0.2839554571978709,
                    -0.9639555054162193,
                    -0.4822145069667737,
                    -0.40700957810595223,
                    -0.9744443553456138,
                    0.4185063164849197,
                    -0.7437240463254686,
                    -0.8179784333333373,
                    0.49975647745801227,
                    0.8255700094159693,
                    0.9716087676775607
                  ],
                  "_Bias": 0.390982307279263
                }
              },
              {
                "app.user_data.Battle_AutoTuningPnParam_NN.Node": {
                  "_Weight": [
                    -0.028439106832083942,
                    0.19111309387525566,
                    0.2516144931340606,
                    0.8182924182630383,
                    0.6253749656418575,
                    -1.2821963850664986,
                    0.044723380583134104,
                    -0.5588915461537678,
                    0.8881597468510449,
                    0.8781064760748856,
                    -0.5594767297693097,
                    0.008676941059869943,
                    -0.42898214831297843,
                    -0.9283448236442803,
                    -0.2741890567729438,
                    -0.5488286478767537,
                    0.8059268651607295,
                    0.7968597390904747,
                    1.062798182165101,
                    0.017602578860408797,
                    0.6019982558792357,
                    0.7981950244537112,
                    0.3041826072025823,
                    -0.9199286918619589,
                    0.34419085424696994,
                    -0.21342338318936527,
                    0.9135121954808296,
                    0.6359265430364758,
                    -0.7999013213038179
                  ],
                  "_Bias": -0.9653713468579476
                }
              },
              {
                "app.user_data.Battle_AutoTuningPnParam_NN.Node": {
                  "_Weight": [
                    -0.22622644896251054,
                    0.46016756183450974,
                    0.16269548980985912,
                    -0.17560930905614744,
                    0.4584367332898323,
                    0.4772314833312036,
                    -0.7220727623319022,
                    0.14786151289544838,
                    0.25628034922344894,
                    0.7117902825312009,
                    0.5399809890296928,
                    -0.522842455940678,
                    -0.18141733952004907,
                    -0.6765952295366986,
                    0.6616595845426622,
                    0.5567921889157182,
                    0.4474769387973967,
                    -0.14621241798495585,
                    -0.619221441720522,
                    -0.4308589760247138,
                    -0.76747620385489,
                    0.20540720481964822,
                    -0.5568191030389745,
                    -0.26862160315877287,
                    -0.04589369094770914,
                    0.24654870596714318,
                    -0.7301937336569664,
                    -0.7804671272169799,
                    0.5827186408888384
                  ],
                  "_Bias": -0.3833962045575098
                }
              },
              {
                "app.user_data.Battle_AutoTuningPnParam_NN.Node": {
                  "_Weight": [
                    0.328985143610671,
                    -0.2933271212954908,
                    -0.4856382192440939,
                    0.15828073654354544,
                    0.027294625037819778,
                    0.3547574546406366,
                    0.4799028853942335,
                    -0.8971821803907597,
                    0.28469325477999813,
                    -0.29195406998858336,
                    -0.1034707610751217,
                    0.24596437062856533,
                    0.5076290810987686,
                    -0.39085371228584875,
                    -0.27568209318341624,
                    -0.8489767660207361,
                    0.4502654266928375,
                    1.0363828698625277,
                    1.049569027170191,
                    0.43635935109458845,
                    0.1306621992462333,
                    -0.03448873782446056,
                    -0.11632061024452045,
                    0.761387823521522,
                    0.6336127554452433,
                    -0.3932837643660605,
                    0.18072186486958272,
                    0.8078314561862499,
                    0.38705803406687117
                  ],
                  "_Bias": 0.3579391747280001
                }
              },
              {
                "app.user_data.Battle_AutoTuningPnParam_NN.Node": {
                  "_Weight": [
                    -0.3556618490903972,
                    0.5393670186061198,
                    -0.5364202554446444,
                    0.0037704470617361168,
                    0.5999457516450247,
                    -0.035841863072362666,
                    0.9592147287679056,
                    -0.45988067402775923,
                    -0.0644963748487335,
                    0.5360121007869265,
                    0.790272495030494,
                    -0.4567727373875427,
                    0.7996091964612814,
                    0.10729943254132764,
                    -0.0803160499170161,
                    0.3237287815572244,
                    0.09803195893904697,
                    -0.11661813260281866,
                    -1.224486473019271,
                    0.30403193765226827,
                    -0.7350636936789912,
                    1.0462904967832263,
                    1.096780165251999,
                    -0.524184052723424,
                    0.7083414374587544,
                    -0.8091672980226576,
                    0.9674182751862123,
                    0.8799185622483492,
                    0.16326728159451775
                  ],
                  "_Bias": 0.5703922330467553
                }
              },
              {
                "app.user_data.Battle_AutoTuningPnParam_NN.Node": {
                  "_Weight": [
                    0.6359852314525467,
                    -1.0783533763938489,
                    -0.6352287429851844,
                    -0.5459157455641399,
                    0.20146063071774345,
                    0.43998274209562666,
                    -0.31318414115166104,
                    0.05736856215064503,
                    0.6616107795199773,
                    1.4389180861446447,
                    -0.5254993708765668,
                    -0.04058397376998823,
                    -0.19030181949622457,
                    -0.7760509718291885,
                    -0.45122265039569215,
                    -0.7530986192185503,
                    -0.07054580246738791,
                    -0.7887760345973882,
                    -0.2780745714515864,
                    -0.5239193543994245,
                    -0.21217727772877826,
                    0.5294834102790846,
                    0.4976720779293544,
                    -0.945236497615745,
                    -0.22534676298554268,
                    -0.35383473499678075,
                    0.4790572671616242,
                    0.5778327262960374,
                    -0.5908869287495748
                  ],
                  "_Bias": -0.5350963159465657
                }
              },
              {
                "app.user_data.Battle_AutoTuningPnParam_NN.Node": {
                  "_Weight": [
                    -0.9003142893868971,
                    0.2743562020131237,
                    0.8946796591468528,
                    -1.2679649677693086,
                    -0.7902229475204391,
                    -0.44269823092380306,
                    0.32985003958563347,
                    0.5348963137461572,
                    -0.9829675363442149,
                    0.06291885707322982,
                    1.122346568265483,
                    -0.2846991359113375,
                    -0.708530911124147,
                    -1.2617590008544903,
                    -0.3349216456715692,
                    -0.027643831282661437,
                    0.3348805460305579,
                    -0.5897899252487367,
                    0.35293630643174106,
                    -0.5874617249741638,
                    -0.9199002351087071,
                    -0.2936879274656725,
                    0.4317381070255262,
                    0.9542017906869602,
                    -0.8007003787653952,
                    -0.007425285177305341,
                    0.7241963967349375,
                    -0.4883962708991021,
                    0.2117761107056226
                  ],
                  "_Bias": 0.18319477429022463
                }
              },
              {
                "app.user_data.Battle_AutoTuningPnParam_NN.Node": {
                  "_Weight": [
                    -0.45200208934873176,
                    0.5356114981129958,
                    0.8350837425989428,
                    -0.07488644239203388,
                    0.6314556590578452,
                    -0.8238680615618785,
                    -0.309602401240376,
                    -0.8992591734858257,
                    -1.1923394861746015,
                    -0.6754681889617972,
                    0.9641211677523943,
                    -0.8723383656902463,
                    -0.44141632277205395,
                    -1.0364792514681314,
                    -0.9195529056104496,
                    0.5880699984568895,
                    -0.6176602554551847,
                    0.2324138114716395,
                    -0.052326311519791946,
                    1.1344011191398895,
                    -0.49635525408780945,
                    -0.862043469504547,
                    0.24091515111284265,
                    -0.4960539767310561,
                    0.0629385584001719,
                    0.013908117543905973,
                    -0.2841468488133382,
                    -0.5821102357003838,
                    0.520739149262942
                  ],
                  "_Bias": -0.801059526739429
                }
              },
              {
                "app.user_data.Battle_AutoTuningPnParam_NN.Node": {
                  "_Weight": [
                    0.2701337027479803,
                    1.1562158534248013,
                    -0.2887685825503793,
                    0.30032542329639655,
                    -0.06865902147023166,
                    -0.8124510174956892,
                    -0.9868929280053033,
                    1.0587275022237912,
                    -0.42752954000000504,
                    -0.4493261257290562,
                    0.8647646043062233,
                    -0.1497989336782289,
                    0.23699957866277024,
                    0.6100815848333598,
                    -0.9346159279230699,
                    -0.5745707503925452,
                    -0.08384112577385514,
                    1.0697288427130118,
                    0.0909254730015396,
                    -0.8329569242624463,
                    0.3106591724472843,
                    0.5447150071538406,
                    0.3804663836955202,
                    0.15556944751037735,
                    0.11561633805870479,
                    0.8923942046239972,
                    -0.06759128885364762,
                    -0.2390476898290217,
                    -0.788598213272104
                  ],
                  "_Bias": -0.3516998605019204
                }
              }
            ]
          }
        },
        {
          "app.user_data.Battle_AutoTuningPnParam_NN.Layer": {
            "_Node": [
              {
                "app.user_data.Battle_AutoTuningPnParam_NN.Node": {
                  "_Weight": [
                    -0.8143402783161234,
                    -0.018714359820692993,
                    0.6568367701022979,
                    0.8129785700025387,
                    0.013580178386637467,
                    -0.15133435608329862,
                    0.7094879261242572,
                    -0.38030743008746765,
                    1.0770729704847442,
                    0.5746372644133024,
                    0.74719576538169,
                    -0.2906281449930108,
                    0.08773628335042268,
                    -0.46127410923891926,
                    0.043312051369891524,
                    -0.3665983580155961,
                    -0.7204180862005481,
                    -0.4768038071192281,
                    -0.5118308145861139,
                    -0.05276930795285786,
                    -0.6777143552392447,
                    0.3434526996084927,
                    -0.7775120448909723,
                    0.2490337977581939,
                    0.9316736383814348,
                    0.5382299653175938,
                    0.5980142836716785,
                    -0.4043451098726753,
                    -0.6121316343345128,
                    -0.12470318874352833,
                    0.676167943673975,
                    0.10670117085588551,
                    0.8466436099667568,
                    -0.19026188274883052,
                    0.15343383329582508,
                    -0.7320577268188247,
                    -0.662214092153951,
                    -0.16143487872827736,
                    0.16205421701874342,
                    0.47871366160983647,
                    -0.8858836747031025,
                    0.17562418665318805,
                    -0.8204823814624844,
                    0.19280777131329352,
                    -0.684202290112295,
                    0.7059036656880469,
                    1.119272680208125,
                    0.04862840315930932,
                    -0.06762257533778658,
                    -0.3729454626775335,
                    -0.06439106883239193,
                    -0.03177453016109653,
                    0.7539447100685593,
                    -0.6759134783619395,
                    -0.5714626101175934,
                    0.9618360167996333,
                    -0.878162810399985,
                    -0.3800070834810712
                  ],
                  "_Bias": 0.20831938019665563
                }
              },
              {
                "app.user_data.Battle_AutoTuningPnParam_NN.Node": {
                  "_Weight": [
                    0.6490651946974736,
                    -0.9209933300964354,
                    0.2907615099006409,
                    -0.21351450785806506,
                    0.10776456842008754,
                    -0.36666920380580764,
                    0.43583397483990605,
                    -0.5586610205917973,
                    0.6352053676136769,
                    0.4257252863521946,
                    -0.7187621709240086,
                    -0.5087771356938172,
                    -0.3248223372708009,
                    0.2391129819789657,
                    0.7423724356635574,
                    -0.34083021128680835,
                    0.2631079674600497,
                    0.06024498974977086,
                    0.8719031528987642,
                    -0.23610353728172506,
                    0.8260178894263852,
                    -0.5868022631455901,
                    -1.0946234570339797,
                    -0.15857761345681845,
                    0.02099991690267404,
                    -0.5977435478492732,
                    -0.5822963481500364,
                    -0.2790451283064999,
                    -0.8724882885647561,
                    0.2342942327373204,
                    0.12822033630785246,
                    0.24667752750479496,
                    -0.0017439792895954306,
                    -0.9283933264464473,
                    0.8227997213215077,
                    -0.4140622066905921,
                    1.1549356365072925,
                    0.9388544750075335,
                    -0.001496978506527604,
                    0.21658645607535865,
                    -0.9913348054116377,
                    -0.957680696531543,
                    0.012099065387509156,
                    0.04040971697399162,
                    0.30623425263732446,
                    0.15908051278116506,
                    -0.8772798644278801,
                    0.5169650989017376,
                    0.9670835476646805,
                    0.4497682492274493,
                    -0.6260038173212686,
                    0.6620135578075018,
                    0.2250215022282415,
                    0.70782437126797,
                    -0.2710379298937536,
                    -0.9765573667151487,
                    -0.46597154852932127,
                    1.3268897567163334
                  ],
                  "_Bias": 0.45992022904383645
                }
              },
              {
                "app.user_data.Battle_AutoTuningPnParam_NN.Node": {
                  "_Weight": [
                    -0.34410235683589385,
                    0.02529109163088295,
                    0.8068470163913194,
                    0.2567223522079799,
                    0.9461631315654615,
                    -0.36149961563163047,
                    -1.0305157292889366,
                    -0.04257050696123438,
                    -0.6072183630798651,
                    0.4289969928719342,
                    -0.09360817649903809,
                    -0.166020367426644,
                    0.2513498530566821,
                    0.4594235743033501,
                    0.5980487431219882,
                    -0.8767200380365355,
                    0.2918905343758795,
                    0.13025083731642192,
                    0.8686344668733974,
                    -0.04783257113548958,
                    0.24262143108807924,
                    0.8661168149786894,
                    -0.23384366382313118,
                    -1.1798539620926625,
                    -0.6813073654865603,
                    -0.49769266216833613,
                    0.07988364596082805,
                    -0.7868237859829612,
                    -0.41068519423815664,
                    0.5869249640502089,
                    -0.8494689627837951,
                    0.6048700062438924,
                    0.04847238301717832,
                    -0.2667409308195323,
                    0.9864011464876896,
                    0.3410456093497425,
                    0.5101805071643845,
                    -0.9665067762327495,
                    -0.9455610264098295,
                    -0.4953002567814962,
                    -0.35467522088051556,
                    0.3282341392233102,
                    0.28227258944898076,
                    1.217423071496704,
                    0.28124745073628415,
                    -0.044636592505347995,
                    -0.4161683350773691,
                    -0.5200557505203816,
                    0.9900286864930197,
                    -0.12345185206097245,
                    0.06138541437757463,
                    0.18357297982527512,
                    -0.5085919969635249,
                    0.3934677415628064,
                    -1.3465307519919307,
                    1.0695632707854092,
                    -0.2696396968820492,
                    -0.18485898757997818
                  ],
                  "_Bias": -0.8468775864645801
                }
              },
              {
                "app.user_data.Battle_AutoTuningPnParam_NN.Node": {
                  "_Weight": [
                    0.8693629939616296,
                    0.22692564213162872,
                    0.34403596116313745,
                    0.8835730109298471,
                    0.1194837119528414,
                    1.1318201862016237,
                    0.7116125584827668,
                    0.9458494189757427,
                    -1.2609689078360427,
                    -0.17003605544832798,
                    -0.781095590887968,
                    -0.40523279349570435,
                    -0.42934987077499104,
                    0.00047449050859036366,
                    0.8805052485246131,
                    -0.19427181959377596,
                    -0.5110703704409333,
                    -0.6192929489427216,
                    -1.0345135877173404,
                    -0.30690023615929385,
                    -0.40318287224837446,
                    -0.22319490222633898,
                    -0.7230002307625859,
                    0.9485826060537755,
                    0.7222547038197881,
                    0.5930638275812784,
                    -0.06312355452383937,
                    1.1956402774587063,
                    -0.14716430399772082,
                    0.5946081740629784,
                    -1.1588748254430856,
                    0.8786365970296262,
                    0.6038326896341476,
                    -0.03431758737279859,
                    0.2634273859529209,
                    0.3089604791700073,
                    0.18687043611932647,
                    -0.376388231292569,
                    -0.5586359488578461,
                    -0.6840948874601984,
                    -0.4264141040892656,
                    0.7308316901368612,
                    0.2198981538764704,
                    -0.2386645577499481,
                    0.08858693223116759,
                    0.9313272087195329,
                    -0.3173139504296877,
                    -0.6667940402185487,
                    -0.21965721397377122,
                    0.22776617281491301,
                    -0.620829570868517,
                    0.31353635753268355,
                    -0.5367481654993365,
                    0.3447491487549352,
                    1.197199067036816,
                    -0.719080883788302,
                    -0.5852842601824515,
                    0.20277941595595997
                  ],
                  "_Bias": -0.7442174709981872
                }
              },
              {
                "app.user_data.Battle_AutoTuningPnParam_NN.Node": {
                  "_Weight": [
                    -0.2813516986728449,
                    0.06061881075771149,
                    -0.767259956103257,
                    -0.38056756270669456,
                    0.8274887548178779,
                    -0.3154841181754323,
                    0.8810862266098465,
                    -0.14492578621734029,
                    -0.8650839593744207,
                    -0.9036196318648837,
                    -0.06477766025929152,
                    0.5515533280843573,
                    -0.842872839641174,
                    -0.10297782562223054,
                    0.6633044673840652,
                    0.054235693429694296,
                    -0.12571305377169104,
                    0.7650322700369887,
                    -0.923853831572576,
                    0.9155895255973169,
                    0.3806518946422738,
                    -0.28034666930192315,
                    0.403809313026493,
                    1.2279544302437435,
                    0.9331378821265457,
                    -0.8733986411961387,
                    -0.3435080187409855,
                    -0.45587968840876986,
                    -0.6783953017803515,
                    -0.8120831405871125,
                    1.057410211801873,
                    0.08063242761146622,
                    -0.4124140128865983,
                    0.2629299365372358,
                    0.9153142266268041,
                    -0.9570467119286503,
                    1.2654826883210029,
                    0.6217461769402026,
                    -0.8592016809842956,
                    -0.004137306573962856,
                    -0.8838773624276401,
                    1.0839674881106836,
                    -0.3961151421985113,
                    0.5662930188521048,
                    -0.4055172625827039,
                    -0.6161996874048967,
                    0.6127826584866789,
                    -0.8971694241471971,
                    0.7881823798139496,
                    -0.9090088919031563,
                    0.37863781191878404,
                    -0.2368600454190893,
                    1.3486320050606537,
                    0.6732475647362208,
                    -0.6155253377645155,
                    0.29989363527273016,
                    0.49683022830265366,
                    0.6494763865700385
                  ],
                  "_Bias": -0.7222094989907105
                }
              },
              {
                "app.user_data.Battle_AutoTuningPnParam_NN.Node": {
                  "_Weight": [
                    0.023768996945244977,
                    -0.7311415248646717,
                    0.1470268384808488,
                    -0.7196308250973239,
                    -0.4072794193310312,
                    0.7626539951098379,
                    0.7585238629374051,
                    -0.2250286020418211,
                    0.8075014311120713,
                    -0.16000566475119266,
                    -0.9286673037574482,
                    1.0300399163250482,
                    0.7535383517537632,
                    0.14986170044195396,
                    0.06852809378434911,
                    0.6055987403887856,
                    -0.6685030326658161,
                    -0.5255838011886571,
                    0.17346755967242472,
                    0.4095437340342447,
                    0.5933126455043853,
                    1.1060114116237407,
                    0.34081242642341486,
                    -0.9857440180064564,
                    -0.394236192048378,
                    0.4614688794977202,
                    -0.7161634887599624,
                    0.05153269927559076,
                    -0.1952696771257136,
                    -0.9162034788135566,
                    0.743422141643503,
                    -0.6990687117416879,
                    0.7187606364750765,
                    0.08544120708092758,
                    0.049686447293616154,
                    0.08399291201767357,
                    0.033951345256190764,
                    0.484429370523259,
                    -0.5162872872121174,
                    0.6638668804197781,
                    -0.5324686023831847,
                    -0.07363662366598273,
                    -0.5454160457187367,
                    1.0851642828026038,
                    -0.6741492545097497,
                    -1.2047521661882565,
                    0.4867913756156855,
                    -0.12484039196894746,
                    -0.7498868771284785,
                    -0.034928409464613425,
                    0.6676633302943792,
                    0.739601696469938,
                    0.5870049596185615,
                    -0.8599355696595984,
                    0.11551630416953053,
                    0.9890529975906144,
                    -0.9863152354805357,
                    -0.5479895356087724
                  ],
                  "_Bias": -0.10225494324085097
                }
              },
              {
                "app.user_data.Battle_AutoTuningPnParam_NN.Node": {
                  "_Weight": [
                    -0.6712169247068328,
                    0.9707245011530486,
                    -0.1302595585604315,
                    -0.5222179373776178,
                    0.7464520567064735,
                    -0.3534387029399582,
                    -0.142316294010804,
                    0.4721576827594499,
                    -0.8976058960764882,
                    0.0254451656954851,
                    -0.7251444510622888,
                    -0.7118812935922345,
                    0.16195238100141696,
                    -0.6078301865485181,
                    0.9726519639396461,
                    -0.27557947053089255,
                    0.7105294202848439,
                    -0.10137477374613049,
                    0.36439298505390877,
                    -0.4535479891642652,
                    0.778842004848728,
                    0.6549517906791881,
                    -0.5920211422557682,
                    0.47724561722502656,
                    -1.064878669701154,
                    -0.20002335600199797,
                    0.6812871359854723,
                    -0.8062085498007281,
                    0.4205320837989193,
