[
  {
    "app.user_data.Battle_AutoTuningPnParam_NN": {
      "RootSeedNum": 1070096883,
      "_NodeNum_InputLayer": 29,
      "_NodeNum_HideLayer": [
        58,
        29
      ],
      "_NodeNum_OutputLayer": 7,
      "_AveList": [
        0.8910001595345043,
        0.42219512195121955,
        0.012195121951219513,
        0.20673891873802444,
        0.9387225417708461,
        0.3492073170731708,
        0.0,
        0.25577791499910546,
        0.8557453553131915,
        0.38378048780487806,
        0.09146341463414634,
        0.324057545661566,
        0.1524390243902439,
        0.7936970386321911,
        0.25396341463414623,
        0.06097560975609756,
        0.24059194956805277,
        0.5141356226829088,
        0.6297398373983734,
        0.8109756097560976,
        -0.975609756097561,
        0.19956330738261052,
        0.1895238095238095,
        0.16463414634146342,
        -0.2682926829268293,
        0.05721513252037775,
        0.19663109756097572,
        0.018292682926829267,
        -0.2804878048780488
      ],
      "_SdList": [
        0.22735858864247,
        0.18936366091139453,
        0.10975609756097558,
        0.46371683126220775,
        0.20827330030970562,
        0.19428412923676933,
        0.0,
        0.45445239431778034,
        0.2396478640758947,
        0.1488913521371389,
        0.2882669915505558,
        0.6479031148306393,
        0.35944591837047535,
        0.2654428927747627,
        0.15861296237143643,
        0.2392855715896168,
        0.5246294256471091,
        0.358077443553581,
        0.24922571777292893,
        0.8157752705788787,
        0.2195121951219512,
        0.34671795202844585,
        0.34105660525238896,
        0.4023928280950343,
        0.45662549333778185,
        0.19778636421301968,
        0.3308170951787117,
        0.1340076888770483,
        0.449237572107168
      ],
      "_WeightList": [
        {
          "app.user_data.Battle_AutoTuningPnParam_NN.Layer": {
            "_Node": [
              {
                "app.user_data.Battle_AutoTuningPnParam_NN.Node": {
                  "_Weight": [
                    0.15961766003617525,
                    -0.49718461752484205,
                    -0.8465349378125455,
                    -0.5416650674763166,
                    -0.5471256210369599,
                    -0.6846169179944067,
                    0.26264193751516535,
                    1.1046515821232574,
                    -0.2465813697741483,
                    0.09139633831201689,
                    -0.5097849362869191,
                    0.6885554313252609,
                    -0.6531003971752074,
                    -0.5569541178526941,
                    -0.7381919312549382,
                    -0.7259080552085184,
                    -0.2500705326260965,
                    0.19132889514964546,
                    0.26758120191786366,
                    -0.22932654732580082,
                    -0.9412041146669535,
                    0.09137931568370188,
                    -0.7335599704936769,
                    0.29282850676782846,
                    0.6027958794297354,
                    0.8416405210481488,
                    0.4279645039451094,
                    0.21982439736281922,
                    -0.1416027122378971
                  ],
                  "_Bias": 0.776936353856969
                }
              },
              {
                "app.user_data.Battle_AutoTuningPnParam_NN.Node": {
                  "_Weight": [
                    -0.8907544745506218,
                    1.089803191968495,
                    -0.9998819598381885,
                    -0.27620141338171084,
                    -0.839139573845324,
                    0.5028185131419757,
                    0.8391685583348276,
                    0.22000317931945282,
                    -0.5283747184099463,
                    0.4861337867853259,
                    -0.5592575232318091,
                    1.312936374111679,
                    0.8842806559826505,
                    0.39992938622081425,
                    0.11681799645260263,
                    0.24021536125416407,
                    -0.5999677116736648,
                    0.5881565933064816,
                    0.07276693648258413,
                    0.23585923602985592,
                    -0.4546534146368935,
                    0.007317937531996695,
                    -0.5021851874519176,
                    0.5331112668502698,
                    -0.052110729468767394,
                    -0.7710530220893517,
                    0.42806850225001053,
                    -0.7930775862286575,
                    0.4034422551326423
                  ],
                  "_Bias": 0.44434785167064855
                }
              },
              {
                "app.user_data.Battle_AutoTuningPnParam_NN.Node": {
                  "_Weight": [
                    0.09674024539779037,
                    0.0391700421590825,
                    -0.03947288315530602,
                    -0.772584899939683,
                    -0.02644687706156711,
                    0.4692215281571502,
                    -0.329730777846068,
                    1.0251919629101767,
                    -0.464077157139268,
                    0.37920816249703876,
                    -0.027273271561180847,
                    -0.11000624559602104,
                    0.10776482619590315,
                    0.06322595422708883,
                    -1.0029517371121142,
                    0.22264812955537758,
                    -0.26733757087087834,
                    -1.085388690575132,
                    -0.7639349807752928,
                    0.4388357839220017,
                    -0.12171188935195583,
                    0.06144693188762576,
                    0.4127409880873167,
                    0.19114605297783663,
                    0.9587207848203834,
                    -0.6333073476036074,
                    -0.5463509318888247,
                    0.4186796412971697,
                    0.3666369209818834
                  ],
                  "_Bias": 0.7104560144796409
                }
              },
              {
                "app.user_data.Battle_AutoTuningPnParam_NN.Node": {
                  "_Weight": [
                    0.2447296777203023,
                    -0.8843803981944339,
                    -0.4300651585574087,
                    0.6448699564909476,
                    0.2297645152938015,
                    0.2709416665040755,
                    -0.031691271702730686,
                    -0.8875502316294646,
                    0.8072853687676478,
                    0.678493883620722,
                    0.28915672715479573,
                    -0.33796604589639695,
                    -0.458216045822707,
                    -0.4995154607949031,
                    0.580019137136898,
                    -0.25887546868530914,
                    0.36758248350382705,
                    -0.7777686722188719,
                    -0.8643523511115213,
                    0.841231929275517,
                    0.6905846865146992,
                    0.36392604726308786,
                    0.8221627382967178,
                    -0.6719891307602304,
                    0.0813972775924803,
                    0.8681143643920104,
                    0.12123537188427497,
                    0.8790194777062652,
                    -0.7196015105860016
                  ],
                  "_Bias": -0.4283935733441118
                }
              },
              {
                "app.user_data.Battle_AutoTuningPnParam_NN.Node": {
                  "_Weight": [
                    0.16109819301810185,
                    0.383686788827066,
                    -0.2791481617525412,
                    -0.2676046806926207,
                    -0.22940130828214444,
                    0.4261873316876754,
                    -0.6008883005929977,
                    0.3033001911288206,
                    0.15728179143695362,
                    -0.949409828159848,
                    -0.9832082489392653,
                    0.5818735002503388,
                    -0.6322457227929844,
                    -0.4272410106272176,
                    -0.2931675655816896,
                    0.27251373719515243,
                    -0.2833910338288583,
                    0.4838554311016965,
                    -0.6339990114697411,
                    -0.7516310089188167,
                    -1.0316489095176407,
                    -0.5572371818591233,
                    -0.07108096011717105,
                    -0.4058474651158317,
                    0.41829295036770037,
                    -0.3491434944878186,
                    -0.31984295754225917,
                    -0.18466562854570187,
                    -0.22678462058111726
                  ],
                  "_Bias": -0.17389850457750705
                }
              },
              {
                "app.user_data.Battle_AutoTuningPnParam_NN.Node": {
                  "_Weight": [
                    -0.10078772006083003,
                    -0.21526664808736573,
                    0.2575141672614251,
                    -0.6822406179902676,
                    -0.18630527984152548,
                    -0.8694951000368591,
                    -0.8675677851206326,
                    -0.05136958967632667,
                    0.8234335449620421,
                    0.47777585132636496,
                    -0.5307904428360756,
                    0.18556918372640827,
                    0.5081637356333449,
                    0.43868713601138637,
                    0.5380592826451345,
                    -0.43477529010872695,
                    0.4185567101793429,
                    0.011305167012502603,
                    0.9428279798832605,
                    0.6485121540845099,
                    -0.22531637310460442,
                    0.6950511832084707,
                    -0.21276884617913935,
                    0.6757102317845884,
                    -0.949806065577946,
                    -0.17840909307683173,
                    -0.6904160259178177,
                    0.7789539255155855,
                    -0.7658701131280805
                  ],
                  "_Bias": -0.14423817812784387
                }
              },
              {
                "app.user_data.Battle_AutoTuningPnParam_NN.Node": {
                  "_Weight": [
                    0.6736865897221197,
                    0.48395772025806966,
                    -0.34492531975806473,
                    -0.9045341541506308,
                    0.035776073430597424,
                    0.6616199551588365,
                    -0.28343458558722645,
                    -0.20469963275969538,
                    -0.558780885295131,
                    0.8644041976688401,
                    0.04209785454169023,
                    -0.7619032777415589,
                    -1.1010419134692901,
                    0.6919214576086183,
                    -0.03804368995119851,
                    0.42201703008050323,
                    -0.44791722006100154,
                    0.21208827314386547,
                    0.4930444509939583,
                    0.9808561555255776,
                    1.071163364225746,
                    0.8259366944237477,
                    0.17433752082221868,
                    0.5036924336077377,
                    0.46402176925653593,
                    0.09529978603760747,
                    0.603527549102309,
                    -0.14613709148915383,
                    -0.8182539286085068
                  ],
                  "_Bias": -0.10236449273431451
                }
              },
              {
                "app.user_data.Battle_AutoTuningPnParam_NN.Node": {
                  "_Weight": [
                    0.4956246508883112,
                    0.5802445749108261,
                    -0.27429628396150446,
                    0.7076218796191801,
                    -0.5041423825157616,
                    0.571593754855452,
                    -0.5633133487958671,
                    -1.00228174325929,
                    0.48271938700294115,
                    0.43634923126703484,
                    -1.0676533061988214,
                    0.3120383613806951,
                    -0.35983900589770823,
                    0.08177293641657751,
                    0.5316393657028751,
                    -1.2613934986176858,
                    0.25302465197845125,
                    -0.5845794529240449,
                    0.23366053100202758,
                    -0.6545919909714226,
                    -0.6217093332455983,
                    -0.2733964104252394,
                    0.0031007518141012214,
                    -0.9708877977364393,
                    0.664232393264212,
                    -0.3979803840913565,
                    -0.7778760142162369,
                    0.6610323267154408,
                    0.559331415009872
                  ],
                  "_Bias": 0.9198457691366021
                }
              },
              {
                "app.user_data.Battle_AutoTuningPnParam_NN.Node": {
                  "_Weight": [
                    0.018662976417239966,
                    -0.17576870100725636,
                    0.5499445629035774,
                    0.559566540006989,
                    -0.9539901517389865,
                    -0.15803831422972317,
                    0.6386610462999256,
                    -0.5266044587761585,
                    1.0652472040753356,
                    -0.5243150404023733,
                    0.9650317422985198,
                    -0.49968370230859616,
                    -0.6477858459566928,
                    0.9728833789321527,
                    -0.2636556392846285,
                    0.9393462082371467,
                    -0.09485096155322184,
                    -0.20010759039267503,
                    -0.057660181203960666,
                    0.591811957115059,
                    0.8656628974027498,
                    0.4123553967422029,
                    0.31722601867361117,
                    -0.4170133652355097,
                    0.2178562203359794,
                    -0.7007948385103806,
                    -0.18484157554624847,
                    0.17021618038931202,
                    0.0029441688466181446
                  ],
                  "_Bias": -0.5895788359626367
                }
              },
              {
                "app.user_data.Battle_AutoTuningPnParam_NN.Node": {
                  "_Weight": [
                    -0.23516911587552672,
                    0.57183613621616,
                    0.3969685020007779,
                    0.4957190920009911,
                    -0.8316898169387786,
                    -0.7402855547398906,
                    -0.08615133227247118,
                    0.6188717200015108,
                    0.6863733147290262,
                    0.7349571150452561,
                    -0.5021190295248716,
                    -0.8282744942680983,
                    0.7440078534142082,
                    -0.6931729708927002,
                    -0.629443259690054,
                    0.5564489590527583,
                    0.6731282058223653,
                    0.04887153087568337,
                    0.18822480841641426,
                    1.055170125693602,
                    0.024101014270341222,
                    -0.6506475125595239,
                    0.04869955701434656,
                    0.20359359565750046,
                    0.8413814628092803,
                    -0.23607600382976907,
                    0.6510352540221442,
                    -0.9073198077712339,
                    -0.5632472297723268
                  ],
                  "_Bias": -0.919186899792253
                }
              },
              {
                "app.user_data.Battle_AutoTuningPnParam_NN.Node": {
                  "_Weight": [
                    0.8733204532257074,
                    0.15310689258497995,
                    0.7255017284854255,
                    0.3967194777673877,
                    -0.006377034176575027,
                    0.8639885070673409,
                    0.29005180971806915,
                    0.6348472982321848,
                    -1.2154376410449348,
                    0.6819906878348898,
                    -0.7116209968458763,
                    0.560547202113183,
                    0.41455731080886205,
                    -0.9770358998153502,
                    -0.7760739736298166,
                    0.5286542417559443,
                    0.7335477690616865,
                    0.16856633658218367,
                    0.6033259932837132,
                    0.3827216804709931,
                    -0.20175618410887894,
                    0.6557185500860915,
                    -0.39795679216309027,
                    -0.3642995695994548,
                    0.26843736517575123,
                    0.1323893165714284,
                    1.0792481602421617,
                    -0.8462103757972116,
                    -0.9358322328346224
                  ],
                  "_Bias": -1.1221249859929583
                }
              },
              {
                "app.user_data.Battle_AutoTuningPnParam_NN.Node": {
                  "_Weight": [
                    0.17882289265727233,
                    -1.0785669400928457,
                    0.3724468911817417,
                    0.42551383553342487,
                    -0.5610239699744195,
                    -1.0618606054458881,
                    0.692263655503325,
                    0.8898656338824692,
                    0.6865539265269467,
                    -0.5165318006497778,
                    -0.35709650263875914,
                    0.7284950542905196,
                    0.25178013885824363,
                    0.4935427000667187,
                    0.26528067964554675,
                    -0.08298203848595627,
                    -0.3143640956226716,
                    -0.5572538783665251,
                    0.8250762809806289,
                    0.5317586130995094,
                    0.23337119593705047,
                    0.5669937544788544,
                    -0.23866645767257574,
                    0.7174674426604862,
                    0.8810216765746615,
                    -0.5883386824659824,
                    0.5113046436923395,
                    -0.23652721030052465,
                    0.7307367149501833
                  ],
                  "_Bias": -0.09229651466905413
                }
              },
              {
                "app.user_data.Battle_AutoTuningPnParam_NN.Node": {
                  "_Weight": [
                    0.7514767154683866,
                    -0.7364276088998069,
                    -0.3679627701500405,
                    -0.14173929964263157,
                    -0.030610847494172092,
                    0.4881456564711598,
                    -0.5708533985340681,
                    -0.5698548937664387,
                    -0.4204896610276673,
                    -0.467337245703741,
                    -0.3333705783440502,
                    0.6775280858688053,
                    1.0284638142204818,
                    1.1710469486231212,
                    -0.23578366130414122,
                    0.44881319512450546,
                    -0.6027985469876619,
                    0.22743991001112046,
                    0.4925790995867538,
                    -0.2765752079773711,
                    0.7787307308677616,
                    -0.9238393571250483,
                    0.36103098905923586,
                    0.012196409010927322,
                    0.9412838123258865,
                    0.5284660667419065,
                    0.4057190589265825,
                    -0.15656726123802844,
                    -0.24204092124442317
                  ],
                  "_Bias": 0.609085686964713
                }
              },
              {
                "app.user_data.Battle_AutoTuningPnParam_NN.Node": {
                  "_Weight": [
                    -0.3614373918601231,
                    0.6154426436301229,
                    -1.2623977485502547,
                    0.5765602981864365,
                    -0.2002382578554388,
                    -0.05364180830474749,
                    -0.9124462633238373,
                    0.3914453889739876,
                    0.8777612710434548,
                    -0.5395576148080254,
                    -0.47102942653484153,
                    0.7683958021895554,
                    -0.8444736094206239,
                    1.0060272430864377,
                    0.8375644171534135,
                    -0.7501523632022425,
                    -0.6637328515940337,
                    0.24417992796341356,
                    -0.3476646276804434,
                    -0.038339515258908996,
                    -0.16178155098720545,
                    -0.17291277227375992,
                    1.0956272137982925,
                    0.5311600533472121,
                    -0.6869289766322328,
                    0.5223134406801052,
                    0.6566498404611547,
                    -0.5290241557747949,
                    -0.19239011485231827
                  ],
                  "_Bias": -0.5664006676977005
                }
              },
              {
                "app.user_data.Battle_AutoTuningPnParam_NN.Node": {
                  "_Weight": [
                    0.48961017570217147,
                    0.9354071335905592,
                    0.7701373247799913,
                    -0.6667726768705284,
                    0.7801393623421329,
                    -0.8015879120796826,
                    -0.4002216596478664,
                    -0.8141871186111843,
                    -0.040256072737065204,
                    -0.10249204129325706,
                    -0.07475506872130042,
                    0.9549012635537806,
                    -0.12490617746438719,
                    0.14085366888693568,
                    0.4198111423058463,
                    -0.1441542871377906,
                    0.6885234624833368,
                    0.3979662824058754,
                    -0.9725275957694957,
                    -0.012325785104040367,
                    0.4859682491038072,
                    -0.3888745213012419,
                    0.186184339539538,
                    0.5906792625750356,
                    -0.2760866676217916,
                    0.8905795551887864,
                    -0.8282665723210538,
                    0.5567555374173879,
                    -0.11943075504109674
                  ],
                  "_Bias": -0.1473644569725745
                }
              },
              {
                "app.user_data.Battle_AutoTuningPnParam_NN.Node": {
                  "_Weight": [
                    0.9260063214259221,
                    -0.09097897428465877,
                    0.0876340787564606,
                    0.12782322132493498,
                    -1.2136247825198205,
                    -0.9128693149929147,
                    -0.21539545692413206,
                    -0.08346812216960414,
                    -1.156776563847697,
                    0.69121083430719,
                    -0.060648700670233834,
                    -0.056808108606707285,
                    -0.11780065065575861,
                    -0.7709429268943749,
                    1.0845062115578283,
                    1.0089810349336246,
                    0.3733657939597738,
                    0.2930520622070765,
                    0.5795624225291369,
                    -0.7539322530518351,
                    -0.447347197127764,
                    0.13688068820697472,
                    -0.4667114185208334,
                    0.06709326416553985,
                    -0.039145856017006105,
                    0.22275546628771722,
                    0.6143995505389703,
                    -0.5941832208676012,
                    -0.959223740505565
                  ],
                  "_Bias": 0.5475714873210783
                }
              },
              {
                "app.user_data.Battle_AutoTuningPnParam_NN.Node": {
                  "_Weight": [
                    -0.7244916449717007,
                    0.01232790453655781,
                    -0.8842673603217012,
                    -0.7769520561158715,
                    -0.5836635775653056,
                    0.31301541550249135,
                    -0.4576026670919927,
                    -0.6970829577970338,
                    -0.3741430790342299,
                    0.07534825555175964,
                    -0.9256075961106137,
                    -0.6804229017741548,
                    0.9654476515678194,
                    -0.9577787869021931,
                    -0.7912404499616092,
                    -0.439863453552425,
                    -0.842684768542276,
                    -0.7561370535776385,
                    0.6101949096213914,
                    0.7486942544685738,
                    0.5443040682292948,
                    -0.4314671230326109,
                    -0.33493145883176473,
                    0.13166174722349985,
                    -0.6371775232007421,
                    0.13521316958696783,
                    -0.9557431258214033,
                    0.022223015745582275,
                    -0.17107411271725576
                  ],
                  "_Bias": 0.4667816959704438
                }
              },
              {
                "app.user_data.Battle_AutoTuningPnParam_NN.Node": {
                  "_Weight": [
                    -0.6417905359444936,
                    0.5829134138236907,
                    -0.3425413891716455,
                    0.31676008290329727,
                    0.8320459974917411,
                    0.7928146341469477,
                    0.07464840606672733,
                    0.7751695282236414,
                    -0.340892256943622,
                    0.07287073215846951,
                    -0.17950176155453346,
                    0.4020894550637312,
                    -0.7363095974108607,
                    0.1399739548485115,
                    0.5021253108353367,
                    -0.1321528814247334,
                    -0.9360728351108046,
                    -0.3898916207074298,
                    -0.5597325899316726,
                    -0.07709537924974726,
                    -0.24326573356921335,
                    0.6895826456126488,
                    -0.3929161256748198,
                    0.679420983428441,
                    -0.7837392908652504,
                    -0.8697169450265598,
                    0.968873995969446,
                    0.9444095003810128,
                    -0.5104614580855161
                  ],
                  "_Bias": -0.38797390787860103
                }
              },
              {
                "app.user_data.Battle_AutoTuningPnParam_NN.Node": {
                  "_Weight": [
                    -0.8419301554463587,
                    1.2064746073422277,
                    0.5588493616801511,
                    0.8472084841854983,
                    0.4752792351877118,
                    0.34210106839804894,
                    -0.18583729961134784,
                    0.4515859717454295,
                    -0.5355603091097475,
                    0.44641122726568383,
                    0.17724990030265086,
                    0.019836367916729707,
                    0.047223067791086364,
                    0.6275747914476386,
                    0.06966734048598634,
                    -0.7338825881082642,
                    -1.040361506248415,
                    0.3383232985372164,
                    0.3660019303367327,
                    0.8284044655291778,
                    0.13319753343236784,
                    -0.7208082410712021,
                    -0.5721897425801944,
                    0.3695301321053386,
                    0.2574285856913355,
                    0.967471804056543,
                    0.3506644396426362,
                    -0.9347416346887222,
                    -0.6693398140240929
                  ],
                  "_Bias": 0.13148813795705877
                }
              },
              {
                "app.user_data.Battle_AutoTuningPnParam_NN.Node": {
                  "_Weight": [
                    0.8009631943630897,
                    -0.6552416076779378,
                    0.9182304900639814,
                    0.856221191299104,
                    0.1466728770109261,
                    -0.10158653927964711,
                    -0.6254815510786242,
                    0.6642469297067529,
                    -0.11475744594705257,
                    -0.8588766727905457,
                    0.03350886806137756,
                    -0.6515695257962532,
                    0.062329621644204414,
                    0.32501328644135813,
                    1.174405064808844,
                    -1.132368993649079,
                    0.4236384369807918,
                    -1.0683662565207193,
                    0.8233407781656926,
                    0.19649981221672266,
                    -0.8054824883250415,
                    -0.9183103477783044,
                    -1.23410722624161,
                    -0.08914784236218996,
                    0.38839195903656953,
                    -0.7872062120745582,
                    -0.3314334481370438,
                    0.23423013220191846,
                    -0.32620930998456227
                  ],
                  "_Bias": -0.6140349013156438
                }
              },
              {
                "app.user_data.Battle_AutoTuningPnParam_NN.Node": {
                  "_Weight": [
                    -1.0330707379197066,
                    -0.7690242637182083,
                    0.6811678439301668,
                    0.3976137801143877,
                    0.3389375609546696,
                    0.4643765784979844,
                    0.7748012358134297,
                    -0.7142439250849957,
                    -0.8325146396648976,
                    -1.218651611175029,
                    -0.22107185638353166,
                    -0.3032080175347461,
                    -0.35809600184824036,
                    1.2036073331846175,
                    -0.412364965636826,
                    0.360671579154441,
                    0.042966782440464986,
                    0.3657820954923593,
                    0.7309792729719208,
                    0.13080760302606242,
                    -1.0970076379937206,
                    0.4608802042632343,
                    -0.41439446310166833,
                    0.4349825747331104,
                    -0.4793387566157988,
                    0.46354267444535185,
                    -0.4857133912303371,
                    -0.34884747341709377,
                    0.2773211874614203
                  ],
                  "_Bias": 0.712038422372306
                }
              },
              {
                "app.user_data.Battle_AutoTuningPnParam_NN.Node": {
                  "_Weight": [
                    -0.057531661324581,
                    0.015724380115768495,
                    0.6385238747064974,
                    0.4954786894661768,
                    0.7748807540612846,
                    0.3124714816611836,
                    0.22447082165421475,
                    0.19281156510250544,
                    1.2815760117597361,
                    0.7981224643722074,
                    -0.14983469267418392,
                    -0.6135623559144292,
                    -0.4834830210648257,
                    1.1437161465755579,
                    0.3353519841762653,
                    0.5265444205287851,
                    -0.15062608070972053,
                    -0.34445272054776055,
                    0.428487259807417,
                    -0.2768774084361236,
                    0.7957557102981012,
                    0.1798928772572433,
                    -0.718221617098033,
                    0.5978929561539129,
                    0.8166831896024898,
                    0.6476826821024143,
                    -0.5153540864941688,
                    0.08031568050679617,
                    -0.028687741967904495
                  ],
                  "_Bias": -0.49347131738856653
                }
              },
              {
                "app.user_data.Battle_AutoTuningPnParam_NN.Node": {
                  "_Weight": [
                    0.01989425524085214,
                    -0.7448797444782442,
                    0.7600816602918555,
                    0.8128191409112765,
                    -0.5906356509316019,
                    -0.7606660206707619,
                    -0.43260551451077023,
                    -0.3442218008416637,
                    0.6133407282785908,
                    -0.6613929431264151,
                    0.6714988212049429,
                    0.7053626566092488,
                    0.29509571991211947,
                    -0.682098133872401,
                    -0.05105376307055907,
                    0.7315784206857782,
                    0.6747830878915868,
                    -0.7244222441301998,
                    -0.9038880316972443,
                    0.8269520766601387,
                    -0.43390947183828865,
                    -0.6196895947300346,
                    0.5972904538087889,
                    -0.6177554837963138,
                    0.5818308684414023,
                    -0.9187740875072004,
                    -0.6278038596096457,
                    -0.7923447929704871,
                    0.5472125945109799
                  ],
                  "_Bias": -0.5364805681957873
                }
              },
              {
                "app.user_data.Battle_AutoTuningPnParam_NN.Node": {
                  "_Weight": [
                    -0.23961059245867652,
                    -0.7737097000354319,
                    1.06565278165872,
                    0.9877708961442084,
                    -1.13080618489012,
                    0.7269031516234123,
                    -0.41158745673264435,
                    0.456476986441283,
                    0.39818451687226253,
                    0.10341364785766878,
                    0.7650790942769683,
                    -0.2859688327841516,
                    -1.0383511219187775,
                    -1.457171048704529,
                    0.8223126792169658,
                    0.44415167468352534,
                    -0.6041832901660109,
                    -0.6418005803266278,
                    0.5313411059915962,
                    0.36941762995103317,
                    -0.16658763402612897,
                    -0.3650599612851683,
                    0.45570862309560234,
                    -0.54594699526286,
                    -0.5629668218798558,
                    -0.5981214802677818,
                    0.6285190868585119,
                    0.9891923130236028,
                    0.7158317894920214
                  ],
                  "_Bias": -0.012508112217140297
                }
              },
              {
                "app.user_data.Battle_AutoTuningPnParam_NN.Node": {
                  "_Weight": [
                    0.47265550228992004,
                    0.0003119520486414743,
                    -0.031012437239834916,
                    -0.17349446523428297,
                    0.21995109023742151,
                    0.6873287632445891,
                    -0.4371077519985408,
                    0.34054733998537606,
                    0.500396840323279,
                    -0.3015457443435269,
                    -0.8957265271912046,
                    -0.9325745953398813,
                    -0.8272379270190193,
                    -0.9177571193781637,
                    -0.1598205402112337,
                    -1.1595825959420456,
                    -0.5125937224359803,
                    1.2560400691945348,
                    0.2899234004779142,
                    -1.0897640649354507,
                    -0.042815070742074766,
                    0.08596882946540237,
                    0.7130972067067307,
                    0.6364963806530521,
                    0.23122658646011868,
                    -0.7782162828721865,
                    -0.7355324365192466,
                    0.8072816241763687,
                    -0.4295915054741399
                  ],
                  "_Bias": -0.06663069732215286
                }
              },
              {
                "app.user_data.Battle_AutoTuningPnParam_NN.Node": {
                  "_Weight": [
                    -1.0092302459720732,
                    0.5582420229567692,
                    0.6597353139251959,
                    0.5979047589126654,
                    -0.6355274164994303,
                    0.16955932367937163,
                    -0.2605331836811096,
                    -0.9252423092421934,
                    0.4921924503588945,
                    -0.2960218795405534,
                    0.5631981700408115,
                    0.060321022725700786,
                    0.7344195804254456,
                    -1.1994785873746259,
                    0.6642128956223489,
                    0.5724026334652499,
                    -0.9092435047359904,
                    0.13590200309252673,
                    -0.6645100633357349,
                    -0.21394072637813105,
                    -0.4496871632793892,
                    -0.7191073753335205,
                    -0.5170888312693684,
                    0.06465836477253828,
                    -0.039917853224706645,
                    0.09123067691865135,
                    0.3874058829134228,
                    0.08305498040847438,
                    0.427446388189796
                  ],
                  "_Bias": 0.8008484898322182
                }
              },
              {
                "app.user_data.Battle_AutoTuningPnParam_NN.Node": {
                  "_Weight": [
                    -0.8709624039193834,
                    0.32616098737279153,
                    0.0075762687881606545,
                    -0.778091843980137,
                    -0.4182934001276044,
                    -0.5057993914633042,
                    -0.2134135668195752,
                    -0.26083089001265325,
                    -1.0522343184249798,
                    0.524098820282306,
                    -0.3631829574591452,
                    0.2637503434779147,
                    -0.385767888194577,
                    -0.5405765017260095,
                    -1.0948661265235142,
                    -0.8694379444002863,
                    0.5201947873121353,
                    -0.10279254425611267,
                    -0.4869285636399582,
                    -0.6976310902176327,
                    -0.3917063812972472,
                    0.5380024536217024,
                    -0.010152965913368138,
                    0.8257764640632131,
                    0.04899681886966593,
                    -0.5940266094142092,
                    0.8661157742196153,
                    0.2002628434266576,
                    -0.3637350137200589
                  ],
                  "_Bias": -0.7257893111796592
                }
              },
              {
                "app.user_data.Battle_AutoTuningPnParam_NN.Node": {
                  "_Weight": [
                    0.5329399307385618,
                    0.3401380158334105,
                    -0.4283871795721039,
                    -0.702529192736003,
                    -0.05134275941584156,
                    0.18005988049513008,
                    -0.6363696409705297,
                    0.7478036793116238,
                    1.1194836073977292,
                    -0.1654838449328738,
                    0.19577751089239312,
                    0.6498790758256364,
                    0.7362223890703163,
                    0.9207232711406305,
                    -0.2757392713044147,
                    -0.2200807776768754,
                    0.8335257664045577,
                    -0.9121959105044137,
                    -0.16813178125395373,
                    -0.2494392834376037,
                    0.7049862444406235,
                    0.620669659495853,
                    0.21549865493101003,
                    0.16957663943394813,
                    -0.8282573230423429,
                    -0.4331722754144739,
                    0.3272514494446904,
                    0.8791808383339365,
                    0.005610176014433714
                  ],
                  "_Bias": 1.1439671178116133
                }
              },
              {
                "app.user_data.Battle_AutoTuningPnParam_NN.Node": {
                  "_Weight": [
                    0.2226691871797724,
                    -0.8288144350253752,
                    -0.8485057286107837,
                    0.6390533511415831,
                    -0.4677352586485825,
                    -0.10939807964478468,
                    -0.9084904617799929,
                    0.8182025023242029,
                    0.36088013620677717,
                    0.7558423803494861,
                    0.5504035828541212,
                    -0.21609527524544325,
                    0.6904967265233733,
                    1.2681126952233321,
                    0.03611986032011635,
                    -0.3750637313941827,
                    -0.41852045814379685,
                    -0.7734259536638596,
                    0.4823428244861708,
                    0.6699552902384259,
                    0.5151286823988894,
                    -0.882370996544117,
                    -0.7180487254136084,
                    -0.0933066631684366,
                    0.13015696709051902,
                    1.0240695963943205,
                    -0.5104720546066138,
                    0.89621239948024,
                    0.921262492681036
                  ],
                  "_Bias": -0.06239457254757304
                }
              },
              {
                "app.user_data.Battle_AutoTuningPnParam_NN.Node": {
                  "_Weight": [
                    -0.535584073033943,
                    -0.40674110132977753,
                    -0.6069422073432035,
                    0.10227183565353046,
                    0.5175898697572024,
                    0.4239736003587787,
                    0.6688579296904058,
                    0.3453237644341319,
                    -0.36469396041772684,
                    0.37675462762844175,
                    0.0535395123958336,
                    0.7075704853043792,
                    0.820562204112984,
                    -0.9580516162305023,
                    0.07098707217991274,
                    0.6685674274877867,
                    0.34251891316539823,
                    0.6905357738870763,
                    -0.45871751935328425,
                    -0.7475200939106394,
                    -0.780138786022497,
                    0.9064694638440096,
                    0.9100488274945557,
                    -0.3741008716993836,
                    0.681789757079665,
                    0.9656475345323019,
                    0.669790442602382,
                    -0.48619104553665365,
                    1.024080938563189
                  ],
                  "_Bias": 0.6250234204074706
                }
              },
              {
                "app.user_data.Battle_AutoTuningPnParam_NN.Node": {
                  "_Weight": [
                    -0.21159986080531396,
                    0.41236478405871224,
                    -0.14479963968396378,
                    -0.7406162085157513,
                    -0.02549384381405807,
                    -0.48001739958544015,
                    0.3609778539379763,
                    -0.2330155627291519,
                    -0.43194379140544376,
                    -1.1747055352126272,
                    -0.5527748263994242,
                    -0.8473576816437045,
                    0.4794055377778925,
                    0.19503429949293916,
                    -0.2725373524198258,
                    -0.8717898084072145,
                    0.5159412801269667,
                    -0.6592439290705271,
                    1.0739060941480079,
                    0.24668495704096183,
                    -0.39644783663956046,
                    0.48231443531192897,
                    -0.17662271213433584,
                    -0.13598255842130813,
                    -0.9110783073572429,
                    -0.8203302124793727,
                    -0.0900712703145762,
                    -0.37543581456607883,
                    -0.4943047152611382
                  ],
                  "_Bias": -0.8029730628321398
                }
              },
              {
                "app.user_data.Battle_AutoTuningPnParam_NN.Node": {
                  "_Weight": [
                    -0.7708188606532066,
                    0.37909908336866777,
                    0.2927193419378814,
                    -9.680616987681947e-05,
                    -0.7501264148012909,
                    -0.7854382484041744,
                    -0.11933715595560553,
                    0.7265731650553046,
                    0.4613503325885455,
                    -0.19498349689388028,
                    0.8274938279409122,
                    -0.8465665090986962,
                    0.2057189647187147,
                    0.9133177001155885,
                    -0.26248742316073415,
                    0.014160411122904781,
                    0.7592574878006357,
                    -1.044223105454563,
                    0.28999962941598867,
                    -0.7386616065337146,
                    0.021168446342658215,
                    0.9648264116323995,
                    -0.5415629501340402,
                    0.41109346309944056,
                    0.7686048113395263,
                    0.6234526144452449,
                    0.6957400089718444,
                    -0.7943206428443085,
                    0.41268601676742345
                  ],
                  "_Bias": -1.196690935208266
                }
              },
              {
                "app.user_data.Battle_AutoTuningPnParam_NN.Node": {
                  "_Weight": [
                    -0.5151970399819715,
                    -1.6411520940732085,
                    0.10626253405959082,
                    -0.2361462740650478,
                    0.39657453768012313,
                    -0.6238748825715759,
                    0.6435215903809182,
                    -0.6158212039318374,
                    0.5651321080222809,
                    0.5184151034497088,
                    0.3308741693247773,
                    -0.14520324940541618,
                    -0.4290929736029491,
                    0.6112098329536828,
                    -0.9691316263722174,
                    0.012020742521808526,
                    -0.01844933979300512,
                    -0.5807391151452076,
                    0.8282919193974512,
                    0.13160061435583917,
                    -0.20677909697060673,
                    -0.17226286664999768,
                    0.02056435119623083,
                    0.029093640111403234,
                    -0.2348248732552095,
                    -0.6745844353211153,
                    -0.8385913485135975,
                    0.154061630952444,
                    -0.46074977883967927
                  ],
                  "_Bias": -0.16797035024544524
                }
              },
              {
                "app.user_data.Battle_AutoTuningPnParam_NN.Node": {
                  "_Weight": [
                    -0.4855564369825838,
                    0.016655053863035292,
                    0.7369352775217298,
                    -0.6179605591243894,
                    -0.5589064452973392,
                    -1.4613976891109959,
                    -0.8372401544718497,
                    0.38668822159271937,
                    -0.4628290978574264,
                    0.36783871801383006,
                    0.39911024041882276,
                    -0.5393627203944417,
                    0.4136802050799173,
                    0.8682997457064969,
                    0.8053310696687911,
                    -0.8485667878314258,
                    -0.7541875909239717,
                    -0.7777725582467244,
                    -0.6119641639925496,
                    -0.2606046837011734,
                    -0.7360553981375519,
                    -0.3991708559474497,
                    -0.31972490669383036,
                    -0.9587956364507412,
                    -0.799260826323631,
                    -0.37990682801970793,
                    -0.3243522773634001,
                    -0.835002013072953,
                    0.9245161489706046
                  ],
                  "_Bias": 0.23118498453508746
                }
              },
              {
                "app.user_data.Battle_AutoTuningPnParam_NN.Node": {
                  "_Weight": [
                    0.38529777524440717,
                    1.0188615115179145,
                    -0.8633725398735028,
                    -0.6249867834562911,
                    0.5333632500912965,
                    -0.27919367947765605,
                    -0.7898783227564796,
                    -0.5450412055018238,
                    -0.471877874241681,
                    -0.3592974358145404,
                    -0.7170625937680004,
                    0.5020774226811734,
                    -0.35564434450194665,
                    0.44511749990957594,
                    -0.4258641853861788,
                    0.3830107447196212,
                    0.7616531420070045,
                    0.5843291658140433,
                    -0.6499865488515382,
                    -0.6196480409590048,
                    0.8213510882532694,
                    -0.91838004261727,
                    0.5335562781142464,
                    -0.7980983474579846,
                    -0.09419243204597225,
                    -0.27573905291012313,
                    -0.3141596477706726,
                    0.7175862390702884,
                    -0.1259849853832765
                  ],
                  "_Bias": 0.7818166173388952
                }
              },
              {
                "app.user_data.Battle_AutoTuningPnParam_NN.Node": {
                  "_Weight": [
                    0.33952947573567144,
                    0.7443357157570213,
                    -0.3672624336470989,
                    -0.004810124253311222,
                    0.4695316224797317,
                    -0.203934290262663,
                    -0.6019367424413831,
                    -0.2685151024509179,
                    -1.3760065649179989,
                    1.1017439768193458,
                    -0.4937584969884988,
                    0.5155048126173535,
                    -0.3334095859059018,
                    -0.497955286672263,
                    -0.3335685112240045,
                    0.7067549514440243,
                    0.43282752099895183,
                    0.7065445889949199,
                    -0.03013331560605286,
                    0.7100207833682884,
                    0.12066118650439825,
                    0.5817921821945424,
                    -0.7472144714371813,
                    0.5242508759065421,
                    0.1604416986953118,
                    0.5972296565972488,
                    -0.5504956567380627,
                    -0.6819659378656125,
                    0.6548557032320207
                  ],
                  "_Bias": -0.34990524433830217
                }
              },
              {
                "app.user_data.Battle_AutoTuningPnParam_NN.Node": {
                  "_Weight": [
                    0.8569530605876331,
                    0.14541875489760808,
                    -0.6041349093958376,
                    0.32949290217452487,
                    0.476187743475487,
                    -0.6107201446927434,
                    0.5331684833668594,
                    -0.9947134732775491,
                    0.8167756516609289,
                    -0.23247312976242238,
                    -0.6465499467137429,
                    -0.966952943645698,
                    0.634737469737023,
                    -0.6419756713172349,
                    -1.2006042988736323,
                    0.24868145417977286,
                    0.17810441631613286,
                    0.9821038570995656,
                    -0.2812988285302067,
                    0.6850600879496573,
                    -0.9483473938385962,
                    -0.8840934669729614,
                    -0.35003916241331945,
                    -0.2551507853596216,
                    0.9488449862014429,
                    0.6899377072439777,
                    0.6597690270310522,
                    0.6874268223281578,
                    -0.27819932938760433
                  ],
                  "_Bias": -0.36901672335409985
                }
              },
              {
                "app.user_data.Battle_AutoTuningPnParam_NN.Node": {
                  "_Weight": [
                    0.5649796177706473,
                    -1.517290082353874,
                    -0.08188222921447959,
                    0.5764892985401925,
                    1.0313454512568359,
                    -0.16997546735472294,
                    -0.6567019208294579,
                    -0.5929213912202558,
                    -0.1188932604051067,
                    -0.3468797456100335,
                    -0.8357402862880708,
                    -0.33822205539501454,
                    0.7928604496068583,
                    -0.47157185387510797,
                    -0.6711595706096679,
                    -1.058173700716044,
                    -0.4150536761794754,
                    0.8553935893580845,
                    0.11679875261264681,
                    0.7297789875470904,
                    0.016180065177240643,
                    0.4665111057951463,
                    0.7749804050078067,
                    -0.6475779374885468,
                    -0.5361002401870186,
                    -0.5528199249017663,
                    0.4487027287888266,
                    0.6421203886884588,
                    -1.1221972444832087
                  ],
                  "_Bias": -0.43727459574107214
                }
              },
              {
                "app.user_data.Battle_AutoTuningPnParam_NN.Node": {
                  "_Weight": [
                    1.14930643511306,
                    -0.7105604744145307,
                    0.5990812916379392,
                    -0.025922490291517334,
                    -0.8419240377794251,
                    0.23880063196959317,
                    -0.5456958838513926,
                    -0.6066682813608728,
                    0.29664892216632777,
                    0.7927541904799482,
                    0.6397999423946037,
                    1.2600342926035528,
                    0.40724307530931425,
                    -1.0021955315264945,
                    -0.42137218430935586,
                    0.3045456411740411,
                    0.5216677813465808,
                    -0.2577664051638185,
                    1.2207565707777475,
                    -0.04678513791959916,
                    0.16835682195379997,
                    0.1030087050309805,
                    0.05392581758414716,
                    0.9862032591648817,
                    -0.006198683891508522,
                    -0.8943518614535749,
                    -0.7255073112337145,
                    -0.23376721159047645,
                    -0.3215258672589725
                  ],
                  "_Bias": 0.7709299238328513
                }
              },
              {
                "app.user_data.Battle_AutoTuningPnParam_NN.Node": {
                  "_Weight": [
                    -0.18948467739862643,
                    -0.5635314443418161,
                    -0.04022036596566833,
                    0.9931242085840581,
                    0.13348528092238568,
                    -0.565179561820687,
                    -0.3981722057749345,
                    1.0704328441631688,
                    0.540364529441438,
                    0.9828611988387636,
                    -0.7093584447006748,
                    -1.0009041033419932,
                    -0.6202544543863273,
                    0.0034965515602166986,
                    0.1466442206749458,
                    0.0061748665882906135,
                    0.16987187069586307,
                    -0.6807525924663027,
                    -0.3696479816421673,
                    0.18609670722718197,
                    0.16186744002458126,
                    -0.312735263586689,
                    0.25625663987898234,
                    0.11081391781445184,
                    -0.3913865520485176,
                    0.5365533863062238,
                    -0.8172909941554778,
                    0.02219297446696852,
                    -0.4029586016862818
                  ],
                  "_Bias": 0.43007725457991186
                }
              },
              {
                "app.user_data.Battle_AutoTuningPnParam_NN.Node": {
                  "_Weight": [
                    0.835131656130399,
                    0.24607519333569117,
                    -0.6126107234754836,
                    -0.8947802054101411,
                    -0.45826433870556266,
                    0.1108876841950458,
                    -0.8653802044606798,
                    0.803590601797847,
                    -1.2094295337413798,
                    -0.5764912057609036,
                    0.2506774945691965,
                    1.254242537296649,
                    1.200310981450665,
                    0.1566536590093637,
                    1.1567879437396706,
                    1.0026534072401794,
                    -0.2328388987114376,
                    -1.0154287146933183,
                    0.5854886520929439,
                    -0.18281626041408383,
                    0.5138753689108729,
                    -0.5106971161684323,
                    0.3107756284767922,
                    -0.8729378095780101,
                    0.1780897600570474,
                    0.8810217813819923,
                    -0.05061771603926659,
                    0.2534638777600819,
                    -0.20579459887456394
                  ],
                  "_Bias": -0.8566531853278764
                }
              },
              {
                "app.user_data.Battle_AutoTuningPnParam_NN.Node": {
                  "_Weight": [
                    -1.1671073026149414,
                    -0.19403891123056952,
                    -0.9958509670871434,
                    -0.980558306157249,
                    -0.8832402852351218,
                    -0.23565459341238898,
                    -0.6664010883256348,
                    -0.14265732416796945,
                    0.604697133692865,
                    -0.12540109210396347,
                    -0.7313801031248716,
                    -0.7877863286425243,
                    -0.5624682057018823,
                    0.5547089143672002,
                    0.6520804782948716,
                    -0.6108110327302321,
                    1.1017587995329567,
                    0.2474442971808546,
                    -0.25920227572364074,
                    0.6173538349956644,
                    0.015859795558261825,
                    1.0995445994778623,
                    -0.6232548835602868,
                    -0.9333851442757038,
                    -0.10317292296527397,
                    0.4298278239810701,
                    -0.2589428864660274,
                    1.045075122046237,
                    0.09476212253181866
                  ],
                  "_Bias": -0.2930801844158069
                }
              },
              {
                "app.user_data.Battle_AutoTuningPnParam_NN.Node": {
                  "_Weight": [
                    0.5457792928815136,
                    -0.5106122882911754,
                    0.00719670925101538,
                    -1.1810913713191287,
                    -0.14050116621169456,
                    -0.21694232651402665,
                    -0.8024963004160851,
                    -1.253199856644359,
                    -0.25434628897495437,
                    0.23584544285664025,
                    -1.1312477643523653,
                    0.8239773955303419,
                    0.596293807082777,
                    -0.20058405773875468,
                    1.071923325802356,
                    -0.46332070994859076,
                    -0.510798918027591,
                    -0.7812009385289713,
                    0.018804467428428496,
                    0.2806935023202745,
                    0.6024329231258577,
                    0.076680403868198,
                    -0.8258427830674343,
                    -0.1595275565283523,
                    -0.44418490185741405,
                    0.6054815732941012,
                    0.12103341676885865,
                    -0.6237911592325855,
                    -0.6636581650534574
                  ],
                  "_Bias": -0.6913386529805225
                }
              },
              {
                "app.user_data.Battle_AutoTuningPnParam_NN.Node": {
                  "_Weight": [
                    -0.8639462190019259,
                    0.5836515997397008,
                    -0.6823444371865064,
                    0.38262487169590764,
                    0.1775355630226063,
                    -0.22719702898870264,
                    0.8455313085781241,
                    -0.3486215907099779,
                    -0.28522412450445545,
                    -0.056170204238315403,
                    0.6501416393487585,
                    0.6325461736900482,
                    -0.48067522610688135,
                    0.3726675066061684,
                    0.21229139059109206,
                    1.03002613820618,
                    -1.2690677374256263,
                    -0.376297561342059,
                    0.8414026287027533,
                    0.04101643887712764,
                    -0.22983355657420146,
                    -0.17376832630902705,
                    -0.4392140773854923,
                    -1.1104673234988125,
                    -0.15456647635064644,
                    0.9127757159507321,
                    0.19823033878253735,
                    -0.2629211451526043,
                    0.9100722122161878
                  ],
                  "_Bias": -0.37677378692742697
                }
              },
              {
                "app.user_data.Battle_AutoTuningPnParam_NN.Node": {
                  "_Weight": [
                    -0.13515192260999503,
                    -0.409112789101136,
                    -0.055125128886939746,
                    0.9228231495001878,
                    0.8344119319447779,
                    -0.5600842174706155,
                    -0.9512368305056208,
                    0.5777973584134817,
                    0.3316013677468481,
                    0.6128592314338068,
                    0.4861664201087829,
                    0.9026462520543955,
                    0.20528680052673953,
                    0.8510585589514248,
                    0.18889796556577948,
                    -0.6796046939897705,
                    0.5578579113334415,
                    -0.24023237275889128,
                    -0.022504502168518504,
                    -1.0795599203305155,
                    -0.7922366775869818,
                    0.18874935617941904,
                    -1.0358330970509673,
                    -0.1911327553534902,
                    0.04637229389157908,
                    1.000826573184844,
                    0.1358099588918606,
                    0.354593999741129,
                    0.14503551521654534
                  ],
                  "_Bias": -0.8766172562241505
                }
              },
              {
                "app.user_data.Battle_AutoTuningPnParam_NN.Node": {
                  "_Weight": [
                    0.09333855047893812,
                    0.44342705943063226,
                    0.9168562941619575,
                    -0.19716010274016957,
                    0.10058896556192323,
                    1.2453768312391311,
                    0.4436359837135388,
                    1.0703780006612378,
                    -0.9514032149540431,
                    -0.34607729519220387,
                    0.23359748671762645,
                    -0.6106305785428261,
                    1.4665192048623361,
                    -0.04713261121636007,
                    0.4957972727399506,
                    0.417273590324436,
                    -0.2225012591294587,
                    1.170694509107273,
                    -0.04624635385037718,
                    0.675072436563218,
                    0.23882318162245303,
                    -0.19072997889027346,
                    -0.1672798688941425,
                    0.15570451626859289,
                    0.520151782546166,
                    -0.4734356449633318,
                    0.061058725396002385,
                    -0.259008271539684,
                    0.22578455389258392
                  ],
                  "_Bias": 0.6653241736207536
                }
              },
              {
                "app.user_data.Battle_AutoTuningPnParam_NN.Node": {
                  "_Weight": [
                    -1.0407979787703643,
                    0.543947952200024,
                    -0.2972742055783438,
                    -0.7539530871301027,
                    0.07304122800094219,
                    -0.6742903042606007,
                    -0.15882543748099903,
                    0.6538435684202847,
                    -0.7165651939530167,
                    0.4204415027712191,
                    0.28827417483928747,
                    -0.19957731849869137,
                    -1.1148372451489645,
                    -0.3724568881721647,
                    -0.015778984380620482,
                    0.027248251866990272,
                    0.5615005902570064,
                    0.7870714233675872,
                    0.18505983076551022,
                    0.6043859921112515,
                    -0.5826823565913936,
                    0.6978370953951386,
                    0.3094589467901175,
                    -0.4595678882493361,
                    0.09628254633011529,
                    0.26411769476721125,
                    -0.7941483649006693,
                    -0.3418452290164268,
                    0.3752857199023507
                  ],
                  "_Bias": 0.18807798485998217
                }
              },
              {
                "app.user_data.Battle_AutoTuningPnParam_NN.Node": {
                  "_Weight": [
                    -1.0859961058294987,
                    0.5346192513134117,
                    -0.04505332384030101,
                    -0.8426924562030571,
                    1.011700926661345,
                    0.7250013810883424,
                    -0.16727290588796456,
                    -0.31102826652700094,
                    -0.16227016378866876,
                    -1.0241044060961209,
                    0.6748384791326193,
                    -0.09864976373085127,
                    -0.13992384776764052,
                    -0.9256010573848462,
                    0.9989127692054329,
                    0.978178402507531,
                    -0.7885290006105506,
                    -0.594988348699009,
                    -0.05732459782199038,
                    -0.2810148104056288,
                    -0.6754868462654959,
                    0.46235037115360234,
                    0.3580994446338402,
                    0.6239120895768705,
                    0.8011468619465892,
                    -0.7526343384391209,
                    1.0276779302544992,
                    0.18265589449107084,
                    -0.12437388509121661
                  ],
                  "_Bias": -0.33583464618288805
                }
              },
              {
                "app.user_data.Battle_AutoTuningPnParam_NN.Node": {
                  "_Weight": [
                    0.4857426543299991,
                    -0.0334440952060215,
                    -0.6136576702530522,
                    -0.059643221077747714,
                    0.21407781745494106,
                    -0.2909116786586365,
                    0.26278930917131654,
                    -0.8259952928977937,
                    -0.2634271484317382,
                    -1.0943974966901913,
                    -0.33043700879548454,
                    -0.5711464839027974,
                    0.35464764038193963,
                    0.407798537658807,
                    -0.3352159571335784,
                    -0.8877554520484747,
                    -1.0603819443223843,
                    -0.3260900013787725,
                    0.04916280299857366,
                    -0.871016299951288,
                    0.5022165201037295,
                    0.3524659909162485,
                    -0.5218572483156605,
                    0.5130381520306,
                    0.5431159444919764,
                    0.22489616515529803,
                    0.4912266229833506,
                    -0.7129945054684629,
                    0.6168298630854158
                  ],
                  "_Bias": -0.33637740144976097
                }
              },
              {
                "app.user_data.Battle_AutoTuningPnParam_NN.Node": {
                  "_Weight": [
                    -0.25866198737163426,
                    0.21317527719908608,
                    -0.5586252461123783,
                    0.35609915533207476,
                    -0.04687791486633549,
                    -0.5856442891356088,
                    -0.10847514295483604,
                    -1.0816394238497349,
                    0.4202165653003894,
                    0.7982765946352478,
                    -0.26246460448510545,
                    0.666456635671643,
                    0.09665553381999022,
                    -0.5828059399350188,
                    -0.3193385939372143,
                    -0.1252511248437167,
                    0.385796065887496,
                    0.42196334888208675,
                    -0.3097008391666794,
                    -0.9082212729761394,
                    -0.4771741260561369,
                    -0.4748479120726181,
                    -1.0063964198549975,
                    0.37935082583354746,
                    -0.6705242000006328,
                    -0.7904229101894099,
                    0.45058165990076643,
                    0.8382350342856395,
                    1.036079710026626
                  ],
                  "_Bias": 0.3702231494959672
                }
              },
              {
                "app.user_data.Battle_AutoTuningPnParam_NN.Node": {
                  "_Weight": [
                    0.02880511249321845,
                    0.22541011987277382,
                    0.26958918307073,
                    0.8016819643011829,
                    0.5479648476360244,
                    -1.1496316976872278,
                    0.044723380583134104,
                    -0.5472888177430464,
                    0.8865174731674649,
                    0.8706509866450679,
                    -0.5528116640016103,
                    -0.027771037448126798,
                    -0.4566653383408418,
                    -1.0421177523465865,
                    -0.1267831912588881,
                    -0.5242406125247169,
                    0.7655818217178122,
                    0.785286402033791,
                    1.0475698760078465,
                    0.05765351142673855,
                    0.6115422228254414,
                    0.8872454719929387,
                    0.3841547145672722,
                    -0.9277091321747704,
                    0.3546767026493033,
                    -0.16806018447299334,
                    0.9773194170162013,
                    0.6446963881299094,
                    -0.8286788197722996
                  ],
                  "_Bias": -1.0376287075589492
                }
              },
              {
                "app.user_data.Battle_AutoTuningPnParam_NN.Node": {
                  "_Weight": [
                    -0.20638936015661802,
                    0.4272075607799616,
                    0.21064666385752737,
                    -0.2589499636667635,
                    0.4564144460340811,
                    0.46877957918159796,
                    -0.7220727623319022,
                    0.052497814759137985,
                    0.19929920223773157,
                    0.7077697787400545,
                    0.5358440771638072,
                    -0.5544091890294809,
                    -0.15323738042187102,
                    -0.6433831464645536,
                    0.6546312170611501,
                    0.6216303533165219,
                    0.3565485198678982,
                    -0.10863569599701194,
                    -0.603412535199763,
                    -0.5473859319256548,
                    -0.7704256349503931,
                    0.21484280838561937,
                    -0.5548017951750361,
                    -0.23093242791600835,
                    -0.05467470919311477,
                    0.246817183697918,
                    -0.7350714430148567,
                    -0.783640941702186,
                    0.5732448185252353
                  ],
                  "_Bias": -0.3566537208663717
                }
              },
              {
                "app.user_data.Battle_AutoTuningPnParam_NN.Node": {
                  "_Weight": [
                    0.3744444608650579,
                    -0.2312741682752682,
                    -0.4868316952448239,
                    0.08797052010966201,
                    0.03787326193032826,
                    0.3448836453996942,
                    0.4799028853942335,
                    -0.9757111913208877,
                    0.31064624986166706,
                    -0.25371441758471924,
                    -0.13169609246084274,
                    0.20321061499255258,
                    0.47058574163374944,
                    -0.377702003312576,
                    -0.28822300399487344,
                    -0.8523666413811407,
                    0.4230164268811778,
                    1.0610134441746897,
                    1.0815462991810822,
                    0.4451699481909392,
                    0.12941065945757813,
                    -0.0860837450821726,
                    -0.156602510478775,
                    0.7436306732253286,
                    0.6515919896153188,
                    -0.41084630499609925,
                    0.13182626959076338,
                    0.8075044475812517,
                    0.41185913985544204
                  ],
                  "_Bias": 0.36867726378148674
                }
              },
              {
                "app.user_data.Battle_AutoTuningPnParam_NN.Node": {
                  "_Weight": [
                    -0.26739369115658357,
                    0.41470120875316724,
                    -0.6285181612761145,
                    0.0038494106006971562,
                    0.5736942888427022,
                    -0.06984250329088168,
                    0.9592147287679056,
                    -0.5089468446018093,
                    -0.0363679269268954,
                    0.5235468062189649,
                    0.8190655675492752,
                    -0.4008016840727317,
                    0.835182571080424,
                    0.09317491438286454,
                    -0.017089495780012114,
                    0.26361790071831265,
                    0.0550239853400876,
                    -0.18221961844280007,
                    -1.244364214627077,
                    0.22705314564463264,
                    -0.7288239151696614,
                    1.0456083495826447,
                    1.0832611042086961,
                    -0.5471858867764411,
                    0.6764596623024575,
                    -0.832393014598755,
                    0.9728157657716121,
                    0.8858086140974574,
                    0.13618629822112327
                  ],
                  "_Bias": 0.5133524650042623
                }
              },
              {
                "app.user_data.Battle_AutoTuningPnParam_NN.Node": {
                  "_Weight": [
                    0.5741399989912178,
                    -0.9787331818857913,
                    -0.6407143887519131,
                    -0.6460029983357202,
                    0.2743114880882008,
                    0.37570282561181656,
                    -0.31318414115166104,
                    0.11348089252472376,
                    0.6557052714270765,
                    1.4250147811445122,
                    -0.6162996268652715,
                    -0.032765819175373134,
                    -0.14086103843593192,
                    -0.7508481860213754,
                    -0.6833113301324337,
                    -0.5951003431970507,
                    0.0014466861758737546,
                    -0.8695290734805611,
                    -0.33105444269638723,
                    -0.5687616541063574,
                    -0.22184558477951521,
                    0.4704751834085076,
                    0.44286084786404517,
                    -0.9108096801098414,
                    -0.2322843182182452,
                    -0.33855751772217013,
                    0.46720982837055197,
                    0.6634091615877155,
                    -0.5973673591855811
                  ],
                  "_Bias": -0.4481556623463545
                }
              },
              {
                "app.user_data.Battle_AutoTuningPnParam_NN.Node": {
                  "_Weight": [
                    -0.795546210135462,
                    0.33073836403052415,
                    0.8959492716157289,
                    -1.3380388744743814,
                    -0.7241526827174936,
                    -0.32288109195861775,
                    0.32985003958563347,
                    0.5819051091827668,
                    -0.8808948672749459,
                    0.06003328858040157,
                    1.1236533943709395,
                    -0.3878959123065921,
                    -0.7070189644165294,
                    -1.4170308011379211,
                    -0.2932388636508406,
                    -0.0029222282472734194,
                    0.20434083026527858,
                    -0.558899579890907,
                    0.2894271777041505,
                    -0.43718273149286563,
                    -0.9186292987390569,
                    -0.2532109060168759,
                    0.47330928991362425,
                    0.9629509632943661,
                    -0.7893589217127349,
                    0.10936524262837202,
                    0.7574628571736645,
                    -0.48261215522344564,
                    0.20126261748027993
                  ],
                  "_Bias": 0.17176813128100918
                }
              },
              {
                "app.user_data.Battle_AutoTuningPnParam_NN.Node": {
                  "_Weight": [
                    -0.3655522380420169,
                    0.47226525989818413,
                    0.8373893287911511,
                    -0.06811076787537497,
                    0.5977360211796962,
                    -0.82012600031006,
                    -0.309602401240376,
                    -0.8286116926393384,
                    -1.2258775383961757,
                    -0.6331308754148974,
                    0.9389441244569054,
                    -0.8763714128118089,
                    -0.4868587315329862,
                    -1.107951454697948,
                    -0.9160496521682724,
                    0.5500528413729995,
                    -0.6597743878535189,
                    0.2546020923594021,
                    -0.04181554704883348,
                    1.1047607839493396,
                    -0.4949510866193443,
                    -0.8297094163690877,
                    0.2488637795309477,
                    -0.5461476625372813,
                    0.03840180048183268,
                    0.15116577335320971,
                    -0.2264852505169797,
                    -0.5845752449103957,
                    0.4951760368117003
                  ],
                  "_Bias": -0.8271105369571985
                }
              },
              {
                "app.user_data.Battle_AutoTuningPnParam_NN.Node": {
                  "_Weight": [
                    0.18428844885567866,
                    1.0857084130630734,
                    -0.36944757086263497,
                    0.23082350204939997,
                    -0.08833130974554468,
                    -0.8639453168758273,
                    -0.9868929280053033,
                    0.9105914633143474,
                    -0.3815264988922659,
                    -0.5318885177073567,
                    0.8868188048746126,
                    -0.14605825786084092,
                    0.2961001911379071,
                    0.636368010292439,
                    -0.8459300958078284,
                    -0.6753552584434322,
                    -0.24331352831022554,
                    1.0503818218379668,
                    0.1876557717003689,
                    -0.9031569286896631,
                    0.2960557856990808,
                    0.5150039893941678,
                    0.41497522083574406,
                    0.06787236168122349,
                    0.05999761381741196,
                    0.7853617802686266,
                    -0.06380000392050153,
                    -0.4129619621363286,
                    -0.802288351504536
                  ],
                  "_Bias": -0.342169448863554
                }
              }
            ]
          }
        },
        {
          "app.user_data.Battle_AutoTuningPnParam_NN.Layer": {
            "_Node": [
              {
                "app.user_data.Battle_AutoTuningPnParam_NN.Node": {
                  "_Weight": [
                    -0.8353870411234049,
                    0.001522942067417353,
                    0.6745226433790662,
                    0.8391954038983602,
                    -0.016737314437953076,
                    -0.1226255171443498,
                    0.7523599118556932,
                    -0.4035187493276401,
                    1.0869544117007146,
                    0.5486741186898915,
                    0.7123949073374294,
                    -0.32827932032261825,
                    0.10309045276584644,
                    -0.45155515804461754,
                    0.02117822732776824,
                    -0.39030560316005364,
                    -0.6393728377799164,
                    -0.4605257923419916,
                    -0.4879132525658777,
                    -0.12798230937145105,
                    -0.6917962524835065,
                    0.34251674890648715,
                    -0.8268456607514237,
                    0.2109766015292334,
                    0.9222912645450808,
                    0.5606324422789467,
                    0.6115832390838046,
                    -0.40566473085194543,
                    -0.6206945878224689,
                    -0.15423983621532542,
                    0.6988864257786989,
                    0.09450952273718197,
                    0.8476174646613313,
                    -0.1608218212209778,
                    0.1348686318346244,
                    -0.7464840768953965,
                    -0.6693233620816127,
                    -0.14869445342360912,
                    0.14606242216548118,
                    0.4393617462605803,
                    -0.8768293301309328,
                    0.169006272398039,
                    -0.7702570421259676,
                    0.22320715410210226,
                    -0.7391798170813444,
                    0.6918339428789152,
                    1.1010277686813168,
                    0.07787102147049811,
                    -0.03242839320557688,
                    -0.38793508583955455,
                    -0.1111304456897556,
                    -0.034509120498676354,
                    0.7387363770029591,
                    -0.6409951543775306,
                    -0.5215831609426452,
                    0.9776021015640994,
                    -0.8639487250232367,
                    -0.4010378923121584
                  ],
                  "_Bias": 0.20476697469483568
                }
              },
              {
                "app.user_data.Battle_AutoTuningPnParam_NN.Node": {
                  "_Weight": [
                    0.6649942420592969,
                    -0.889442275388956,
                    0.22211812187249055,
                    -0.12700746239590224,
                    0.07086807887404614,
                    -0.29286624317424714,
                    0.4740132384575729,
                    -0.4931966272288493,
                    0.6308122383749984,
                    0.3292712490268437,
                    -0.7224451491440234,
                    -0.4877331291301068,
                    -0.29498772092001374,
                    0.3848819280062548,
                    0.6952904862528618,
                    -0.20826851834592416,
                    0.21084639191465263,
                    0.1418155444386912,
                    0.8866001286811902,
                    -0.15116635516060611,
                    0.8324482365755292,
                    -0.6205841255722899,
                    -1.103585696885797,
                    -0.054415505233693824,
                    0.05822190208381616,
                    -0.5955307219559679,
                    -0.5357286697189196,
                    -0.20141000560501268,
                    -0.8915093555058593,
                    0.29664328483521346,
                    0.19263748388126758,
                    0.3073833865880644,
                    0.06564742927626255,
                    -0.8434061189720445,
                    0.7987149547135866,
                    -0.4541007856743755,
                    1.0605043427800933,
                    1.0275010401437072,
                    0.09617383108876351,
                    0.24710297703417192,
                    -0.9348572406841991,
                    -0.9588403085735238,
                    0.10494451120310558,
                    0.07668733466490814,
                    0.38195114833302085,
                    0.08934303034383698,
                    -0.8867053167240724,
                    0.5473892845484882,
                    1.0162190374189775,
                    0.45746128173162404,
                    -0.5507150108561436,
                    0.622472035057923,
                    0.236239233805329,
                    0.7381781098507033,
                    -0.1840925039783401,
                    -0.892866747447661,
                    -0.5538422860297604,
                    1.4153095798982942
                  ],
                  "_Bias": 0.5218632049182607
                }
              },
              {
                "app.user_data.Battle_AutoTuningPnParam_NN.Node": {
                  "_Weight": [
                    -0.4492080825742218,
                    -0.08909545408895594,
                    0.6926245605087911,
                    0.2071570933455604,
                    0.8767365698833838,
                    -0.4514106357255783,
                    -1.0960406417013264,
                    -0.1138462422283666,
                    -0.6543538100834542,
                    0.37291879615831014,
                    -0.16805675230233122,
                    -0.2302599083608856,
                    0.15839771566285188,
                    0.40856841620018275,
                    0.5118389803910137,
                    -0.9444608038702342,
                    0.12824225613730444,
                    0.06877282095764198,
                    0.7415062621459507,
                    -0.033779463493579284,
                    0.14261700756861073,
                    0.7967190302522847,
                    -0.29472482221902707,
                    -1.1682629439261147,
                    -0.6967679280667319,
                    -0.612201344058917,
                    -0.06008111898423209,
                    -0.8813957714357802,
                    -0.496462941126411,
                    0.5026788880858895,
                    -0.9761871002849587,
                    0.5266485562676799,
                    -0.049171797430266964,
                    -0.394693764649437,
                    0.8503933600799846,
                    0.22151412149243702,
                    0.4472787016160811,
                    -0.9977654320411411,
                    -1.022729335356529,
                    -0.5661974647014373,
                    -0.4505826209024509,
                    0.259930807289493,
                    0.1833195629102997,
                    1.0670282421589936,
                    0.18352554040835745,
                    -0.07323530236912726,
                    -0.5339093130994901,
                    -0.5743029027624516,
                    0.8875435626422974,
                    -0.2514634666606451,
                    0.007618541648041338,
                    0.13972010733680457,
                    -0.5766581156159298,
                    0.2914939325518968,
                    -1.4185826816969336,
                    0.962630861774709,
                    -0.3727308964153054,
                    -0.2655429106931151
                  ],
                  "_Bias": -0.9995756285847498
                }
              },
              {
                "app.user_data.Battle_AutoTuningPnParam_NN.Node": {
                  "_Weight": [
                    0.9389708949282464,
                    0.2733523083001377,
                    0.4153785247887495,
                    0.8916629651362662,
                    0.17109903515905261,
                    1.1990725895863608,
                    0.7395539793078186,
                    0.9825688950136399,
                    -1.2004583635368418,
                    -0.16344477297613033,
                    -0.7878654727307688,
                    -0.3580149561639192,
                    -0.3333283606147854,
                    0.017359787384488103,
                    0.933783950618007,
                    -0.16218802329768242,
                    -0.388805760268497,
                    -0.5879829324680985,
                    -1.0093419230150875,
                    -0.2985170413667675,
                    -0.2920129661122644,
                    -0.1939236669161235,
                    -0.6883540085433766,
                    0.9294491620055727,
                    0.7598062093541338,
                    0.6697538306628347,
                    0.014235838546789833,
                    1.235104066377227,
                    -0.11451432174944413,
                    0.6087731847267085,
                    -1.0407511180094173,
                    0.9131603752731812,
                    0.6959621371652385,
                    0.06269063170121657,
                    0.33801210933497544,
                    0.32636205893784603,
                    0.24397731814095547,
                    -0.34129684718429143,
                    -0.5264991574050198,
                    -0.6779661568817311,
                    -0.38495478723435983,
                    0.7861350404483939,
                    0.3009570647792463,
                    -0.14710867570028172,
                    0.11478715269473777,
                    0.9569928728872802,
                    -0.27708218894377556,
                    -0.604394014498654,
                    -0.09803609265798197,
                    0.30820969638496293,
                    -0.6416780985856091,
                    0.32786328058893927,
                    -0.49575168682569987,
                    0.39503687483238403,
                    1.2260883700882979,
                    -0.6469489436357861,
                    -0.4998524620653141,
                    0.23331353710621539
                  ],
                  "_Bias": -0.6518988800363678
                }
              },
              {
                "app.user_data.Battle_AutoTuningPnParam_NN.Node": {
                  "_Weight": [
                    -0.308563104371537,
                    0.06434514109313251,
                    -0.7687993132458265,
                    -0.3666693812260198,
                    0.7897296798152438,
                    -0.2716241656802604,
                    0.8840538628100483,
                    -0.12079497143351228,
                    -0.8433814230393883,
                    -0.9890035969879929,
                    -0.20049343675797224,
                    0.516186590679179,
                    -0.8735893344771443,
                    -0.10011840092609903,
                    0.5979112750701683,
                    0.060757346141302786,
                    -0.024218486095807817,
                    0.8130300534189732,
                    -0.972769069690789,
                    0.8677040149825177,
                    0.3308614757793666,
                    -0.31051170502268854,
                    0.3232329270735774,
                    1.2323084919828893,
                    0.9445958915599187,
                    -0.8218386842195131,
                    -0.2887642312093338,
                    -0.5452874819581716,
                    -0.7153549828076703,
                    -0.9001486967475291,
                    1.1127876195912294,
                    0.01756466729617929,
                    -0.34485988066443457,
                    0.3706537945129579,
                    0.8793660141257861,
                    -0.9682290464100662,
                    1.1950264906755574,
                    0.634525949064127,
                    -0.8168875253653003,
                    -0.017465257873767275,
                    -0.9063357201168343,
                    1.0496004720289887,
                    -0.3003173580633965,
                    0.5869082275006344,
                    -0.47069050700600196,
                    -0.7026942150957475,
                    0.58032944274265,
                    -0.8973242649831623,
                    0.8233471397305363,
                    -0.8540318327662989,
                    0.2809355727755348,
                    -0.2519416060317836,
                    1.258631333352967,
                    0.6368701303279085,
                    -0.542645178612366,
                    0.37540833363099907,
                    0.49104800032955614,
                    0.5506870864037002
                  ],
                  "_Bias": -0.7544169411419577
                }
              },
              {
                "app.user_data.Battle_AutoTuningPnParam_NN.Node": {
                  "_Weight": [
                    -0.03455594370695717,
                    -0.7249543000451429,
                    0.13489017170841147,
                    -0.6840393349906798,
                    -0.42056046998956215,
                    0.7871912736052936,
                    0.8332408914172282,
                    -0.2037571892181767,
                    0.8018688526522522,
                    -0.1665094265897495,
                    -0.9149069436274585,
                    0.9658891646477572,
                    0.7290469829459745,
                    0.13087850930916267,
                    0.1146796651046535,
                    0.6129499687377965,
                    -0.6892002275899829,
                    -0.51905652179173,
                    0.17237948639540582,
                    0.35103626359334344,
                    0.5974522683918424,
                    1.1403848994746646,
                    0.2601317716497809,
                    -1.0213842713826418,
                    -0.37031580311396517,
                    0.47284697441102147,
                    -0.6978087506123546,
                    0.06636490857102377,
                    -0.21979418205231338,
                    -0.8889157784541639,
                    0.724591827128413,
                    -0.7017480325186658,
                    0.6904192946882364,
                    0.07788625522578616,
                    0.06332846847618451,
                    0.07236203716959407,
                    0.04455555259646065,
                    0.47068977585299104,
                    -0.559293250506956,
                    0.6389254065603757,
                    -0.5400044085964913,
                    -0.024201107186801615,
                    -0.5751078004238098,
                    1.0905570798814657,
                    -0.7146194533059571,
                    -1.1701903921843806,
                    0.4788286607515369,
                    -0.08681849614943675,
                    -0.7447815191412862,
                    -0.012412252325873278,
                    0.7114188695015309,
                    0.770571795517807,
                    0.6301328540835691,
                    -0.7885466390540304,
                    0.12605937521813732,
                    0.9725483874402369,
                    -0.9850812576275366,
                    -0.5406107694811042
                  ],
                  "_Bias": -0.09472666274722195
                }
              },
              {
                "app.user_data.Battle_AutoTuningPnParam_NN.Node": {
                  "_Weight": [
                    -0.6780417214220295,
                    1.0551258794035332,
                    -0.10899250414726823,
                    -0.5533236472695033,
                    0.7371539085501968,
                    -0.3020711051176794,
                    -0.14529727148511726,
                    0.5161915042988947,
                    -0.8997292451202686,
                    0.016887026295191152,
                    -0.703966857385327,
                    -0.7050000450504927,
                    0.1870763050349169,
                    -0.5837831269049447,
                    0.9996603239493405,
                    -0.25359860002803913,
                    0.7416881750879378,
                    -0.08222887745836355,
                    0.40689522278796186,
                    -0.4603442964388289,
                    0.7646736698597176,
                    0.678670032187026,
                    -0.6057698025763455,
                    0.421193992207702,
                    -1.1242102963737475,
                    -0.19625842744321928,
                    0.7391721616213449,
