[
  {
    "app.user_data.Battle_AutoTuningPnParam_NN": {
      "RootSeedNum": 1070096883,
      "_NodeNum_InputLayer": 29,
      "_NodeNum_HideLayer": [
        58,
        29
      ],
      "_NodeNum_OutputLayer": 7,
      "_AveList": [
        0.8160030748239376,
        0.33396907216494864,
        0.14948453608247422,
        0.20601023214139597,
        0.8704554598480622,
        0.4034536082474225,
        0.09278350515463918,
        0.16869076703898095,
        0.8511118708740231,
        0.4072680412371135,
        0.041237113402061855,
        0.23944493163266764,
        0.0979381443298969,
        0.7726258943264105,
        0.4911855670103095,
        0.14948453608247422,
        0.2687499581747837,
        0.544367521170791,
        0.6841735395189001,
        0.11855670103092783,
        -1.0,
        0.11812686072260589,
        0.1167649729995091,
        0.05154639175257732,
        -0.18041237113402062,
        0.04081572206087702,
        0.14512542955326466,
        0.010309278350515464,
        -0.18041237113402062
      ],
      "_SdList": [
        0.27381119037819857,
        0.1854563028871825,
        0.3707400543577626,
        0.3850891263427556,
        0.2707074585926424,
        0.21659485294445957,
        0.3073825054819703,
        0.3321158327763113,
        0.23012033199221837,
        0.1532710701254492,
        0.1988381600204734,
        0.40460743847813574,
        0.29723099470800984,
        0.24779102733326602,
        0.28912262692486784,
        0.3707400543577625,
        0.4510143346661425,
        0.32593725508403515,
        0.26498670364945326,
        0.3388366686504075,
        0.0,
        0.2830525919366173,
        0.27134672927792286,
        0.24330770559187492,
        0.38453055467130487,
        0.1754694569482317,
        0.3149701017019982,
        0.10100988630033726,
        0.38453055467130487
      ],
      "_WeightList": [
        {
          "app.user_data.Battle_AutoTuningPnParam_NN.Layer": {
            "_Node": [
              {
                "app.user_data.Battle_AutoTuningPnParam_NN.Node": {
                  "_Weight": [
                    -0.05351811446891691,
                    -0.43680719991959327,
                    -0.8172533341272485,
                    -0.5628686974540756,
                    -0.5615701578085212,
                    -0.6917602720087035,
                    0.2695376929481633,
                    1.1381735738842518,
                    -0.27637925565586047,
                    0.10993550762790483,
                    -0.6054177127860785,
                    0.6575289367264504,
                    -0.6073479196223317,
                    -0.6246267152311736,
                    -0.8327838166471486,
                    -0.6261872937927248,
                    -0.2290142118193922,
                    0.07820151715705262,
                    0.27337107124724497,
                    -0.1949479057214687,
                    -0.9294311331929954,
                    0.05149187189541863,
                    -0.7093751163346091,
                    0.34290085852965024,
                    0.6317293832471582,
                    0.829241140086681,
                    0.40547352680835397,
                    0.22680299939643397,
                    -0.1152130940058963
                  ],
                  "_Bias": 0.7016497945757897
                }
              },
              {
                "app.user_data.Battle_AutoTuningPnParam_NN.Node": {
                  "_Weight": [
                    -0.8448986118737462,
                    1.0118394167203195,
                    -1.1531323451967823,
                    -0.11419705413094483,
                    -0.969437871348978,
                    0.5193476521317958,
                    0.8423853000276389,
                    0.18057338759190392,
                    -0.4850050569150538,
                    0.49892376469249977,
                    -0.4430123148108745,
                    1.2832168458573743,
                    0.8012157315158329,
                    0.37311505812798434,
                    0.19280347180945326,
                    0.17978171033027843,
                    -0.6482494414352062,
                    0.5318256171611727,
                    0.2157276606977585,
                    0.100754683671355,
                    -0.514783230071756,
                    0.20928826372040263,
                    -0.33817116843927436,
                    0.6495679043105681,
                    -0.20439730945949858,
                    -0.8227956189841366,
                    0.5896574218171856,
                    -0.814161902747174,
                    0.2533995794736461
                  ],
                  "_Bias": 0.5286615788208867
                }
              },
              {
                "app.user_data.Battle_AutoTuningPnParam_NN.Node": {
                  "_Weight": [
                    0.15492498859941312,
                    -0.029436897443020294,
                    -0.13007492703564846,
                    -0.825170223568366,
                    -0.09132947299411888,
                    0.5689417948572792,
                    -0.40534784006037666,
                    1.0132138879460482,
                    -0.35213819118357603,
                    0.38029536956462606,
                    -0.06910808369462051,
                    -0.08728546341315767,
                    0.15091847926202162,
                    0.16331308247069162,
                    -0.9846122792273933,
                    0.1452824332730312,
                    -0.3538330489252171,
                    -1.0246500297118781,
                    -0.798247333679483,
                    0.3638627570173229,
                    -0.12213525647616517,
                    0.1509715966544484,
                    0.48865962334130886,
                    0.18039508990015654,
                    0.8422891961016821,
                    -0.6073237789333575,
                    -0.4078002467833531,
                    0.4309645972026482,
                    0.2554073300116488
                  ],
                  "_Bias": 0.7854556039100626
                }
              },
              {
                "app.user_data.Battle_AutoTuningPnParam_NN.Node": {
                  "_Weight": [
                    0.24353114438424253,
                    -0.9317064987731267,
                    -0.40990206350193503,
                    0.7154710143033343,
                    0.2534543749110351,
                    0.27278969045162743,
                    -0.05694669470928496,
                    -0.9304613423088068,
                    0.7902606687216137,
                    0.6823694416080058,
                    0.2857463720816882,
                    -0.2815020837873951,
                    -0.44458808969269975,
                    -0.4653906657504854,
                    0.6267777711271151,
                    -0.2426613294409528,
                    0.419270054804889,
                    -0.7284021940094089,
                    -0.9017604784917318,
                    0.8946089410720384,
                    0.6364721465234612,
                    0.37627504815482304,
                    0.8244246953549746,
                    -0.6684022260782767,
                    0.08344721087315464,
                    0.8422765780379295,
                    0.11000286172819602,
                    0.8752942229103674,
                    -0.718775156308141
                  ],
                  "_Bias": -0.386192390493392
                }
              },
              {
                "app.user_data.Battle_AutoTuningPnParam_NN.Node": {
                  "_Weight": [
                    0.009350765413369154,
                    0.4314272853538121,
                    -0.22419144181767925,
                    -0.1902379406757684,
                    -0.2237713275679758,
                    0.45603514985063176,
                    -0.7505607471075317,
                    0.32720364593065365,
                    0.1378045115452189,
                    -0.953953166248415,
                    -0.9959752496886718,
                    0.5789991000125588,
                    -0.6273611553721239,
                    -0.469099796593933,
                    -0.3118436959087456,
                    0.3113901696123324,
                    -0.24928933239134063,
                    0.4415379397678238,
                    -0.6343235670976132,
                    -0.6376781007450465,
                    -1.0101999608488426,
                    -0.5583193461715475,
                    -0.13824390731130665,
                    -0.3349626382024591,
                    0.5586740381067921,
                    -0.29908671658658875,
                    -0.3547906393962247,
                    -0.18121338331693287,
                    -0.1841776876753493
                  ],
                  "_Bias": -0.19338558538206468
                }
              },
              {
                "app.user_data.Battle_AutoTuningPnParam_NN.Node": {
                  "_Weight": [
                    0.2444859293237956,
                    -0.05087222573428129,
                    -0.1374840331608986,
                    -0.6717306347005317,
                    0.10058601623329935,
                    -0.8956587399394703,
                    -0.7676016289692684,
                    -0.0661670097531367,
                    0.7804923377128029,
                    0.42757396722332963,
                    -0.42950085738938076,
                    0.19394941014943454,
                    0.5917555608256237,
                    0.10068399013158778,
                    0.5298853308683414,
                    -0.48314836817866225,
                    0.4507330429113644,
                    0.09888967780302038,
                    0.8795468410614242,
                    0.6908420300211024,
                    -0.09344216728584269,
                    0.7710511846111118,
                    -0.14445928167292657,
                    0.599381747458259,
                    -0.8736919987535265,
                    0.008266278189406043,
                    -0.6010468038291102,
                    0.8072175218880332,
                    -0.7481675494824073
                  ],
                  "_Bias": -0.3769202759582453
                }
              },
              {
                "app.user_data.Battle_AutoTuningPnParam_NN.Node": {
                  "_Weight": [
                    0.618816986323986,
                    0.4871897546808823,
                    -0.18890207510811005,
                    -0.9318808987066458,
                    0.28104907836381265,
                    0.5488243345403656,
                    -0.27459327514408005,
                    -0.1407589004022169,
                    -0.5635223482674879,
                    0.8667371336322613,
                    0.13631586926518705,
                    -0.7510294694299304,
                    -1.0993267197537115,
                    0.6943571623290817,
                    0.0002569630442685215,
                    0.5052389808047641,
                    -0.4012768200454256,
                    0.24622666800512152,
                    0.4047481564433361,
                    1.052392594801103,
                    1.084094604233865,
                    0.7723576989174922,
                    0.14346915765421467,
                    0.5594088839505088,
                    0.48515389024899924,
                    0.07600299507829766,
                    0.5476952410200593,
                    -0.1455881788377818,
                    -0.7979995770868057
                  ],
                  "_Bias": -0.11425229649863544
                }
              },
              {
                "app.user_data.Battle_AutoTuningPnParam_NN.Node": {
                  "_Weight": [
                    0.4305642761227844,
                    0.5627390702375994,
                    -0.3773924087804141,
                    0.9003579884435917,
                    -0.46156866273313235,
                    0.5591639488618432,
                    -0.5187861228548203,
                    -0.9139707904760906,
                    0.5264701829552584,
                    0.4909675050452021,
                    -1.0148462826671623,
                    0.25800956808577813,
                    -0.45591184770624843,
                    0.07049933382845189,
                    0.6413842710967084,
                    -1.161211533346011,
                    0.23777267645487968,
                    -0.719410676664992,
                    0.1759281146253872,
                    -0.6637357250309037,
                    -0.676504655919213,
                    -0.12734519425982468,
                    0.0747465137246303,
                    -0.9547970404449324,
                    0.5792342747920322,
                    -0.28150792087155196,
                    -0.6767760501324926,
                    0.6976882342568802,
                    0.4815081707418477
                  ],
                  "_Bias": 0.9538757048465193
                }
              },
              {
                "app.user_data.Battle_AutoTuningPnParam_NN.Node": {
                  "_Weight": [
                    0.2176047924496345,
                    -0.1280492538584083,
                    0.5528653744438545,
                    0.35074226666422265,
                    -0.8505013861311559,
                    -0.10707828731501325,
                    0.4766914931425686,
                    -0.5353473015988252,
                    1.28601948591142,
                    -0.4452966047837196,
                    0.8676316825664298,
                    -0.548219527331733,
                    -0.720864501527628,
                    0.9713818978276239,
                    -0.2099729275422895,
                    0.8935324721002254,
                    -0.02953146015035208,
                    -0.15053332638146016,
                    -0.19777611856152771,
                    0.4831761557859008,
                    0.898994574673148,
                    0.39368351983606076,
                    0.2927682196499066,
                    -0.4705177642412091,
                    0.21247945688340042,
                    -0.7246804164935788,
                    -0.21187737758236883,
                    0.208882106486366,
                    0.015346855020579515
                  ],
                  "_Bias": -0.5915829179581711
                }
              },
              {
                "app.user_data.Battle_AutoTuningPnParam_NN.Node": {
                  "_Weight": [
                    -0.2607924000629669,
                    0.6050259241186289,
                    0.5272573577558591,
                    0.45348417897731025,
                    -0.9262144482243453,
                    -0.7113902572948725,
                    -0.07257068017379036,
                    0.5457457393384442,
                    0.6518966357274557,
                    0.8074774120043858,
                    -0.5680717984624746,
                    -0.8276211291003357,
                    0.7444115585473321,
                    -0.6248404133101667,
                    -0.5690969193036636,
                    0.5537609411027933,
                    0.6711497986668722,
                    0.056620618302081066,
                    0.18877477389786615,
                    1.0209352444701063,
                    -0.060605414975820115,
                    -0.6813061162883789,
                    0.011074231367079825,
                    0.15309715896312734,
                    0.8062590712832569,
                    -0.261585230406933,
                    0.6278602779927729,
                    -0.9094270319082423,
                    -0.5515170720000063
                  ],
                  "_Bias": -0.8821109178751606
                }
              },
              {
                "app.user_data.Battle_AutoTuningPnParam_NN.Node": {
                  "_Weight": [
                    0.8056818482570475,
                    0.19878585501206508,
                    0.7740392103161843,
                    0.47409924640246454,
                    0.04875858794616154,
                    0.8006561370258745,
                    0.233356474119256,
                    0.7438083437738304,
                    -1.312178706091315,
                    0.48524077973089896,
                    -0.7479953025255485,
                    0.5793653677751204,
                    0.3598123169713121,
                    -1.034489235743261,
                    -0.8427761786751603,
                    0.4793668733894664,
                    0.9352061162969415,
                    0.2756863992400757,
                    0.6395970324612492,
                    0.4685916091667322,
                    -0.38079358184003487,
                    0.6845474001309994,
                    -0.26950622476288105,
                    -0.2411220013717153,
                    0.13127265090953666,
                    0.15574363455912318,
                    1.1411581974223752,
                    -0.7156741140244481,
                    -1.064346010093767
                  ],
                  "_Bias": -0.7869813871733695
                }
              },
              {
                "app.user_data.Battle_AutoTuningPnParam_NN.Node": {
                  "_Weight": [
                    0.16664584387777404,
                    -0.9420643076062846,
                    0.2329930683077705,
                    0.45392325552615553,
                    -0.4922812133069446,
                    -1.031790701930119,
                    0.7912393726317957,
                    0.959077527671782,
                    0.7070643899737481,
                    -0.5267800960571962,
                    -0.3733966582223217,
                    0.7563278886716814,
                    0.24599254793174763,
                    0.26768039047465775,
                    0.2000839344765453,
                    -0.01206687694662906,
                    -0.3427408068045443,
                    -0.5778051277477282,
                    0.6669141310809669,
                    0.6268563857650316,
                    0.3161484347332401,
                    0.4760739147599626,
                    -0.27406119027119485,
                    0.6371850864019968,
                    0.9598023883904734,
                    -0.7002489362138518,
                    0.446847094398098,
                    -0.3130023850984686,
                    0.810128716964474
                  ],
                  "_Bias": -0.1745525083646336
                }
              },
              {
                "app.user_data.Battle_AutoTuningPnParam_NN.Node": {
                  "_Weight": [
                    0.8683505008346116,
                    -0.7879127428175012,
                    -0.5143146005630276,
                    -0.1484253355083761,
                    -0.14562007525323858,
                    0.43864334188773313,
                    -0.5503094266290378,
                    -0.6924729669723754,
                    -0.3937942703379651,
                    -0.48283480540050144,
                    -0.32650564743895427,
                    0.6097228053718677,
                    1.0144141628168575,
                    1.0102689596136054,
                    -0.2373002000903391,
                    0.44386483155376494,
                    -0.6707377866726367,
                    0.26922411145293185,
                    0.3963344867809206,
                    -0.29960770862266933,
                    0.730124092284554,
                    -0.9182197983460418,
                    0.3000174215729077,
                    -0.05075442528419506,
                    0.973922811497779,
                    0.5360514679171062,
                    0.3703289615490139,
                    -0.11638188979973377,
                    -0.20829592913165848
                  ],
                  "_Bias": 0.6464936865065603
                }
              },
              {
                "app.user_data.Battle_AutoTuningPnParam_NN.Node": {
                  "_Weight": [
                    -0.27796492620228846,
                    0.8155589461295133,
                    -1.3813777326881471,
                    0.3780673565645006,
                    -0.04618214251545933,
                    0.026351794634869738,
                    -0.9865928572648033,
                    0.4405577697633062,
                    0.9654318464167637,
                    -0.44006391843275094,
                    -0.46959516593920253,
                    0.672288390734508,
                    -0.8297693123941856,
                    0.9818390913447469,
                    0.7054146686366065,
                    -0.7987615820540785,
                    -0.6250961067286827,
                    0.2647805141511012,
                    -0.4182609172806995,
                    0.08784600999361768,
                    -0.2518516422809657,
                    -0.22138557373489323,
                    1.0686268378806263,
                    0.49612011154215624,
                    -0.6447924934061763,
                    0.538215894525068,
                    0.6220830526001414,
                    -0.5276180278462094,
                    -0.14796206145614776
                  ],
                  "_Bias": -0.5171014489511396
                }
              },
              {
                "app.user_data.Battle_AutoTuningPnParam_NN.Node": {
                  "_Weight": [
                    0.32730082929018234,
                    0.9273869388622505,
                    0.8844555665720144,
                    -0.6864929006148277,
                    0.7150115052646736,
                    -0.774602730905321,
                    -0.39003091200253776,
                    -0.8672905182175595,
                    -0.10578044002766264,
                    -0.10696179684545003,
                    -0.056332761592611046,
                    0.9618265798311525,
                    -0.14684271513709476,
                    0.20190789576741278,
                    0.44857955655247933,
                    -0.17029995473350107,
                    0.6802955364842406,
                    0.30457275688600094,
                    -0.9206825080644813,
                    0.007110469559666659,
                    0.49585579337939534,
                    -0.40894950411032893,
                    0.16467217267601714,
                    0.6237315080674276,
                    -0.24428391164297258,
                    0.8041132527060205,
                    -0.8610276758414254,
                    0.5598210242607005,
                    -0.08514335893948179
                  ],
                  "_Bias": -0.16987115961887012
                }
              },
              {
                "app.user_data.Battle_AutoTuningPnParam_NN.Node": {
                  "_Weight": [
                    1.029209174793365,
                    -0.08233912256653313,
                    -0.018515199295628407,
                    0.1162930375064189,
                    -1.0853848344078212,
                    -0.9669469691721073,
                    -0.19428908041713355,
                    -0.05224035363772094,
                    -1.1097901733123487,
                    0.6753970546104888,
                    -0.013740156071612657,
                    -0.0694880034375804,
                    -0.0677057969179926,
                    -0.7012905678139316,
                    1.0103495521162453,
                    0.9903417655240399,
                    0.38317245887960666,
                    0.2776829158971409,
                    0.6177374932026829,
                    -0.7760492639924759,
                    -0.5629821047533513,
                    0.1587528546981764,
                    -0.4125459723013001,
                    0.06048629919407077,
                    -0.15912565191944208,
                    0.19563909540656418,
                    0.6807574696486322,
                    -0.5594184073531266,
                    -1.0382532630211767
                  ],
                  "_Bias": 0.6569966560110646
                }
              },
              {
                "app.user_data.Battle_AutoTuningPnParam_NN.Node": {
                  "_Weight": [
                    -0.7062672813655425,
                    -0.09767650800554091,
                    -0.9642500642836843,
                    -0.7479660509707434,
                    -0.4712946222550855,
                    0.30913128185397665,
                    -0.4636998832930445,
                    -0.8295380153933024,
                    -0.3998778652231214,
                    0.08854111938686314,
                    -0.9234067768505206,
                    -0.6612834508515775,
                    0.9788130413819748,
                    -0.8896065108846967,
                    -0.7462812034080776,
                    -0.607238104044667,
                    -0.9349327397989579,
                    -0.7063486640991027,
                    0.5957727251026486,
                    0.6502564416435769,
                    0.5326456507388322,
                    -0.4806029052565423,
                    -0.37531385270225703,
                    0.06057644647986308,
                    -0.5916618476593867,
                    0.012479075378313722,
                    -1.0462919744786978,
                    0.01567991591946893,
                    -0.09462312362681874
                  ],
                  "_Bias": 0.44648456683384136
                }
              },
              {
                "app.user_data.Battle_AutoTuningPnParam_NN.Node": {
                  "_Weight": [
                    -0.6688907356412629,
                    0.6044356242290984,
                    -0.17929094105608984,
                    0.22149751189028416,
                    0.8788970467652596,
                    0.8138806869159041,
                    0.10998861037380091,
                    0.7164815201667075,
                    -0.2556276899909221,
                    0.11862872369922763,
                    -0.16029956598290412,
                    0.3772063058914865,
                    -0.7134322167508194,
                    0.1896083365803703,
                    0.6094786598929965,
                    -0.15488195550882625,
                    -0.964925807041941,
                    -0.4381648890730646,
                    -0.5347954363648452,
                    -0.07439092366435904,
                    -0.24245259729679294,
                    0.6567103766118424,
                    -0.41135385935896457,
                    0.6921352725486896,
                    -0.7476694107093269,
                    -0.9480894870233897,
                    0.9300285118450843,
                    0.944369347468872,
                    -0.4833950339396474
                  ],
                  "_Bias": -0.3785854184022238
                }
              },
              {
                "app.user_data.Battle_AutoTuningPnParam_NN.Node": {
                  "_Weight": [
                    -0.8143978587258288,
                    1.212188167321714,
                    0.5091335237385407,
                    0.5617761584795737,
                    0.26144976260332614,
                    0.3806178754694968,
                    -0.2540568302400213,
                    0.331872729562305,
                    -0.5410284454241253,
                    0.4797744863543688,
                    0.16748592304391816,
                    -0.08805682502913383,
                    -0.06962231125886284,
                    0.5814926615370724,
                    -0.04078462646087065,
                    -0.7763510844160232,
                    -1.2565296255047542,
                    0.37419684126233127,
                    0.5177536838978437,
                    0.7194077843471612,
                    -0.006890677944321573,
                    -0.7308631379623045,
                    -0.5770237544204307,
                    0.28013302567415405,
                    0.23710696968044176,
                    0.953283979315478,
                    0.37083341012234305,
                    -0.9450325864674047,
                    -0.6806912002176728
                  ],
                  "_Bias": 0.2517241610721997
                }
              },
              {
                "app.user_data.Battle_AutoTuningPnParam_NN.Node": {
                  "_Weight": [
                    0.8012734508941333,
                    -0.61340168054447,
                    0.951193845359401,
                    0.8807858275867714,
                    0.25311610156781916,
                    -0.026442541150390114,
                    -0.679273457174298,
                    0.6367600258468098,
                    -0.0154389684829618,
                    -0.7547745246740315,
                    0.1925990318841743,
                    -0.7701634171651199,
                    0.07204377832392321,
                    0.3494069648081691,
                    1.2908948810887064,
                    -1.1369674626310284,
                    0.5056008464215345,
                    -1.1511307301618008,
                    0.7420137931346467,
                    0.25378751465041055,
                    -0.7780466116160306,
                    -0.8262776517559617,
                    -1.154417555089182,
                    -0.024842356159830208,
                    0.297627454451961,
                    -0.7618978824343098,
                    -0.2405588906525295,
                    0.33070170744574373,
                    -0.4193560667042199
                  ],
                  "_Bias": -0.6205439824484137
                }
              },
              {
                "app.user_data.Battle_AutoTuningPnParam_NN.Node": {
                  "_Weight": [
                    -1.086268281565331,
                    -0.8032097633022877,
                    0.7473997656284139,
                    0.33089738237089766,
                    0.28737783437013875,
                    0.4305584734261479,
                    0.7958878454931252,
                    -0.6630455267426925,
                    -0.772684868189095,
                    -1.2982949831578516,
                    -0.3017843110915232,
                    -0.31115822929656534,
                    -0.4134400110317827,
                    1.1800194071332448,
                    -0.4865260199995878,
                    0.42535718376741155,
                    -0.034951435143682555,
                    0.4176175300596105,
                    0.6374744905752616,
                    0.10690840192321555,
                    -1.0392502624038507,
                    0.3224966722911099,
                    -0.5696429452313752,
                    0.37479829621722655,
                    -0.2546531458262559,
                    0.431752210136521,
                    -0.6400016974794559,
                    -0.46607312886710545,
                    0.45499124459538337
                  ],
                  "_Bias": 0.6338383267596208
                }
              },
              {
                "app.user_data.Battle_AutoTuningPnParam_NN.Node": {
                  "_Weight": [
                    0.07009695575954838,
                    0.021752871355690352,
                    0.4815675238661228,
                    0.5175299424488441,
                    0.8112974262947761,
                    0.3315157799269248,
                    0.2505025970336675,
                    0.24967250062558183,
                    1.3148809188178787,
                    0.8430289910748613,
                    -0.2134784011009221,
                    -0.5997249628672607,
                    -0.5292115877187358,
                    0.9740340426569601,
                    0.42754373722283756,
                    0.4521223228928128,
                    -0.1204444996837575,
                    -0.3398152906567685,
                    0.310137384958727,
                    -0.24085643078428606,
                    0.8296252472895338,
                    0.13090004611239134,
                    -0.7777471454584941,
                    0.44703391416312116,
                    0.8808560727023116,
                    0.6601288836971805,
                    -0.5689804706419337,
                    0.01015001286889911,
                    0.03335419960603558
                  ],
                  "_Bias": -0.47994654254160213
                }
              },
              {
                "app.user_data.Battle_AutoTuningPnParam_NN.Node": {
                  "_Weight": [
                    0.08389961643256885,
                    -0.7166131212029138,
                    0.7437659019645982,
                    0.8968659145678631,
                    -0.5275115129120629,
                    -0.7563418496405747,
                    -0.4606440439230965,
                    -0.377684968985318,
                    0.6537355997363323,
                    -0.6459882744317074,
                    0.7762891737058952,
                    0.6769589254029693,
                    0.28280541223602623,
                    -0.7030488056193082,
                    0.07680186746588716,
                    0.6888395744320756,
                    0.696687874052371,
                    -0.7188182767527074,
                    -0.9317194629593439,
                    0.7877672385104686,
                    -0.4151836122160653,
                    -0.5861184232032274,
                    0.6362826970166037,
                    -0.6130947644528263,
                    0.5405209931000915,
                    -0.9149534077801847,
                    -0.585832813517069,
                    -0.7952362201237774,
                    0.5060876272704685
                  ],
                  "_Bias": -0.5213706394882938
                }
              },
              {
                "app.user_data.Battle_AutoTuningPnParam_NN.Node": {
                  "_Weight": [
                    -0.44318266123211797,
                    -0.6606687871593561,
                    1.1578788145228258,
                    1.0921977368123579,
                    -1.055139526615017,
                    0.7013531221929703,
                    -0.34110301693412975,
                    0.46645138120555846,
                    0.4401944129036332,
                    0.06855035357957806,
                    0.7504929611499631,
                    -0.2606925552606673,
                    -0.9776465691836868,
                    -1.2540052359651677,
                    0.8302144357242772,
                    0.6051617188506329,
                    -0.6531447940961221,
                    -0.6204239647064007,
                    0.5844306225535681,
                    0.3675302741310028,
                    -0.08226857534812786,
                    -0.4073252974695645,
                    0.4205930810018564,
                    -0.5055630370325064,
                    -0.5138347131439455,
                    -0.6356310175393478,
                    0.5903747935557017,
                    0.9890361873756303,
                    0.7624393721160574
                  ],
                  "_Bias": -0.11558868302760518
                }
              },
              {
                "app.user_data.Battle_AutoTuningPnParam_NN.Node": {
                  "_Weight": [
                    0.2040044747639714,
                    0.01689428579150788,
                    0.17660745132171832,
                    0.28869335210510966,
                    0.3912157236008942,
                    0.8053808719112944,
                    -0.46218137114039487,
                    0.5166931744766876,
                    0.718555290639763,
                    -0.18317264949891066,
                    -0.7656001736634999,
                    -0.9187406362230246,
                    -0.7594231568407429,
                    -0.7099096239774756,
                    0.15436283582750607,
                    -1.0749553399581402,
                    -0.4281144328009765,
                    1.3266638246286888,
                    0.2066849576790482,
                    -1.0653172627750398,
                    0.06874688803295445,
                    0.055742610483569925,
                    0.6301564368658146,
                    0.7044446992399912,
                    0.30382566071376266,
                    -0.857841903743191,
                    -0.8140657283758905,
                    0.7320163166363711,
                    -0.3653858508224029
                  ],
                  "_Bias": -0.09158200160677393
                }
              },
              {
                "app.user_data.Battle_AutoTuningPnParam_NN.Node": {
                  "_Weight": [
                    -1.0253958036662785,
                    0.4463230576252115,
                    0.731483298779979,
                    0.662248866718656,
                    -0.5970415463810107,
                    0.14677689232102292,
                    -0.24850950554819926,
                    -0.9297524921391053,
                    0.5359806679526239,
                    -0.33856889453050815,
                    0.5549951695294032,
                    0.052536529087391766,
                    0.7450594941109987,
                    -1.2142956334083288,
                    0.731402577207153,
                    0.6141867212970074,
                    -0.8770069613709103,
                    0.17122200116969055,
                    -0.6489655145370864,
                    -0.17647453424074955,
                    -0.45748790020127594,
                    -0.592635723774056,
                    -0.4886373790629406,
                    0.045303272377049196,
                    -0.11668137042822416,
                    0.1462216770493991,
                    0.44084648337814997,
                    0.21576847506722932,
                    0.35551492557877673
                  ],
                  "_Bias": 0.810524923419633
                }
              },
              {
                "app.user_data.Battle_AutoTuningPnParam_NN.Node": {
                  "_Weight": [
                    -0.9498211126918225,
                    0.22953442994061896,
                    0.12586686968694905,
                    -0.6781058335240915,
                    -0.44969954700527714,
                    -0.5444747510391691,
                    -0.2756902039600592,
                    -0.3470713798954162,
                    -1.0588668654356181,
                    0.5163783616733139,
                    -0.3257446967890045,
                    0.3418949377680993,
                    -0.3488350290155665,
                    -0.48054320035948,
                    -1.0784386869971523,
                    -0.823625078266552,
                    0.5663682690282271,
                    -0.10148789287073973,
                    -0.4122390233117746,
                    -0.7242605411959882,
                    -0.42676304075381694,
                    0.6056891419950828,
                    0.02810831796946911,
                    0.8246581988006307,
                    -0.004236378371330993,
                    -0.5629820517944647,
                    0.9028501242902024,
                    0.1767000094865822,
                    -0.4181502107524905
                  ],
                  "_Bias": -0.7375799493912696
                }
              },
              {
                "app.user_data.Battle_AutoTuningPnParam_NN.Node": {
                  "_Weight": [
                    0.5018979465152683,
                    0.4072084209162114,
                    -0.7133262561309642,
                    -0.765444565244654,
                    -0.06641515573055004,
                    0.12124088309056771,
                    -0.5180750201986086,
                    0.8943709502252287,
                    1.0462640785514494,
                    -0.21680012013975777,
                    0.21386686313706432,
                    0.654387931543401,
                    0.8067378391878165,
                    0.79479149016325,
                    -0.515307893451903,
                    -0.11170857497598306,
                    0.7526122200667003,
                    -0.8105280313072227,
                    -0.24573076169243485,
                    -0.3627654531657508,
                    0.6353070098729836,
                    0.6191845992563312,
                    0.19106132829307704,
                    0.1467611996746105,
                    -0.7915866020948824,
                    -0.34087249839166034,
                    0.3274706754797232,
                    0.8789913184649996,
                    0.03641311378095334
                  ],
                  "_Bias": 1.164423168328594
                }
              },
              {
                "app.user_data.Battle_AutoTuningPnParam_NN.Node": {
                  "_Weight": [
                    0.32944764343066635,
                    -0.8150266380767807,
                    -1.149904087428905,
                    0.5715641175264929,
                    -0.551334193745082,
                    -0.19419220824905473,
                    -0.8437357526657719,
                    0.8449476746294551,
                    0.35009623090959835,
                    0.6380888351026294,
                    0.6668708683893596,
                    -0.3447101115550704,
                    0.54203456600396,
                    1.1103888966078375,
                    -0.08242818758790083,
                    -0.4474487603605223,
                    -0.42720539937340396,
                    -0.7558434415296071,
                    0.41644041934289777,
                    0.5970095437029035,
                    0.47702620999923145,
                    -0.8851540799901179,
                    -0.6796825414365334,
                    -0.14569835370328763,
                    0.1469062195077028,
                    0.9574456814919297,
                    -0.5193911735064388,
                    0.9099043720391206,
                    0.9414009768271797
                  ],
                  "_Bias": 0.01192873733082454
                }
              },
              {
                "app.user_data.Battle_AutoTuningPnParam_NN.Node": {
                  "_Weight": [
                    -0.5337756794420664,
                    -0.4736059842664906,
                    -0.548191670363471,
                    0.1207763440088217,
                    0.4147853178644075,
                    0.42430912058902615,
                    0.6387885897513743,
                    0.19886628259390687,
                    -0.4479059549848557,
                    0.4679694261376986,
                    -0.1470561942233785,
                    0.6609319615287046,
                    0.8493023561521752,
                    -0.8347908920396997,
                    -0.00082455238876379,
                    0.8116249212389771,
                    0.19532149005898305,
                    0.7254354000446083,
                    -0.28534292363328867,
                    -0.8596642584364047,
                    -0.7805523494749799,
                    0.9060172197072456,
                    0.9082384059125008,
                    -0.29302606915995405,
                    0.6599293172158597,
                    0.9559444500126257,
                    0.6728534409134841,
                    -0.5285891868016583,
                    1.0049676991084582
                  ],
                  "_Bias": 0.6423163755822463
                }
              },
              {
                "app.user_data.Battle_AutoTuningPnParam_NN.Node": {
                  "_Weight": [
                    -0.3139541649298113,
                    0.4248746974118856,
                    -0.028339626024461627,
                    -0.7321673526023207,
                    -0.0385771168462298,
                    -0.49190881902672395,
                    0.37673446468521016,
                    -0.18665376127647074,
                    -0.3707208069166834,
                    -1.3221097515445877,
                    -0.5529927086353984,
                    -0.8616588642037223,
                    0.5695527087610481,
                    0.20317462411484316,
                    -0.38001413673945356,
                    -0.8891154279029603,
                    0.4947804081432627,
                    -0.7532595989257491,
                    0.9122357012943756,
                    0.2013052152329048,
                    -0.3793273071899422,
                    0.406139645582039,
                    -0.2527302046010644,
                    -0.18654398838342567,
                    -0.7187651315673079,
                    -0.8206143455700758,
                    -0.17906228370914745,
                    -0.419042099487725,
                    -0.3970497642606313
                  ],
                  "_Bias": -0.7130336447477893
                }
              },
              {
                "app.user_data.Battle_AutoTuningPnParam_NN.Node": {
                  "_Weight": [
                    -0.7832391498828661,
                    0.3623963530697239,
                    0.28567946978249814,
                    0.10060233756170475,
                    -0.73081948801619,
                    -0.7864598515447115,
                    -0.14331729301149138,
                    0.8030544363184013,
                    0.3912944565976973,
                    -0.1547571641002745,
                    0.8911537850929506,
                    -0.7432489024545035,
                    0.16703605120401616,
                    0.9537253207167129,
                    -0.22837766385262873,
                    0.03205599464654781,
                    0.8744767242855993,
                    -1.067017303952863,
                    0.27037083181160565,
                    -0.7570561397522231,
                    0.01716759385116421,
                    0.9470606165927408,
                    -0.5913646243641679,
                    0.4168116197635848,
                    0.798184659727484,
                    0.4870094032795167,
                    0.633748966505056,
                    -0.7959630297855651,
                    0.44313797930254967
                  ],
                  "_Bias": -1.1932769336602127
                }
              },
              {
                "app.user_data.Battle_AutoTuningPnParam_NN.Node": {
                  "_Weight": [
                    -0.31918517046142236,
                    -1.6331975215383567,
                    0.02296040169895517,
                    -0.0799555721754197,
                    0.5746705284826921,
                    -0.5592070521404954,
                    0.6259687922494536,
                    -0.522652696148671,
                    0.7681857989863844,
                    0.5861176276591834,
                    0.4898155543589538,
                    -0.23320519556533817,
                    -0.4524818372945529,
                    0.6140623177445815,
                    -0.8964923760224774,
                    -0.02043520870084426,
                    0.044868559560007376,
                    -0.6064955807239694,
                    0.7901193236789352,
                    0.044279907137615565,
                    -0.25068434331089584,
                    -0.02460110294754255,
                    0.11981399676497337,
                    -0.02993477297734312,
                    -0.3590549005957037,
                    -0.6059642569399925,
                    -0.7039103094818232,
                    0.22596446730308262,
                    -0.5849656647282705
                  ],
                  "_Bias": -0.18198529813915218
                }
              },
              {
                "app.user_data.Battle_AutoTuningPnParam_NN.Node": {
                  "_Weight": [
                    -0.4691266462099807,
                    0.08172336396558878,
                    0.6741547762869665,
                    -0.6630392536495352,
                    -0.5370728576800484,
                    -1.3856762163151255,
                    -0.8533704387754975,
                    0.39879610284930694,
                    -0.41551919353471545,
                    0.48549550392816126,
                    0.4365374222406171,
                    -0.5761741093641702,
                    0.5015133167778161,
                    0.8967195311743693,
                    0.7801458935832409,
                    -0.8839159228687038,
                    -0.7262826327027382,
                    -0.7812291096038619,
                    -0.5683074753231812,
                    -0.20702684476000976,
                    -0.8399608360867498,
                    -0.3974740818862473,
                    -0.27037510339861565,
                    -0.9304700914838757,
                    -0.7912586307181353,
                    -0.4119074760363979,
                    -0.30229628892947646,
                    -0.8374422947016317,
                    0.9307590711699256
                  ],
                  "_Bias": 0.27690646516005946
                }
              },
              {
                "app.user_data.Battle_AutoTuningPnParam_NN.Node": {
                  "_Weight": [
                    0.3114481852176891,
                    0.9927618028464513,
                    -0.9699027416702616,
                    -0.7484689717808058,
                    0.4792480947824346,
                    -0.3037342631481619,
                    -0.710864806663811,
                    -0.6036868244485248,
                    -0.5644018472034152,
                    -0.40841939831142055,
                    -0.7938049913069203,
                    0.4252269755039217,
                    -0.3257788096328736,
                    0.28789132319885136,
                    -0.5376518607698386,
                    0.3952698677918509,
                    0.7527168435824402,
                    0.5124154456816554,
                    -0.5971581720214613,
                    -0.6444917549794845,
                    0.8915862096904569,
                    -0.9106385439241201,
                    0.540821975957439,
                    -0.8366723483510161,
                    -0.10292900881981532,
                    -0.19711453155571543,
                    -0.28490315440799674,
                    0.6159140816953663,
                    -0.14047834768063136
                  ],
                  "_Bias": 0.7064384268165774
                }
              },
              {
                "app.user_data.Battle_AutoTuningPnParam_NN.Node": {
                  "_Weight": [
                    0.4078977999062103,
                    0.6694231257710137,
                    -0.429227196073669,
                    -0.2233667967638997,
                    0.4972718715335814,
                    -0.10101106043228038,
                    -0.6296897697044542,
                    -0.37993860243007166,
                    -1.3937346042966656,
                    1.3369230721042136,
                    -0.4842556100680495,
                    0.4622945059350264,
                    -0.39942661020291437,
                    -0.4985762878809607,
                    -0.2782161936053615,
                    0.6544643543595751,
                    0.40595805086994774,
                    0.7763632680764994,
                    0.021236509726018385,
                    0.6891912575361673,
                    -0.018904894413654068,
                    0.531624554331184,
                    -0.7948981822892333,
                    0.47083713407920147,
                    0.20140050855421124,
                    0.5737763497127439,
                    -0.5905266307872443,
                    -0.7464313383926001,
                    0.7026330811033129
                  ],
                  "_Bias": -0.24369914288609595
                }
              },
              {
                "app.user_data.Battle_AutoTuningPnParam_NN.Node": {
                  "_Weight": [
                    0.9291807134585978,
                    0.18976682955053856,
                    -0.5326001594509454,
                    0.24999628498527554,
                    0.5910952495434072,
                    -0.5986178168021384,
                    0.5893373841816946,
                    -0.941050242444947,
                    0.8967272288086784,
                    -0.13173543173409533,
                    -0.6638285120203347,
                    -1.0031398661602553,
                    0.5987211728084125,
                    -0.5697533755536225,
                    -1.1742847832058445,
                    0.16618369408700662,
                    0.2005947817825239,
                    0.830505005057588,
                    -0.22552033995826798,
                    0.806287392900817,
                    -0.9189075456204109,
                    -0.8470410066142479,
                    -0.2605286167061501,
                    -0.22274502016843412,
                    0.8893065180751432,
                    0.7005083688572681,
                    0.7307430791793945,
                    0.6934697350885155,
                    -0.3481196794191809
                  ],
                  "_Bias": -0.3554210265895163
                }
              },
              {
                "app.user_data.Battle_AutoTuningPnParam_NN.Node": {
                  "_Weight": [
                    0.3638721395728296,
                    -1.566829684992584,
                    -0.09459764302421649,
                    0.6932082680227707,
                    0.8448436770522901,
                    -0.08684640919899123,
                    -0.6385535031280422,
                    -0.5302534628820814,
                    0.07116602733825439,
                    -0.5815897418648548,
                    -0.8077577112091828,
                    -0.47105492902981905,
                    0.7614857355245155,
                    -0.4198869476496217,
                    -0.5658134040290826,
                    -1.1457996052003252,
                    -0.6521671904467449,
                    0.8833743674641851,
                    0.017994385660783548,
                    0.49668060618295656,
                    0.01023453350768271,
                    0.5438904683299173,
                    0.7364638892175469,
                    -0.7120957335459244,
                    -0.46423515689586925,
                    -0.5741164642493984,
                    0.4634512881811001,
                    0.619009744226624,
                    -1.063303485393127
                  ],
                  "_Bias": -0.33225672685199364
                }
              },
              {
                "app.user_data.Battle_AutoTuningPnParam_NN.Node": {
                  "_Weight": [
                    1.3479803824392667,
                    -0.6742423234246049,
                    0.44872733737194004,
                    -0.0781022475604971,
                    -0.8309171259222665,
                    0.31365582009361626,
                    -0.5700945679560336,
                    -0.6262779000648264,
                    0.4203648951883809,
                    0.8679534857886102,
                    0.6359674292725657,
                    1.1813208264645234,
                    0.4404756108815586,
                    -1.0347058272284886,
                    -0.2816674854302759,
                    0.26092355967019204,
                    0.4500823134876955,
                    -0.24028486686232425,
                    1.125132906988083,
                    -0.07629026294565582,
                    0.02259478891145185,
                    0.10870457014406378,
                    0.07840164116880984,
                    1.0242325335894222,
                    -0.03910206621646117,
                    -0.8681360582815374,
                    -0.7135489811782023,
                    -0.10422289452224412,
                    -0.34036683741149554
                  ],
                  "_Bias": 0.9293165485293708
                }
              },
              {
                "app.user_data.Battle_AutoTuningPnParam_NN.Node": {
                  "_Weight": [
                    -0.16713024063979706,
                    -0.48419416576166996,
                    0.02973962300105581,
                    0.8227570101132762,
                    0.28263030976637743,
                    -0.546394635145855,
                    -0.36921117324356023,
                    1.0816684456742554,
                    0.5131388698138198,
                    1.0083129859532447,
                    -0.8051308494906276,
                    -0.988246343608731,
                    -0.6580600728453972,
                    0.03917349488137151,
                    0.02037099192887253,
                    0.027427266737384846,
                    0.19990955566840787,
                    -0.6563826406023069,
                    -0.3103287284680616,
                    0.2544978805344454,
                    0.08146112677287275,
                    -0.42364070558217376,
                    0.20841542453264209,
                    0.02654120810665288,
                    -0.42396829014948834,
                    0.5751849049307034,
                    -0.8207712873034445,
                    0.03783153809471098,
                    -0.3990752338943636
                  ],
                  "_Bias": 0.4056610985694498
                }
              },
              {
                "app.user_data.Battle_AutoTuningPnParam_NN.Node": {
                  "_Weight": [
                    0.7402839355885342,
                    0.08988274083263784,
                    -0.6970486452835353,
                    -0.9982529473526547,
                    -0.6766749342096771,
                    0.04664219699849554,
                    -0.8620879806604762,
                    0.5157441147563154,
                    -1.1949687762339207,
                    -0.5667523199064761,
                    0.24087366935302357,
                    1.1343722840483224,
                    1.232741684675022,
                    0.0848240938147665,
                    1.173656446201601,
                    0.9603313871564806,
                    -0.42651023619585715,
                    -1.0180945021387806,
                    0.6541491490240721,
                    -0.385402442226019,
                    0.5114095260808001,
                    -0.3415398306015649,
                    0.39964674188412896,
                    -0.9265541854365735,
                    0.12334421768751758,
                    0.8500021612141536,
                    0.04692365149300455,
                    0.23590450034521657,
                    -0.25971171894581124
                  ],
                  "_Bias": -0.8164325925474714
                }
              },
              {
                "app.user_data.Battle_AutoTuningPnParam_NN.Node": {
                  "_Weight": [
                    -1.1184829829517369,
                    -0.10677073166294848,
                    -1.1515912725401736,
                    -0.8401125144503739,
                    -0.6297108987548096,
                    -0.27248770769663855,
                    -0.6523142603255855,
                    -0.019539283435397282,
                    0.5819331677909462,
                    -0.39638657135886374,
                    -0.7179913030509647,
                    -0.709962767443608,
                    -0.537436574049261,
                    0.4586602631202017,
                    0.562046256130041,
                    -0.5811819115010425,
                    1.2483986690812285,
                    0.19344828342444173,
                    -0.36845795366608386,
                    0.5690696774759036,
                    0.22868955657400214,
                    1.1577918710335189,
                    -0.5747023569412583,
                    -0.9792592668195221,
                    -0.04862124967412116,
                    0.596172193128226,
                    -0.2045006326744527,
                    0.9821880753427144,
                    0.06896243540924789
                  ],
                  "_Bias": -0.4877434674236152
                }
              },
              {
                "app.user_data.Battle_AutoTuningPnParam_NN.Node": {
                  "_Weight": [
                    0.7117439509163717,
                    -0.7135887722441747,
                    -0.31519952524131223,
                    -1.2088053572094586,
                    -0.3458547922530817,
                    -0.23968374236162726,
                    -0.7338178892111279,
                    -1.279457123086244,
                    -0.40400631175407964,
                    0.24067172427947411,
                    -1.029274793238874,
                    0.8542612667289804,
                    0.6499260096747305,
                    -0.45930879810601455,
                    0.9765091989568593,
                    -0.570636606078926,
                    -0.5161408506993271,
                    -0.6573272535353004,
                    -0.0364016680557583,
                    0.14602814847093054,
                    0.5779604204789143,
                    0.13868150551843578,
                    -0.8159265046969003,
                    -0.3339661430094614,
                    -0.4284848544007307,
                    0.6441271247173992,
                    0.08624165023748695,
                    -0.5370770982023999,
                    -0.6000458291744647
                  ],
                  "_Bias": -0.61245828642029
                }
              },
              {
                "app.user_data.Battle_AutoTuningPnParam_NN.Node": {
                  "_Weight": [
                    -0.7485362171212503,
                    0.625992005076212,
                    -0.732541052207647,
                    0.24748320007328206,
                    0.3270399325995446,
                    -0.2738159532190936,
                    0.8211088844122112,
                    -0.44232051804964084,
                    -0.2437106426082877,
                    0.02345104980375845,
                    0.7980974214984058,
                    0.5268291671524489,
                    -0.7027525090255304,
                    0.47413655450299474,
                    0.1484660796284856,
                    0.8914466314153332,
                    -1.2656573993951303,
                    -0.4365461446667942,
                    1.053559428251694,
                    0.19436187387961648,
                    -0.19702084593116048,
                    -0.22325204041021854,
                    -0.46146145956817436,
                    -1.0348290911506823,
                    -0.18377689822030688,
                    0.6933516381821961,
                    0.21208454115409908,
                    -0.3103364212683178,
                    0.8799248967957516
                  ],
                  "_Bias": -0.4658442607837303
                }
              },
              {
                "app.user_data.Battle_AutoTuningPnParam_NN.Node": {
                  "_Weight": [
                    -0.14992554724168533,
                    -0.3773352210559774,
                    0.000253567958478977,
                    0.8733246926594611,
                    0.8016884441901612,
                    -0.5718638382733634,
                    -0.9892200754377372,
                    0.6768153869458109,
                    0.36156472674487417,
                    0.6524000225226438,
                    0.3903628984497812,
                    0.9434911387828765,
                    0.19646232441127254,
                    0.98378238353616,
                    0.20486650393808262,
                    -0.7276599443223645,
                    0.5554164728062424,
                    -0.09807967976439608,
                    0.16786271832846775,
                    -1.124780656505487,
                    -0.8286691775442093,
                    0.12706929352465815,
                    -1.0550308734293068,
                    -0.19031919075715034,
                    0.019209946618569392,
                    0.9287247552333633,
                    0.10465401484236624,
                    0.35212949948851796,
                    0.1582795255310274
                  ],
                  "_Bias": -0.7820944446708084
                }
              },
              {
                "app.user_data.Battle_AutoTuningPnParam_NN.Node": {
                  "_Weight": [
                    -0.0853708241884175,
                    0.38506813753535474,
                    1.02817263548134,
                    -0.13412860440346994,
                    -0.049474084299657724,
                    1.2250323851338556,
                    0.4334358271837871,
                    0.957022598728068,
                    -0.9244727373661868,
                    -0.4096169912292211,
                    0.11296806211504218,
                    -0.6163949066299482,
                    1.51466012006136,
                    0.023216013955354286,
                    0.48351607317408196,
                    0.44923551136130496,
                    -0.4722301840537505,
                    1.196046805725324,
                    0.046862406739461945,
                    0.6071389391722314,
                    0.19907844719425424,
                    -0.23755697657996175,
                    -0.17978384070180894,
                    0.21080196182102454,
                    0.5562859644331448,
                    -0.5306298272049796,
                    -0.0008085486286508129,
                    -0.26607877122419754,
                    0.26401392104879856
                  ],
                  "_Bias": 0.7595285975751984
                }
              },
              {
                "app.user_data.Battle_AutoTuningPnParam_NN.Node": {
                  "_Weight": [
                    -1.1100804319359618,
                    0.5130143475008675,
                    -0.18307204014183823,
                    -0.6736179261497468,
                    0.12775237447228946,
                    -0.627086334056315,
                    -0.24242660973789204,
                    0.6905609282780423,
                    -0.8378702465431002,
                    0.3846804737842734,
                    0.3633413422141628,
                    -0.10179610663415657,
                    -1.1410043088023674,
                    -0.32149960658799964,
                    0.05668938359268678,
                    0.11804403912993323,
                    0.6297487529981827,
                    0.8084564771933896,
                    0.26671153633182093,
                    0.6362423245413075,
                    -0.6074904728439797,
                    0.734330307173844,
                    0.3801298688600123,
                    -0.30524250358911154,
                    0.02146762598965941,
                    0.26230769165281015,
                    -0.7642218160437996,
                    -0.27669426426313,
                    0.2997469461216672
                  ],
                  "_Bias": 0.2192880982757773
                }
              },
              {
                "app.user_data.Battle_AutoTuningPnParam_NN.Node": {
                  "_Weight": [
                    -1.1129342507453126,
                    0.5615185110946239,
                    0.03847187763505128,
                    -0.8648321483492215,
                    0.886432683801576,
                    0.7272615245056209,
                    -0.12516049049552627,
                    -0.34771964392613863,
                    -0.1257029594814971,
                    -0.9961422198550284,
                    0.6317557814434352,
                    -0.12294757992394278,
                    -0.16416163364596112,
                    -0.8930207819908809,
                    0.949243486030979,
                    1.0033833704217003,
                    -0.8639893253388071,
                    -0.597768922504037,
                    -0.04098995905991359,
                    -0.2920862167170805,
                    -0.7332942545013094,
                    0.41980370817098195,
                    0.34174711492617804,
                    0.6287430774041496,
                    0.8321653043566913,
                    -0.8083900647789172,
                    0.9920748149302714,
                    0.18772283055350145,
                    -0.09141616091719301
                  ],
                  "_Bias": -0.24873846223861848
                }
              },
              {
                "app.user_data.Battle_AutoTuningPnParam_NN.Node": {
                  "_Weight": [
                    0.37434163743342685,
                    -0.1083292173697619,
                    -0.41563079369833106,
                    -0.046647196438589306,
                    0.20953754510647454,
                    -0.27286188559065006,
                    0.2145752655541519,
                    -0.9081947240599354,
                    -0.22107680070504238,
                    -1.0450826087821266,
                    -0.44485358417626236,
                    -0.5869747131936137,
                    0.2112176347422686,
                    0.6370154228413232,
                    -0.31884455077464463,
                    -0.9874562355674189,
                    -0.9015087839725843,
                    -0.3938105382900444,
                    0.16557558031511335,
                    -0.8938814188676522,
                    0.5334657197512033,
                    0.305305563040983,
                    -0.5437621615117917,
                    0.5886017512326751,
                    0.509331371842962,
                    0.1532662309149467,
                    0.4696451305056512,
                    -0.7054807744388584,
                    0.5827445242525965
                  ],
                  "_Bias": -0.3942152375514854
                }
              },
              {
                "app.user_data.Battle_AutoTuningPnParam_NN.Node": {
                  "_Weight": [
                    -0.14167831097086223,
                    0.23755387531133992,
                    -0.6432291345061965,
                    0.1890662048422997,
                    -0.18550063568800185,
                    -0.5524697615842542,
                    -0.17516711326456783,
                    -1.2253254092854498,
                    0.4435037258651959,
                    0.8559089187180022,
                    -0.2605257083283971,
                    0.5714009114109334,
                    0.10334265671798508,
                    -0.5501968904797109,
                    -0.3442112439651766,
                    -0.17973863147743743,
                    0.21314185803990338,
                    0.3571933245062868,
                    -0.22203327139613765,
                    -0.9928221553621392,
                    -0.4665498246884984,
                    -0.40668666177414087,
                    -0.945138590405345,
                    0.42482917631359624,
                    -0.762511702702131,
                    -0.7853516073684069,
                    0.5132231659728209,
                    0.860145291453076,
                    0.9528211113008983
                  ],
                  "_Bias": 0.3753176250009877
                }
              },
              {
                "app.user_data.Battle_AutoTuningPnParam_NN.Node": {
                  "_Weight": [
                    0.13933742070405516,
                    0.18744395427499042,
                    0.2493632477164179,
                    0.7429523617425862,
                    0.7079666630352819,
                    -1.2172114763634025,
                    -0.05436034172986966,
                    -0.5542284430963256,
                    0.972896058352552,
                    0.9599355877408408,
                    -0.5637226102398375,
                    -0.08852259534904854,
                    -0.5304356577082905,
                    -0.8565495925903662,
                    -0.20277128732638067,
                    -0.577665338966427,
                    0.8353716036932625,
                    0.8876236342192131,
                    1.0688425580867282,
                    0.012605739256271644,
                    0.5633842493188985,
                    0.7305447628333556,
                    0.30309314046310815,
                    -0.9190839643052076,
                    0.3803669684873366,
                    -0.21040982286786564,
                    0.8777194620864776,
                    0.6434622924203983,
                    -0.7637252070634464
                  ],
                  "_Bias": -0.9267573402976104
                }
              },
              {
                "app.user_data.Battle_AutoTuningPnParam_NN.Node": {
                  "_Weight": [
                    -0.17806095063486402,
                    0.5161715458603924,
                    0.07080974251476611,
                    -0.283257366333536,
                    0.4481453676080474,
                    0.4584636059192231,
                    -0.6829174335524387,
                    0.10182081615471514,
                    0.20510859648374083,
                    0.721738161903805,
                    0.5977877063361239,
                    -0.5756722729009565,
                    -0.11268145797036119,
                    -0.7229068815218941,
                    0.5819756004565,
                    0.6091603869409618,
                    0.4088101646757283,
                    -0.1855598792275392,
                    -0.6344141632900695,
                    -0.44235333911836755,
                    -0.7393863018687606,
                    0.1977691585784492,
                    -0.5408450882936638,
                    -0.259908457451403,
                    -0.038343100416787075,
                    0.19213369360920315,
                    -0.7279291662640588,
                    -0.777595494880112,
                    0.5902692314197566
                  ],
                  "_Bias": -0.41148610654363865
                }
              },
              {
                "app.user_data.Battle_AutoTuningPnParam_NN.Node": {
                  "_Weight": [
                    0.21299453379569902,
                    -0.32365604458147235,
                    -0.43242698812571834,
                    0.07604318848607489,
                    -0.046120656423099225,
                    0.2746105523163082,
                    0.5186561968080544,
                    -0.9569267662155587,
                    0.2546861638846093,
                    -0.37648320175877137,
                    -0.1306378389218326,
                    0.2531877409944184,
                    0.567918620987535,
                    -0.34999959889736587,
                    -0.33237467354346384,
                    -0.8196502757014604,
                    0.43427250659498473,
                    0.9837148308016599,
                    1.1136236344886543,
                    0.40240510414030295,
                    0.12199828878219755,
                    -0.05298324084502793,
                    -0.1343545289594934,
                    0.7634944001725232,
                    0.6497423206953902,
                    -0.42703667563516107,
                    0.1633163814839221,
                    0.8068762451505516,
                    0.40318759931701065
                  ],
                  "_Bias": 0.36660308519203794
                }
              },
              {
                "app.user_data.Battle_AutoTuningPnParam_NN.Node": {
                  "_Weight": [
                    -0.4238737483585474,
                    0.5257774623095706,
                    -0.3496798301612834,
                    0.04699363433066662,
                    0.6182007247409089,
                    -0.07520446793924915,
                    0.9536229067631702,
                    -0.4848060129143297,
                    -0.043304745397539014,
                    0.4867965809453257,
                    0.7923124340528137,
                    -0.43942020320380265,
                    0.8310718710769815,
                    0.2188107690213459,
                    -0.03869358207754643,
                    0.28097980912577053,
                    -0.05268973607153629,
                    -0.15920245734776514,
                    -1.219503136294045,
                    0.2684464241105517,
                    -0.7644824189298178,
                    0.976252546991659,
                    1.0089404648917832,
                    -0.5535102142487885,
                    0.7984912875959497,
                    -0.8849801389842973,
                    0.8693810746016235,
                    0.8767864656357802,
                    0.25341713173170866
                  ],
                  "_Bias": 0.599810958297582
                }
              },
              {
                "app.user_data.Battle_AutoTuningPnParam_NN.Node": {
                  "_Weight": [
                    0.6557100951775161,
                    -0.9485187458132858,
                    -0.7108865581872731,
                    -0.4591888289962146,
                    0.1757094587329471,
                    0.47915491058231197,
                    -0.26876223441835256,
                    0.05150108549592307,
                    0.7439225052595644,
                    1.474310703130262,
                    -0.5242822119823946,
                    -0.08034315729837678,
                    -0.11691933531561742,
                    -0.8072454136053092,
                    -0.5541907222557512,
                    -0.6280851323196478,
                    -0.06855455971129767,
                    -0.8284298378766295,
                    -0.405162923656062,
                    -0.5252731525436485,
                    -0.22560170607257257,
                    0.5459041804761661,
                    0.5074889834975518,
                    -0.9415168340268218,
                    -0.24634144501201646,
                    -0.32073395280168066,
                    0.5044759486119654,
                    0.5772646651937635,
                    -0.611881610776049
                  ],
                  "_Bias": -0.5216718876027706
                }
              },
              {
                "app.user_data.Battle_AutoTuningPnParam_NN.Node": {
                  "_Weight": [
                    -0.8798317064286509,
                    0.24577006748320598,
                    1.0604467117633112,
                    -1.1391283260384615,
                    -0.7308067762465803,
                    -0.28479669236745875,
                    0.19660826610568313,
                    0.49259985111190085,
                    -0.8758430455515619,
                    0.13364701560348718,
                    1.118341831669687,
                    -0.34516285194575486,
                    -0.7703779738357278,
                    -1.3356314095976998,
                    -0.12864427545491722,
                    -0.12778078193691123,
                    0.48611814174094314,
                    -0.5778732587339803,
                    0.18801074038594817,
                    -0.4524042416007546,
                    -0.9371039077462193,
                    -0.2113243651263811,
                    0.4714426118488164,
                    0.9655082493945952,
                    -0.8901673210851688,
                    0.05174860939112829,
                    0.8089315419389405,
                    -0.4559377046226389,
                    0.12230916838585101
                  ],
                  "_Bias": 0.20039844692773937
                }
              },
              {
                "app.user_data.Battle_AutoTuningPnParam_NN.Node": {
                  "_Weight": [
                    -0.5890050239365745,
                    0.44473859167712976,
                    0.9871946256061253,
                    0.004304709479451669,
                    0.5508782014578156,
                    -0.841905576032936,
                    -0.3658269634810595,
                    -0.9277494269149327,
                    -1.1487500870461993,
                    -0.7094425587138482,
                    0.9601466658970021,
                    -0.8745141411786969,
                    -0.4653032576812285,
                    -0.9543164188631352,
                    -0.8931422502994825,
                    0.5941630664187344,
                    -0.655965396304898,
                    0.1517267879000725,
                    0.034068063261632385,
                    1.1569378138346373,
                    -0.5280844642747748,
                    -0.8243915906278974,
                    0.26404115700387737,
                    -0.4953133292761954,
                    0.026010694164995737,
                    0.019107713471515835,
                    -0.2600582396292694,
                    -0.585348631725441,
                    0.48381128502776827
                  ],
                  "_Bias": -0.7693303165524645
                }
              },
              {
                "app.user_data.Battle_AutoTuningPnParam_NN.Node": {
                  "_Weight": [
                    0.12194539597571434,
                    1.0956902375677007,
                    -0.18739496721106622,
                    0.4084382569455808,
                    -0.11845054812005065,
                    -0.8757394458942646,
                    -0.9625306212211776,
                    1.02769472392306,
                    -0.4596424381897984,
                    -0.460597753263004,
                    0.8853364816320507,
                    -0.0699469505623922,
                    0.2870275705022369,
                    0.680360433552835,
                    -0.9372571671242574,
                    -0.6436996449492821,
                    -0.15041602758433112,
                    0.9717704976941781,
                    0.11498861029700294,
                    -0.8755214191338988,
                    0.2797527277634488,
                    0.531792268878175,
                    0.34305125031805184,
                    0.0805383075095391,
                    0.11533273824882742,
                    0.8027688078980614,
                    -0.07788976605597978,
                    -0.4555338242118253,
                    -0.7888818130819811
                  ],
                  "_Bias": -0.3207934158180849
                }
              }
            ]
          }
        },
        {
          "app.user_data.Battle_AutoTuningPnParam_NN.Layer": {
            "_Node": [
              {
                "app.user_data.Battle_AutoTuningPnParam_NN.Node": {
                  "_Weight": [
                    -0.8838991296726263,
                    -0.056080743878809326,
                    0.6420249550856603,
                    0.8588498886385999,
                    -0.030048456178132513,
                    -0.13754501322637486,
                    0.7238663335011709,
                    -0.40182902317826136,
                    1.112008706916465,
                    0.5981651070070952,
                    0.7283490033274167,
                    -0.28494858369713966,
                    0.05617029256372152,
                    -0.4228902451194444,
                    0.10919377653181553,
                    -0.40152621898150936,
                    -0.7886168253101797,
                    -0.42691304887356757,
                    -0.4713255698124305,
                    -0.013405371636934506,
                    -0.7074409991272235,
                    0.43354875060763287,
                    -0.7480630094765066,
                    0.26258805324582696,
                    0.9291176391452092,
                    0.5763097728838148,
                    0.5395801786477289,
                    -0.3610824241049246,
                    -0.6018287817261586,
                    -0.13092387797425567,
                    0.5955436855807518,
                    0.1603930102962879,
                    0.8434807579427368,
                    -0.17672977398228373,
                    0.0884370107947459,
                    -0.751373521833685,
                    -0.7000496977749919,
                    -0.16852959488576522,
                    0.13337595151459322,
                    0.5393549366808477,
                    -0.9226562146800761,
                    0.18036292214382382,
                    -0.8510972360771784,
                    0.16167419077416614,
                    -0.6194532980603733,
                    0.752872896657418,
                    1.0829043233701876,
                    0.06232808632968339,
                    -0.12841538324442733,
                    -0.3926273990763318,
                    -0.07519240988503181,
                    0.03043130016701007,
                    0.6909521226282798,
                    -0.6206019235206424,
                    -0.5483190390412587,
                    0.9290419047899796,
                    -0.9217773294561441,
                    -0.39570355285895326
                  ],
                  "_Bias": 0.2099028930167109
                }
              },
              {
                "app.user_data.Battle_AutoTuningPnParam_NN.Node": {
                  "_Weight": [
                    0.6582217767535483,
                    -0.9370211591110628,
                    0.32915560186317666,
                    -0.3623609019370333,
                    0.13474564133126296,
                    -0.3982570551207479,
                    0.3772876576064179,
                    -0.4858401453226699,
                    0.6758839517979977,
                    0.381786029804536,
                    -0.7955057443317469,
                    -0.4777185345694602,
                    -0.2814790083685381,
                    0.07331890047011799,
                    0.7111692203475328,
                    -0.3133515862914763,
                    0.2844483625357148,
                    -0.03468894345480165,
                    0.8230918726280552,
                    -0.21293070957917845,
                    0.8672159394030556,
                    -0.622211854757402,
                    -1.0833583837535188,
                    -0.16383223458908902,
                    -0.05353770734140468,
                    -0.6132717633057879,
                    -0.5714239127059473,
                    -0.3527926991058994,
                    -0.9237990300376756,
                    0.1470874998811261,
                    0.2042238806085,
                    0.2217981145984859,
                    0.04350724305478659,
                    -0.8518723054211628,
                    0.8325013610255353,
                    -0.45737648804817427,
                    1.0583600311394394,
                    0.8568179654911854,
                    0.0445500720565839,
                    0.08738651598387713,
                    -0.9598205715645087,
                    -1.0707316861375031,
                    0.07039848970374495,
                    0.0339605064802359,
                    0.2152594134267306,
                    0.1508315365426207,
                    -0.9033939138243028,
                    0.482474980092088,
                    1.066594156471935,
                    0.4544919726070248,
                    -0.7474202779729198,
                    0.5965035916492726,
                    0.23893829314042572,
                    0.6106995215082673,
                    -0.3361332806963139,
                    -0.907707312701874,
                    -0.396098188596371,
                    1.2536543910935891
                  ],
                  "_Bias": 0.4241047971175871
                }
              },
              {
                "app.user_data.Battle_AutoTuningPnParam_NN.Node": {
                  "_Weight": [
                    -0.4451488391190211,
                    -0.09852919382169094,
                    0.7156300692404053,
                    0.21853088312649446,
                    0.8793186043219504,
                    -0.35610577416089906,
                    -1.017322235326928,
                    -0.04763912092770579,
                    -0.6831011521380684,
                    0.33739532035739883,
                    -0.1467866509025148,
                    -0.23854027214885648,
                    0.14083714326687452,
                    0.357793685950706,
                    0.503500962489727,
                    -0.9154874907572497,
                    0.23669553355060213,
                    0.09257570104719469,
                    0.8005865295655146,
                    -0.027272112041406466,
                    0.14401869934307318,
                    0.8036733206097659,
                    -0.36484186445608646,
                    -1.151850000111211,
                    -0.7161407080292491,
                    -0.6509772660669274,
                    0.04171552278043087,
                    -0.9161416921681097,
                    -0.49754550942967574,
                    0.42106730960685224,
                    -0.8753910207280303,
                    0.50319222237823,
                    -0.013454606228514257,
                    -0.3623668053260079,
                    0.8978481639250223,
                    0.2861029266643778,
                    0.356827615939571,
                    -0.9991339803512286,
                    -0.9933325256095136,
                    -0.5938869241740868,
                    -0.4039598894300207,
                    0.30052597397341946,
                    0.3168592742637261,
                    1.0971727391405588,
                    0.1451219554165726,
                    -0.13766186071825806,
                    -0.44832719432044565,
                    -0.6232066759867645,
                    0.9203332030456177,
                    -0.2673961164988558,
                    0.020213591442098364,
                    0.09597788042262556,
                    -0.5471631311102827,
                    0.1991293356450886,
                    -1.3807717742876326,
                    1.0338809613898932,
                    -0.35024710002915993,
                    -0.31334482494322935
                  ],
                  "_Bias": -0.9930613247291371
                }
              },
              {
                "app.user_data.Battle_AutoTuningPnParam_NN.Node": {
                  "_Weight": [
                    0.9077119805378697,
                    0.28733237535743816,
                    0.37964784087777664,
                    0.8596891270299029,
                    0.09860707302074574,
                    1.13587304869854,
                    0.6805379131570928,
                    0.8809621607325385,
                    -1.2229924812360478,
                    -0.12223173134624837,
                    -0.7708560960177396,
                    -0.36114849032665663,
                    -0.39743200479657065,
                    0.03951305900782311,
                    0.8841510263357989,
                    -0.1794957767825089,
                    -0.45860088843333285,
                    -0.5777230147187963,
                    -0.9934878190630811,
                    -0.3318626771434434,
                    -0.3523525474076488,
                    -0.19705123176227302,
                    -0.7040667109294585,
                    0.8868543782067068,
                    0.731434271559307,
                    0.6615382368335512,
                    -0.02255824925915886,
                    1.258976032074765,
                    -0.10287034056136106,
                    0.6510410902228223,
                    -1.097956064878918,
                    0.985529228355307,
                    0.6759531739459994,
                    0.02977350021327907,
                    0.2493739011003148,
                    0.2782686711849593,
                    0.2364875405123676,
                    -0.38610506020512453,
                    -0.6050777542451661,
                    -0.6231231944620838,
                    -0.43845525670672475,
                    0.7184484927686476,
                    0.17280812997820735,
                    -0.14214260111663238,
                    0.14782837660486303,
                    0.950142606313738,
                    -0.323436386003729,
                    -0.5889457862578928,
                    -0.15592041581241223,
                    0.3032781500115257,
                    -0.6180734396978399,
                    0.3399996447295213,
                    -0.5503391060943478,
                    0.458411471272623,
                    1.207450826512813,
                    -0.67711669501691,
                    -0.574265829144054,
                    0.26984195463539196
                  ],
                  "_Bias": -0.6902103806284222
                }
              },
              {
                "app.user_data.Battle_AutoTuningPnParam_NN.Node": {
                  "_Weight": [
                    -0.4223338978949452,
                    0.08061899264922949,
                    -0.8488433480488904,
                    -0.5037786607967186,
                    0.7026899472063795,
                    -0.3537893691354614,
                    0.7417510500566473,
                    -0.2812016770536631,
                    -0.8298825885514706,
                    -0.8967364771674124,
                    -0.1188662852515891,
                    0.6692238224591559,
                    -0.9053469444089423,
                    -0.09738631771063415,
                    0.6037735786351333,
                    -0.06541683459867166,
                    -0.12550158030667247,
                    0.8034965718273717,
                    -0.8658068021804185,
                    0.935930193857289,
                    0.42501041299670783,
                    -0.2577534177577556,
                    0.3723698471567287,
                    1.2076747260603404,
                    0.7900121680206994,
                    -0.8776826705170916,
                    -0.4573598924531319,
                    -0.5392998878343578,
                    -0.7270780619814521,
                    -0.9340875170087456,
                    1.0763808472824206,
                    0.20918031891515337,
                    -0.4039539881992375,
                    0.28221441625583144,
                    0.7268829490854154,
                    -1.1064685867210962,
                    1.0443072212654163,
                    0.4900901175813075,
                    -1.0402202492370622,
                    -0.05259232702965528,
                    -0.9536425896818017,
                    1.038981788773235,
                    -0.42978640491921094,
                    0.6263069524832358,
                    -0.4572340102101883,
                    -0.6275530761764403,
                    0.5119973003399586,
                    -0.8605701545966208,
                    0.7503762951976626,
                    -1.0468834034780161,
                    0.2579519335361847,
                    -0.31831500996702955,
                    1.2137295632476155,
                    0.5744931991718423,
                    -0.794646286316973,
                    0.2657451665338667,
                    0.4117095380992689,
                    0.5592986775918528
                  ],
                  "_Bias": -0.8360023553618225
                }
              },
              {
                "app.user_data.Battle_AutoTuningPnParam_NN.Node": {
                  "_Weight": [
                    -0.07505702001639247,
                    -0.8640765091838212,
                    0.08512834064575422,
                    -0.7051061817746209,
                    -0.45535500309645505,
                    0.7202170040232779,
                    0.795506108674604,
                    -0.29475384892405626,
                    0.71682801720968,
                    -0.2503815440284522,
                    -0.9956898290228793,
                    0.8422569185661194,
                    0.6785645058258262,
                    0.08792648348975692,
                    0.09104241526328898,
                    0.5038354373221814,
                    -0.750376502033866,
                    -0.5704196282795835,
                    0.05784226114244086,
                    0.30761360833520995,
                    0.434060723105108,
                    1.0529345154625498,
                    0.24404187980526215,
                    -1.0779406189588498,
                    -0.40703624214772854,
                    0.33466896236207666,
                    -0.7626286605644351,
                    0.016814961302742057,
                    -0.2926231609717499,
                    -0.9784875853737794,
                    0.6386601450517846,
                    -0.8497271897787215,
                    0.5771299069928284,
                    -0.04992519036432552,
                    0.08193948431690544,
                    0.08988330387788561,
                    0.0627600880661415,
                    0.4645243404514694,
                    -0.5793263592177172,
                    0.5822917341705363,
                    -0.5678598760824128,
                    -0.10970485204930125,
                    -0.6017252217329561,
                    0.9469676025406975,
                    -0.7595994563485806,
                    -1.244801666663671,
                    0.44452501489040597,
                    -0.17414507381717736,
                    -0.8256767436033842,
                    -0.10783490355638523,
                    0.6625058508639278,
                    0.7252656289822558,
                    0.5506263788082939,
                    -0.8519145024533329,
                    0.09017307909072714,
                    0.9022520516811043,
                    -1.0244332418400868,
                    -0.608371556591692
                  ],
                  "_Bias": -0.21944688221655137
                }
              },
              {
                "app.user_data.Battle_AutoTuningPnParam_NN.Node": {
                  "_Weight": [
                    -0.5900034517721678,
                    1.004135893207721,
                    -0.13302892585723758,
                    -0.6489114514258326,
                    0.720565156564646,
                    -0.4334021797988664,
                    -0.25810218695125414,
                    0.43048881733671535,
                    -0.8859485546534206,
                    -0.00682085605671817,
                    -0.7026126967798996,
                    -0.6486602638793155,
                    0.2225392842511739,
                    -0.6773382877792758,
                    0.8915991358386487,
                    -0.20501820245505442,
                    0.7660639179232214,
                    -0.21494435972906098,
                    0.3181517313774854,
                    -0.5234091285059171,
                    0.8244098094630304,
                    0.5199870790622175,
                    -0.5730954979679036,
                    0.41280217538384906,
                    -1.1639851424753485,
                    -0.20465100585298393,
                    0.7735308809998879,
                    -0.8532253158176575,
