[
  {
    "app.user_data.Battle_AutoTuningPnParam_NN": {
      "index": 98,
      "RootSeedNum": 1070096883,
      "_NodeNum_InputLayer": 29,
      "_NodeNum_HideLayer": [
        58,
        29
      ],
      "_NodeNum_OutputLayer": 7,
      "_AveList": [
        0.8621736015037063,
        0.3791505791505789,
        0.08108108108108109,
        0.1939811752079232,
        0.8803116953535676,
        0.39613899613899634,
        0.11583011583011583,
        0.13906133054043462,
        0.7785023947394667,
        0.40683397683397665,
        0.11196911196911197,
        0.36092718259581563,
        0.2277992277992278,
        0.7486110167670199,
        0.34579150579150586,
        0.18532818532818532,
        0.19473479365150978,
        0.5515867443926559,
        0.7444516455230744,
        0.21235521235521235,
        -1.0,
        0.14119155182265714,
        0.17376282404853835,
        0.04247104247104247,
        -0.2548262548262548,
        0.06641168273492132,
        0.2060997425997425,
        0.02702702702702703,
        -0.2548262548262548
      ],
      "_SdList": [
        0.22941375303868236,
        0.17608366219044339,
        0.2729595929287043,
        0.38460805206626414,
        0.241509765244582,
        0.21251153951079255,
        0.40520311187472263,
        0.3509934560767298,
        0.2666222477148746,
        0.22359129030532685,
        0.3153284477080377,
        0.5733492706831376,
        0.41941237417761457,
        0.28925617732538533,
        0.1891181806699046,
        0.3983762753643283,
        0.46644632444593426,
        0.36185650483380294,
        0.24386915745325757,
        0.436378848372385,
        0.0,
        0.29542874230875277,
        0.33535690706220533,
        0.21997559124701282,
        0.43576350773955297,
        0.23654944696806818,
        0.36353303879557436,
        0.16216216216216267,
        0.43576350773955297
      ],
      "_WeightList": [
        {
          "app.user_data.Battle_AutoTuningPnParam_NN.Layer": {
            "index": 59,
            "_Node": [
              {
                "app.user_data.Battle_AutoTuningPnParam_NN.Node": {
                  "index": 1,
                  "_Weight": [
                    0.1688674533830065,
                    -0.49105332178537026,
                    -0.9348457467574512,
                    -0.49194318205101184,
                    -0.5344948198788386,
                    -0.7203152889633645,
                    0.25476189054407156,
                    1.1245392651758999,
                    -0.2417179345514024,
                    0.07967690271538577,
                    -0.4945920143714462,
                    0.7070270383308904,
                    -0.6273056689524825,
                    -0.6285477232486761,
                    -0.8329055831697866,
                    -0.6658539687456744,
                    -0.19780819305713523,
                    0.0676070694379503,
                    0.17351073499359143,
                    -0.11248084499734402,
                    -0.9191338698886979,
                    0.09818583407837314,
                    -0.6817465622499028,
                    0.3531233292148028,
                    0.5873052676717401,
                    0.8602434197512708,
                    0.45097961793891456,
                    0.2132920946723121,
                    -0.15963720958131952
                  ],
                  "_Bias": 0.6913525312714922
                }
              },
              {
                "app.user_data.Battle_AutoTuningPnParam_NN.Node": {
                  "index": 2,
                  "_Weight": [
                    -0.8350381573175933,
                    1.0150527463958898,
                    -1.0174764507383753,
                    -0.10452952512198525,
                    -0.8678068078409875,
                    0.6686002836545515,
                    0.7620837661332359,
                    0.15850753216680105,
                    -0.47576789144218246,
                    0.4682813651566553,
                    -0.3583687116411044,
                    1.2423740660742078,
                    0.9048206197378419,
                    0.4014871105320172,
                    0.3877718155775059,
                    0.09743198324659728,
                    -0.6379323746089173,
                    0.6015441347672004,
                    0.15488944878255206,
                    0.13849689417931763,
                    -0.4288276201450923,
                    0.12901149856142627,
                    -0.3178418388395287,
                    0.6645425479237236,
                    -0.19479299337314607,
                    -0.7443415664951807,
                    0.5670796342261178,
                    -0.7972430646066004,
                    0.26300389555999504
                  ],
                  "_Bias": 0.4427059688942225
                }
              },
              {
                "app.user_data.Battle_AutoTuningPnParam_NN.Node": {
                  "index": 3,
                  "_Weight": [
                    0.009995840681611435,
                    0.015242669352660972,
                    -0.0955274329856655,
                    -0.867339985550958,
                    -0.0650629460544095,
                    0.5518338372454612,
                    -0.37353507403565755,
                    1.0224726253690275,
                    -0.33804451274185976,
                    0.30586701738039324,
                    -0.1834382120583992,
                    -0.13729560536431212,
                    0.18866223520872186,
                    0.20561881809166024,
                    -0.8531100018606509,
                    0.1297121926740801,
                    -0.4586932389673784,
                    -1.014573463604003,
                    -0.7526253861270197,
                    0.31967074955461067,
                    -0.17731177136195894,
                    0.0552421208777141,
                    0.45433683559829235,
                    0.13778559203992963,
                    0.9028052408130496,
                    -0.6633586982355824,
                    -0.49375375017838313,
                    0.36735135003487984,
                    0.3159233747230139
                  ],
                  "_Bias": 0.8406321187958696
                }
              },
              {
                "app.user_data.Battle_AutoTuningPnParam_NN.Node": {
                  "index": 4,
                  "_Weight": [
                    0.27570909287892276,
                    -0.9084498555047201,
                    -0.418637689647942,
                    0.6373796628667515,
                    0.28539396939722156,
                    0.22867252781225375,
                    -0.03793455969844464,
                    -0.9038210168672369,
                    0.779353548658496,
                    0.6696952970293598,
                    0.3223656394802307,
                    -0.2806552451560888,
                    -0.4524338655438497,
                    -0.45962401935914055,
                    0.6521859837444783,
                    -0.18578274300049086,
                    0.39193059371422817,
                    -0.7616678455987511,
                    -0.8799599444946877,
                    0.8448952069766632,
                    0.675467045169171,
                    0.37240573398875726,
                    0.824470744692386,
                    -0.7029430622159183,
                    0.09795429616692913,
                    0.8458008610025264,
                    0.09960794918119248,
                    0.8779740679951785,
                    -0.70426807101437
                  ],
                  "_Bias": -0.4251872891390968
                }
              },
              {
                "app.user_data.Battle_AutoTuningPnParam_NN.Node": {
                  "index": 5,
                  "_Weight": [
                    0.06089234130522904,
                    0.4105676955279276,
                    -0.25729267285651036,
                    -0.20628627138009403,
                    -0.32611457442063907,
                    0.34279540701661115,
                    -0.5170907738457321,
                    0.3537360120596319,
                    0.04772574739815991,
                    -0.8819141107633837,
                    -0.8499477816719168,
                    0.6758884547987358,
                    -0.7024853726863476,
                    -0.5572449418058154,
                    -0.35034897758642375,
                    0.41237255083409563,
                    -0.08828233201167045,
                    0.3730462923925867,
                    -0.7084701460075037,
                    -0.6771743610656785,
                    -1.0359180178959158,
                    -0.5210901012258803,
                    -0.16770315718232537,
                    -0.40132719072768863,
                    0.5982227500008772,
                    -0.36711164954935266,
                    -0.3746174828952192,
                    -0.17968019532012894,
                    -0.1446289757812629
                  ],
                  "_Bias": -0.1676675283349884
                }
              },
              {
                "app.user_data.Battle_AutoTuningPnParam_NN.Node": {
                  "index": 6,
                  "_Weight": [
                    0.05007959717508653,
                    -0.10214115740895752,
                    0.1526195550364566,
                    -0.5859356063554049,
                    -0.007131150787263844,
                    -0.6971503660020577,
                    -0.9045755367728385,
                    0.07704426455907017,
                    0.8254014405702942,
                    0.5370448301656154,
                    -0.29877938703282486,
                    0.1364947611156834,
                    0.5524772407840121,
                    0.22668530880969262,
                    0.6616283224127497,
                    -0.631330938244905,
                    0.3932786064575829,
                    -0.03491918497648494,
                    0.747700151866293,
                    0.7606598227033107,
                    -0.20452441244155473,
                    0.8608553329897133,
                    -0.01428317940840712,
                    0.5833932464159205,
                    -1.0636765185300114,
                    0.08429170116988453,
                    -0.4622605867187406,
                    0.7949800015041748,
                    -0.9381520692588993
                  ],
                  "_Bias": -0.26583803080253154
                }
              },
              {
                "app.user_data.Battle_AutoTuningPnParam_NN.Node": {
                  "index": 7,
                  "_Weight": [
                    0.7421148423888826,
                    0.4003478073729258,
                    -0.23197873771111338,
                    -0.9301313162446355,
                    0.12468237487818373,
                    0.48311232779253294,
                    -0.2560735584318878,
                    -0.1885361816862264,
                    -0.6341060573267957,
                    0.7842673855236542,
                    0.09484886713853527,
                    -0.6267567240117325,
                    -1.1338285244367976,
                    0.7997520021644328,
                    -0.09863760672531081,
                    0.4734851224802862,
                    -0.42456942807113784,
                    0.23916356407943065,
                    0.5343347761606465,
                    0.9493486340442606,
                    1.0814100834301799,
                    0.7944773444676961,
                    0.1695572338585786,
                    0.5603510995887218,
                    0.467876642263409,
                    0.08601501889296276,
                    0.5790243488481702,
                    -0.10467443875531555,
                    -0.8152768250723886
                  ],
                  "_Bias": -0.11156777569492779
                }
              },
              {
                "app.user_data.Battle_AutoTuningPnParam_NN.Node": {
                  "index": 8,
                  "_Weight": [
                    0.5603483268360809,
                    0.6177772177044307,
                    -0.3568481022512054,
                    0.8512163568677171,
                    -0.4053689757728782,
                    0.7070929330972429,
                    -0.6656804729786886,
                    -0.9683172265220533,
                    0.5373254506606273,
                    0.4616063551121631,
                    -0.965159864934089,
                    0.22061282817459346,
                    -0.40947920620117045,
                    0.003447262783303548,
                    0.7645496823558197,
                    -1.2781313306685178,
                    0.28456899617628095,
                    -0.6875627090030638,
                    0.1446232177589192,
                    -0.6120218914939505,
                    -0.6161442780726463,
                    -0.12451159813749217,
                    0.18092041493079664,
                    -0.9523163387608174,
                    0.5220286821040842,
                    -0.24982504453665677,
                    -0.624523543285792,
                    0.6556400934439801,
                    0.42430257805389343
                  ],
                  "_Bias": 0.8935153269999525
                }
              },
              {
                "app.user_data.Battle_AutoTuningPnParam_NN.Node": {
                  "index": 9,
                  "_Weight": [
                    -0.0887298217755208,
                    -0.20979101465889394,
                    0.4982977451870664,
                    0.41508482208369607,
                    -0.9856069382787488,
                    -0.2520867222911251,
                    0.6795680894124462,
                    -0.36680087710976406,
                    1.1478792001196167,
                    -0.5516297818557286,
                    0.5987724480950184,
                    -0.5008962724379631,
                    -0.8159987003077255,
                    1.0932753571006635,
                    -0.3406128508842543,
                    0.8408582219694751,
                    -0.10340844688248485,
                    -0.09741232538506975,
                    -0.08109050694576526,
                    0.6225368939818974,
                    0.767282431737933,
                    0.3330085919960691,
                    0.2172097323568525,
                    -0.49433008713209065,
                    0.28374581308831887,
                    -0.7010233662428734,
                    -0.2725436008058683,
                    0.3399658523156195,
                    0.08661321122549927
                  ],
                  "_Bias": -0.4598707750229598
                }
              },
              {
                "app.user_data.Battle_AutoTuningPnParam_NN.Node": {
                  "index": 10,
                  "_Weight": [
                    -0.2251535870812286,
                    0.6203633369041808,
                    0.451178768390822,
                    0.4068535395060741,
                    -0.7561947917177683,
                    -0.6911078830132769,
                    -0.2680043529206706,
                    0.5953616269447848,
                    0.69499314691301,
                    0.7969438212310823,
                    -0.7313832938235585,
                    -0.8929612330772778,
                    0.6430051779660305,
                    -0.47598757847553386,
                    -0.5945762993828153,
                    0.5648224665575663,
                    0.6997141723424884,
                    0.0916206500049261,
                    0.30477911487070863,
                    0.9960927263625989,
                    -0.028281632588310256,
                    -0.6756154596804403,
                    0.05155708264173239,
                    0.1512744391372531,
                    0.7687347104176868,
                    -0.25506907623696795,
                    0.6627333211439803,
                    -0.9097144765688524,
                    -0.5890414328655764
                  ],
                  "_Bias": -0.9144347002626705
                }
              },
              {
                "app.user_data.Battle_AutoTuningPnParam_NN.Node": {
                  "index": 11,
                  "_Weight": [
                    0.9803413173718055,
                    0.1929397103969978,
                    0.7172951661045806,
                    0.18094051090737226,
                    0.13385485302343159,
                    0.7302561114980463,
                    0.13516077087715353,
                    0.5936204838450831,
                    -1.4372289645439462,
                    0.612489112333237,
                    -0.7612703236783924,
                    0.7666677697225511,
                    0.44431687308008483,
                    -0.9327808134773993,
                    -0.7392705723615483,
                    0.5506157898275882,
                    0.9072958383680733,
                    0.16123176320556498,
                    0.6811443995353218,
                    0.253029105220814,
                    -0.15567356644541047,
                    0.5521847990650095,
                    -0.4218636592460116,
                    -0.23456739234507887,
                    0.22857803606526464,
                    -0.017765107786532508,
                    1.0121693873465352,
                    -0.6609987571669319,
                    -0.967040624938046
                  ],
                  "_Bias": -1.0121014025679937
                }
              },
              {
                "app.user_data.Battle_AutoTuningPnParam_NN.Node": {
                  "index": 12,
                  "_Weight": [
                    0.16706360505035578,
                    -1.010889805101756,
                    0.27386390910022673,
                    0.45043835862534237,
                    -0.568480720241685,
                    -0.9147593800331303,
                    0.741287922820698,
                    0.9828270125678206,
                    0.7817116404121134,
                    -0.5931282563574608,
                    -0.25858274437154233,
                    0.7944537011252156,
                    0.323493491312099,
                    0.3276612455932078,
                    0.2133067954367731,
                    -0.1597649559302191,
                    -0.3313525568579296,
                    -0.48404778488151223,
                    0.6337037634634337,
                    0.6784867208722066,
                    0.33084389342847736,
                    0.48117965801577023,
                    -0.2786355996870667,
                    0.6788981763135828,
                    0.9546803388096354,
                    -0.6255018597511905,
                    0.44453581047369845,
                    -0.3535816398837275,
                    0.805006667383636
                  ],
                  "_Bias": -0.18924796705986788
                }
              },
              {
                "app.user_data.Battle_AutoTuningPnParam_NN.Node": {
                  "index": 13,
                  "_Weight": [
                    0.8687634543143041,
                    -0.722318804994462,
                    -0.39399639642451667,
                    -0.12275758834726527,
                    -0.009201713835385478,
                    0.5439540438280043,
                    -0.4342577332544952,
                    -0.6144737361442477,
                    -0.4687116187826929,
                    -0.45685859832239106,
                    -0.40077001701288556,
                    0.7317403916281615,
                    1.0111744003890395,
                    1.0942557487737536,
                    -0.18164969124505279,
                    0.24480792598516266,
                    -0.5282846922807484,
                    0.3286895949994953,
                    0.4273137135696798,
                    -0.2999803528695394,
                    0.7092667489920597,
                    -0.9238606507555228,
                    0.36049764204898416,
                    -0.018116825938206006,
                    0.930091600455295,
                    0.5828998902298848,
                    0.41767067886104065,
                    -0.1503470457839873,
                    -0.25212714017415006
                  ],
                  "_Bias": 0.6673510297990546
                }
              },
              {
                "app.user_data.Battle_AutoTuningPnParam_NN.Node": {
                  "index": 14,
                  "_Weight": [
                    -0.4091099456748373,
                    0.7972901985471058,
                    -1.2695663407246038,
                    0.4758757289786869,
                    -0.10053822793565372,
                    0.12682030691480892,
                    -0.8902221776893087,
                    0.4326914295855605,
                    0.9637854137216024,
                    -0.4146017273006111,
                    -0.5934812479531891,
                    0.6832190149113807,
                    -0.6937206951501993,
                    1.0571404411398702,
                    0.8008757544977967,
                    -0.8626910200508984,
                    -0.7411621085914563,
                    0.27750027198087474,
                    -0.5023022094719373,
                    0.28034613614670173,
                    -0.199136334194374,
                    -0.22674416977544395,
                    1.0432865012231485,
                    0.49257388117389933,
                    -0.6358421571226183,
                    0.5429971116423897,
                    0.613260911216633,
                    -0.5309124031175219,
                    -0.1390117251725841
                  ],
                  "_Bias": -0.5698167570377344
                }
              },
              {
                "app.user_data.Battle_AutoTuningPnParam_NN.Node": {
                  "index": 15,
                  "_Weight": [
                    0.5005709317331155,
                    1.028353941543773,
                    0.7426127966070001,
                    -0.672060534139822,
                    0.7415824989121192,
                    -0.8109281489812368,
                    -0.4421051908742025,
                    -0.8893278001077323,
                    -0.047353455307203654,
                    -0.0176577009414818,
                    -0.0532959486423588,
                    0.927268731310456,
                    -0.1280660735187179,
                    0.16990802559397442,
                    0.4238808821103135,
                    -0.16218610795290828,
                    0.6327480815244295,
                    0.2546842518082261,
                    -0.9390963119203103,
                    -0.013531848955439671,
                    0.4669354819544439,
                    -0.3200778687995891,
                    0.2439983219137498,
                    0.6286584851861385,
                    -0.3149629268279317,
                    0.8213783611702455,
                    -0.7916787032501772,
                    0.6684998841072581,
                    -0.1558223741244391
                  ],
                  "_Bias": -0.1409508481939147
                }
              },
              {
                "app.user_data.Battle_AutoTuningPnParam_NN.Node": {
                  "index": 16,
                  "_Weight": [
                    0.890401436806552,
                    -0.08280594355125895,
                    0.08093458210112725,
                    0.12930992902327335,
                    -1.1821367218236827,
                    -0.9159931541277478,
                    -0.19538856525658044,
                    -0.027253127935319768,
                    -1.0578564902829986,
                    0.6429008107720793,
                    -0.0820588960131406,
                    -0.1043895480143356,
                    -0.04676903946295403,
                    -0.7900059068501211,
                    1.1389520893625407,
                    0.9457984721274573,
                    0.3943607787426032,
                    0.32240097693970743,
                    0.612966369483328,
                    -0.7534500665570639,
                    -0.5093452479754333,
                    0.08593764002382913,
                    -0.49985978598556313,
                    0.054833849523328225,
                    -0.05439305879483148,
                    0.18185380315680552,
                    0.580910769510491,
                    -0.5809351426765705,
                    -0.9335206698965591
                  ],
                  "_Bias": 0.6033597992331486
                }
              },
              {
                "app.user_data.Battle_AutoTuningPnParam_NN.Node": {
                  "index": 17,
                  "_Weight": [
                    -0.838914298218234,
                    0.04844943514734447,
                    -0.8510682190517888,
                    -0.6998124666027474,
                    -0.5550087123937962,
                    0.4278528094400675,
                    -0.3789312963236981,
                    -0.7896194850167592,
                    -0.41076906094716786,
                    0.05038502941228658,
                    -0.8794365173337427,
                    -0.6767685557324188,
                    1.019856814505802,
                    -0.9874404467681881,
                    -0.6629234706113132,
                    -0.5424700775577451,
                    -1.018665973190065,
                    -0.6930887194315078,
                    0.4982914115520912,
                    0.7507415096588542,
                    0.528685880795756,
                    -0.5298483650163587,
                    -0.36488091309148085,
                    0.08293141424483016,
                    -0.5705034140413738,
                    -0.010994639864640837,
                    -1.0591568196115122,
                    -0.08863982645323694,
                    -0.07346469000880114
                  ],
                  "_Bias": 0.4504443367769165
                }
              },
              {
                "app.user_data.Battle_AutoTuningPnParam_NN.Node": {
                  "index": 18,
                  "_Weight": [
                    -0.6543432012320648,
                    0.5696992896820584,
                    -0.29278971757309324,
                    0.16940020890166538,
                    0.8545608081866605,
                    0.7236126230225038,
                    0.12316459612250602,
                    0.6724104088853594,
                    -0.29787034952065167,
                    0.09437608295477158,
                    -0.17696166548202427,
                    0.32298524848505233,
                    -0.7278900844229307,
                    0.20398623081093611,
                    0.4684639419710806,
                    -0.06994002136879782,
                    -1.0223939287917359,
                    -0.4394997185934998,
                    -0.5247099387790982,
                    -0.09487558875289843,
                    -0.21182785791588868,
                    0.7007687809412656,
                    -0.362532348004693,
                    0.6958802638553807,
                    -0.7955567842276084,
                    -0.9096440774116387,
                    0.9814351891802461,
                    0.9495826766296036,
                    -0.5312824074579244
                  ],
                  "_Bias": -0.409210157783129
                }
              },
              {
                "app.user_data.Battle_AutoTuningPnParam_NN.Node": {
                  "index": 19,
                  "_Weight": [
                    -0.9037962370582622,
                    1.1743068275403008,
                    0.6468337527922519,
                    0.6688096167617392,
                    0.4705612873741696,
                    0.48696571612531403,
                    -0.12081391402499787,
                    0.3168623614682702,
                    -0.36262611172462933,
                    0.4451788229844545,
                    0.04635172175859631,
                    -0.16663259492489807,
                    0.17433683953657414,
                    0.6733870548580949,
                    0.1855085725409266,
                    -0.6940788400863919,
                    -1.1456129632887555,
                    0.45779616489645414,
                    0.4215099743238424,
                    0.8172404563244728,
                    0.1291349231537226,
                    -0.6607533863791399,
                    -0.5506901885621851,
                    0.3547455104864729,
                    0.20191434484172302,
                    1.0613753958473757,
                    0.4058042209994795,
                    -0.929680978444569,
                    -0.7158838250563955
                  ],
                  "_Bias": 0.11569855997415496
                }
              },
              {
                "app.user_data.Battle_AutoTuningPnParam_NN.Node": {
                  "index": 20,
                  "_Weight": [
                    0.7593928130178642,
                    -0.5556346828990664,
                    0.8624115310052531,
                    0.8475621889829402,
                    0.24150002559810563,
                    -0.04440484987556347,
                    -0.7522636252874636,
                    0.5957978118502493,
                    -0.08310452891861354,
                    -0.6023463381748798,
                    0.09165313070256384,
                    -0.7394101656385993,
                    -0.025977051171499985,
                    0.3500093274406758,
                    1.096953506608824,
                    -1.2890356344204916,
                    0.4166089343199874,
                    -1.243143251795962,
                    0.8521450483429268,
                    0.2528422728787067,
                    -0.9195926653313906,
                    -0.8004483299601258,
                    -1.1184251499270794,
                    0.01844658377306719,
                    0.2649305416269385,
                    -0.8413721894414826,
                    -0.2126141826110323,
                    0.49436875832361954,
                    -0.45205297952924234
                  ],
                  "_Bias": -0.4789979287330525
                }
              },
              {
                "app.user_data.Battle_AutoTuningPnParam_NN.Node": {
                  "index": 21,
                  "_Weight": [
                    -0.9450454211799878,
                    -0.7977829260743919,
                    0.6859239949405381,
                    0.3497052881684915,
                    0.3794326918491626,
                    0.5322625719039608,
                    0.7253172240209254,
                    -0.6694346790094947,
                    -0.7771428776065098,
                    -1.3002322225490648,
                    -0.2119982042655007,
                    -0.2617982939283437,
                    -0.33277766214536064,
                    1.1734724505248566,
                    -0.46931488606243976,
                    0.4639872067586913,
                    0.059396688336870986,
                    0.45558599117018267,
                    0.6771869408361484,
                    0.17409331057076502,
                    -1.1504330931145246,
                    0.4295678203170282,
                    -0.5914832999839533,
                    0.32247726559596257,
                    -0.2485315044653891,
                    0.4617338913814827,
                    -0.6378042165733117,
                    -0.36691702624820094,
                    0.4611128859562501
                  ],
                  "_Bias": 0.7450211574703132
                }
              },
              {
                "app.user_data.Battle_AutoTuningPnParam_NN.Node": {
                  "index": 22,
                  "_Weight": [
                    0.03711232828082132,
                    0.03862330400454754,
                    0.502765242625797,
                    0.543131459396657,
                    0.8351679859288832,
                    0.4919161892468476,
                    0.24235645498803776,
                    0.3687519070749704,
                    1.284248866945232,
                    0.7811003857846545,
                    -0.15688014999299243,
                    -0.5677858401097987,
                    -0.4568815994175172,
                    1.0599902499476832,
                    0.4047564483969788,
                    0.366473377607271,
                    -0.15140563067954227,
                    -0.26344269572202533,
                    0.3405184800444037,
                    -0.2332268069483587,
                    0.8364170273138627,
                    0.14932924156299723,
                    -0.7614315559484477,
                    0.5075034996185777,
                    0.8648358659580088,
                    0.6658409538692273,
                    -0.5588394089256704,
                    -0.014278927573922122,
                    0.017333992861733462
                  ],
                  "_Bias": -0.4867383225659266
                }
              },
              {
                "app.user_data.Battle_AutoTuningPnParam_NN.Node": {
                  "index": 23,
                  "_Weight": [
                    -0.005345897292045829,
                    -0.7525693898453489,
                    0.7359367178550963,
                    0.9050310206318937,
                    -0.5496811220149402,
                    -0.7888629476025202,
                    -0.43762511122347797,
                    -0.41251971496885315,
                    0.6300917418023884,
                    -0.6811860784109467,
                    0.720251477128565,
                    0.6747772182855982,
                    0.30301816717226226,
                    -0.6885818434253688,
                    0.03930152285397006,
                    0.6836931683864529,
                    0.660188996984012,
                    -0.7410541861866258,
                    -0.8944352480308826,
                    0.7745011949632324,
                    -0.4257923300149404,
                    -0.5982860744865334,
                    0.6503592447426783,
                    -0.6189152617504392,
                    0.526233774112176,
                    -0.9220936069820552,
                    -0.5813609006610333,
                    -0.7963537551313247,
                    0.4918004082825507
                  ],
                  "_Bias": -0.5107619216894176
                }
              },
              {
                "app.user_data.Battle_AutoTuningPnParam_NN.Node": {
                  "index": 24,
                  "_Weight": [
                    -0.17477764878127097,
                    -0.7252175178932755,
                    1.0515073788326392,
                    1.0085285037205818,
                    -1.0467986727912035,
                    0.5988656862201873,
                    -0.49942433165004735,
                    0.42021034599888935,
                    0.3643298138977522,
                    0.046698228687045186,
                    0.7514892341133722,
                    -0.3038136241101356,
                    -1.0756500017094743,
                    -1.3553524542890127,
                    0.9202050040046851,
                    0.5499656121061282,
                    -0.4447028883116896,
                    -0.6981559189000663,
                    0.7630051018083315,
                    0.2455781941647698,
                    -0.17012077978587478,
                    -0.32864460960337294,
                    0.4775966640443703,
                    -0.5388782244162635,
                    -0.5836504574619894,
                    -0.6464675339750661,
                    0.6400983730823611,
                    0.9875015076036385,
                    0.6926236277980145
                  ],
                  "_Bias": -0.027736478589857384
                }
              },
              {
                "app.user_data.Battle_AutoTuningPnParam_NN.Node": {
                  "index": 25,
                  "_Weight": [
                    0.5412139419936322,
                    0.03585858925911897,
                    0.015622974095460642,
                    0.13962128491960282,
                    0.2977977968712802,
                    0.6786304664351068,
                    -0.48940461888125614,
                    0.302332882064683,
                    0.47793820403652965,
                    -0.17688402234326467,
                    -0.7528162788922442,
                    -0.8053875642566819,
                    -0.856592548775534,
                    -1.0401170083878761,
                    -0.10052649598325623,
                    -1.0722726117726933,
                    -0.24918238117976213,
                    1.2909653543509754,
                    0.36117312068178736,
                    -1.0554106188175751,
                    0.025138906859604914,
                    0.1119494801476914,
                    0.7192591536412358,
                    0.678487251982624,
                    0.2616923915487688,
                    -0.9023050646519729,
                    -0.7437073140483946,
                    0.8124540571353577,
                    -0.40751911998739676
                  ],
                  "_Bias": -0.047974020433424205
                }
              },
              {
                "app.user_data.Battle_AutoTuningPnParam_NN.Node": {
                  "index": 26,
                  "_Weight": [
                    -1.0411541147575816,
                    0.5352430280054888,
                    0.6381204395119069,
                    0.5751691709262081,
                    -0.7058713607284341,
                    0.11324518684196262,
                    -0.26123109509428516,
                    -0.8669429856993086,
                    0.49466697523336206,
                    -0.30699635334052955,
                    0.5698782242498172,
                    0.040454700148238265,
                    0.6843865081516673,
                    -1.1921997937228497,
                    0.6658705570932382,
                    0.5837187786287733,
                    -0.8698674335636383,
                    0.07480095658881761,
                    -0.6004546531926992,
                    -0.30129683050391043,
                    -0.5487443202634494,
                    -0.6714966399400428,
                    -0.4867209108885219,
                    0.08506214841067655,
                    -0.11522784336238043,
                    0.045121305759973945,
                    0.4326935460492167,
                    0.2338147872546183,
                    0.3569684526446192
                  ],
                  "_Bias": 0.901781343481797
                }
              },
              {
                "app.user_data.Battle_AutoTuningPnParam_NN.Node": {
                  "index": 27,
                  "_Weight": [
                    -0.8692094372445427,
                    0.3262878242383407,
                    -0.010374953822425613,
                    -0.7192890009226767,
                    -0.48021242025230254,
                    -0.5178063085673411,
                    -0.2971926030099441,
                    -0.4219643370409502,
                    -1.029101912629728,
                    0.47877179731212266,
                    -0.22619352405998375,
                    0.34628782225812976,
                    -0.3848528005817963,
                    -0.4869143816176615,
                    -1.0744167914671792,
                    -0.8147580283057205,
                    0.612290441273134,
                    -0.14871446332326596,
                    -0.3776029744432551,
                    -0.7483498500726625,
                    -0.4771133482173596,
                    0.5591805351601853,
                    -0.01621435337734566,
                    0.8593926654690813,
                    0.05313236083812274,
                    -0.6289330182355023,
                    0.8546244192129482,
                    0.1883902669581729,
                    -0.3607814715430358
                  ],
                  "_Bias": -0.687229641927735
                }
              },
              {
                "app.user_data.Battle_AutoTuningPnParam_NN.Node": {
                  "index": 28,
                  "_Weight": [
                    0.46149076919687415,
                    0.2849314530484151,
                    -0.4833421505741365,
                    -0.7336942021033623,
                    -0.13753092807152212,
                    0.2344599391531146,
                    -0.523428336525115,
                    0.787812974777851,
                    1.1122003825718407,
                    -0.17452960448413668,
                    0.21814492153691092,
                    0.5549515611528406,
                    0.8470246263541975,
                    0.8156198484902819,
                    -0.3964344593088694,
                    -0.20879976462812225,
                    0.74463859502387,
                    -0.7522581800604516,
                    -0.32948923203849645,
                    -0.18067072111800772,
                    0.7395483486807464,
                    0.6643376041764137,
                    0.2455921389568402,
                    0.16603822547308095,
                    -0.8561070348993156,
                    -0.2840549295589462,
                    0.40159770169985876,
                    0.8914580778623536,
                    -0.02810731902348216
                  ],
                  "_Bias": 1.0601818295208225
                }
              },
              {
                "app.user_data.Battle_AutoTuningPnParam_NN.Node": {
                  "index": 29,
                  "_Weight": [
                    0.1665913365263119,
                    -0.8335599357308159,
                    -0.8065500205112283,
                    0.716261207186254,
                    -0.5328633398566232,
                    -0.06902530538164577,
                    -0.8712602743188722,
                    0.8656668353550411,
                    0.32364317156874295,
                    0.6706614391626542,
                    0.7568753717290024,
                    -0.3446792921269854,
                    0.6337724481694931,
                    1.0914661567599517,
                    0.1603205997831585,
                    -0.48736620533768094,
                    -0.4680327008738007,
                    -0.7870021439553687,
                    0.3156979126999087,
                    0.7677898697423351,
                    0.5523669969406022,
                    -0.8229611691655836,
                    -0.6436235843565632,
                    -0.07760995963536824,
                    0.06409913224107872,
                    1.0468430944540625,
                    -0.4446007553412701,
                    0.8263672019498982,
                    0.858593889560554
                  ],
                  "_Bias": -0.06341204961054961
                }
              },
              {
                "app.user_data.Battle_AutoTuningPnParam_NN.Node": {
                  "index": 30,
                  "_Weight": [
                    -0.5220443770182146,
                    -0.4677275821530389,
                    -0.49839813334281813,
                    0.07777793013375177,
                    0.4389630202906695,
                    0.22467372596575666,
                    0.6967219608023185,
                    0.12056412948800668,
                    -0.4301953802813157,
                    0.3587375562993364,
                    -0.027069189022060475,
                    0.6298949502098768,
                    0.8006837827651921,
                    -0.8470449726889362,
                    0.07198934532536824,
                    0.9325377101577681,
                    0.38189283611122843,
                    0.724236883510248,
                    -0.24325534283253666,
                    -0.9983094149965838,
                    -0.7821947142440419,
                    0.9140792282947157,
                    0.8950496762131954,
                    -0.3769105590539796,
                    0.6878968771450144,
                    0.9574035300743375,
                    0.6472949300229235,
                    -0.5194117454181849,
                    1.0329352590375878
                  ],
                  "_Bias": 0.6439587403513083
                }
              },
              {
                "app.user_data.Battle_AutoTuningPnParam_NN.Node": {
                  "index": 31,
                  "_Weight": [
                    -0.21610211313722819,
                    0.4820024124629192,
                    -0.15301282145609407,
                    -0.8176368225120789,
                    0.06145754465751023,
                    -0.5944442694414891,
                    0.205453150381158,
                    -0.21988103807427983,
                    -0.36189985327189783,
                    -1.1318498399244903,
                    -0.5705926727353825,
                    -0.8297221264465089,
                    0.4801887890792971,
                    0.1792274334448409,
                    -0.4134093719011802,
                    -0.912775703028087,
                    0.5262423033635222,
                    -0.8023709970080799,
                    1.0159371063938523,
                    0.24194794864872604,
                    -0.4368627578344506,
                    0.4336341389331379,
                    -0.30177247971020116,
                    -0.15605530933555983,
                    -0.6868451502860419,
                    -0.8679369694208718,
                    -0.18845275592114186,
                    -0.3563923824878532,
                    -0.36512978297935955
                  ],
                  "_Bias": -0.6554981941032852
                }
              },
              {
                "app.user_data.Battle_AutoTuningPnParam_NN.Node": {
                  "index": 32,
                  "_Weight": [
                    -0.7630327554278367,
                    0.3987318402807353,
                    0.25086600118868063,
                    0.049411473454027875,
                    -0.7364891716927042,
                    -0.7783171648248998,
                    -0.11844641857724941,
                    0.8228837256442121,
                    0.3735195840982823,
                    -0.16749956942246444,
                    0.8730048487496531,
                    -0.7649332166685274,
                    0.1369563312267904,
                    0.9776472932421717,
                    -0.1955519461729953,
                    -0.047236545056555716,
                    0.780595644665021,
                    -1.0559878361263197,
                    0.2897400809163672,
                    -0.7866338557696542,
                    0.011510454693846154,
                    0.9497393805182638,
                    -0.5711462436471383,
                    0.39027001074814877,
                    0.8094714248028935,
                    0.5232365204240506,
                    0.629705212910479,
                    -0.7866921006228975,
                    0.4544247443779533
                  ],
                  "_Bias": -1.1876197945028963
                }
              },
              {
                "app.user_data.Battle_AutoTuningPnParam_NN.Node": {
                  "index": 33,
                  "_Weight": [
                    -0.41274678218790123,
                    -1.6909580342545754,
                    -0.06762716167911617,
                    -0.17374634405392103,
                    0.4530310738454162,
                    -0.5319274831805385,
                    0.6536642971452342,
                    -0.4589794047362725,
                    0.6429726293709243,
                    0.5748192313452707,
                    0.18304176796254562,
                    -0.10547919098346184,
                    -0.5736751551642282,
                    0.691024607852854,
                    -0.9102481762042641,
                    -0.2544354269937296,
                    -0.01342359929105487,
                    -0.47746107666601456,
                    0.8694650342546139,
                    0.06174714169219321,
                    -0.28110687368408027,
                    -0.1945753041991665,
                    -0.011953510579334664,
                    0.007160831148088947,
                    -0.20577283574482713,
                    -0.6554799343044301,
                    -0.8493068331353107,
                    0.15897858513937987,
                    -0.4316835998773991
                  ],
                  "_Bias": -0.15156276776596445
                }
              },
              {
                "app.user_data.Battle_AutoTuningPnParam_NN.Node": {
                  "index": 34,
                  "_Weight": [
                    -0.5092838850891603,
                    0.0457180029484476,
                    0.7083381924735168,
                    -0.4695294974933166,
                    -0.6278802014367342,
                    -1.3659783242672776,
                    -0.7766144007962951,
                    0.4769988116739488,
                    -0.4962409196851071,
                    0.49182296673392,
                    0.5063342619964397,
                    -0.41973414378810925,
                    0.5472977842083898,
                    0.9154534376389462,
                    0.8364383652087742,
                    -0.992602929485909,
                    -0.7841870646710073,
                    -0.7891267606107315,
                    -0.6696012447659456,
                    -0.14741758816620126,
                    -0.6939949042573222,
                    -0.3572826177533652,
                    -0.20359333933476587,
                    -0.867427836534098,
                    -0.8778773052044249,
                    -0.3572649304459395,
                    -0.23177506655504693,
                    -0.8411482980719646,
                    0.844140396683636
                  ],
                  "_Bias": 0.13094053333062527
                }
              },
              {
                "app.user_data.Battle_AutoTuningPnParam_NN.Node": {
                  "index": 35,
                  "_Weight": [
                    0.3470269731002707,
                    1.0599115589697472,
                    -0.8723209203722074,
                    -0.6109573478589949,
                    0.4952824429626958,
                    -0.20070961257114228,
                    -0.7967188381325849,
                    -0.551120549773478,
                    -0.49012885949985463,
                    -0.3964933904959298,
                    -0.7192657828594984,
                    0.45389449469278853,
                    -0.3026617388129853,
                    0.31666219871714485,
                    -0.5229609913935567,
                    0.39873768254447495,
                    0.7536129601457973,
                    0.5944566120961093,
                    -0.7005214712373705,
                    -0.4931041728708149,
                    0.8617618483340627,
                    -0.8616800549500258,
                    0.5835115262288277,
                    -0.8120231476290085,
                    -0.13271752003955384,
                    -0.1423799646010304,
                    -0.246023753631376,
                    0.6619919042296092,
                    -0.17026685890036922
                  ],
                  "_Bias": 0.7362627881729716
                }
              },
              {
                "app.user_data.Battle_AutoTuningPnParam_NN.Node": {
                  "index": 36,
                  "_Weight": [
                    0.2523920471752496,
                    0.6493795613190815,
                    -0.3731881070023298,
                    -0.08681516318940538,
                    0.35775367808471276,
                    -0.19035917397908148,
                    -0.6215102546741857,
                    -0.33374024045702,
                    -1.4307703286259286,
                    1.236928594461764,
                    -0.5873283614280042,
                    0.5879304770775478,
                    -0.1615304579238228,
                    -0.40143595709877844,
                    -0.32357304883319954,
                    0.6841281047084451,
                    0.34469241144879287,
                    0.7443576663789534,
                    0.10877359608614147,
                    0.6545200724946545,
                    0.1726397968668939,
                    0.5657312050510032,
                    -0.7565486373051277,
                    0.4608247811900861,
                    0.15399740897351083,
                    0.5766593929150043,
                    -0.5610218178169581,
                    -0.7165817728386253,
                    0.6552299815226131
                  ],
                  "_Bias": -0.43524383416664686
                }
              },
              {
                "app.user_data.Battle_AutoTuningPnParam_NN.Node": {
                  "index": 37,
                  "_Weight": [
                    0.8864585470874184,
                    0.17562329622354075,
                    -0.45297654399340054,
                    0.35918535023791015,
                    0.6134621844766288,
                    -0.7057509783536222,
                    0.35205291416541795,
                    -0.9101086257427123,
                    0.8715955375188486,
                    -0.08781209803343532,
                    -0.8253408646938052,
                    -1.0166686152566853,
                    0.5382134310943036,
                    -0.48400309755211635,
                    -1.2913481433463692,
                    0.19720850772121173,
                    0.17443570863467825,
                    0.9484177772025949,
                    -0.11261155955245843,
                    0.8553112214177376,
                    -0.9586786699688753,
                    -0.8482442560824522,
                    -0.3318721896136185,
                    -0.20940508025694898,
                    0.9391065997965861,
                    0.6898399897133514,
                    0.6871297871043499,
                    0.6868050807638378,
                    -0.29831959769772637
                  ],
                  "_Bias": -0.3156499022410402
                }
              },
              {
                "app.user_data.Battle_AutoTuningPnParam_NN.Node": {
                  "index": 38,
                  "_Weight": [
                    0.45882115011557956,
                    -1.6627745315102551,
                    -0.09833204164466018,
                    0.7942857191777041,
                    0.9793910396650015,
                    -0.03883692061497908,
                    -0.6732279375675555,
                    -0.5274318888013018,
                    0.023989494534684994,
                    -0.3789964148739693,
                    -0.6978022652177115,
                    -0.333553219465995,
                    0.7785929437419314,
                    -0.6024995012995166,
                    -0.5727523065291998,
                    -1.0372678949683274,
                    -0.47122810067640414,
                    0.9152650384240024,
                    -0.06766249069548265,
                    0.6348963979028123,
                    0.10639016476038937,
                    0.5853730389900046,
                    0.7433310303268059,
                    -0.744820333512971,
                    -0.42694304774066877,
                    -0.5047710157536237,
                    0.4231120996842318,
                    0.6284040679300188,
                    -1.0260113762379364
                  ],
                  "_Bias": -0.428412358104704
                }
              },
              {
                "app.user_data.Battle_AutoTuningPnParam_NN.Node": {
                  "index": 39,
                  "_Weight": [
                    1.3031625390423223,
                    -0.8187198630542498,
                    0.49928186535906555,
                    -0.06979384876422308,
                    -0.7171890552538187,
                    0.31491729840087895,
                    -0.460985436764567,
                    -0.6062045673899897,
                    0.30303265799224965,
                    0.6833312939060462,
                    0.6242842736136649,
                    1.244269821716375,
                    0.45332363725498276,
                    -0.9740488932798785,
                    -0.2920207388777015,
                    0.2049858619176693,
                    0.42734182618786437,
                    -0.12042023947712349,
                    1.1457454621378589,
                    -0.24411571507743046,
                    0.028027838749162093,
                    -0.029308978480345367,
                    -0.04539101257315818,
                    0.9619083630055565,
                    0.08797218457138188,
                    -0.951276962054238,
                    -0.8621189587933263,
                    -0.3971822177025558,
                    -0.21329258662364986
                  ],
                  "_Bias": 0.9238834986916707
                }
              },
              {
                "app.user_data.Battle_AutoTuningPnParam_NN.Node": {
                  "index": 40,
                  "_Weight": [
                    -0.27576249222438703,
                    -0.5709442097466433,
                    0.01740898676831862,
                    0.8925325898606347,
                    0.10430780943264088,
                    -0.5276549252164161,
                    -0.341727841938882,
                    1.146111077688791,
                    0.4593231499029988,
                    0.976061099836212,
                    -0.8692845514222013,
                    -0.9071927385026801,
                    -0.5976138012917176,
                    0.03135113600212665,
                    -0.062482992160565125,
                    0.11530179356137901,
                    0.21591931505693499,
                    -0.5847315889890234,
                    -0.28929344790006883,
                    0.22265692566574202,
                    0.08862240523267335,
                    -0.394070329047736,
                    0.1918612537477064,
                    0.07590201392108367,
                    -0.4197015209372807,
                    0.666896295457043,
                    -0.8154374284438686,
                    0.04610851593079952,
                    -0.39480846468215597
                  ],
                  "_Bias": 0.3984998201096468
                }
              },
              {
                "app.user_data.Battle_AutoTuningPnParam_NN.Node": {
                  "index": 41,
                  "_Weight": [
                    0.7399663801874861,
                    0.21519363132065714,
                    -0.7626198653891032,
                    -0.945336589484651,
                    -0.5409605052190455,
                    0.10289317228818912,
                    -0.765195730386921,
                    0.701480500432295,
                    -1.0351440514219354,
                    -0.5554632340885877,
                    0.27127476477262114,
                    1.101378317638072,
                    1.2178421607627152,
                    0.16893762279814,
                    1.4029882282789785,
                    0.9846039998293997,
                    -0.4136907404463869,
                    -1.035339302451058,
                    0.47491921224331557,
                    -0.32180697425130816,
                    0.45491675509628476,
                    -0.3947912466763125,
                    0.4296877750331546,
                    -0.9330428385889249,
                    0.12851747557307897,
                    0.9188157275294324,
                    0.027444407885565396,
                    0.1728679014805157,
                    -0.2545384610602502
                  ],
                  "_Bias": -0.7599398215629624
                }
              },
              {
                "app.user_data.Battle_AutoTuningPnParam_NN.Node": {
                  "index": 42,
                  "_Weight": [
                    -1.1070413100039187,
                    -0.21067639001710933,
                    -0.935265542880674,
                    -0.754725707991397,
                    -0.6160396565761753,
                    -0.26006598210914894,
                    -0.81888354516419,
                    -0.07236589158733751,
                    0.7049148774560314,
                    -0.36472996808434915,
                    -0.6283002523146863,
                    -0.8246705110839421,
                    -0.7760546051840372,
                    0.4399237137659994,
                    0.6027423531222902,
                    -0.7920342161670515,
                    1.233760083379042,
                    0.28740444930142983,
                    -0.31487100487151504,
                    0.7105235101030362,
                    0.26049998410262853,
                    1.1449075020908441,
                    -0.7163561197934765,
                    -1.0085532652112696,
                    0.02936945373339462,
                    0.5305270697935878,
                    -0.2666538085337047,
                    0.9398832125616724,
                    0.14695313881676236
                  ],
                  "_Bias": -0.5195538949522478
                }
              },
              {
                "app.user_data.Battle_AutoTuningPnParam_NN.Node": {
                  "index": 43,
                  "_Weight": [
                    0.523883010373568,
                    -0.5937214210353958,
                    -0.12824912962436869,
                    -1.1437703361282174,
                    -0.2759986006491823,
                    -0.2551412744188073,
                    -0.7914086551823447,
                    -1.1438601181079406,
                    -0.008920389590590067,
                    0.11116130132212028,
                    -1.0671992851121817,
                    0.6645141082035464,
                    0.6906473239357289,
                    -0.2875348865761049,
                    1.165889051961198,
                    -0.6319047928004117,
                    -0.7748114069445599,
                    -0.6229091164121865,
                    -0.16341667762735645,
                    0.25959145257385496,
                    0.7100018658451022,
                    0.16468431323484867,
                    -0.7003047852331452,
                    -0.1804892223761452,
                    -0.5558120553468868,
                    0.730081869970487,
                    0.18893752950059214,
                    -0.6428687369539713,
                    -0.7273730301206252
                  ],
                  "_Bias": -0.7444997317864779
                }
              },
              {
                "app.user_data.Battle_AutoTuningPnParam_NN.Node": {
                  "index": 44,
                  "_Weight": [
                    -0.9391325026135086,
                    0.707757232924525,
                    -0.7693500897990591,
                    0.38319578272908406,
                    0.20908480505895857,
                    -0.16991957192249454,
                    0.8628338960490549,
                    -0.28673442004742555,
                    -0.14230016179778188,
                    0.043645816408683064,
                    0.5552845800745759,
                    0.5874632973626492,
                    -0.5205168669239689,
                    0.5208871833837915,
                    0.16848095248350275,
                    0.773725327099376,
                    -1.2935663601444456,
                    -0.31930138093261656,
                    0.9521544328565514,
                    0.15607621315787726,
                    -0.31183148540702327,
                    -0.19856747408889752,
                    -0.4006097511549608,
                    -1.095312471472349,
                    -0.19486599813947175,
                    0.9104196949302747,
                    0.21910209159151806,
                    -0.30843273881267713,
                    0.868835796876585
                  ],
                  "_Bias": -0.35103362130786675
                }
              },
              {
                "app.user_data.Battle_AutoTuningPnParam_NN.Node": {
                  "index": 45,
                  "_Weight": [
                    -0.16040296173915367,
                    -0.5037433257861191,
                    -0.08840686886774012,
                    0.8257039044164137,
                    0.7985610470150027,
                    -0.7785340519358065,
                    -0.892905909493307,
                    0.5626487359707316,
                    0.3065044921589785,
                    0.5150615146171192,
                    0.35133116607649845,
                    0.9807362418846075,
                    0.24453415101928427,
                    1.0640990534254027,
                    0.22352929566366403,
                    -0.6370448002044073,
                    0.5575499417718144,
                    -0.09865222586571813,
                    0.11646992298011488,
                    -1.1273193252830511,
                    -0.7875856871615858,
                    0.12126668350092126,
                    -1.0988995902586982,
                    -0.2411326850580631,
                    0.05411866307993242,
                    0.9436126953027195,
                    0.051085120306608,
                    0.35409508276294627,
                    0.19318824199239137
                  ],
                  "_Bias": -0.8231779350534318
                }
              },
              {
                "app.user_data.Battle_AutoTuningPnParam_NN.Node": {
                  "index": 46,
                  "_Weight": [
                    -0.060419920985047525,
                    0.413526249784176,
                    0.9012472791451679,
                    -0.3245003813158801,
                    0.04875577095702686,
                    1.0964793405785684,
                    0.44336973626992954,
                    0.8942503513067454,
                    -0.9336242101568978,
                    -0.4766033846894047,
                    0.25821364487944587,
                    -0.6805121675290335,
                    1.450909361060398,
                    -0.029429047414005205,
                    0.516208079889887,
                    0.5175027706925746,
                    -0.2679398061665423,
                    1.2609961910106051,
                    0.09115831655024915,
                    0.5507740271837154,
                    0.1446852075783928,
                    -0.24724302895511188,
                    -0.21586579831383132,
                    0.16986946763127178,
                    0.6060654744490878,
                    -0.5368232852048933,
                    -0.026475358421150244,
                    -0.27585264286535227,
                    0.31379343106473556
                  ],
                  "_Bias": 0.8139218371910556
                }
              },
              {
                "app.user_data.Battle_AutoTuningPnParam_NN.Node": {
                  "index": 47,
                  "_Weight": [
                    -0.9891073915235982,
                    0.538165812287366,
                    -0.20937119876941068,
                    -0.831072951071556,
                    0.2111578213999243,
                    -0.7424989274134732,
                    -0.22252112651711936,
                    0.7236254340051663,
                    -0.6924944678292559,
                    0.4436325528102598,
                    0.13027547425514338,
                    -0.1881409392350785,
                    -1.2537487653457897,
                    -0.23715556795757922,
                    -0.054274860221784606,
                    0.0628596520194784,
                    0.6033922882312192,
                    0.7846547203715819,
                    0.3806406658296663,
                    0.5678365184287607,
                    -0.5676177837830164,
                    0.7382952079835959,
                    0.40377159426148446,
                    -0.3463427338353521,
                    -0.010048466435295784,
                    0.20392145813869347,
                    -0.7266642922843701,
                    -0.154408238160542,
                    0.2682308536967082
                  ],
                  "_Bias": 0.1794154092148081
                }
              },
              {
                "app.user_data.Battle_AutoTuningPnParam_NN.Node": {
                  "index": 48,
                  "_Weight": [
                    -1.1173146161977914,
                    0.5221632000528227,
                    0.09166004681161267,
                    -0.8875079880235531,
                    1.1214679934991816,
                    0.7080298601890332,
                    -0.36415351815508773,
                    -0.3587170789480524,
                    -0.08406965900958313,
                    -0.9473216596405574,
                    0.5236650959736545,
                    -0.14258732779636132,
                    -0.23139890256737355,
                    -0.7965002389326844,
                    1.0083284671511918,
                    0.9737104713527766,
                    -0.7761356726034105,
                    -0.5358301303224515,
                    0.05815640936022404,
                    -0.25766606698564987,
                    -0.6170057885194807,
                    0.46221955104261897,
                    0.3502554833152847,
                    0.6586240124433012,
                    0.810875627375835,
                    -0.7781581654292763,
                    1.0272045248782102,
                    0.22648939768773327,
                    -0.11270583789805405
                  ],
                  "_Bias": -0.36502692822045063
                }
              },
              {
                "app.user_data.Battle_AutoTuningPnParam_NN.Node": {
                  "index": 49,
                  "_Weight": [
                    0.44407624617391955,
                    -0.11882087228643251,
                    -0.4984426096244346,
                    -0.10957098886971994,
                    0.2580914287232745,
                    -0.399505435541227,
                    0.05241346301153427,
                    -0.8071280648114532,
                    -0.354632113545981,
                    -0.8330943903018706,
                    -0.4484575044285149,
                    -0.5443672023062402,
                    0.14507656519520445,
                    0.7183731851960058,
                    -0.408402681256147,
                    -1.0230441522621354,
                    -1.0001270048059916,
                    -0.35315854363130816,
                    0.26196830431040075,
                    -0.8293149940134665,
                    0.5727884092189801,
                    0.3153811459852569,
                    -0.6089651155819318,
                    0.5865143269356866,
                    0.5484493101913158,
                    0.08374074294519093,
                    0.4226715397938553,
                    -0.6636271471690286,
                    0.6218624626009503
                  ],
                  "_Bias": -0.43353792701925503
                }
              },
              {
                "app.user_data.Battle_AutoTuningPnParam_NN.Node": {
                  "index": 50,
                  "_Weight": [
                    -0.22267940315471693,
                    0.21311906936750702,
                    -0.5518345694486166,
                    0.16770540806950054,
                    -0.10005857229023501,
                    -0.563448712898267,
                    -0.16347882844829423,
                    -1.2134982618371226,
                    0.44136605079083685,
                    0.8240629953443893,
                    -0.3547803032119901,
                    0.5362194256018616,
                    0.06767027143488127,
                    -0.4939657146970563,
                    -0.2915341543871638,
                    -0.1360211617559786,
                    0.21970392243186176,
                    0.32342908362105705,
                    -0.2728770799996588,
                    -0.9257935375552082,
                    -0.5566714210191488,
                    -0.4370860279731453,
                    -0.9946205570457045,
                    0.41529151411409904,
                    -0.7083477767918714,
                    -0.81743793723753,
                    0.4563684870398807,
                    0.8484593447200693,
                    1.0069850372111446
                  ],
                  "_Bias": 0.4654392213316414
                }
              },
              {
                "app.user_data.Battle_AutoTuningPnParam_NN.Node": {
                  "index": 51,
                  "_Weight": [
                    -0.025142297535701977,
                    0.15229391708662982,
                    0.22173610505428246,
                    0.7964751235907287,
                    0.6230374879392984,
                    -1.254710502757299,
                    0.06740168787399044,
                    -0.5565736059924408,
                    0.9197241759110599,
                    0.8453903276408593,
                    -0.6442728070847518,
                    0.00306662090685263,
                    -0.4117930464104965,
                    -0.8653408848263822,
                    -0.23768764917825355,
                    -0.5902964989020527,
                    0.7604511546284115,
                    0.8655662042651857,
                    1.107403436250817,
                    0.06803748715903468,
                    0.6449232006363973,
                    0.773680417061402,
                    0.27036008040666465,
                    -0.8914521645640677,
                    0.3724420931795733,
                    -0.20813436394341434,
                    0.8821646828300505,
                    0.6519020550550719,
                    -0.7716500823712176
                  ],
                  "_Bias": -1.008296291615101
                }
              },
              {
                "app.user_data.Battle_AutoTuningPnParam_NN.Node": {
                  "index": 52,
                  "_Weight": [
                    -0.19281073918416305,
                    0.5144805652170531,
                    0.07183937437631101,
                    -0.1746629131368955,
                    0.4678679115486904,
                    0.5664190434313681,
                    -0.6118511700816638,
                    0.17552762418773643,
                    0.2153957560721516,
                    0.6864931684553385,
                    0.5587872717051847,
                    -0.48520204213738005,
                    -0.09185749293242597,
                    -0.7219853507270848,
                    0.6460794792702172,
                    0.5466014809070581,
                    0.44101044402709544,
                    -0.16957131416733945,
                    -0.725595856596138,
                    -0.3908670719598606,
                    -0.8236448509688687,
                    0.18450617495908164,
                    -0.5305047161790248,
                    -0.2548227695237981,
                    -0.05328079663515342,
                    0.27773755619196755,
                    -0.7190428435874837,
                    -0.7898249007357051,
                    0.5753315352013942
                  ],
                  "_Bias": -0.3272275574435291
                }
              },
              {
                "app.user_data.Battle_AutoTuningPnParam_NN.Node": {
                  "index": 53,
                  "_Weight": [
                    0.3555111567660893,
                    -0.25715380881922856,
                    -0.5235792387094955,
                    0.18083548052279705,
                    -0.0007538303317770328,
                    0.353802812230019,
                    0.4385862020071419,
                    -0.9140628430330366,
                    0.2671619312128366,
                    -0.27596393145842674,
                    -0.09951974409926198,
                    0.271967688244186,
                    0.5221986001771675,
                    -0.342456102943332,
                    -0.2896781480061089,
                    -0.9037511515894971,
                    0.3953521642864061,
                    1.0379114440778479,
                    1.0815954932258594,
                    0.4543280396707857,
                    0.0859709849182151,
                    -0.008414896370911328,
                    -0.08986672859384733,
                    0.797420170319269,
                    0.617126917061764,
                    -0.348030525556793,
                    0.20414505690479862,
                    0.7904962603754122,
                    0.37057219568338806
                  ],
                  "_Bias": 0.402630389056015
                }
              },
              {
                "app.user_data.Battle_AutoTuningPnParam_NN.Node": {
                  "index": 54,
                  "_Weight": [
                    -0.35329145780600485,
                    0.5205381891260981,
                    -0.5365931594458296,
                    0.01981734974387722,
                    0.541115287558274,
                    -0.24660621742767483,
                    1.028352977561255,
                    -0.4632527705880974,
                    -0.0871402989939391,
                    0.5201474534493916,
                    0.8202270415920018,
                    -0.3267704779195066,
                    0.7670094482505161,
                    0.11907585897193551,
                    -0.010254982277342846,
                    0.3501599384336864,
                    0.11448019096180802,
                    -0.21424792320780958,
                    -1.1898814328684595,
                    0.18412073088980033,
                    -0.7017459142597958,
                    0.9836011861841336,
                    1.0077387885970672,
                    -0.5738809892487496,
                    0.7636548964663371,
                    -0.8865858835369079,
                    0.9008179369337174,
                    0.8854241964893409,
                    0.2185807406021031
                  ],
                  "_Bias": 0.53707445362756
                }
              },
              {
                "app.user_data.Battle_AutoTuningPnParam_NN.Node": {
                  "index": 55,
                  "_Weight": [
                    0.5704977950172613,
                    -0.9614905115499328,
                    -0.6241910310040588,
                    -0.4347909319483299,
                    0.25360587371815846,
                    0.5420439579739036,
                    -0.3692265638922526,
                    0.01296666981144472,
                    0.7279022733744788,
                    1.4705647107118027,
                    -0.49675369713386325,
                    -0.186719291110891,
                    -0.18269033998766637,
                    -0.8223850361417746,
                    -0.4676547646574755,
                    -0.6995059517297973,
                    -0.05257306896012187,
                    -0.7583773735368962,
                    -0.3738319809011216,
                    -0.49235108300184105,
                    -0.2797250564861014,
                    0.5199035800651282,
                    0.5126088285190192,
                    -0.9371256553557171,
                    -0.23999700063552365,
                    -0.3661962297174212,
                    0.48937622680667364,
                    0.5697843263956359,
                    -0.6055371663995577
                  ],
                  "_Bias": -0.4675485371892459
                }
              },
              {
                "app.user_data.Battle_AutoTuningPnParam_NN.Node": {
                  "index": 56,
                  "_Weight": [
                    -0.9716187864644558,
                    0.2843364815658966,
                    0.9478571654924708,
                    -1.2037017230766178,
                    -0.7692141156402209,
                    -0.4259245863289836,
                    0.2899424980234401,
                    0.5670851770381734,
                    -0.8570837094971644,
                    0.1786070136135488,
                    1.1378873957033373,
                    -0.35209236002000605,
                    -0.8452782027653513,
                    -1.2157595663682557,
                    -0.4023373276968273,
                    -0.10958126516019845,
                    0.3002601087676822,
                    -0.5917204226665439,
                    0.4576813558835673,
                    -0.5016825866476661,
                    -0.9477816469902228,
                    -0.17698332022729144,
                    0.5366978576942469,
                    0.9492652303767122,
                    -0.8555538792218867,
                    0.04012432337154478,
                    0.7953930786834228,
                    -0.2923854993695034,
                    0.1569226102491331
                  ],
                  "_Bias": 0.2110761861717371
                }
              },
              {
                "app.user_data.Battle_AutoTuningPnParam_NN.Node": {
                  "index": 57,
                  "_Weight": [
                    -0.38341418930147714,
                    0.47706036917322275,
                    0.8203737370201094,
                    -0.13617669888447104,
                    0.6584012119779812,
                    -0.9246927353040162,
                    -0.3945377280485441,
                    -0.9005275530948942,
                    -1.1935014730620426,
                    -0.6655540925489889,
                    0.9403108336431373,
                    -0.8473336361768127,
                    -0.5288513594152728,
                    -1.0406011185689779,
                    -0.8833267216181199,
                    0.5446985110412818,
                    -0.5806298024941431,
                    0.13942071523320856,
                    0.05867299233022519,
                    1.0918650260448508,
                    -0.5166155382893514,
                    -0.8601993575829421,
                    0.1871246160464815,
                    -0.4981886713926512,
                    0.10707931017409479,
                    -0.022872917678893514,
                    -0.3304249765983663,
                    -0.5689937421336485,
                    0.5648799010368611
                  ],
                  "_Bias": -0.7807992425378855
                }
              },
              {
                "app.user_data.Battle_AutoTuningPnParam_NN.Node": {
                  "index": 58,
                  "_Weight": [
                    0.31714164759466623,
                    1.0107411655998335,
                    -0.2856063629841957,
                    0.38234824273245027,
                    -0.2086223937862276,
                    -0.9499953824427627,
                    -1.0809545335641262,
                    0.9758583286402928,
                    -0.45824547735458665,
                    -0.45468578407341265,
                    0.9673459187317551,
                    -0.12080145817065815,
                    0.08599144287178935,
                    0.601689833234028,
                    -0.995520192477734,
                    -0.5771682736482299,
                    -0.13092817136242396,
                    0.9765398325001784,
                    0.22722352685593622,
                    -0.7856915742737814,
                    0.17001041974996792,
                    0.5944347539805009,
                    0.3580496007431263,
                    0.10801319173304919,
                    0.0807067046629201,
                    0.8347039823677413,
                    -0.05625647302141049,
                    -0.29199750047368883,
                    -0.8235078466678859
                  ],
                  "_Bias": -0.21105110780460287
                }
              }
            ]
          }
        },
        {
          "app.user_data.Battle_AutoTuningPnParam_NN.Layer": {
            "index": 89,
            "_Node": [
              {
                "app.user_data.Battle_AutoTuningPnParam_NN.Node": {
                  "index": 60,
                  "_Weight": [
                    -0.7804404920204271,
                    0.04105649592709806,
                    0.6816357284839798,
                    0.8196999560743728,
                    0.05545472384061077,
                    -0.11535413253586664,
                    0.7525874726689286,
                    -0.311818496932596,
                    1.0820493298413831,
                    0.5796943922351142,
                    0.7590462828611811,
                    -0.27792729444378544,
                    0.1247154825824135,
                    -0.4237925380373491,
                    0.10300772733557216,
                    -0.3247968555641019,
                    -0.729357171210372,
                    -0.4242594081870642,
                    -0.4593581353651954,
                    0.0005224229352152559,
                    -0.6284007437516632,
                    0.3944736636821421,
                    -0.7750561930833311,
                    0.2573592768207132,
                    0.9637219925719674,
                    0.5517750270491562,
                    0.6372149602241423,
                    -0.34912084413486916,
                    -0.567122736612536,
                    -0.08677921672823906,
                    0.711952869069079,
                    0.1523013623884351,
                    0.8798125261782237,
                    -0.13197102085036083,
                    0.21642907291282087,
                    -0.6773545603948876,
                    -0.6614127328481796,
                    -0.16568300127226196,
                    0.20127218851680298,
                    0.5157940627596889,
                    -0.8635023858886955,
                    0.21771829058898456,
                    -0.7862470656332892,
                    0.2397665223055644,
                    -0.5909663333460787,
                    0.7188428533169504,
                    1.201321470239537,
                    0.09414914951042992,
                    -0.02964533318285985,
                    -0.32572222372363446,
                    -0.0442864301223716,
                    0.01926394388784134,
                    0.7754816997740636,
                    -0.6560334691786359,
                    -0.546379407626807,
                    1.002799005111669,
                    -0.879558925068581,
                    -0.3207244008378022
                  ],
                  "_Bias": 0.2737972284534593
                }
              },
              {
                "app.user_data.Battle_AutoTuningPnParam_NN.Node": {
                  "index": 61,
                  "_Weight": [
                    0.678175039732095,
                    -0.9005233776711676,
                    0.3347597661330929,
                    -0.1848801218728477,
                    0.16222478390777517,
                    -0.2777679346998178,
                    0.5208761709048795,
                    -0.470384770929405,
                    0.6663459181051647,
                    0.42683835495609385,
                    -0.6582239671078436,
                    -0.47508734433478184,
                    -0.24354789000377922,
                    0.24360779209026956,
                    0.8193207821522083,
                    -0.27104789221376874,
                    0.2505446999863704,
                    0.1160204562788896,
                    0.9592262924079352,
                    -0.10869701328405831,
                    0.8897330821195574,
                    -0.5085583655758015,
                    -1.1107384131319864,
                    -0.1017770978287832,
                    0.1034372885315029,
                    -0.6055640134255961,
                    -0.5784250515926292,
                    -0.21758168709025622,
                    -0.8081957245011001,
                    0.2040166055007952,
                    0.19911092386740037,
                    0.22228772790267504,
                    0.06596741076325383,
                    -0.8259477415015615,
                    0.8871343640600916,
                    -0.3269128365243078,
                    1.2205604925835392,
                    0.9783788835557308,
                    0.07601300335790853,
                    0.3090689919703335,
                    -0.9746537843324422,
                    -0.9543979972288207,
                    0.07916005499249872,
                    0.0682017042730457,
                    0.4019678863262203,
                    0.16980859448367508,
                    -0.8027289442846822,
                    0.5393114239384258,
                    1.0313080942560677,
                    0.47885510480774096,
                    -0.5795490055743069,
                    0.6942190862686691,
                    0.25700917008126545,
                    0.6734372108861412,
                    -0.20254288403328907,
                    -0.9417602964317646,
                    -0.44630765418608837,
                    1.3898918005330492
                  ],
                  "_Bias": 0.535227406191507
                }
              },
              {
                "app.user_data.Battle_AutoTuningPnParam_NN.Node": {
                  "index": 62,
                  "_Weight": [
                    -0.45515339534141197,
                    -0.05471199839753897,
                    0.7220864957719713,
                    0.23733698110448043,
                    0.8537012961257099,
                    -0.3980296344877765,
                    -1.0427330497500933,
                    -0.0934825849320038,
                    -0.6626713591744064,
                    0.40324833339291805,
                    -0.16983514374279393,
                    -0.23464318016611357,
                    0.14106060063296152,
                    0.4085654867296335,
                    0.5152279021499027,
                    -1.0064355669228497,
                    0.21629442356553039,
                    0.10539132300422699,
                    0.8384687376406009,
                    -0.07576901970520329,
                    0.12639267122990233,
                    0.8489787314459746,
                    -0.35240717185062637,
                    -1.2007321822797885,
                    -0.7193032876447958,
                    -0.6196193246171721,
                    0.0018817221097452604,
                    -0.8442487457133201,
                    -0.4309109496612722,
                    0.4326515195033765,
                    -0.8971327718829294,
                    0.5359881117867319,
                    -0.005344375330902411,
                    -0.32136056271150465,
                    0.8983495099148474,
                    0.2683001784659525,
                    0.4289407908897521,
                    -1.026651098800753,
                    -1.0530100953582175,
                    -0.520372056870389,
                    -0.4576278310280573,
                    0.31241466744069973,
                    0.22570575588275368,
                    1.1157388444574179,
                    0.20184526415133425,
                    -0.14947202482844588,
                    -0.47846563879636556,
                    -0.6103590598005879,
                    0.8946826592908805,
                    -0.24857553368444726,
                    0.022472527747877252,
                    0.14924175531415637,
                    -0.5904268130256484,
                    0.2808587238671345,
                    -1.36225641440495,
                    0.9951115524526745,
                    -0.3764573308681963,
                    -0.23795517663324095
                  ],
                  "_Bias": -0.9831436984391435
                }
              },
              {
                "app.user_data.Battle_AutoTuningPnParam_NN.Node": {
                  "index": 63,
                  "_Weight": [
                    0.9609522853862155,
                    0.31737549780978463,
                    0.425971150668007,
                    0.8927796953722016,
                    0.23640153486823995,
                    1.1152337786785544,
                    0.6773455256706561,
                    0.9776867366200018,
                    -1.134326134210662,
                    -0.17262649711762365,
                    -0.7267684458374801,
                    -0.3264534817116355,
                    -0.304454875316803,
                    0.00248084835247689,
                    0.908936570697338,
                    -0.032267154807639316,
                    -0.4378438132509812,
                    -0.626707364696145,
                    -1.0434149596702216,
                    -0.2859288639257213,
                    -0.2612942268568007,
                    -0.22705509465752485,
                    -0.5732986602662951,
                    1.0143728982375282,
                    0.7373719856067886,
                    0.7786368781098242,
                    0.0036706888599968997,
                    1.202867106660268,
                    -0.1398880600828224,
                    0.7723370691809518,
                    -1.1195618342171234,
                    0.9603992767996399,
                    0.7016132640699108,
                    0.008819391204713629,
                    0.33363779847465896,
                    0.34746677770079215,
                    0.24686229987154343,
                    -0.3114105523746558,
                    -0.41866836222873116,
                    -0.7178690072314328,
                    -0.3049982192109502,
                    0.7190693439366403,
                    0.22708822538021822,
                    -0.09778492150988224,
                    0.13363466599485255,
                    1.0775672282088196,
                    -0.2897095343516795,
                    -0.5690493223248801,
                    -0.1312472970024769,
                    0.3708064852076688,
                    -0.6310296446975235,
                    0.35644570361261413,
                    -0.4512513753909656,
                    0.4568207035214207,
                    1.1831657044655288,
                    -0.634444822226617,
                    -0.4483430601340009,
                    0.22981811241606212
                  ],
                  "_Bias": -0.6036369069510086
                }
              },
              {
                "app.user_data.Battle_AutoTuningPnParam_NN.Node": {
                  "index": 64,
                  "_Weight": [
                    -0.3295554910254509,
                    -0.00411822470318175,
                    -0.8313630794938645,
                    -0.4007486076753525,
                    0.6836471104642711,
                    -0.30805618733570256,
                    0.8004849823362499,
                    -0.19889685687278788,
                    -0.8382602670552995,
                    -0.9034618091045022,
                    -0.1363118545380596,
                    0.478268330222555,
                    -0.9198768762731716,
                    -0.17536352293518956,
                    0.6320337223339448,
                    0.04348126323933336,
                    -0.1729132843460109,
                    0.7325348020388005,
                    -1.0036805095952712,
                    0.925940059644983,
                    0.26858759928530973,
                    -0.31133281235219556,
                    0.3488705079360034,
                    1.2284247736433755,
                    0.8682379203551668,
                    -0.9397035424414746,
                    -0.3495229548087325,
                    -0.5191306188026982,
                    -0.7050144088284961,
                    -0.9595027653530414,
                    1.0414545729149345,
                    0.05831800806883558,
                    -0.35763531491092854,
                    0.2801171974803635,
                    0.7962560129776058,
                    -0.9868822232046578,
                    1.2104499567573053,
                    0.5413952430061693,
                    -0.796628509705488,
                    -0.04709246514745409,
                    -0.9718501871600614,
                    1.0624303862994147,
                    -0.40109378609956137,
                    0.5829096876239105,
                    -0.40747777612270275,
                    -0.747562500098472,
                    0.592003050838726,
                    -0.9450226830046621,
                    0.7436801872717947,
                    -0.8795527168730605,
                    0.428259548459242,
                    -0.3116698561511781,
                    1.2858928155082354,
                    0.533215821690212,
                    -0.6244198066065151,
                    0.29086136108271476,
                    0.47721880110552733,
                    0.5836325094067688
                  ],
                  "_Bias": -0.8302019976910476
                }
              },
              {
                "app.user_data.Battle_AutoTuningPnParam_NN.Node": {
                  "index": 65,
                  "_Weight": [
                    0.08436975226014014,
                    -0.6366339336968823,
                    0.23901663235147277,
                    -0.6864640122019724,
                    -0.32072074030108033,
                    0.7866789639709515,
                    0.8497518743551207,
                    -0.13470707131282406,
                    0.758006307269096,
                    -0.08447529073789566,
                    -0.8345417897237201,
                    1.0371157790092265,
                    0.7002404443644618,
                    0.2605596707993705,
                    0.09471450094663932,
                    0.5255364982061294,
                    -0.5933426174812401,
                    -0.4544584807210569,
                    0.2951145284411112,
                    0.38952129492030035,
                    0.5673273815216927,
                    1.1824984040599624,
                    0.2994326609712808,
                    -0.9492427417638228,
                    -0.23583006251123656,
                    0.442185074638479,
                    -0.6570553496167205,
                    0.10608692288648618,
                    -0.1626585447296936,
                    -0.9009846916823735,
                    0.7319421193704029,
                    -0.760016050542378,
                    0.659270431858883,
                    0.04488839400883988,
                    0.12986089209586985,
                    0.15556520791926381,
                    0.1163734828967518,
                    0.5253294796206859,
                    -0.5373939222944355,
                    0.7631542304824683,
