[
  {
    "app.user_data.Battle_AutoTuningPnParam_NN": {
      "index": 98,
      "RootSeedNum": 1070096883,
      "_NodeNum_InputLayer": 29,
      "_NodeNum_HideLayer": [
        58,
        29
      ],
      "_NodeNum_OutputLayer": 7,
      "_AveList": [
        0.8654463642529354,
        0.36606217616580305,
        0.0051813471502590676,
        0.205430721284314,
        0.9531504432191046,
        0.32041450777202113,
        0.010362694300518135,
        0.1845434626506985,
        0.825007009384365,
        0.3948704663212435,
        0.0051813471502590676,
        0.2865356838238819,
        0.08808290155440414,
        0.8282118105112896,
        0.23362694300518144,
        0.06735751295336788,
        0.15225463111725515,
        0.6546495961248705,
        0.7248039723661489,
        0.18134715025906736,
        -1.0,
        0.16942771760619602,
        0.16856390328151988,
        0.03626943005181347,
        -0.22279792746113988,
        0.06789613570651214,
        0.18245423143350606,
        0.02072538860103627,
        -0.22279792746113988
      ],
      "_SdList": [
        0.2525099266390786,
        0.17343537796832456,
        0.0717948521272074,
        0.431428513445807,
        0.17580065912594053,
        0.1746998438384904,
        0.10126849888959608,
        0.261697907501607,
        0.2766239187672236,
        0.2245066180828417,
        0.07179485212720743,
        0.5464694718341523,
        0.28341542655289803,
        0.23968096488138543,
        0.12865306884725058,
        0.25064013725280476,
        0.3253760901057775,
        0.3438051235811071,
        0.2562973409968726,
        0.4237315709898628,
        0.0,
        0.3289255422039529,
        0.33830865757088263,
        0.21287708377382547,
        0.4161237928551558,
        0.2319227106097875,
        0.3472794932160619,
        0.14246349310743564,
        0.4161237928551558
      ],
      "_WeightList": [
        {
          "app.user_data.Battle_AutoTuningPnParam_NN.Layer": {
            "index": 59,
            "_Node": [
              {
                "app.user_data.Battle_AutoTuningPnParam_NN.Node": {
                  "index": 1,
                  "_Weight": [
                    0.11868238700841402,
                    -0.510518994134503,
                    -0.8420971262619411,
                    -0.5131389270951586,
                    -0.58202680687576,
                    -0.6342590061418292,
                    0.2648756132728276,
                    1.0687677191992484,
                    -0.24533153348555864,
                    0.12236063640873993,
                    -0.5374314253110433,
                    0.6690960512226053,
                    -0.6713546335380298,
                    -0.6634117796110942,
                    -0.7704806397340485,
                    -0.8138945668945826,
                    -0.26178358689473097,
                    0.04059754301472575,
                    0.16725658390501136,
                    -0.05117036550898569,
                    -0.9846616137998883,
                    0.04820853854726367,
                    -0.72045061171089,
                    0.29651550737909443,
                    0.6494293319504975,
                    0.8060531233655079,
                    0.3884330276515397,
                    0.1492889994230793,
                    -0.09751314530256551
                  ],
                  "_Bias": 0.7568802751826825
                }
              },
              {
                "app.user_data.Battle_AutoTuningPnParam_NN.Node": {
                  "index": 2,
                  "_Weight": [
                    -0.8518136515415509,
                    1.0811162470693116,
                    -1.006872170415964,
                    -0.26927791297568726,
                    -0.950421403202296,
                    0.6237999631362123,
                    0.8339048632602696,
                    0.15224397262362316,
                    -0.5048480240506997,
                    0.6548317767737722,
                    -0.3734327013447049,
                    1.312210473977109,
                    0.8679746484074871,
                    0.3654434709319549,
                    0.24410976561587158,
                    0.20712898704139707,
                    -0.45269833653244085,
                    0.5532410140132041,
                    0.2013572899736172,
                    0.12738780381872283,
                    -0.5092586932691754,
                    0.17934787680770992,
                    -0.3617460291946147,
                    0.6734044176866161,
                    -0.16484814883210683,
                    -0.7897887776048688,
                    0.5660723488280296,
                    -0.7456312926826484,
                    0.29294874010103894
                  ],
                  "_Bias": 0.5231370420183078
                }
              },
              {
                "app.user_data.Battle_AutoTuningPnParam_NN.Node": {
                  "index": 3,
                  "_Weight": [
                    0.051032147182035685,
                    -0.02232215011564757,
                    -0.05659683974363165,
                    -0.9338868080298593,
                    -0.0811521259136417,
                    0.4634053985648648,
                    -0.32858921150589027,
                    0.9883717157858033,
                    -0.42739218780228755,
                    0.3644571486445206,
                    -0.049829055182038215,
                    -0.065222641525964,
                    0.2799041445847052,
                    0.2022593621854841,
                    -0.9622519262493043,
                    0.18790456954096493,
                    -0.39481636996761077,
                    -1.0508860180196231,
                    -0.7117902110448162,
                    0.269724710984573,
                    -0.18454033567960884,
                    0.07293305993842428,
                    0.41754799522317226,
                    0.15677326059473076,
                    0.9101790281937159,
                    -0.6571991148294721,
                    -0.47188725469714726,
                    0.3824549858110089,
                    0.3232971621036818
                  ],
                  "_Bias": 0.8478606831135215
                }
              },
              {
                "app.user_data.Battle_AutoTuningPnParam_NN.Node": {
                  "index": 4,
                  "_Weight": [
                    0.2377056671685931,
                    -0.8719750354517203,
                    -0.4088477126347678,
                    0.6990794684472572,
                    0.28569325464604006,
                    0.2580877572086626,
                    -0.02784319085296839,
                    -0.8804885932414996,
                    0.7928457476391345,
                    0.6097208058873129,
                    0.30385088670933563,
                    -0.38204126023985285,
                    -0.4284735942785802,
                    -0.4868051454570927,
                    0.623593286910908,
                    -0.2197745178134314,
                    0.3172123246546892,
                    -0.70331412024328,
                    -0.8475766501751482,
                    0.8525096172449564,
                    0.7302681788913209,
                    0.35040580909555025,
                    0.8214649691655127,
                    -0.6694622411183859,
                    0.10500987533125784,
                    0.879450147751042,
                    0.09670990404922757,
                    0.8867397752485,
                    -0.6972124918500435
                  ],
                  "_Bias": -0.479988422861249
                }
              },
              {
                "app.user_data.Battle_AutoTuningPnParam_NN.Node": {
                  "index": 5,
                  "_Weight": [
                    0.17390161115383146,
                    0.49165676899787936,
                    -0.2905571168138056,
                    -0.12331932972040639,
                    -0.3326327675804839,
                    0.5265068878200104,
                    -0.6099580855164128,
                    0.3311187640116437,
                    0.004124604389653267,
                    -0.9030493281621987,
                    -0.9895659576062045,
                    0.6191257068965756,
                    -0.6915773364197496,
                    -0.5571894794019815,
                    -0.26350792799620343,
                    0.26441656220751214,
                    -0.29296018222469894,
                    0.20477052845953922,
                    -0.725744769541392,
                    -0.4871713491513039,
                    -1.0916505430538015,
                    -0.5758404182649888,
                    -0.09814588123216272,
                    -0.4002669981629501,
                    0.564064979729816,
                    -0.33416499999165766,
                    -0.3442613511605578,
                    -0.21055307233203674,
                    -0.178786746052333
                  ],
                  "_Bias": -0.11193500317710368
                }
              },
              {
                "app.user_data.Battle_AutoTuningPnParam_NN.Node": {
                  "index": 6,
                  "_Weight": [
                    0.10566041074800706,
                    -0.11874926134884509,
                    0.20136711913436553,
                    -0.7383448546141862,
                    0.09311812723961349,
                    -0.7294726337207638,
                    -0.8662166060802751,
                    -0.08810375956922205,
                    0.9166767895280564,
                    0.46367952451408373,
                    -0.4972622439573306,
                    0.07425288841973639,
                    0.5553952623020129,
                    0.28223434421149857,
                    0.5246189845166879,
                    -0.46100897850179157,
                    0.4944933043313852,
                    -0.03180206795487524,
                    0.9421596265607338,
                    0.6032007138371696,
                    -0.180609409786793,
                    0.8423998272901317,
                    -0.10310507776813371,
                    0.587764486193561,
                    -0.9516186305540486,
                    0.09533208202300499,
                    -0.5644352767148884,
                    0.7988614190178233,
                    -0.8260941812829293
                  ],
                  "_Bias": -0.2897530334572919
                }
              },
              {
                "app.user_data.Battle_AutoTuningPnParam_NN.Node": {
                  "index": 7,
                  "_Weight": [
                    0.7208961732501817,
                    0.4693167599289664,
                    -0.27692772767961876,
                    -0.8637722945321225,
                    0.22370453596259438,
                    0.5822995472755409,
                    -0.28283791919497675,
                    -0.1634408749087505,
                    -0.5756479700108128,
                    0.7614376741694628,
                    0.11578143921482295,
                    -0.8271512594750495,
                    -1.040850619054239,
                    0.7474674631838979,
                    -0.12731394227146547,
                    0.48657182190103504,
                    -0.44588198648311456,
                    0.3426842055406915,
                    0.44303512982400917,
                    1.0554580016584552,
                    1.0910019353850182,
                    0.7533883338208427,
                    0.12849429363765358,
                    0.5663475840310428,
                    0.5143480635149994,
                    0.11024173592531865,
                    0.500074099197404,
                    -0.13810002255893475,
                    -0.768805403820803
                  ],
                  "_Bias": -0.12115962764978552
                }
              },
              {
                "app.user_data.Battle_AutoTuningPnParam_NN.Node": {
                  "index": 8,
                  "_Weight": [
                    0.5708268093813113,
                    0.70457523019924,
                    -0.2515424050109796,
                    0.7980497592912111,
                    -0.3667499719332895,
                    0.6573138744735144,
                    -0.498743397589903,
                    -1.1037103134899193,
                    0.5264223300100965,
                    0.4936587378275881,
                    -0.9876215777418864,
                    0.18806509487821088,
                    -0.3854922452732395,
                    0.0893504877854712,
                    0.6039160417459545,
                    -1.2268171946749051,
                    0.32060852926570543,
                    -0.5436577996583236,
                    0.3145464361963349,
                    -0.6948032844217543,
                    -0.5683586624095635,
                    -0.176987666300083,
                    0.05116980511796487,
                    -0.9407731599216861,
                    0.6313635698414523,
                    -0.3055886686582601,
                    -0.7182294455533615,
                    0.6952332446350792,
                    0.5336374657912616
                  ],
                  "_Bias": 0.8457297113368697
                }
              },
              {
                "app.user_data.Battle_AutoTuningPnParam_NN.Node": {
                  "index": 9,
                  "_Weight": [
                    -0.05649247065694511,
                    -0.16896287557657105,
                    0.5182132794149181,
                    0.2654226606230844,
                    -0.818988829828411,
                    -0.1344499946653628,
                    0.64436287401647,
                    -0.43385890948942585,
                    1.2712718895787998,
                    -0.5185565974545574,
                    0.8370800430867433,
                    -0.5898359045852116,
                    -0.5465680680131945,
                    1.0128357126814098,
                    -0.2950130841085152,
                    1.2027664770055269,
                    -0.05330709952928814,
                    0.013322484160381018,
                    -0.13885843469095335,
                    0.4614321496886985,
                    0.8952282369902046,
                    0.35392036105922065,
                    0.2427594341944736,
                    -0.4355544641792001,
                    0.24374158651168332,
                    -0.6350012177743927,
                    -0.23742971649240585,
                    0.26101465910683913,
                    0.04660898464886331
                  ],
                  "_Bias": -0.5878165802752277
                }
              },
              {
                "app.user_data.Battle_AutoTuningPnParam_NN.Node": {
                  "index": 10,
                  "_Weight": [
                    -0.26073278575422737,
                    0.5879641535483695,
                    0.4193406172723185,
                    0.4515002781266148,
                    -0.8669240765206714,
                    -0.7543534927278196,
                    -0.08662255444270976,
                    0.6000590001701697,
                    0.6013647259385505,
                    0.7711690457234188,
                    -0.556207577328485,
                    -0.8140941452118708,
                    0.78728820128279,
                    -0.604151009434199,
                    -0.6101156651905915,
                    0.6075615441261776,
                    0.6175054703889983,
                    0.05381442797452786,
                    0.24419661867095882,
                    1.0965821098815867,
                    -0.007607712355385279,
                    -0.7136097843472108,
                    0.0022476188193061722,
                    0.1432806590813958,
                    0.8288089267983264,
                    -0.29869402207992324,
                    0.6085275765540403,
                    -0.9172870842075161,
                    -0.5289672164849368
                  ],
                  "_Bias": -0.9351086204955961
                }
              },
              {
                "app.user_data.Battle_AutoTuningPnParam_NN.Node": {
                  "index": 11,
                  "_Weight": [
                    0.8435466910845634,
                    0.02008203970033776,
                    0.7075872664631854,
                    0.3067868100162083,
                    -0.04948186824886582,
                    0.7279921303615994,
                    0.26081297714682145,
                    0.5863322837374414,
                    -1.4312100598158608,
                    0.505339019007682,
                    -0.7178123682962856,
                    0.7999314407831856,
                    0.476378268470533,
                    -1.0191087098115825,
                    -0.8813205849031385,
                    0.5744878368579134,
                    0.7411952277583719,
                    0.16585371009808295,
                    0.665536091332549,
                    0.5610285950817774,
                    -0.1959828971046684,
                    0.6157317782119438,
                    -0.33221791430922093,
                    -0.29753345119518354,
                    0.19039401340135642,
                    0.0947095539080326,
                    1.0830841421376265,
                    -0.7645201675921506,
                    -1.005224647601957
                  ],
                  "_Bias": -0.971792071908741
                }
              },
              {
                "app.user_data.Battle_AutoTuningPnParam_NN.Node": {
                  "index": 12,
                  "_Weight": [
                    0.2123021359426422,
                    -1.0016558601281882,
                    0.2917569489487041,
                    0.3357361762874474,
                    -0.4506547374263751,
                    -0.9673380528458405,
                    0.6984787843970731,
                    0.9754737782452509,
                    0.8569866259953304,
                    -0.6348370054552325,
                    -0.3815465024890671,
                    0.5922427291784962,
                    0.2516722531281749,
                    0.36733080222368364,
                    0.1528420984762776,
                    -0.12674972351123137,
                    -0.2577794751616372,
                    -0.49743427048674016,
                    0.7069840093040578,
                    0.5675591224653629,
                    0.29721045376579974,
                    0.4568951132740133,
                    -0.30431685989196616,
                    0.6732787637285502,
                    0.994736757517988,
                    -0.6447665564490391,
                    0.40589201301464983,
                    -0.2775237255286622,
                    0.8450630860919885
                  ],
                  "_Bias": -0.15561452739718765
                }
              },
              {
                "app.user_data.Battle_AutoTuningPnParam_NN.Node": {
                  "index": 13,
                  "_Weight": [
                    0.6675795395467646,
                    -0.7216259660719562,
                    -0.403860302491085,
                    -0.021618718556824672,
                    0.03242092611990018,
                    0.4589354957033494,
                    -0.5762899270525954,
                    -0.7049361723129747,
                    -0.46715301239740314,
                    -0.47078875562071437,
                    -0.3262043144720854,
                    0.7180051566070517,
                    1.0509111852798032,
                    1.124022858727389,
                    -0.1904342655441581,
                    0.49838666605208837,
                    -0.5654538735001177,
                    0.34131479446346275,
                    0.4630305085746311,
                    -0.42234535991257754,
                    0.7782058350924241,
                    -0.9191698371766254,
                    0.3286935864009683,
                    0.005325360372088381,
                    0.9546249567872477,
                    0.5401815018663539,
                    0.3899905541368211,
                    -0.08962598553838813,
                    -0.2275937838421908
                  ],
                  "_Bias": 0.5984119436986901
                }
              },
              {
                "app.user_data.Battle_AutoTuningPnParam_NN.Node": {
                  "index": 14,
                  "_Weight": [
                    -0.5301829722643306,
                    0.7211205975196603,
                    -1.2635567881474772,
                    0.5290834840277958,
                    -0.14845673132717183,
                    0.01306711100461913,
                    -0.9192973567983501,
                    0.48428934144966124,
                    0.9653731121231118,
                    -0.4402329238153036,
                    -0.5014157034585154,
                    0.7615915298189001,
                    -0.8022418262979767,
                    1.0486255785005387,
                    0.6538651123849859,
                    -0.7854289169640878,
                    -0.6187106902582123,
                    0.1359601756051147,
                    -0.4923291508540422,
                    0.1748185844976479,
                    -0.23492837504212719,
                    -0.16078513858113994,
                    1.1004260404636104,
                    0.5121130475351974,
                    -0.7065520724525187,
                    0.56122451213366,
                    0.6768985789081385,
                    -0.5082356320383845,
                    -0.20972164050248254
                  ],
                  "_Bias": -0.534024716189988
                }
              },
              {
                "app.user_data.Battle_AutoTuningPnParam_NN.Node": {
                  "index": 15,
                  "_Weight": [
                    0.4682915918509225,
                    0.9076994923922094,
                    0.7701852380945815,
                    -0.6598500558350324,
                    0.7364787138820192,
                    -0.7845275040858294,
                    -0.4035129616863084,
                    -0.832650550195192,
                    -0.07270430672761634,
                    -0.0644265447462527,
                    -0.05866087644456166,
                    1.0101800333010846,
                    -0.1620429872056521,
                    0.13198924657466854,
                    0.504003732083375,
                    -0.29472732241551486,
                    0.7349513342460373,
                    0.21706072215393324,
                    -0.9755456188379137,
                    0.11400723700801876,
                    0.46104629849569617,
                    -0.34288816355702667,
                    0.23017010693642162,
                    0.5999508908837154,
                    -0.30677470977050286,
                    0.8548435126308959,
                    -0.7968188144676428,
                    0.5544533597463623,
                    -0.1476341570670134
                  ],
                  "_Bias": -0.13506166473516826
                }
              },
              {
                "app.user_data.Battle_AutoTuningPnParam_NN.Node": {
                  "index": 16,
                  "_Weight": [
                    0.9580866510756822,
                    0.006018266895287694,
                    0.09463078474570785,
                    0.08066669675549426,
                    -1.1344747820252208,
                    -0.8968387720077542,
                    -0.17643820087027773,
                    0.0005955476589703803,
                    -1.0608543896743297,
                    0.7754185973211054,
                    -0.04848677599657053,
                    -0.10845151342521767,
                    -0.016627832843783042,
                    -0.7050036296549037,
                    1.0669108251659303,
                    1.0478925506750092,
                    0.4272438490543605,
                    0.3133674686545559,
                    0.5871088020606435,
                    -0.8965185361634609,
                    -0.444567882349956,
                    0.1845799259323786,
                    -0.430401222557198,
                    0.11675799883169671,
                    -0.16332671897937037,
                    0.2283762668691933,
                    0.6609304791283408,
                    -0.5344215142114451,
                    -1.0424543300811004
                  ],
                  "_Bias": 0.5385824336076689
                }
              },
              {
                "app.user_data.Battle_AutoTuningPnParam_NN.Node": {
                  "index": 17,
                  "_Weight": [
                    -0.7932191524226345,
                    0.1426245930519314,
                    -0.8856256657871042,
                    -0.7382491351378709,
                    -0.4687498472688361,
                    0.3635890298563353,
                    -0.45660273404791774,
                    -0.7495573104632328,
                    -0.43189791843205,
                    0.17554688158439824,
                    -0.9161095361949133,
                    -0.6946031118659259,
                    0.9334821450953689,
                    -0.938269689248398,
                    -0.7114857152798187,
                    -0.5105957604615686,
                    -0.8596904735840245,
                    -0.7904652022812949,
                    0.6218389249116769,
                    0.6686225971888644,
                    0.4747681622808811,
                    -0.4622811422962708,
                    -0.36493397060802446,
                    0.09746949507011768,
                    -0.6245654302905006,
                    -0.03356447136630258,
                    -0.9975199490123484,
                    -0.026005766800706882,
                    -0.12752670625792736
                  ],
                  "_Bias": 0.5043620552917919
                }
              },
              {
                "app.user_data.Battle_AutoTuningPnParam_NN.Node": {
                  "index": 18,
                  "_Weight": [
                    -0.6010606823749632,
                    0.539013483248445,
                    -0.2942158517779169,
                    0.23571696044170018,
                    0.90330458477501,
                    0.7720072398299922,
                    0.06361244321641814,
                    0.7674849302682729,
                    -0.30104523514248893,
                    0.13690000486483367,
                    -0.1568467431667143,
                    0.3979098182052954,
                    -0.7325606187600349,
                    0.19675484936721907,
                    0.5168829258280834,
                    -0.1124855188218233,
                    -0.9626162516463919,
                    -0.43748768258235793,
                    -0.6398054450657216,
                    -0.04930101181733226,
                    -0.27390478791926176,
                    0.6535861333231628,
                    -0.40797141996049247,
                    0.6937995237162832,
                    -0.7467762531121485,
                    -0.9594462139563437,
                    0.9252657305952179,
                    0.9397596762245626,
                    -0.482501876342468
                  ],
                  "_Bias": -0.3471332277797499
                }
              },
              {
                "app.user_data.Battle_AutoTuningPnParam_NN.Node": {
                  "index": 19,
                  "_Weight": [
                    -0.9086414645447803,
                    1.1136409648379761,
                    0.5591804916449122,
                    0.5762386485323884,
                    0.4716167774784994,
                    0.34652557139514595,
                    -0.1935640911689061,
                    0.3122820302261746,
                    -0.43080489043867815,
                    0.3941386556262456,
                    0.12490226219028354,
                    0.017990722864024995,
                    0.07952247434277564,
                    0.7714513870187779,
                    -0.02947591374514915,
                    -0.740472875550515,
                    -1.1272567461803935,
                    0.4160095934496947,
                    0.5371904379017579,
                    0.7934456108101288,
                    0.1325088241039683,
                    -0.6488834130218895,
                    -0.5509374596233053,
                    0.3231716678843866,
                    0.18169163880462602,
                    0.9883060746102973,
                    0.4216763812447304,
                    -0.9315650637721847,
                    -0.7361065310934854
                  ],
                  "_Bias": 0.1123246590239102
                }
              },
              {
                "app.user_data.Battle_AutoTuningPnParam_NN.Node": {
                  "index": 20,
                  "_Weight": [
                    0.781938722249796,
                    -0.5313932790424744,
                    0.9056688457602552,
                    0.8885474728947823,
                    0.18026647774242663,
                    -0.05979600494790807,
                    -0.6196852719543264,
                    0.6341801588342125,
                    -0.14776074771403203,
                    -0.7823896912349154,
                    0.14369519020745772,
                    -0.6837188652797693,
                    0.029835992771127896,
                    0.3852966403254954,
                    1.26046614382148,
                    -1.101522116904689,
                    0.39304401357767593,
                    -1.1033723645902596,
                    0.8237421082090541,
                    0.14272044908082868,
                    -0.8256356893828352,
                    -0.917791482142073,
                    -1.22420019011855,
                    -0.04266300473069941,
                    0.36616614618120114,
                    -0.8142472683080795,
                    -0.3116814594702212,
                    0.2000117895811993,
                    -0.3508173749749797
                  ],
                  "_Bias": -0.5729549046816091
                }
              },
              {
                "app.user_data.Battle_AutoTuningPnParam_NN.Node": {
                  "index": 21,
                  "_Weight": [
                    -1.0091163585888008,
                    -0.7716190493286476,
                    0.6840345518348006,
                    0.29311853427079254,
                    0.29113666829395873,
                    0.47038563342861645,
                    0.7751538153932496,
                    -0.7976819152462841,
                    -0.8133608330598722,
                    -1.2698796809559212,
                    -0.3102637449266001,
                    -0.37764309662041196,
                    -0.40379198773356767,
                    1.2236306043756937,
                    -0.524524935638203,
                    0.3388141329801045,
                    0.1150030963394236,
                    0.33988910822600393,
                    0.6963714850005487,
                    0.18766140256516722,
                    -1.0907285931285138,
                    0.4432570278740086,
                    -0.45109877654444147,
                    0.31858461452668535,
                    -0.36920212421344356,
                    0.4918551789320977,
                    -0.5323006798875871,
                    -0.38184589619195003,
                    0.34044226620819573
                  ],
                  "_Bias": 0.6853166574843105
                }
              },
              {
                "app.user_data.Battle_AutoTuningPnParam_NN.Node": {
                  "index": 22,
                  "_Weight": [
                    -0.06673991487708808,
                    0.017660555835515245,
                    0.5324353831099827,
                    0.42671177552256856,
                    0.8999555163385201,
                    0.30425020071490694,
                    0.23732370302490763,
                    0.22828873953279255,
                    1.3103447476106977,
                    0.7456320623646915,
                    -0.18336759510651937,
                    -0.6667405608070321,
                    -0.47343650944586574,
                    1.1110095524250134,
                    0.27197977665377476,
                    0.45276693647611027,
                    -0.15576576361359748,
                    -0.33092965843079386,
                    0.35459014867128735,
                    -0.3337016659087381,
                    0.780074402434199,
                    0.14042612473921492,
                    -0.7630477285011735,
                    0.5660720368434302,
                    0.8480926731401347,
                    0.6600511455248921,
                    -0.5390129507254845,
                    0.04843732795254161,
                    0.000590800043850277
                  ],
                  "_Bias": -0.4303956976862705
                }
              },
              {
                "app.user_data.Battle_AutoTuningPnParam_NN.Node": {
                  "index": 23,
                  "_Weight": [
                    -6.669702017774335e-05,
                    -0.689248610505273,
                    0.7519726307124069,
                    0.8794547577883057,
                    -0.5205064233723627,
                    -0.7365452969573221,
                    -0.4289301936091979,
                    -0.37278800822912866,
                    0.6425724082388097,
                    -0.6610643313416014,
                    0.7435389414131313,
                    0.6604338183360394,
                    0.33955359462184515,
                    -0.7005714992434101,
                    0.009382993642700472,
                    0.74648410981612,
                    0.7150145151723134,
                    -0.6138218023132632,
                    -0.9053994995921136,
                    0.7692073808663713,
                    -0.41095464317214575,
                    -0.648589107863394,
                    0.5744936210716135,
                    -0.6169246746545545,
                    0.6087296242450714,
                    -0.8889668544455162,
                    -0.6444477089408823,
                    -0.7935401984505851,
                    0.5742962584154484
                  ],
                  "_Bias": -0.5255996085322109
                }
              },
              {
                "app.user_data.Battle_AutoTuningPnParam_NN.Node": {
                  "index": 24,
                  "_Weight": [
                    -0.27097045962872884,
                    -0.7271891391937864,
                    1.0613951472415415,
                    1.1168209486958707,
                    -1.115873678645387,
                    0.7293403864328631,
                    -0.4273308805588193,
                    0.41398998415635907,
                    0.14042326188071969,
                    0.04010823140644992,
                    0.735147104550985,
                    -0.1855522996100976,
                    -1.0591908241343881,
                    -1.3916706822673068,
                    0.8970438748146896,
                    0.42176977788460723,
                    -0.6487196433727143,
                    -0.6574934222153705,
                    0.6560569889371939,
                    0.4961753312376975,
                    -0.26183210094763665,
                    -0.43436501641010783,
                    0.44460791272072886,
                    -0.5795993930639998,
                    -0.4736712294721844,
                    -0.6222366730828043,
                    0.5455886010315921,
                    0.9255152934684662,
                    0.8026028557878202
                  ],
                  "_Bias": 0.06397484257190274
                }
              },
              {
                "app.user_data.Battle_AutoTuningPnParam_NN.Node": {
                  "index": 25,
                  "_Weight": [
                    0.6467201205957763,
                    0.08651268078864201,
                    -0.051517483246760754,
                    0.1367014130926169,
                    0.1569618911462248,
                    0.6283524224505251,
                    -0.44287938567333923,
                    0.47331584545272964,
                    0.34347052647089205,
                    -0.4346113915847505,
                    -0.8024138623817226,
                    -0.8735067945945596,
                    -0.8706348387922946,
                    -0.9102220326642735,
                    0.062391695119281464,
                    -1.1810923330183412,
                    -0.626812236885438,
                    1.2678658436625374,
                    0.46514484638056297,
                    -0.922753684004925,
                    -0.033142143321684706,
                    0.051311486956370826,
                    0.7046747106053997,
                    0.6676340949570413,
                    0.3089145441921423,
                    -0.8173823048967744,
                    -0.78459962644061,
                    0.7922003238442609,
                    -0.3602969673440232
                  ],
                  "_Bias": 0.01030702974786521
                }
              },
              {
                "app.user_data.Battle_AutoTuningPnParam_NN.Node": {
                  "index": 26,
                  "_Weight": [
                    -1.0193952300330877,
                    0.5567896854514806,
                    0.6620266185377919,
                    0.6645082391706046,
                    -0.6438943230912887,
                    0.10140118001435817,
                    -0.23902058948843677,
                    -0.7936815901171349,
                    0.47515362522766214,
                    -0.37876711931539503,
                    0.5313750938922721,
                    -0.005853762732677393,
                    0.7566547826114042,
                    -1.1796594354398595,
                    0.7361198860120615,
                    0.5451296377231453,
                    -1.0022714300787803,
                    0.2038117388848941,
                    -0.5883037324029948,
                    -0.1961439642613132,
                    -0.44335789692450933,
                    -0.6956720528997887,
                    -0.5321739078489934,
                    0.10770341915384704,
                    -0.07698034010243339,
                    0.10791979582143058,
                    0.4118874644751002,
                    0.14695592876053554,
                    0.39521595590456143
                  ],
                  "_Bias": 0.796394920142866
                }
              },
              {
                "app.user_data.Battle_AutoTuningPnParam_NN.Node": {
                  "index": 27,
                  "_Weight": [
                    -0.7781814902517251,
                    0.35331414874911854,
                    0.005070101349285322,
                    -0.6955611658555236,
                    -0.5092056262097907,
                    -0.49391715067060477,
                    -0.21658075001373855,
                    -0.37047455302073046,
                    -1.1244378688849004,
                    0.5434851575920432,
                    -0.3691529302151723,
                    0.32418359050794265,
                    -0.42197839985569274,
                    -0.5029930929532415,
                    -0.9983826481228136,
                    -0.9358978076147855,
                    0.5313914662218138,
                    -0.1948766383396182,
                    -0.4841374116835812,
                    -0.5879504491372295,
                    -0.4743117825467257,
                    0.5297084107819805,
                    -0.029332004884519022,
                    0.8132819861328785,
                    0.07058992483440439,
                    -0.6311883010534408,
                    0.8382721176368708,
                    0.17270907315157974,
                    -0.34332390754675585
                  ],
                  "_Bias": -0.69003120759837
                }
              },
              {
                "app.user_data.Battle_AutoTuningPnParam_NN.Node": {
                  "index": 28,
                  "_Weight": [
                    0.5130107562848374,
                    0.36043423846389894,
                    -0.4852837429542583,
                    -0.6584375500892001,
                    -0.09154025290566768,
                    0.25236322830789587,
                    -0.6373548718414299,
                    0.7633098538347831,
                    1.101687340831881,
                    -0.1392016871020452,
                    0.21904995288151718,
                    0.7180571270576023,
                    0.7611164293477678,
                    0.8012777560438642,
                    -0.4621638668151859,
                    -0.19286577458569318,
                    0.8455265791482381,
                    -0.801790084805402,
                    -0.16436237845032434,
                    -0.2531108846224905,
                    0.7019350970426536,
                    0.6800956816686382,
                    0.23286903590192046,
                    0.16223863452561574,
                    -0.8592982769439883,
                    -0.32321102829766224,
                    0.3921341133405818,
                    0.8854001908373826,
                    -0.03129856106815358
                  ],
                  "_Bias": 1.097795081158904
                }
              },
              {
                "app.user_data.Battle_AutoTuningPnParam_NN.Node": {
                  "index": 29,
                  "_Weight": [
                    0.20386345413890627,
                    -0.7235644079777188,
                    -0.8539235079169191,
                    0.7241648477390228,
                    -0.5229242814172436,
                    -0.03345104970994978,
                    -0.9096612349086228,
                    0.7759679773299833,
                    0.32506191682966035,
                    0.7295293801901399,
                    0.7006167543361942,
                    -0.289195888055456,
                    0.5662827821229862,
                    1.288178658639549,
                    0.024884734800699138,
                    -0.5934774643628155,
                    -0.36400604393625946,
                    -0.7755090226201846,
                    0.44147748132599385,
                    0.6545980382085069,
                    0.4993675176955029,
                    -0.8334240865014308,
                    -0.6476384659722288,
                    -0.06259970566284227,
                    0.06815482342871855,
                    1.0070669462145778,
                    -0.4520682185042515,
                    0.928717467886757,
                    0.862649580748202
                  ],
                  "_Bias": -0.010412570365449896
                }
              },
              {
                "app.user_data.Battle_AutoTuningPnParam_NN.Node": {
                  "index": 30,
                  "_Weight": [
                    -0.4445880097069326,
                    -0.45165430520861805,
                    -0.574189644434648,
                    0.18386549694882734,
                    0.3926535746925082,
                    0.4601918628499965,
                    0.6739747656336401,
                    0.1828194321178977,
                    -0.4412126046706357,
                    0.5746972144448315,
                    -0.07408330923393054,
                    0.8233927316631435,
                    0.8395254872273846,
                    -0.8583554497463743,
                    0.148084550638689,
                    0.7795432865306995,
                    0.1841889450626599,
                    0.4864346075014918,
                    -0.3701582536797571,
                    -0.5915457081714618,
                    -0.7282385123529176,
                    1.0218797800780859,
                    1.0484510989162206,
                    -0.29827023616689907,
                    0.5559403217259258,
                    0.9835193168736686,
                    0.8009832433823735,
                    -0.5062705522727449,
                    0.9009787036184969
                  ],
                  "_Bias": 0.5900025384601841
                }
              },
              {
                "app.user_data.Battle_AutoTuningPnParam_NN.Node": {
                  "index": 31,
                  "_Weight": [
                    -0.21055365163065687,
                    0.44392333989145477,
                    -0.159893670354631,
                    -0.7137990481620919,
                    0.03658845197702952,
                    -0.4851179928601126,
                    0.3502783276095636,
                    -0.24944675866210617,
                    -0.3783795530975944,
                    -1.3062913594425578,
                    -0.6049984896263694,
                    -0.859064575514922,
                    0.6102373098003373,
                    0.10987254901252096,
                    -0.33158661113310356,
                    -0.897416253805392,
                    0.5582111267418557,
                    -0.7114725803028156,
                    0.9090062792206496,
                    0.21897852960236058,
                    -0.4030291392560266,
                    0.43569099495304026,
                    -0.21307351504392633,
                    -0.18831805425206335,
                    -0.7507414560580838,
                    -0.7353138564363284,
                    -0.13584112855633834,
                    -0.42116411771930806,
                    -0.4290260887513973
                  ],
                  "_Bias": -0.6893318126817034
                }
              },
              {
                "app.user_data.Battle_AutoTuningPnParam_NN.Node": {
                  "index": 32,
                  "_Weight": [
                    -0.7641874456796507,
                    0.41269414490311923,
                    0.2902664177016922,
                    0.09299750735893275,
                    -0.687453633799547,
                    -0.8015704573721105,
                    -0.10521476090028403,
                    0.8192195581925907,
                    0.4697069775170562,
                    -0.17721934582066612,
                    0.8396148448544547,
                    -0.814789220488797,
                    0.13700841248659767,
                    0.9648319871967773,
                    -0.2248751299530843,
                    -0.019338938642003468,
                    0.8589434430250222,
                    -0.9565624157743449,
                    0.31302093492339117,
                    -0.71748646925861,
                    0.001857852283098861,
                    0.9332125569982714,
                    -0.5973399652512463,
                    0.4063147441010952,
                    0.8116885801436897,
                    0.5544415227624265,
                    0.6392494487438131,
                    -0.7843370990502053,
                    0.4566418997187563
                  ],
                  "_Bias": -1.1779671920921444
                }
              },
              {
                "app.user_data.Battle_AutoTuningPnParam_NN.Node": {
                  "index": 33,
                  "_Weight": [
                    -0.47408164913011147,
                    -1.5687543244676836,
                    0.013948377824012318,
                    -0.21772416616597912,
                    0.5474911718579429,
                    -0.6057032578013357,
                    0.6446320949475166,
                    -0.5716331490213759,
                    0.7483744915529651,
                    0.5993827813169669,
                    0.32458756802613753,
                    -0.35121826455977645,
                    -0.43936134276708766,
                    0.6629347309206143,
                    -0.9957816174938718,
                    0.013588645428892217,
                    0.08696779712649438,
                    -0.474148521857232,
                    0.7961642117305545,
                    0.009245780057924749,
                    -0.22406197832445515,
                    -0.12684234253263024,
                    0.048803310352262035,
                    0.058407065278577835,
                    -0.2864898003568824,
                    -0.5605049035636049,
                    -0.7762926170827921,
                    0.23210491192899496,
                    -0.5124005644894593
                  ],
                  "_Bias": -0.20860766312559267
                }
              },
              {
                "app.user_data.Battle_AutoTuningPnParam_NN.Node": {
                  "index": 34,
                  "_Weight": [
                    -0.49089954590395474,
                    0.1747510635725146,
                    0.7447823445088377,
                    -0.535779755837542,
                    -0.6048728756867734,
                    -1.3662505053895795,
                    -0.8512605721319193,
                    0.4535796613643967,
                    -0.5319669222226114,
                    0.613046390493078,
                    0.4987180061501637,
                    -0.4724971550566048,
                    0.49768468458212967,
                    0.8868563263043789,
                    0.9435111767509462,
                    -0.8820926864929471,
                    -0.6827250645446511,
                    -0.8001203197007206,
                    -0.5605711932563143,
                    -0.3855089568695976,
                    -0.7178238087314788,
                    -0.2866290950049507,
                    -0.16717871701721934,
                    -0.8689382486903906,
                    -0.922816467392612,
                    -0.36685459855175384,
                    -0.18909064864538178,
                    -0.8242104328432647,
                    0.7992012344954489
                  ],
                  "_Bias": 0.1547694378047819
                }
              },
              {
                "app.user_data.Battle_AutoTuningPnParam_NN.Node": {
                  "index": 35,
                  "_Weight": [
                    0.3729630580844926,
                    1.0249627391483922,
                    -0.8621572699267047,
                    -0.7095091079998794,
                    0.5512925129626504,
                    -0.202004332421605,
                    -0.7891379087017464,
                    -0.45016622025560676,
                    -0.41447358551136376,
                    -0.3848659889236199,
                    -0.7200849288806278,
                    0.4832659618021839,
                    -0.36939489372531126,
                    0.31014875046827967,
                    -0.403435020260321,
                    0.35713639958242965,
                    0.7859349762031312,
                    0.5660789342931162,
                    -0.6867493444556934,
                    -0.6955190198608227,
                    0.8298052061598253,
                    -0.8562173562201849,
                    0.5847869229642312,
                    -0.8457109606407504,
                    -0.12953217005822867,
                    -0.14886367527618535,
                    -0.2581802009235029,
                    0.6509393427931424,
                    -0.16708150891904405
                  ],
                  "_Bias": 0.768219430347209
                }
              },
              {
                "app.user_data.Battle_AutoTuningPnParam_NN.Node": {
                  "index": 36,
                  "_Weight": [
                    0.24436250370981683,
                    0.5795670514174542,
                    -0.3780780639656042,
                    -0.18839976442598005,
                    0.36363588974693256,
                    -0.24114863648603305,
                    -0.6015846026150699,
                    -0.36874812296418585,
                    -1.3901658986256218,
                    1.222546803239893,
                    -0.4877991764682473,
                    0.6136271577420682,
                    -0.15493195919048955,
                    -0.41087408286114635,
                    -0.4229696266156569,
                    0.6743898968801475,
                    0.335060139984142,
                    0.6983316854435622,
                    0.10995758751089024,
                    0.7935971235001055,
                    0.009231594477499872,
                    0.5344669697794786,
                    -0.7817935796811574,
                    0.5086984814136716,
                    0.18780579475856066,
                    0.5343163225181482,
                    -0.5781241799448845,
                    -0.7369434112141938,
                    0.6890383673076571
                  ],
                  "_Bias": -0.2718356317772483
                }
              },
              {
                "app.user_data.Battle_AutoTuningPnParam_NN.Node": {
                  "index": 37,
                  "_Weight": [
                    0.9075084176464892,
                    0.13991505370492163,
                    -0.6094093149445418,
                    0.22952761076180017,
                    0.5733357466339241,
                    -0.7006287437906894,
                    0.5284219769311803,
                    -0.8645391467415673,
                    0.8423787392726355,
                    -0.1704925899666937,
                    -0.6561606649367622,
                    -1.0232176987426624,
                    0.6449016290583944,
                    -0.6281044380071298,
                    -1.250132823650495,
                    0.2694532209682208,
                    0.14238578813729272,
                    0.8822278263287748,
                    -0.36964989424100453,
                    0.7063243370988471,
                    -0.9517870932505472,
                    -0.9182080769860148,
                    -0.3683163478752231,
                    -0.2374993873012319,
                    0.97195262529049,
                    0.6714871419930358,
                    0.639105243993183,
                    0.6708125559466271,
                    -0.26547357220383366
                  ],
                  "_Bias": -0.3225414789593753
                }
              },
              {
                "app.user_data.Battle_AutoTuningPnParam_NN.Node": {
                  "index": 38,
                  "_Weight": [
                    0.38959971982739305,
                    -1.5878366051052692,
                    -0.09332448197184567,
                    0.9191654321587562,
                    0.9689556726994212,
                    -0.012441920378117727,
                    -0.6530947244873374,
                    -0.6773639642717264,
                    -0.13190459717059766,
                    -0.5141438920464775,
                    -0.8435106854215415,
                    -0.33792620180889316,
                    0.8755170940947182,
                    -0.415091052147282,
                    -0.6016957817583478,
                    -1.071587990847015,
                    -0.49530605347294726,
                    0.9393213402343837,
                    0.08033893618349514,
                    0.29650129605095543,
                    0.10514702565831728,
                    0.5449643281680528,
                    0.7662098571437306,
                    -0.7747363714047737,
                    -0.44128384885248295,
                    -0.5424345894481946,
                    0.4015927654767909,
                    0.5781624688182152,
                    -1.040352177349739
                  ],
                  "_Bias": -0.42716921900262833
                }
              },
              {
                "app.user_data.Battle_AutoTuningPnParam_NN.Node": {
                  "index": 39,
                  "_Weight": [
                    1.196107265641334,
                    -0.6604259085981183,
                    0.5926939863199411,
                    -0.17712502019062887,
                    -0.7698890141388739,
                    0.25435972702649695,
                    -0.5398169444650768,
                    -0.607399132458288,
                    0.38046315990071894,
                    0.9243684881383137,
                    0.6530809226818125,
                    1.1578911865410824,
                    0.3866197474644546,
                    -1.0312803417350946,
                    -0.38431787513811827,
                    0.3663608591865438,
                    0.5677307804434069,
                    -0.0921409584516447,
                    1.2346878501939889,
                    -0.20690969039038476,
                    0.13339877466114122,
                    0.1385618671481033,
                    0.08237979162081512,
                    1.0314379927467248,
                    -0.06273347803239272,
                    -0.8622492307579386,
                    -0.6998960742415351,
                    -0.20013098448925107,
                    -0.3639982492274273
                  ],
                  "_Bias": 0.8185125627796916
                }
              },
              {
                "app.user_data.Battle_AutoTuningPnParam_NN.Node": {
                  "index": 40,
                  "_Weight": [
                    -0.2119251304728316,
                    -0.539634820015633,
                    -0.018871874007498828,
                    0.8680405999706036,
                    0.22458842739782847,
                    -0.4960036323076531,
                    -0.3729439594531931,
                    1.1212922458244685,
                    0.5977505434537468,
                    1.0298625035121334,
                    -0.7978797688802954,
                    -0.9583615889734766,
                    -0.5708115716189953,
                    -0.036996721824882894,
                    -0.0037037643832157096,
                    0.09463205458858916,
                    0.2936063307215783,
                    -0.6368307981558216,
                    -0.3656342236461288,
                    0.1932809118144759,
                    0.17899613682140672,
                    -0.37262058734893194,
                    0.19324710304673856,
                    0.08278291340650798,
                    -0.4231326471994038,
                    0.632015753353082,
                    -0.8531333241147091,
                    0.06046580733291273,
                    -0.3982395909442791
                  ],
                  "_Bias": 0.3081260885209125
                }
              },
              {
                "app.user_data.Battle_AutoTuningPnParam_NN.Node": {
                  "index": 41,
                  "_Weight": [
                    0.7490791608753345,
                    0.26285370135936503,
                    -0.7381023476350156,
                    -0.9860005309353292,
                    -0.5796869026759249,
                    0.19444245663581242,
                    -0.8649351371437535,
                    0.5486866011966077,
                    -1.1625695272778567,
                    -0.43510580036873303,
                    0.2169428834401885,
                    1.2029865498767072,
                    1.1994367281992773,
                    0.2719576678675337,
                    1.282352875233362,
                    0.9628969783636785,
                    -0.29612736296063225,
                    -0.9877372066930734,
                    0.7102667934213073,
                    -0.218132991862819,
                    0.5209707350622563,
                    -0.39937799621454156,
                    0.37907123041913693,
                    -0.9262141471876788,
                    0.1588906950939271,
                    0.7902647667001831,
                    0.0102483956619129,
                    0.23603783508344328,
                    -0.22416524153940018
                  ],
                  "_Bias": -0.8259938015289302
                }
              },
              {
                "app.user_data.Battle_AutoTuningPnParam_NN.Node": {
                  "index": 42,
                  "_Weight": [
                    -1.039597055454273,
                    -0.01860612352716992,
                    -1.0035712616209593,
                    -0.8103857100973796,
                    -0.6374670848231602,
                    -0.17802335708214267,
                    -0.6824642321637597,
                    -0.24507815525962345,
                    0.6985884541799728,
                    -0.3640125662537118,
                    -0.7569251368414442,
                    -0.9112129661558404,
                    -0.6564012653428897,
                    0.6448128715335875,
                    0.6450325965429021,
                    -0.8060924067513119,
                    1.1142325203714407,
                    0.31370231843287405,
                    -0.38977580777734927,
                    0.6931354011292408,
                    -0.09631781296280684,
                    1.00623310686373,
                    -0.6826670735491429,
                    -1.1457353090486768,
                    0.07221558876861237,
                    0.5640764366841775,
                    -0.3184513299791109,
                    0.7327485282267593,
                    0.1897992738519805
                  ],
                  "_Bias": -0.16273609788681265
                }
              },
              {
                "app.user_data.Battle_AutoTuningPnParam_NN.Node": {
                  "index": 43,
                  "_Weight": [
                    0.6052777341058024,
                    -0.5719591843757839,
                    -0.12414252012035584,
                    -1.26788872448722,
                    -0.23676667725910516,
                    -0.2582446210874687,
                    -0.7942221744980675,
                    -1.2332333538264049,
                    -0.0714598061302291,
                    0.33471542209284966,
                    -1.0513470569970493,
                    0.7683312716516573,
                    0.6002914055149278,
                    -0.1341899344504414,
                    1.034462840586765,
                    -0.5705999861920765,
                    -0.4620695649765234,
                    -0.7263727514711705,
                    0.080706003840167,
                    0.042192505883084576,
                    0.6743785380645473,
                    0.2662210538223809,
                    -0.689298370509153,
                    -0.18956572929634546,
                    -0.6135521912049815,
                    0.6826748903128949,
                    0.26470419159364167,
                    -0.5108410390652097,
                    -0.7851131659787209
                  ],
                  "_Bias": -0.708876404005923
                }
              },
              {
                "app.user_data.Battle_AutoTuningPnParam_NN.Node": {
                  "index": 44,
                  "_Weight": [
                    -0.9006968927499452,
                    0.7190185157387883,
                    -0.7552740078125525,
                    0.18434551254701098,
                    0.28746152931309715,
                    -0.2576340156421921,
                    0.8560967176932777,
                    -0.30949877429854045,
                    -0.0977729633278297,
                    0.11484096666164932,
                    0.724608081181369,
                    0.6423788918671692,
                    -0.4987070829522496,
                    0.4896782940530449,
                    0.1987417848736803,
                    0.9606651176398783,
                    -1.1198725510007201,
                    -0.3876523247251637,
                    0.9602597639813648,
                    -0.11386324351841647,
                    -0.15320665201849754,
                    -0.15728032093793107,
                    -0.4315022332287387,
                    -1.0179220225542653,
                    -0.2284205824657976,
                    0.8282134343205215,
                    0.24712359145960652,
                    -0.30064123319874564,
                    0.8352812125502643
                  ],
                  "_Bias": -0.5096584546963949
                }
              },
              {
                "app.user_data.Battle_AutoTuningPnParam_NN.Node": {
                  "index": 45,
                  "_Weight": [
                    -0.23538304490707426,
                    -0.5715204772312372,
                    -0.06318901058545018,
                    0.8583832628296288,
                    0.7672221188495626,
                    -0.7196180069503775,
                    -0.9514725380710971,
                    0.5448144474733241,
                    0.26588849543972587,
                    0.6331089358999128,
                    0.43462745000847797,
                    1.058607108106056,
                    0.19479494660442312,
                    0.9515658950620358,
                    0.15802372226277933,
                    -0.6460875677322823,
                    0.5204280351068777,
                    -0.17730821725680954,
                    0.09632483713123305,
                    -1.0424304907247464,
                    -0.8022707031437083,
                    0.22607874124857535,
                    -0.9837856108235015,
                    -0.22583047542302515,
                    -0.05273548818839349,
                    0.9703273113410744,
                    0.18344340538960102,
                    0.34717417564223074,
                    0.08633409072406557
                  ],
                  "_Bias": -0.8084929190713094
                }
              },
              {
                "app.user_data.Battle_AutoTuningPnParam_NN.Node": {
                  "index": 46,
                  "_Weight": [
                    0.04318196971411289,
                    0.4956725671115994,
                    0.9114035681517285,
                    -0.11082500018204094,
                    0.041527725445550466,
                    1.2617764782223417,
                    0.4412833680414381,
                    0.932196846858257,
                    -0.8457603085147661,
                    -0.39389018125253983,
                    0.19404552720689192,
                    -0.6342033983755474,
                    1.3897117652152584,
                    -0.13960179598110928,
                    0.5757508002278379,
                    0.3985662009901265,
                    -0.31343230987500054,
                    1.1645771038603783,
                    -0.04331132061944063,
                    0.7424377899033014,
                    0.21826362348159933,
                    -0.31806486243198817,
                    -0.26206991153817943,
                    0.1406923892108654,
                    0.6437023534415585,
                    -0.6249809200687004,
                    -0.07179917023481927,
                    -0.31406593151222334,
                    0.351430310057218
                  ],
                  "_Bias": 0.7403434212878511
                }
              },
              {
                "app.user_data.Battle_AutoTuningPnParam_NN.Node": {
                  "index": 47,
                  "_Weight": [
                    -1.0289566085960593,
                    0.5510631457982288,
                    -0.2538695906124386,
                    -0.7648770342089494,
                    0.11622541694912236,
                    -0.6417754063597264,
                    -0.14673631726548414,
                    0.7718710403430661,
                    -0.8317348978364609,
                    0.40937506575422083,
                    0.36105221501888973,
                    -0.1483096891375891,
                    -1.0876354983357686,
                    -0.3717769780301029,
                    0.0360306504974495,
                    0.1784634245826555,
                    0.6108940345957031,
                    0.7940746168885262,
                    0.16007982929893744,
                    0.6081356889270796,
                    -0.5893289124307252,
                    0.6747457314276655,
                    0.32808101627479525,
                    -0.3430107745295141,
                    0.060797434569824386,
                    0.24129136057066072,
                    -0.782406408640619,
                    -0.2760688977250332,
                    0.33907675470183235
                  ],
                  "_Bias": 0.20112653786251386
                }
              },
              {
                "app.user_data.Battle_AutoTuningPnParam_NN.Node": {
                  "index": 48,
                  "_Weight": [
                    -1.0737863923407136,
                    0.37432438885013336,
                    -0.034789823132896844,
                    -0.9016709401897104,
                    0.9052289341867946,
                    0.6329521866368668,
                    -0.20091830876996963,
                    -0.38056496598154815,
                    -0.1444201311315765,
                    -1.0363417290999914,
                    0.6179027118927898,
                    0.031119459152898696,
                    -0.20318916384714508,
                    -0.9365376216048288,
                    0.9691123245743298,
                    1.0099692091287007,
                    -0.875301521933612,
                    -0.6846332356901726,
                    -0.0780134523970272,
                    -0.21960626892767238,
                    -0.6656634528193306,
                    0.49653374580217063,
                    0.3985233977575951,
                    0.6444489010095853,
                    0.7549578931462565,
                    -0.8377692487361686,
                    1.0719785537310904,
                    0.19550508486592777,
                    -0.16862357212763657
                  ],
                  "_Bias": -0.3163692639205906
                }
              },
              {
                "app.user_data.Battle_AutoTuningPnParam_NN.Node": {
                  "index": 49,
                  "_Weight": [
                    0.5584906727826024,
                    -0.09873956505809861,
                    -0.6078262407205184,
                    -0.13127068972664205,
                    0.15235977958139638,
                    -0.3991539065017996,
                    0.26715649450162043,
                    -0.7524523364531668,
                    -0.22822093508176927,
                    -1.1273584338157223,
                    -0.3357106987894609,
                    -0.5358707909258015,
                    0.3758488386459419,
                    0.4472207141516063,
                    -0.3855167433019959,
                    -0.8480728258419616,
                    -1.0205217559150048,
                    -0.3464809457592645,
                    0.08592981163621576,
                    -0.836928661454885,
                    0.5389155141575894,
                    0.32494049134762343,
                    -0.5434998258303988,
                    0.5445315107430533,
                    0.5268472558801851,
                    0.26713887468691433,
                    0.46268757979509273,
                    -0.695351454628294,
                    0.6002604082898196
                  ],
                  "_Bias": -0.39966503195787584
                }
              },
              {
                "app.user_data.Battle_AutoTuningPnParam_NN.Node": {
                  "index": 50,
                  "_Weight": [
                    -0.27707864450721204,
                    0.1101509504430227,
                    -0.5625268444104417,
                    0.24227013765460606,
                    -0.2556075197375905,
                    -0.6215492755609572,
                    -0.12441576522142227,
                    -1.219204723048255,
                    0.3817853009496581,
                    0.828165996717759,
                    -0.2542456905839375,
                    0.73401382226563,
                    0.0856978731057403,
                    -0.5506479539252719,
                    -0.3204650269558812,
                    -0.1891607939868127,
                    0.23669162939786123,
                    0.2746459122954115,
                    -0.2396141796907927,
                    -0.924343874594678,
                    -0.5099180088003713,
                    -0.36215602700776145,
                    -0.9230683588119208,
                    0.39190964971262277,
                    -0.8101336010351993,
                    -0.840810367837208,
                    0.5669516489177386,
                    0.8213274447463773,
                    0.90519921296783
                  ],
                  "_Bias": 0.41868580911285835
                }
              },
              {
                "app.user_data.Battle_AutoTuningPnParam_NN.Node": {
                  "index": 51,
                  "_Weight": [
                    0.058306983123109495,
                    0.27032300235059653,
                    0.2593306301226657,
                    0.7240137485486171,
                    0.7061458963198664,
                    -1.2519332647633679,
                    0.06360330118803936,
                    -0.5151348737450735,
                    0.9544804935354537,
                    0.8654901664756468,
                    -0.5517944650600034,
                    -0.14485858607342936,
                    -0.3275833152142829,
                    -0.8890908015222144,
                    -0.26771776877716114,
                    -0.4949582483429829,
                    0.7335365765173292,
                    0.86711757570056,
                    1.0290291873328246,
                    0.010893301623272024,
                    0.70834740033512,
                    0.7779087215728734,
                    0.24480810907819325,
                    -0.8503360968892161,
                    0.39480977593620664,
                    -0.20372327476396998,
                    0.8418878572488301,
                    0.7484808573221147,
                    -0.7492823996145841
                  ],
                  "_Bias": -1.0717204913138167
                }
              },
              {
                "app.user_data.Battle_AutoTuningPnParam_NN.Node": {
                  "index": 52,
                  "_Weight": [
                    -0.28836822515661037,
                    0.5067514328442783,
                    0.15887595328881418,
                    -0.22635793402251353,
                    0.5673018201219087,
                    0.47420331801929577,
                    -0.7286073838973903,
                    0.09762144451410845,
                    0.24261688166553944,
                    0.694981011284198,
                    0.536147593250587,
                    -0.6026918150089753,
                    -0.18013266323033866,
                    -0.6445435900829097,
                    0.6209525864467057,
                    0.5710512178067186,
                    0.4895882696599474,
                    -0.14574007110583717,
                    -0.6488168853967103,
                    -0.47378034711826617,
                    -0.8208345783030626,
                    0.23700839148381292,
                    -0.5318215394182828,
                    -0.27434147450188545,
                    -0.07209992231899907,
                    0.2601454226030551,
                    -0.7060762940748252,
                    -0.7844609012306841,
                    0.5565124095175533
                  ],
                  "_Bias": -0.33003783010933213
                }
              },
              {
                "app.user_data.Battle_AutoTuningPnParam_NN.Node": {
                  "index": 53,
                  "_Weight": [
                    0.3810166662513353,
                    -0.23238025837238674,
                    -0.49368002584248083,
                    0.15200651333296272,
                    0.04716118319102766,
                    0.4075096088653793,
                    0.4351275363385994,
                    -0.9545996612172702,
                    0.27136593348145754,
                    -0.27058174482227415,
                    -0.12057062459000742,
                    0.23670825306262042,
                    0.5060922880963079,
                    -0.33657396699561837,
                    -0.2701841940879369,
                    -0.8567340279205962,
                    0.514781895752233,
                    1.0467489707087412,
                    1.085583072425721,
                    0.3519904388452612,
                    0.020182524271614932,
                    -0.02959289506822483,
                    -0.10446971667064416,
                    0.7372247937974599,
                    0.6406991226673753,
                    -0.34488784179729104,
                    0.17570772907725477,
                    0.7611694172453877,
                    0.39414440128900485
                  ],
                  "_Bias": 0.46841884970261966
                }
              },
              {
                "app.user_data.Battle_AutoTuningPnParam_NN.Node": {
                  "index": 54,
                  "_Weight": [
                    -0.320544931679584,
                    0.44136216445138626,
                    -0.5389189423241553,
                    0.06094327368567974,
                    0.5625529367702228,
                    -0.09556168696044029,
                    0.9559178433022049,
                    -0.38015292372949155,
                    -0.04462057879822906,
                    0.48789056965398353,
                    0.7880662064540146,
                    -0.3889944714243329,
                    0.7122744285465837,
                    0.020970021399690845,
                    -0.0779783330369507,
                    0.2922011017593159,
                    -0.007299145783618786,
                    -0.26939557865743285,
                    -1.2836840524417998,
                    0.41785469365641065,
                    -0.7656300350755105,
                    1.0175904127616293,
                    1.0751933563346368,
                    -0.5271679699326567,
                    0.7303070091525753,
                    -0.864746940106151,
                    0.9388687898543123,
                    0.8754039121063094,
                    0.18523285328833589
                  ],
                  "_Bias": 0.6009585744432746
                }
              },
              {
                "app.user_data.Battle_AutoTuningPnParam_NN.Node": {
                  "index": 55,
                  "_Weight": [
                    0.5628886089925239,
                    -0.9402627263142797,
                    -0.6354392321343834,
                    -0.5357361411975753,
                    0.16118149776639512,
                    0.4799977711741693,
                    -0.31363825507307364,
                    -0.021517118229871384,
                    0.6404628080198737,
                    1.505414674640737,
                    -0.5257014754289234,
                    0.04559771887225456,
                    -0.08893846292349022,
                    -0.8284257843924875,
                    -0.5155684187507705,
                    -0.5826415773850968,
                    0.08292386936999167,
                    -0.7246271547198234,
                    -0.24439605959827657,
                    -0.5279739047564572,
                    -0.21509613905319697,
                    0.6155579123006736,
                    0.5817890053400464,
                    -0.9204857572550458,
                    -0.298170876210343,
                    -0.2593567717750951,
                    0.5577741436753942,
                    0.5980440482364764,
                    -0.6637110419743748
                  ],
                  "_Bias": -0.5321774546221437
                }
              },
              {
                "app.user_data.Battle_AutoTuningPnParam_NN.Node": {
                  "index": 56,
                  "_Weight": [
                    -0.8903835576415003,
                    0.4160203988110925,
                    0.8967851612263618,
                    -1.2921812689173926,
                    -0.7753549402447107,
                    -0.3503970563649685,
                    0.3326646340334949,
                    0.6736878763786465,
                    -0.9994883911843823,
                    0.13272002653974171,
                    1.1244520777282374,
                    -0.3421996794065028,
                    -0.7466777260522977,
                    -1.2704226010683188,
                    -0.1721894318733095,
                    0.18513736420118818,
                    0.2897146812481921,
                    -0.4856650495548237,
                    0.4363319231923169,
                    -0.5644543100029075,
                    -0.8907255000316991,
                    -0.28027766698838824,
                    0.4367746033763101,
                    0.9747668580455451,
                    -0.8098235041283846,
                    -0.02318745190736792,
                    0.736768895911131,
                    -0.4608256194105332,
                    0.2026529853426363
                  ],
                  "_Bias": 0.15402003921321958
                }
              },
              {
                "app.user_data.Battle_AutoTuningPnParam_NN.Node": {
                  "index": 57,
                  "_Weight": [
                    -0.3841160289651408,
                    0.45200269243778046,
                    0.8380501515859233,
                    -0.10791032409696705,
                    0.6276289231161782,
                    -0.8150155793129156,
                    -0.3071370032153386,
                    -0.9025640952820886,
                    -1.187722156346916,
                    -0.6361622591865304,
                    0.9670873158977458,
                    -0.8538091474247439,
                    -0.5037521739946873,
                    -1.0115637485873779,
                    -0.8410855308017872,
                    0.49796087624738133,
                    -0.6813002711789258,
                    0.20125565411645974,
                    -0.1331659058136708,
                    1.1756750748751084,
                    -0.45525095233812646,
                    -0.8792709224300129,
                    0.2218492203366445,
                    -0.4891261394134892,
                    0.07882344764504084,
                    -0.0025343734203551503,
                    -0.3007583081559151,
                    -0.5761573426969102,
                    0.5366240385078112
                  ],
                  "_Bias": -0.8421638284891162
                }
              },
              {
                "app.user_data.Battle_AutoTuningPnParam_NN.Node": {
                  "index": 58,
                  "_Weight": [
                    0.3128015756655381,
                    0.8999122511403894,
                    -0.29007544893208687,
                    0.3270552661927398,
                    -0.3636927783137953,
                    -0.8912377375799565,
                    -0.988378096616645,
                    1.0472054191929108,
                    -0.4684886446250195,
                    -0.6082208657410165,
                    0.8636987254299924,
                    0.019862235047644932,
                    0.13132366496898212,
                    0.6980174256908096,
                    -0.8357380889301942,
                    -0.6612336273482645,
                    -0.22708054166494365,
                    0.9406369808097703,
                    0.2720443971996571,
                    -0.6548749223709605,
                    0.29612902084202575,
                    0.5940828863760338,
                    0.47173537559884343,
                    -0.021415993810768405,
                    0.05832376663466951,
                    0.8064980210127334,
                    -0.018767972068490225,
                    -0.49940799638731737,
                    -0.845890784696135
                  ],
                  "_Bias": -0.33716970889666187
                }
              }
            ]
          }
        },
        {
          "app.user_data.Battle_AutoTuningPnParam_NN.Layer": {
            "index": 89,
            "_Node": [
              {
                "app.user_data.Battle_AutoTuningPnParam_NN.Node": {
                  "index": 60,
                  "_Weight": [
                    -0.8452269560109114,
                    -0.007171138761494313,
                    0.6405303234932829,
                    0.7471483938071903,
                    0.04819547914789277,
                    -0.1859251685022322,
                    0.7461375551793984,
                    -0.3831976517274046,
                    1.0986329939778803,
                    0.6069654611346089,
                    0.7032038880519575,
                    -0.32423803555106206,
                    0.1153686229023243,
                    -0.4793118516885453,
                    0.0643762269190858,
                    -0.3805621370154926,
                    -0.7133749681015852,
                    -0.4658335225913124,
                    -0.40151864474806814,
                    -0.03315518978870983,
                    -0.6655453518877952,
                    0.4049086770975212,
                    -0.8087412444676989,
                    0.22567682328294533,
                    0.9927065298216957,
                    0.5874266853498858,
                    0.5338383919332226,
                    -0.449302274413075,
                    -0.5576314653443939,
                    -0.13855615824792844,
                    0.6394146639816007,
                    0.1268259326464392,
                    0.7908079550613012,
                    -0.19383135847104613,
                    0.18700237028141442,
                    -0.6883775831522333,
                    -0.6053283835795521,
                    -0.1976831468223929,
                    0.10448943604186434,
                    0.5121563023044029,
                    -0.8896172494534426,
                    0.17703431327358723,
                    -0.8583227043159594,
                    0.23990505647716373,
                    -0.7011442004662508,
                    0.7863872609235364,
                    1.1302379384817889,
                    0.06842970264120365,
                    -0.04852789323829917,
                    -0.3843707242790221,
                    -0.08224171990013186,
                    0.006993660933487062,
                    0.7758902870888689,
                    -0.6682513897359916,
                    -0.6433819674986381,
                    0.9256507059820281,
                    -0.8278720573252808,
                    -0.3579888598225114
                  ],
                  "_Bias": 0.2224211455539985
                }
              },
              {
                "app.user_data.Battle_AutoTuningPnParam_NN.Node": {
                  "index": 61,
                  "_Weight": [
                    0.6855721367467471,
                    -1.0334701686703578,
                    0.3110517850857673,
                    -0.16679823971849697,
                    0.09050393333907422,
                    -0.3572986669629279,
                    0.3375431553081727,
                    -0.5551189622757685,
                    0.6288339686649376,
                    0.33514177682905094,
                    -0.8093209008668633,
                    -0.3947662481915956,
                    -0.3395065892925958,
                    0.26047495561862394,
                    0.6310742171125409,
                    -0.40231203085908757,
                    0.25638016147787956,
                    0.046659706718568686,
                    0.7125417931318272,
                    -0.16129266863342587,
                    0.8404441015591121,
                    -0.6188249954613534,
                    -0.9609125013234782,
                    -0.04592677627085619,
                    0.004211048335006881,
                    -0.6620517940452094,
                    -0.618182786852904,
                    -0.2762137277705184,
                    -0.8752631066005576,
                    0.1747459418519248,
                    0.1511833453937206,
                    0.2414089990932238,
                    0.0936288548129488,
                    -0.8505658369532609,
                    0.7080401927118605,
                    -0.5385057161288177,
                    1.0436845498551768,
                    0.9843223123174558,
                    0.009318156225606989,
                    0.22305487340645416,
                    -1.027213251022667,
                    -0.9955568430334641,
                    0.09576516199295225,
                    -0.011748099745317946,
                    0.3098852314088243,
                    0.024189583415194768,
                    -0.9733857520442821,
                    0.5161625849615732,
                    0.9778788897599927,
                    0.392400936136291,
                    -0.6481270963605208,
                    0.5935985592748021,
                    0.156057216047652,
                    0.6089006964530324,
                    -0.16806490080956538,
                    -1.0005592611910543,
                    -0.555224079769681,
                    1.265300727126405
                  ],
                  "_Bias": 0.4191971310202007
                }
              },
              {
                "app.user_data.Battle_AutoTuningPnParam_NN.Node": {
                  "index": 62,
                  "_Weight": [
                    -0.45002514562455603,
                    -0.15125065756196382,
                    0.6877448733725675,
                    0.23672147498573487,
                    0.7991121711176971,
                    -0.4036260859455209,
                    -1.1158812399540046,
                    -0.20736338930835352,
                    -0.6809744300314932,
                    0.3420919206486368,
                    -0.16643510441537793,
                    -0.21116509935979025,
                    0.13539901026827286,
                    0.3730896993963026,
                    0.5191019138290145,
                    -0.951889787306395,
                    0.17009587828459533,
                    0.027412186745406,
                    0.6816524650648847,
                    -0.13975091391341504,
                    0.10151230445098554,
                    0.7485912798873368,
                    -0.288757883385766,
                    -1.246373149998866,
                    -0.7977022898661412,
                    -0.6513457666115375,
                    0.026640116350214498,
                    -0.8699704166433183,
                    -0.516246295747337,
                    0.44971361286064265,
                    -0.9403154339974676,
                    0.541771112845891,
                    -0.026792520343200305,
                    -0.3672568597675152,
                    0.8576867477229368,
                    0.2040993726008891,
                    0.36511753441142336,
                    -1.037691928399481,
                    -1.0242281067763752,
                    -0.5853147448613832,
                    -0.4084097486598627,
                    0.25387890836230487,
                    0.24679868052266193,
                    1.0610072293433737,
                    0.17545954942784414,
                    -0.2089139195082873,
                    -0.5521810537632832,
                    -0.6109705231906487,
                    0.8851608557134134,
                    -0.27100606006223005,
                    0.020019338065249654,
                    0.05565500542298167,
                    -0.6435774396417847,
                    0.23355601397214154,
                    -1.3859288826045328,
                    1.00798736697502,
                    -0.3863992841331373,
                    -0.28122620162788087
                  ],
                  "_Bias": -1.0490328213131888
                }
              },
              {
                "app.user_data.Battle_AutoTuningPnParam_NN.Node": {
                  "index": 63,
                  "_Weight": [
                    0.8914844857294018,
                    0.2897265805352564,
                    0.3471720542967113,
                    0.873121732369442,
                    0.16356045091520538,
                    1.1438989150380863,
                    0.71824460670969,
                    1.0178918961198413,
                    -1.223063637319184,
                    -0.12617543091776162,
                    -0.7539360315018291,
                    -0.37598118379957335,
                    -0.37939463688954483,
                    0.021586760163356453,
                    0.8830549773091415,
                    -0.17625960521047593,
                    -0.44634137892934095,
                    -0.6061996577931884,
                    -0.9435168020813332,
                    -0.25419813355348053,
                    -0.35071989915170076,
                    -0.1898177777322954,
                    -0.6909352440118128,
                    0.9894024206586819,
                    0.7619198867331459,
                    0.6651348878457524,
                    -0.05977502753787942,
                    1.2001704216652214,
                    -0.08858339922098911,
                    0.6265986837439208,
                    -1.111245519440309,
                    0.9055556060987958,
                    0.6274324358320412,
                    -0.030366625144828296,
                    0.2729972536224521,
                    0.3551250240085918,
                    0.23209583949756593,
                    -0.33810026071659,
                    -0.513505634144219,
                    -0.6716423674053777,
                    -0.4131896082170371,
                    0.7456409736482081,
                    0.2304541643682884,
                    -0.156839232036676,
                    0.11586091765591146,
                    0.98291831760406,
                    -0.2912694151257425,
                    -0.6443004894671996,
                    -0.1578934563335671,
                    0.2871169539904182,
                    -0.5795917986796186,
                    0.33244616757509077,
                    -0.45035777945640254,
                    0.384183099232839,
                    1.1875795952666772,
                    -0.7171597744495274,
                    -0.5383539853133683,
                    0.22816936475922778
                  ],
                  "_Bias": -0.6778064144794509
                }
              },
              {
                "app.user_data.Battle_AutoTuningPnParam_NN.Node": {
                  "index": 64,
                  "_Weight": [
                    -0.27541929447929087,
                    0.09290837759177903,
                    -0.8201498870892727,
                    -0.42174926435152277,
                    0.8753277615142121,
                    -0.3762448601757019,
                    0.8602530858894599,
                    -0.08457892506344228,
                    -0.8413691402599446,
                    -0.9225628037072501,
                    -0.10756728539565205,
                    0.5128427567541747,
                    -0.8132118601274765,
                    -0.05842128684906365,
                    0.6523525114218457,
                    0.11988663283841668,
                    -0.1073240777247851,
                    0.7857771793957115,
                    -0.8432104296354148,
                    1.0111137017721143,
                    0.40217136729840847,
                    -0.23171745990929965,
                    0.4362761365723596,
                    1.2737970477750822,
                    1.0129439855745614,
                    -0.8485966236585516,
                    -0.4268960533979304,
                    -0.5025025240418707,
                    -0.6625878470072809,
                    -0.8147177706166784,
                    1.044838944205054,
                    0.15877151269943351,
                    -0.4836974801484487,
                    0.3864487358566871,
                    0.8712922271689147,
                    -0.9451839977869563,
                    1.2079157024679845,
                    0.570906265410601,
                    -0.9081199187273624,
                    0.012184965280756748,
                    -0.8279032511672267,
                    1.0867338990844801,
                    -0.32509060400250683,
                    0.6292403975665604,
                    -0.4233528958220601,
                    -0.5648051538538735,
                    0.6076026481931381,
                    -0.871595994852514,
                    0.8177999399550933,
                    -0.9504679061367178,
                    0.3301874671285122,
                    -0.18353034042391156,
                    1.307033899095026,
                    0.6474357355512445,
                    -0.6116819411736755,
                    0.2797326282375153,
                    0.46503140790606506,
                    0.6324208597605439
                  ],
                  "_Bias": -0.6986817156192587
                }
              },
              {
                "app.user_data.Battle_AutoTuningPnParam_NN.Node": {
                  "index": 65,
                  "_Weight": [
                    -0.0689660499407277,
                    -0.8241637305928784,
                    0.15549970231186364,
                    -0.7209208202205813,
                    -0.42220049458582715,
                    0.7623490437234167,
                    0.7748316596335131,
                    -0.29428802499434803,
                    0.7599470170031649,
                    -0.18684916847127406,
                    -0.9284327561083913,
                    0.8785240598343201,
                    0.6841387842084325,
                    0.09376419017204032,
                    0.15615989668544367,
                    0.6166761889298134,
                    -0.7731328094790166,
                    -0.5320941250164071,
                    0.13280925184072187,
                    0.30361027135527796,
                    0.5502490295551614,
                    1.137555988970483,
                    0.20124858603424559,
                    -1.1281099544168327,
                    -0.3709071580333376,
                    0.46729595890148495,
                    -0.7008241913624834,
                    0.07930020932744855,
                    -0.29794390468786147,
                    -0.8627541228789293,
                    0.7105005606483883,
                    -0.7322656522131844,
                    0.6333475441551831,
                    -0.016786736183069584,
                    0.17446310944709295,
                    0.06184176556294434,
                    0.10329002187365988,
                    0.4204505437580167,
                    -0.5894664321670783,
                    0.680233288806273,
